{
  "metadata": {
    "series_name": "generated_sine",
    "series_length": 120,
    "train_length": 84,
    "test_length": 36,
    "epochs": 4,
    "baseline_test_mae": 0.6376010587754406,
    "baseline_test_rmse": 0.7079402016126946,
    "final_test_mae": 0.3167376183318737,
    "final_test_rmse": 0.39454995510478186,
    "history": [
      {
        "epoch": 2,
        "train_mae": 0.013949699554532008,
        "train_rmse": 0.021018305960727422
      },
      {
        "epoch": 4,
        "train_mae": 0.008265979094588727,
        "train_rmse": 0.015407493642516895
      }
    ]
  },
  "encoder": {
    "amplitude": 10.0,
    "delta_scale": 1.4,
    "quadratic_scale": 0.7,
    "magnitude_scale": 0.5,
    "band_growth": 0.15
  },
  "reservoir": {
    "n_neurons": 48,
    "dt": 1.0,
    "max_weight": 2.0,
    "max_delay_limit": 50,
    "readout_decay": 0.92,
    "synapses": [
      {
        "5": -0.0063769685921850755,
        "8": -0.0029572977393237795,
        "9": -0.005926145067788769,
        "14": 0.0,
        "17": -0.0023670723278085195,
        "18": 0.0,
        "42": 0.0
      },
      {
        "0": 2.0,
        "11": 2.0,
        "15": 2.0,
        "42": 2.0,
        "43": 2.0,
        "45": 2.0
      },
      {
        "0": 2.0,
        "14": 2.0,
        "25": 2.0,
        "27": 2.0,
        "36": 2.0,
        "47": 2.0
      },
      {
        "11": 2.0,
        "21": 2.0,
        "42": 2.0
      },
      {
        "1": 2.0,
        "2": 2.0,
        "5": 2.0,
        "10": 2.0,
        "36": 2.0
      },
      {
        "7": -0.013039269418919992,
        "10": -0.017609983382166038,
        "11": 0.0,
        "18": -0.00970402050182974,
        "19": -0.012676324858848368,
        "20": -0.007357178986417537,
        "31": 0.0,
        "35": -0.01573199473599436,
        "39": -0.020300117529478776,
        "45": -0.015580705592187282
      },
      {
        "2": 2.0,
        "5": 2.0,
        "21": 2.0,
        "37": 2.0,
        "40": 2.0,
        "47": 2.0
      },
      {
        "12": 2.0,
        "26": 2.0,
        "31": 2.0,
        "47": 2.0
      },
      {
        "5": 2.0,
        "10": 2.0,
        "11": 2.0,
        "14": 2.0,
        "20": 2.0,
        "23": 2.0,
        "24": 2.0,
        "26": 2.0,
        "33": 2.0
      },
      {
        "21": 2.0,
        "25": 2.0,
        "26": 2.0,
        "44": 2.0,
        "45": 2.0
      },
      {
        "7": -0.003644064575019937,
        "12": 0.0,
        "15": -0.007042982270270002
      },
      {
        "5": 2.0,
        "7": 2.0,
        "15": 2.0,
        "36": 2.0,
        "39": 2.0,
        "41": 2.0
      },
      {
        "24": 2.0,
        "32": 2.0,
        "35": 2.0,
        "43": 2.0
      },
      {
        "5": 2.0,
        "12": 2.0,
        "34": 2.0
      },
      {
        "2": 2.0,
        "3": 2.0,
        "10": 2.0,
        "26": 2.0,
        "30": 2.0,
        "31": 2.0,
        "35": 2.0,
        "40": 2.0,
        "41": 2.0
      },
      {
        "6": -0.009355827343866977,
        "9": -0.005422347598077964,
        "14": 0.0,
        "18": -0.008315861779276335,
        "24": -0.011543001177747338,
        "27": -0.019007413122261733,
        "28": 0.0,
        "46": 0.0
      },
      {
        "10": 2.0,
        "41": 2.0
      },
      {
        "0": 2.0,
        "8": 2.0,
        "10": 2.0,
        "30": 2.0,
        "33": 2.0,
        "34": 2.0
      },
      {
        "5": 2.0,
        "26": 2.0,
        "35": 2.0,
        "39": 2.0,
        "42": 2.0,
        "44": 2.0,
        "47": 2.0
      },
      {
        "0": 2.0,
        "10": 2.0,
        "15": 2.0,
        "25": 2.0,
        "29": 2.0,
        "36": 2.0,
        "39": 2.0,
        "43": 2.0,
        "47": 2.0
      },
      {
        "4": -0.002262090101327969,
        "5": -0.006671263861648336,
        "6": -0.005993984828337787,
        "10": -0.0028245331454160917,
        "13": -0.004343973736959227,
        "15": -0.00275893753530411,
        "18": -0.006821895719391775,
        "21": -0.008663597805497495,
        "34": -0.00684392249857513,
        "42": -0.007595558301444156,
        "47": -0.004879196423385121
      },
      {
        "6": 2.0,
        "19": 2.0,
        "29": 2.0,
        "45": 2.0
      },
      {
        "3": 2.0,
        "7": 2.0,
        "16": 2.0,
        "21": 2.0,
        "26": 2.0,
        "36": 2.0,
        "37": 2.0,
        "41": 2.0,
        "44": 2.0
      },
      {
        "27": 2.0,
        "29": 2.0,
        "33": 2.0,
        "35": 2.0,
        "44": 2.0,
        "45": 2.0,
        "47": 2.0
      },
      {
        "4": 2.0,
        "9": 2.0,
        "12": 2.0,
        "16": 2.0,
        "18": 2.0,
        "27": 2.0,
        "42": 2.0
      },
      {
        "6": -0.0014246309337121992,
        "15": -0.043736328275188426,
        "20": -0.006996142902407266,
        "31": -6.836746947799525e-06,
        "32": -0.025158493067844533,
        "45": -0.024263847557141397
      },
      {
        "8": 2.0,
        "16": 2.0,
        "28": 2.0
      },
      {
        "0": 2.0,
        "9": 2.0,
        "12": 2.0,
        "17": 2.0,
        "20": 2.0,
        "21": 2.0,
        "24": 2.0,
        "33": 2.0,
        "36": 2.0,
        "37": 2.0,
        "38": 2.0,
        "44": 2.0,
        "47": 2.0
      },
      {
        "9": 2.0,
        "13": 2.0,
        "30": 2.0,
        "35": 2.0
      },
      {
        "0": 2.0,
        "2": 2.0,
        "9": 2.0,
        "10": 2.0,
        "12": 2.0,
        "16": 2.0,
        "18": 2.0,
        "39": 2.0
      },
      {
        "6": -0.007373466722091384,
        "23": 0.0
      },
      {
        "4": 2.0,
        "12": 2.0,
        "24": 2.0,
        "32": 2.0,
        "37": 2.0,
        "41": 2.0
      },
      {
        "7": 2.0,
        "11": 2.0,
        "14": 2.0,
        "16": 2.0,
        "23": 2.0,
        "25": 2.0,
        "30": 2.0,
        "33": 2.0,
        "40": 2.0,
        "41": 2.0
      },
      {
        "6": 2.0,
        "8": 2.0,
        "9": 2.0,
        "15": 2.0,
        "17": 2.0,
        "34": 2.0
      },
      {
        "4": 2.0,
        "10": 2.0,
        "29": 2.0,
        "38": 2.0,
        "41": 2.0,
        "43": 2.0,
        "44": 2.0,
        "47": 2.0
      },
      {
        "10": -0.02554134727167858,
        "20": -0.003950404514381143,
        "26": 0.0,
        "32": -0.04517198554100527,
        "47": -0.012227566144070919
      },
      {
        "4": 2.0,
        "5": 2.0,
        "14": 2.0,
        "20": 2.0,
        "22": 2.0,
        "38": 2.0,
        "41": 2.0
      },
      {
        "15": 2.0,
        "21": 2.0,
        "32": 2.0,
        "35": 2.0,
        "39": 2.0
      },
      {
        "3": 2.0,
        "18": 2.0,
        "20": 2.0,
        "23": 2.0,
        "30": 2.0,
        "36": 2.0,
        "39": 2.0,
        "40": 2.0,
        "45": 2.0
      },
      {
        "9": 2.0,
        "14": 2.0,
        "26": 2.0,
        "35": 2.0,
        "36": 2.0
      },
      {
        "9": 0.0,
        "12": 0.0,
        "17": 0.0,
        "29": -0.012281019053228268,
        "38": -0.02344911027876791,
        "39": -0.024047734576350673
      },
      {
        "14": 2.0,
        "38": 2.0,
        "43": 2.0,
        "44": 2.0,
        "45": 2.0
      },
      {
        "15": 2.0,
        "41": 2.0
      },
      {
        "9": 2.0,
        "12": 2.0,
        "14": 2.0,
        "17": 2.0,
        "19": 2.0,
        "20": 2.0,
        "27": 2.0,
        "35": 2.0,
        "41": 2.0
      },
      {
        "5": 2.0,
        "14": 2.0,
        "15": 2.0,
        "28": 2.0,
        "30": 2.0,
        "33": 2.0,
        "41": 2.0
      },
      {
        "8": -0.00734611205755044,
        "27": -0.015309778355171912,
        "29": 0.0,
        "32": -0.016251824656120184,
        "39": 0.0,
        "41": -0.004038360926842526,
        "42": -0.008296523996597931
      },
      {
        "16": 2.0,
        "26": 2.0,
        "27": 2.0,
        "41": 2.0,
        "44": 2.0
      },
      {
        "30": 2.0,
        "40": 2.0
      }
    ],
    "is_inhibitory": [
      true,
      false,
      false,
      false,
      false,
      true,
      false,
      false,
      false,
      false,
      true,
      false,
      false,
      false,
      false,
      true,
      false,
      false,
      false,
      false,
      true,
      false,
      false,
      false,
      false,
      true,
      false,
      false,
      false,
      false,
      true,
      false,
      false,
      false,
      false,
      true,
      false,
      false,
      false,
      false,
      true,
      false,
      false,
      false,
      false,
      true,
      false,
      false
    ]
  },
  "force_readout": {
    "weights": [
      [
        0.000230770948190132,
        -0.0005451947777862577,
        0.004282264320791849,
        -0.0033008106103594457,
        0.00034866456526192786,
        -0.000157211914815713,
        0.0002653865904234856,
        -0.0006269739944548344,
        0.004924603968910732,
        -0.00379593220191161,
        0.00040096425007167573,
        -0.00018079370203190966,
        0.0003000022325973999,
        -0.0007087532111131702,
        0.005566943617030435,
        -0.00429105379346596,
        0.0004532639348463824,
        -0.00020437548924783728,
        0.0003346178748516775,
        -0.000790532427783592,
        0.006209283265149366,
        -0.0047861753850198556,
        0.0005055636196513247,
        -0.00022795727648401102,
        0.00036923351706860376,
        -0.0008723116444681485,
        0.006851622913267332,
        -0.005281296976574828,
        0.0005578633044365014,
        -0.0002515390636924495,
        0.0004038491592875986,
        -0.0009540908611391984,
        0.007493962561387109,
        -0.005776418568127227,
        0.0006101629892402625,
        -0.0002751208509187715,
        0.00043846480152608434,
        -0.0010358700777901193,
        0.0081363022095049,
        -0.006271540159680877,
        0.0006624626740181934,
        -0.0002987026381402881,
        0.0004730804437755378,
        -0.0011176492944598854,
        0.008778641857625058,
        -0.006766661751233851,
        0.0007147623588113268,
        -0.0003222844253606547,
        -0.011019148275243529,
        0.003614367197502239,
        0.0,
        0.0,
        -0.0021425734361571296,
        0.004548365822816627,
        -0.006336276696797442,
        0.00452723773355525,
        0.0,
        0.0034870739013796595,
        -0.0028527557264855356,
        -0.008262215535842284,
        -0.003181726536286067,
        0.001656633415438619,
        0.004432327142523555,
        0.006270434232943095,
        -0.0021128123571787895,
        -0.007598888549209924,
        -0.0017400318632310604,
        0.007232849713897178,
        0.0,
        -0.015168744980488797,
        0.004300680539266826,
        -0.006012181695015867,
        -0.004090045709879457,
        -0.009119978833255327,
        -0.0038175001245938154,
        -0.018491698084655523,
        0.0006461459217093924,
        -0.0014550097589911383,
        -0.010892645557428925,
        0.0054042609119623365,
        -0.005616194969224634,
        0.0,
        0.00556111983824293,
        -0.003658992363433386,
        -0.0006832291057385876,
        0.004121636974684164,
        -0.032319914981823995,
        -0.0019407528710086747,
        0.0012510833149993197,
        0.0016941862282093608,
        -0.0005781167725573198,
        0.006040961303294886,
        -0.02135758454306057,
        0.0023488513189269377,
        -0.002426230851940484,
        -0.0018365323381289002
      ]
    ],
    "bias": [
      0.007879117745928733
    ],
    "inverse_correlation": [
      [
        1.3345695605703571,
        0.011888423340586847,
        -1.092435338517476e-05,
        -9.559011129911448e-06,
        -1.0674764966153808e-05,
        -0.023763200581001953,
        -0.06832704817797935,
        0.013671686841674793,
        -1.256300639295203e-05,
        -1.0992862799392462e-05,
        -1.227597971099034e-05,
        -0.02732768066815221,
        -0.07723927185336837,
        0.015454950342763035,
        -1.4201659400725181e-05,
        -1.2426714468865045e-05,
        -1.3877194455992262e-05,
        -0.03089216075530252,
        -0.08615149552875648,
        0.01723821384385088,
        -1.5840312408491184e-05,
        -1.3860566138365071e-05,
        -1.5478409200900113e-05,
        -0.03445664084245291,
        -0.09506371920414519,
        0.019021477344938763,
        -1.7478965416287353e-05,
        -1.5294417807851907e-05,
        -1.7079623945720564e-05,
        -0.03802112092960311,
        -0.10397594287953393,
        0.020804740846026813,
        -1.9117618424071972e-05,
        -1.6728269477340168e-05,
        -1.868083869066404e-05,
        -0.0415856010167535,
        -0.11288816655492227,
        0.022588004347114946,
        -2.075627143186174e-05,
        -1.8162121146816045e-05,
        -2.0282053435542256e-05,
        -0.045150081103903894,
        -0.1218003902303113,
        0.024371267848203065,
        -2.2394924439615877e-05,
        -1.9595972816258065e-05,
        -2.188326818054198e-05,
        -0.048714561191054,
        1.209870735388611e-05,
        0.0001506672517165036,
        0.0,
        0.0,
        4.9151626368483425e-05,
        -1.9041845419448396e-05,
        8.183024278573013e-07,
        -0.00010574751733965877,
        0.0,
        -0.00022757471242592893,
        1.2709429479751633e-05,
        0.0001187161446047164,
        -0.00014229451020071667,
        8.34232233561526e-06,
        -5.273186806885146e-05,
        -9.977343652906963e-05,
        0.00019868864694836546,
        -1.0269495626043954e-05,
        0.00018621208985153672,
        -5.149550108754466e-05,
        0.0,
        9.725215309998113e-05,
        0.00012748357498457516,
        0.00010558352752205541,
        3.9100934632245006e-05,
        9.907976871299257e-05,
        3.434824544179409e-05,
        0.00010696709202003322,
        0.0001622835334504401,
        4.310886943926013e-05,
        -0.00013360067420633672,
        0.0001419331715617544,
        4.6016798416981185e-05,
        0.0,
        -0.0002917416704897729,
        2.3738989495196245e-05,
        -0.00023656078235156051,
        -5.625266992007885e-05,
        0.0003716617922844529,
        -8.493400925677702e-05,
        5.773460723465208e-05,
        9.201040779531212e-05,
        8.373176518275387e-06,
        -2.1710269169224152e-05,
        9.161165721024243e-05,
        1.8352384609557987e-05,
        0.00019656631491068722,
        2.165318973905401e-07
      ],
      [
        0.01188842334058681,
        1.3345695969112434,
        -1.0692939468563856e-05,
        -9.296412686850661e-06,
        -1.0866477486006348e-05,
        -0.02376318241055985,
        0.013671686841674757,
        -0.06832700638596233,
        -1.2296880388859356e-05,
        -1.069087458987644e-05,
        -1.2496449108809012e-05,
        -0.027327659772143683,
        0.015454950342762756,
        -0.07723922461021851,
        -1.3900821309123346e-05,
        -1.208533649288725e-05,
        -1.4126420731808583e-05,
        -0.030892137133727737,
        0.017238213843851012,
        -0.08615144283447433,
        -1.5504762229404844e-05,
        -1.3479798395931911e-05,
        -1.575639235466903e-05,
        -0.034456614495311795,
        0.01902147734493893,
        -0.09506366105873058,
        -1.7108703149717277e-05,
        -1.4874260298958291e-05,
        -1.7386363977475217e-05,
        -0.03802109185689567,
        0.020804740846026834,
        -0.10397587928298653,
        -1.871264407000021e-05,
        -1.6268722201984743e-05,
        -1.9016335600405717e-05,
        -0.04158556921847977,
        0.022588004347114964,
        -0.11288809750724249,
        -2.0316584990298742e-05,
        -1.7663184105004496e-05,
        -2.064630722328783e-05,
        -0.04515004658006377,
        0.024371267848202902,
        -0.12180031573149805,
        -2.1920525910571575e-05,
        -1.9057646008001417e-05,
        -2.2276278846256955e-05,
        -0.04871452394164753,
        8.454554290278334e-05,
        0.000122851537030898,
        0.0,
        0.0,
        6.549948168224387e-05,
        -3.331908879716992e-05,
        1.1992198265183888e-05,
        -0.00016201248197394782,
        0.0,
        -0.00017100355271144993,
        6.966316482489931e-06,
        0.00027689819384800045,
        -0.00010179142190542385,
        -4.621756942203757e-06,
        -0.0001475462119689314,
        -0.00015420663187132473,
        0.0001657646271681634,
        0.00015168966359524618,
        0.00020015002669725266,
        -9.987776163762869e-05,
        0.0,
        9.196168364019328e-05,
        9.702846617695964e-05,
        -1.4181763265897743e-05,
        2.949366258705444e-05,
        8.872726554165082e-05,
        -1.75674672806043e-05,
        8.917838337366474e-05,
        0.00010857583777337178,
        -8.079399614687305e-05,
        -1.8214490579063394e-05,
        0.0001263798961539945,
        2.6933442655518327e-05,
        0.0,
        -0.00017238227147902584,
        2.8664348813123265e-05,
        -0.00019043863253570106,
        -0.00011967538810388813,
        0.0003743256096788902,
        -0.00010429670617273282,
        7.584326193876142e-05,
        7.341233658952049e-05,
        9.946136814081873e-05,
        -0.00010564977356389105,
        7.932056791414093e-05,
        -1.5180058630876943e-05,
        0.0002724038309274434,
        3.2009907428320674e-05
      ],
      [
        -1.0924353385116257e-05,
        -1.0692939468650784e-05,
        1.322708898992619,
        2.32823144852918e-05,
        2.4175596832624014e-05,
        -1.0808646426907939e-05,
        -1.256300639282586e-05,
        -1.2296880388798283e-05,
        -0.08196680899237899,
        2.677466165809776e-05,
        2.7801936357319454e-05,
        -1.242994339103084e-05,
        -1.4201659400489986e-05,
        -1.3900821309415547e-05,
        -0.09265813190442816,
        3.0267008830855982e-05,
        3.142827588235839e-05,
        -1.4051240355055488e-05,
        -1.5840312408846257e-05,
        -1.5504762229415872e-05,
        -0.10334945481647762,
        3.375935600367917e-05,
        3.505461540724331e-05,
        -1.567253731899619e-05,
        -1.747896541618796e-05,
        -1.7108703149428768e-05,
        -0.1140407777285271,
        3.7251703176460784e-05,
        3.86809549318845e-05,
        -1.729383428320061e-05,
        -1.9117618423867644e-05,
        -1.8712644069891722e-05,
        -0.12473210064057678,
        4.074405034928337e-05,
        4.2307294456884155e-05,
        -1.8915131247021187e-05,
        -2.0756271431838085e-05,
        -2.0316584990372468e-05,
        -0.1354234235526261,
        4.423639752205713e-05,
        4.5933633981605185e-05,
        -2.0536428210925453e-05,
        -2.2394924439548954e-05,
        -2.1920525910866675e-05,
        -0.14611474646467532,
        4.772874469476218e-05,
        4.955997350665828e-05,
        -2.2157725175377882e-05,
        -9.255909891828802e-05,
        -0.00026987514194615794,
        0.0,
        0.0,
        -9.307693865346363e-05,
        0.00011784385367585565,
        -6.923144950040787e-05,
        0.00028562393490983405,
        0.0,
        0.00047447310689977196,
        2.9535079545412857e-05,
        -0.00020410161335809277,
        0.00027403450830764097,
        2.576466410017766e-05,
        0.0002164781490110667,
        0.0002832680022343726,
        -0.00033769219745898786,
        -2.2712161839805584e-05,
        -0.0003847734073260508,
        0.0001937285208265224,
        0.0,
        -0.0003662606116664451,
        -0.0002053048597386087,
        -0.00023714418535606286,
        -0.0001773923198831272,
        -0.0002949153370487203,
        -0.00013052491815847538,
        -0.00044923397796621544,
        -0.00030562876549190316,
        -0.0001717523956688345,
        0.00020837096141628877,
        -0.00020948436890149986,
        -0.00010042357913513928,
        0.0,
        0.0006416099318812535,
        -3.477818577327413e-05,
        0.00036453006445115617,
        0.0001531905602915511,
        -0.0010552362095482127,
        0.00011296890294449339,
        -4.274819066696201e-05,
        -0.00012722145177357496,
        -4.03145166736616e-05,
        0.00012663666131350077,
        -0.00040578469360605683,
        4.7637439639444897e-05,
        -0.0003090364268385134,
        1.004979158141868e-05
      ],
      [
        -9.559011129851665e-06,
        -9.296412686918408e-06,
        2.3282314485263208e-05,
        1.3227035563433036,
        2.092197289433311e-05,
        -9.427711908303798e-06,
        -1.0992862799245983e-05,
        -1.0690874589911153e-05,
        2.677466165808054e-05,
        -0.08197295303909508,
        2.4060268828201494e-05,
        -1.0841868694849051e-05,
        -1.2426714468539203e-05,
        -1.2085336493163757e-05,
        3.026700883082399e-05,
        -0.09266507734854205,
        2.719856476252959e-05,
        -1.2256025481051154e-05,
        -1.3860566138786084e-05,
        -1.34797983959743e-05,
        3.3759356003614514e-05,
        -0.10335720165798902,
        3.0336860696561015e-05,
        -1.3670182267171575e-05,
        -1.529441780794278e-05,
        -1.4874260298816193e-05,
        3.725170317646179e-05,
        -0.11404932596743657,
        3.3475156630501253e-05,
        -1.5084339053786286e-05,
        -1.6728269477379047e-05,
        -1.6268722201851647e-05,
        4.0744050349245404e-05,
        -0.12474145027688362,
        3.6613452564812994e-05,
        -1.6498495839701326e-05,
        -1.8162121146812014e-05,
        -1.7663184105150392e-05,
        4.4236397522090686e-05,
        -0.13543357458633057,
        3.975174849877449e-05,
        -1.791265262579785e-05,
        -1.959597281650338e-05,
        -1.9057646008305986e-05,
        4.7728744694836634e-05,
        -0.14612569889577792,
        4.289004443302663e-05,
        -1.932680941254328e-05,
        -1.2812319652436426e-05,
        -0.00027117175617194663,
        0.0,
        0.0,
        -3.6591094659055485e-05,
        8.317958477412528e-05,
        -9.761163507985143e-06,
        0.00022956576783070273,
        0.0,
        0.0003757816017928168,
        5.381098474799389e-05,
        -0.0002524954155730887,
        0.0003261777645348158,
        -9.190518858039643e-06,
        0.0002928314820933965,
        0.00035972372060031135,
        -0.00019672551277701662,
        -0.00015960405991260218,
        -0.0003144944046768608,
        6.099849426579216e-05,
        0.0,
        -0.00030561962592998815,
        -0.00017017214169598192,
        -6.166176169733645e-05,
        -1.141725499943827e-05,
        -0.00012138760105110969,
        -0.0003164119744523104,
        -0.00024758240348441395,
        -0.00021367609694938536,
        8.25423259294018e-05,
        0.00022630200900917736,
        -0.0003231762636710558,
        1.5713244244761437e-05,
        0.0,
        0.0003443281725468919,
        4.279226039934943e-06,
        0.00023526164264665083,
        0.0001543350957143268,
        -0.0008709806547550724,
        0.00012009290953715952,
        -0.00013587516899504225,
        -0.00011085249310304966,
        -1.84272463807728e-05,
        2.214338889959655e-05,
        -0.0004360352461541561,
        0.00011202724325402675,
        -0.0003908217668229176,
        5.379580668526501e-05
      ],
      [
        -1.0674764966055418e-05,
        -1.08664774861234e-05,
        2.4175596832543803e-05,
        2.0921972894244366e-05,
        1.3227066763750832,
        -1.0770621225860574e-05,
        -1.2275979710688701e-05,
        -1.2496449108819273e-05,
        2.780193635744919e-05,
        2.406026882835452e-05,
        -0.08196936500255106,
        -1.2386214409933807e-05,
        -1.3877194455400215e-05,
        -1.412642073216615e-05,
        3.142827588228789e-05,
        2.719856476245554e-05,
        -0.09266102130723156,
        -1.4001807593827985e-05,
        -1.5478409200968018e-05,
        -1.575639235457024e-05,
        3.5054615407152674e-05,
        3.0336860696628002e-05,
        -0.10335267761191182,
        -1.5617400777409652e-05,
        -1.7079623945460074e-05,
        -1.7386363977242693e-05,
        3.868095493210766e-05,
        3.347515663077975e-05,
        -0.11404433391659274,
        -1.7232993961668503e-05,
        -1.8680838690279417e-05,
        -1.9016335600326428e-05,
        4.2307294456982824e-05,
        3.6613452564895366e-05,
        -0.12473599022127316,
        -1.884858714531669e-05,
        -2.028205343556575e-05,
        -2.0646307223180495e-05,
        4.593363398191247e-05,
        3.9751748499002294e-05,
        -0.1354276465259536,
        -2.0464180329150778e-05,
        -2.1883268180096023e-05,
        -2.2276278846227065e-05,
        4.955997350674696e-05,
        4.289004443304474e-05,
        -0.14611930283063426,
        -2.207977351344422e-05,
        -0.00015735721167785548,
        -0.0003543043583728495,
        0.0,
        0.0,
        -0.0002164952485193678,
        3.94561668528155e-05,
        -7.349877142045303e-06,
        0.0002763086240996946,
        0.0,
        0.0005284089049975473,
        -0.00010536216584484435,
        -0.0006256435000208781,
        0.0002264040838419737,
        -3.855560779800051e-05,
        0.00019130655024744353,
        0.0002954571165075744,
        -0.0005839591205578562,
        -0.00013097829429599525,
        -0.0005116055281158126,
        0.00013611629994831159,
        0.0,
        -0.00015706383425577843,
        -0.0002348180377591717,
        -0.00010313936592597252,
        -4.4385609677865996e-05,
        -0.0002906890731213208,
        5.663015205322484e-05,
        -0.00012260361581140926,
        -0.00029847746399674804,
        0.0001299850334148727,
        8.306010839022584e-05,
        -0.00033120817300588294,
        -5.8709872547052063e-05,
        0.0,
        0.0005008110538727354,
        -8.958019493379576e-05,
        0.0005381797092030933,
        0.00019298765602034792,
        -0.0007965667706232507,
        0.0002807911237189917,
        -0.00023057258488931847,
        -0.00021152735225327254,
        -0.00024841661264905486,
        0.00011222220518349366,
        -0.00015029909489866584,
        -5.5138031845070024e-05,
        -0.0007202629194838063,
        -8.746943139195159e-05
      ],
      [
        -0.023763200581001922,
        -0.02376318241055973,
        -1.08086464270654e-05,
        -9.427711908472678e-06,
        -1.0770621226098844e-05,
        1.3702211935771709,
        -0.027327680668152318,
        -0.0273276597721437,
        -1.2429943391130793e-05,
        -1.0841868694740084e-05,
        -1.2386214409919945e-05,
        -0.027327670220147857,
        -0.03089216075530263,
        -0.030892137133727564,
        -1.4051240355177272e-05,
        -1.2256025480995522e-05,
        -1.4001807593922233e-05,
        -0.030892148944515044,
        -0.034456640842452625,
        -0.03445661449531161,
        -1.5672537319230574e-05,
        -1.3670182267281247e-05,
        -1.5617400777809177e-05,
        -0.034456627668882314,
        -0.03802112092960308,
        -0.038021091856895756,
        -1.7293834283313466e-05,
        -1.5084339053551822e-05,
        -1.7232993961627682e-05,
        -0.03802110639324931,
        -0.041585601016753314,
        -0.04158556921847968,
        -1.8915131247378516e-05,
        -1.6498495839822923e-05,
        -1.8848587145563902e-05,
        -0.04158558511761656,
        -0.04515008110390369,
        -0.04515004658006348,
        -2.0536428211451467e-05,
        -1.791265262608497e-05,
        -2.046418032944801e-05,
        -0.0451500638419837,
        -0.048714561191054016,
        -0.04871452394164732,
        -2.2157725175496483e-05,
        -1.932680941231819e-05,
        -2.2079773513432183e-05,
        -0.04871454256635063,
        4.8322125141287147e-05,
        0.00013675939433727656,
        0.0,
        0.0,
        5.732555396293533e-05,
        -2.618046712992443e-05,
        6.405250352065111e-06,
        -0.00013387999967309324,
        0.0,
        -0.00019928913260806766,
        9.837872959859602e-06,
        0.00019780716924728663,
        -0.00012204296608838049,
        1.8602826970161688e-06,
        -0.00010013904007181453,
        -0.00012699003421940834,
        0.0001822266370092458,
        7.071008400096484e-05,
        0.0001931810582983248,
        -7.568663137593337e-05,
        0.0,
        9.460691837445101e-05,
        0.00011225602061557799,
        4.570088210414739e-05,
        3.429729861788416e-05,
        9.390351716679737e-05,
        8.390389075798132e-06,
        9.807273769279679e-05,
        0.00013542968565113852,
        -1.8842563344411928e-05,
        -7.590758240175385e-05,
        0.00013415653384897262,
        3.647512052560086e-05,
        0.0,
        -0.00023206197096252348,
        2.6201669151993268e-05,
        -0.00021349970744284516,
        -8.79640290232203e-05,
        0.00037299370100609373,
        -9.461535772909513e-05,
        6.678893455851961e-05,
        8.271137218371129e-05,
        5.3917272303708654e-05,
        -6.368002137828353e-05,
        8.546611255189604e-05,
        1.5861629348625927e-06,
        0.00023448507291256367,
        1.6113219585984517e-05
      ],
      [
        -0.0683270481779795,
        0.013671686841674824,
        -1.256300639276448e-05,
        -1.0992862799215658e-05,
        -1.2275979710703669e-05,
        -0.0273276806681524,
        1.3154082796682716,
        0.015722439867925892,
        -1.4447457351680113e-05,
        -1.264179221909179e-05,
        -1.411737666721431e-05,
        -0.031426832768375164,
        -0.08882516263137354,
        0.017773192894177368,
        -1.6331908310595134e-05,
        -1.4290721638957548e-05,
        -1.5958773623904987e-05,
        -0.0355259848685981,
        -0.09907421985807012,
        0.019823945920428354,
        -1.8216359269506695e-05,
        -1.593965105885519e-05,
        -1.780017058049344e-05,
        -0.0396251369688211,
        -0.10932327708476718,
        0.021874698946679347,
        -2.0100810228442245e-05,
        -1.7588580478737904e-05,
        -1.964156753699136e-05,
        -0.04372428906904364,
        -0.11957233431146422,
        0.023925451972930747,
        -2.198526118734812e-05,
        -1.923750989862249e-05,
        -2.1482964493614775e-05,
        -0.04782344116926676,
        -0.12982139153816105,
        0.02597620499918202,
        -2.3869712146287332e-05,
        -2.0886439318492398e-05,
        -2.3324361450167203e-05,
        -0.05192259326948952,
        -0.14007044876485827,
        0.028026958025433295,
        -2.575416310518063e-05,
        -2.253536873832318e-05,
        -2.516575840685677e-05,
        -0.05602174536971222,
        1.3913513464460134e-05,
        0.00017326733948077317,
        0.0,
        0.0,
        5.6524370300795354e-05,
        -2.1898122248971047e-05,
        9.41047787363186e-07,
        -0.00012160964495755082,
        0.0,
        -0.00026171091928300623,
        1.461584386728053e-05,
        0.00013652356627988292,
        -0.0001636386867548357,
        9.593670690691928e-06,
        -6.064164827151858e-05,
        -0.00011473945198963517,
        0.0002284919439596131,
        -1.1809919926003249e-05,
        0.00021414390330948973,
        -5.9219826275206164e-05,
        0.0,
        0.00011183997605935115,
        0.00014660611123527376,
        0.00012142105663353678,
        4.496607484496988e-05,
        0.00011394173402792706,
        3.950048225570551e-05,
        0.0001230121558635752,
        0.0001866260634827703,
        4.9575199872390935e-05,
        -0.00015364077534057552,
        0.00016322314728135705,
        5.2919318213417265e-05,
        0.0,
        -0.0003355029210319088,
        2.7299837913109097e-05,
        -0.00027204489969657883,
        -6.469057041060514e-05,
        0.00042741106112038267,
        -9.767411064130428e-05,
        6.639479832610852e-05,
        0.0001058119689183604,
        9.629152987012958e-06,
        -2.4966809547225125e-05,
        0.00010535340576391916,
        2.1105242302860527e-05,
        0.00022605126212209829,
        2.490116529277946e-07
      ],
      [
        0.013671686841674727,
        -0.0683270063859624,
        -1.2296880388628306e-05,
        -1.0690874589794464e-05,
        -1.2496449108681991e-05,
        -0.027327659772143825,
        0.015722439867925847,
        1.315408327729091,
        -1.4141412446934854e-05,
        -1.229450577826155e-05,
        -1.4370916474871248e-05,
        -0.031426808737965384,
        0.017773192894177035,
        -0.08882510830175129,
        -1.5985944505205472e-05,
        -1.3898136966711232e-05,
        -1.624538384128742e-05,
        -0.03552595770378695,
        0.019823945920428472,
        -0.09907415925964566,
        -1.7830476563496206e-05,
        -1.550176815520011e-05,
        -1.8119851207543033e-05,
        -0.03962510666960881,
        0.02187469894667956,
        -0.10932321021754017,
        -1.9675008621822332e-05,
        -1.710539934366826e-05,
        -1.999431857373616e-05,
        -0.04372425563543016,
        0.023925451972930698,
        -0.11957226117543447,
        -2.1519540680114936e-05,
        -1.8709030532134865e-05,
        -2.186878594007284e-05,
        -0.047823404601251784,
        0.02597620499918206,
        -0.12982131213332862,
        -2.3364072738425186e-05,
        -2.0312661720596054e-05,
        -2.3743253306353272e-05,
        -0.0519225535670734,
        0.02802695802543313,
        -0.1400703630912228,
        -2.5208604796705874e-05,
        -2.1916292909029918e-05,
        -2.561772067273401e-05,
        -0.056021702532895,
        9.722737431687862e-05,
        0.00014127926754597093,
        0.0,
        0.0,
        7.532440396450293e-05,
        -3.8316952106940466e-05,
        1.3791027997703638e-05,
        -0.00018631435427715395,
        0.0,
        -0.00019665408556557147,
        8.011263950563033e-06,
        0.0003184329228963167,
        -0.00011706013517074722,
        -5.3150204635424875e-06,
        -0.00016967814374090488,
        -0.0001773376266448105,
        0.0001906293212577701,
        0.00017444311311657555,
        0.00023017253068883438,
        -0.00011485942590183479,
        0.0,
        0.00010575593615729152,
        0.00011158273611452815,
        -1.630902777843266e-05,
        3.3917711970221264e-05,
        0.00010203635537046686,
        -2.020258737494471e-05,
        0.0001025551408684219,
        0.0001248622134248083,
        -9.291309553676843e-05,
        -2.0946664165521814e-05,
        0.00014533688058275136,
        3.097345903893459e-05,
        0.0,
        -0.00019823961219950367,
        3.296400114853139e-05,
        -0.00021900442740719443,
        -0.00013762669633348131,
        0.0004304744511199024,
        -0.00011994121207925673,
        8.72197512405683e-05,
        8.442418708376606e-05,
        0.00011438057335155514,
        -0.0001214972395965572,
        9.121865310942431e-05,
        -1.7457067431150757e-05,
        0.0003132644055514754,
        3.681139355135145e-05
      ],
      [
        -1.2563006392887572e-05,
        -1.2296880388957037e-05,
        -0.08196680899237897,
        2.677466165811709e-05,
        2.7801936357540194e-05,
        -1.2429943390951564e-05,
        -1.4447457351761527e-05,
        -1.414141244712815e-05,
        1.2997225547317168,
        3.0790860906849026e-05,
        3.1972226810944014e-05,
        -1.4294434899693548e-05,
        -1.633190831058294e-05,
        -1.598594450583964e-05,
        -0.10655685169009238,
        3.4807060155524436e-05,
        3.6142517264734884e-05,
        -1.6158926408328478e-05,
        -1.821635927019002e-05,
        -1.783047656384123e-05,
        -0.11885187303894958,
        3.882325940427547e-05,
        4.031280771836288e-05,
        -1.802341791686089e-05,
        -2.0100810228632393e-05,
        -1.967500862185706e-05,
        -0.1311468943878065,
        4.2839458652979956e-05,
        4.4483098171702674e-05,
        -1.9887909425694847e-05,
        -2.198526118744642e-05,
        -2.1519540680390957e-05,
        -0.14344191573666282,
        4.685565790172965e-05,
        4.8653388625459006e-05,
        -2.1752400934080845e-05,
        -2.3869712146623215e-05,
        -2.3364072738944732e-05,
        -0.15573693708551992,
        5.087185715042618e-05,
        5.2823679078879655e-05,
        -2.361689244257782e-05,
        -2.575416310549887e-05,
        -2.520860479751502e-05,
        -0.16803195843437665,
        5.4888056399040915e-05,
        5.6993969532689356e-05,
        -2.5481383951697583e-05,
        -0.0001064429637578302,
        -0.0003103564132384899,
        0.0,
        0.0,
        -0.00010703847944782503,
        0.0001355204317271284,
        -7.961616692516907e-05,
        0.0003284675251438269,
        0.0,
        0.0005456440729334944,
        3.396534147526483e-05,
        -0.00023471685536745552,
        0.00031513968454950105,
        2.962936371427359e-05,
        0.0002489498713591698,
        0.00032575820256317613,
        -0.00038834602707569967,
        -2.611898611983497e-05,
        -0.0004424894184192267,
        0.00022278779894985656,
        0.0,
        -0.0004211997034196628,
        -0.0002361005887042133,
        -0.0002727158131462531,
        -0.00020400116786822273,
        -0.00033915263759736543,
        -0.00015010365588711286,
        -0.0005166190746752195,
        -0.0003514730803157081,
        -0.0001975152550241034,
        0.00023962660562846884,
        -0.00024090702423969044,
        -0.00011548711600350803,
        0.0,
        0.0007378514216718581,
        -3.9994913639441436e-05,
        0.00041920957411663615,
        0.00017616914433498992,
        -0.0012135216409854654,
        0.00012991423838312605,
        -4.9160419272937946e-05,
        -0.00014630466953989812,
        -4.636169417613185e-05,
        0.0001456321605115196,
        -0.0004666523976467257,
        5.4783055569465107e-05,
        -0.0003553918908621232,
        1.1557260314529755e-05
      ],
      [
        -1.0992862799325196e-05,
        -1.0690874589954087e-05,
        2.6774661658066025e-05,
        -0.08197295303909508,
        2.4060268828455577e-05,
        -1.084186869454617e-05,
        -1.2641792219128036e-05,
        -1.2294505778395116e-05,
        3.0790860906808124e-05,
        1.2997154890779916,
        2.766930915239992e-05,
        -1.2468148999072783e-05,
        -1.4290721638814249e-05,
        -1.3898136967135638e-05,
        3.480706015546444e-05,
        -0.1065648389508236,
        3.1278349476873683e-05,
        -1.4094429303204796e-05,
        -1.5939651059598036e-05,
        -1.5501768155367933e-05,
        3.882325940417638e-05,
        -0.11886078190668767,
        3.488738980100505e-05,
        -1.5720709607242926e-05,
        -1.758858047912707e-05,
        -1.7105399343635444e-05,
        4.283945865295291e-05,
        -0.13115672486255184,
        3.849643012503211e-05,
        -1.7346989911849418e-05,
        -1.923750989897853e-05,
        -1.8709030532125937e-05,
        4.685565790165611e-05,
        -0.14345266781841648,
        4.21054704494875e-05,
        -1.897327021565073e-05,
        -2.088643931882598e-05,
        -2.0312661720919722e-05,
        5.087185715043036e-05,
        -0.15574861077428048,
        4.571451077353866e-05,
        -2.0599550519661044e-05,
        -2.2535368738969633e-05,
        -2.191629290954766e-05,
        5.488805639909078e-05,
        -0.16804455373014474,
        4.9323551097923937e-05,
        -2.2225830824418308e-05,
        -1.4734167600453643e-05,
        -0.0003118475195917883,
        0.0,
        0.0,
        -4.2079758853031826e-05,
        9.565652249248804e-05,
        -1.1225338032815694e-05,
        0.0002640006330102769,
        0.0,
        0.0004321488420600831,
        6.188263246066452e-05,
        -0.0002903697279087672,
        0.00037510442921729774,
        -1.0569096691634996e-05,
        0.00033675620441158934,
        0.00041368227869075116,
        -0.00022623433968719297,
        -0.0001835446688997531,
        -0.0003616685653800352,
        7.014826841026794e-05,
        0.0,
        -0.0003514625698185647,
        -0.0001956979629518146,
        -7.091102595029787e-05,
        -1.3129843250690094e-05,
        -0.00013959574121212277,
        -0.00036387377061866764,
        -0.00028471976400802385,
        -0.00024572751149399896,
        9.492367481960582e-05,
        0.00026024731036150794,
        -0.00037165270322001356,
        1.807023088032866e-05,
        0.0,
        0.00039597739842525497,
        4.9211099435617975e-06,
        0.00027055088903997525,
        0.00017748536007105876,
        -0.0010016277529698056,
        0.00013810684596932498,
        -0.00015625644433895294,
        -0.000127480367067464,
        -2.1191333333462917e-05,
        2.5464897240819916e-05,
        -0.0005014405330791399,
        0.0001288313297415798,
        -0.0004494450318464764,
        6.186517769254192e-05
      ],
      [
        -1.2275979710944843e-05,
        -1.2496449109022419e-05,
        2.7801936357415887e-05,
        2.4060268828333035e-05,
        -0.08196936500255088,
        -1.2386214409724258e-05,
        -1.4117376667281176e-05,
        -1.4370916475119881e-05,
        3.1972226811051655e-05,
        2.7669309152551746e-05,
        1.2997196153200148,
        -1.4244146571404613e-05,
        -1.59587736236956e-05,
        -1.624538384196615e-05,
        3.614251726461399e-05,
        3.1278349476761726e-05,
        -0.10656017450331624,
        -1.6102078732882365e-05,
        -1.7800170581093683e-05,
        -1.811985120772778e-05,
        4.0312807718204234e-05,
        3.488738980105258e-05,
        -0.11885557925369913,
        -1.7960010893997473e-05,
        -1.9641567537257845e-05,
        -1.9994318573798352e-05,
        4.448309817190147e-05,
        3.849643012531953e-05,
        -0.13115098400408207,
        -1.981794305589377e-05,
        -2.1482964493794064e-05,
        -2.1868785940341187e-05,
        4.86533886255039e-05,
        4.2105470449544986e-05,
        -0.14344638875446442,
        -2.1675875217084904e-05,
        -2.3324361450873056e-05,
        -2.3743253306620907e-05,
        5.282367907917323e-05,
        4.5714510773761045e-05,
        -0.15574179350484726,
        -2.353380737848968e-05,
        -2.516575840708193e-05,
        -2.561772067312126e-05,
        5.6993969532723956e-05,
        4.932355109790278e-05,
        -0.1680371982552298,
        -2.5391739540422538e-05,
        -0.00018096079344318534,
        -0.00040745001209778676,
        0.0,
        0.0,
        -0.00024896953567411735,
        4.5374591915723504e-05,
        -8.452358731549921e-06,
        0.00031775491773270456,
        0.0,
        0.0006076702408237205,
        -0.00012116649067618494,
        -0.0007194900250620556,
        0.00026036469644903236,
        -4.433894896647921e-05,
        0.00022000253288326183,
        0.00033977568401489535,
        -0.0006715529885802764,
        -0.00015062503845162463,
        -0.0005883463573337936,
        0.00015653374494851774,
        0.0,
        -0.00018062340940128252,
        -0.00027004074343865963,
        -0.00011861027080970283,
        -5.104345114179673e-05,
        -0.00033429243413001506,
        6.512467487442644e-05,
        -0.00014099415819038088,
        -0.0003432490836508953,
        0.00014948278843002826,
        9.551912465407224e-05,
        -0.00038088939892566033,
        -6.751635343288933e-05,
        0.0,
        0.0005759327119083981,
        -0.0001030172241742605,
        0.0006189066655905447,
        0.00022193580442554894,
        -0.0009160517862474252,
        0.0003229097922872925,
        -0.00026515847258369124,
        -0.00024325645504939673,
        -0.00028567910450796294,
        0.00012905553596708296,
        -0.00017284395910910626,
        -6.34087365695362e-05,
        -0.0008283023573812693,
        -0.00010058984600186892
      ],
      [
        -0.027327680668152218,
        -0.027327659772143662,
        -1.2429943391063794e-05,
        -1.0841868694873442e-05,
        -1.2386214410025079e-05,
        -0.027327670220147957,
        -0.031426832768375136,
        -0.03142680873796527,
        -1.4294434899729557e-05,
        -1.246814899910022e-05,
        -1.4244146571420404e-05,
        1.3625575643197787,
        -0.03552598486859805,
        -0.03552595770378661,
        -1.6158926408376732e-05,
        -1.4094429303313468e-05,
        -1.6102078733025392e-05,
        -0.035525971286192275,
        -0.03962513696882058,
        -0.03962510666960846,
        -1.8023417917033665e-05,
        -1.5720709607561586e-05,
        -1.7960010894495972e-05,
        -0.03962512181921464,
        -0.04372428906904345,
        -0.04372425563543021,
        -1.9887909425720183e-05,
        -1.7346989911792233e-05,
        -1.9817943055890408e-05,
        -0.04372427235223675,
        -0.04782344116926652,
        -0.047823404601251694,
        -2.1752400934374704e-05,
        -1.8973270216023408e-05,
        -2.1675875217421955e-05,
        -0.04782342288525903,
        -0.0519225932694892,
        -0.05192255356707305,
        -2.3616892443054097e-05,
        -2.0599550520244294e-05,
        -2.353380737888454e-05,
        -0.05192257341828126,
        -0.056021745369712064,
        -0.056021702532894645,
        -2.5481383951694656e-05,
        -2.2225830824431674e-05,
        -2.5391739540470795e-05,
        -0.05602172395130329,
        5.557044389715706e-05,
        0.00015727330351753002,
        0.0,
        0.0,
        6.592438712363191e-05,
        -3.0107537193321637e-05,
        7.3660378987829095e-06,
        -0.00015396199961704757,
        0.0,
        -0.00022918250243042702,
        1.1313553917225666e-05,
        0.00022747824459269447,
        -0.0001403494109656059,
        2.1393251103397714e-06,
        -0.00011515989600588574,
        -0.00014603853931876787,
        0.00020956063259093717,
        8.131659660364408e-05,
        0.0002221582170141354,
        -8.703962608526206e-05,
        0.0,
        0.0001087979561224144,
        0.00012909442370504247,
        5.2556014435381516e-05,
        3.944189339672621e-05,
        0.0001079890447152599,
        9.648947444194706e-06,
        0.00011278364837122403,
        0.0001557441384524391,
        -2.1668947827218696e-05,
        -8.729371976293246e-05,
        0.00015428001395045903,
        4.194638860435972e-05,
        0.0,
        -0.00026687126662234406,
        3.0131919517132904e-05,
        -0.000245524663574556,
        -0.00010115863338656251,
        0.0004289427561088224,
        -0.00010880766137041707,
        7.680727478450523e-05,
        9.51180780363301e-05,
        6.200486317486241e-05,
        -7.323202458690165e-05,
        9.82860294524233e-05,
        1.8240874303622463e-06,
        0.00026965783383307086,
        1.8530202552280565e-05
      ],
      [
        -0.07723927185336835,
        0.015454950342762843,
        -1.4201659400525551e-05,
        -1.2426714468622432e-05,
        -1.3877194455523303e-05,
        -0.030892160755302742,
        -0.08882516263137348,
        0.017773192894177153,
        -1.6331908310605603e-05,
        -1.429072163890834e-05,
        -1.595877362373913e-05,
        -0.03552598486859807,
        1.2935733316635727,
        0.020091435445591836,
        -1.8462157220663274e-05,
        -1.6154728809183212e-05,
        -1.804035279216698e-05,
        -0.040159808981893454,
        -0.11199694418738351,
        0.02240967799700603,
        -2.05924061307342e-05,
        -1.8018735979493938e-05,
        -2.012193196047374e-05,
        -0.0447936330951889,
        -0.12358283496538935,
        0.024727920548420178,
        -2.272265504084603e-05,
        -1.988274314978765e-05,
        -2.2203511128676995e-05,
        -0.04942745720848415,
        -0.13516872574339456,
        0.02704616309983479,
        -2.4852903950917353e-05,
        -2.1746750320083217e-05,
        -2.4285090297026508e-05,
        -0.05406128132177972,
        -0.14675461652139912,
        0.02936440565124928,
        -2.6983152861032618e-05,
        -2.3610757490362454e-05,
        -2.6366669465285215e-05,
        -0.05869510543507511,
        -0.15834050729940485,
        0.03168264820266387,
        -2.911340177107714e-05,
        -2.547476466059772e-05,
        -2.8448248633714697e-05,
        -0.0633289295483704,
        1.5728319598670732e-05,
        0.00019586742721951187,
        0.0,
        0.0,
        6.389711424992624e-05,
        -2.4754399109975257e-05,
        1.0637931932415834e-06,
        -0.0001374717725896467,
        0.0,
        -0.00029584712615322655,
        1.6522258277582988e-05,
        0.00015433098794746957,
        -0.00018498286330628864,
        1.0845019062323394e-05,
        -6.855142849982751e-05,
        -0.00012970546745700337,
        0.0002582952409560255,
        -1.3350344274489428e-05,
        0.00024207571684419613,
        -6.694415144364964e-05,
        0.0,
        0.0001264277990326689,
        0.00016572864752973385,
        0.00013725858574732748,
        5.0831215034567655e-05,
        0.00012880369936153394,
        4.4652719039563546e-05,
        0.00013905721966301105,
        0.00021096859352138565,
        5.604153028743966e-05,
        -0.0001736808764880691,
        0.0001845131230053746,
        5.9821837961591434e-05,
        0.0,
        -0.0003792641715537391,
        3.0860686335938555e-05,
        -0.00030752901707610894,
        -7.312847090435446e-05,
        0.0004831603299564969,
        -0.0001104142120123288,
        7.505498939531004e-05,
        0.00011961353010966543,
        1.0885129453248588e-05,
        -2.8223349929613586e-05,
        0.00011909515433666827,
        2.385809995782081e-05,
        0.0002555362093301646,
        2.81491288960867e-07
      ],
      [
        0.015454950342762978,
        -0.07723922461021852,
        -1.3900821309285854e-05,
        -1.208533649309546e-05,
        -1.4126420732048335e-05,
        -0.030892137133727682,
        0.017773192894177333,
        -0.08882510830175121,
        -1.5985944505692946e-05,
        -1.389813696705737e-05,
        -1.6245383841728213e-05,
        -0.03552595770378669,
        0.02009143544559173,
        1.293573393079667,
        -1.807106770205897e-05,
        -1.571093744100028e-05,
        -1.8364346951663738e-05,
        -0.04015977827384596,
        0.022409677997006452,
        -0.1119968756848164,
        -2.015619089844789e-05,
        -1.752373791498624e-05,
        -2.048331006141808e-05,
        -0.04479359884390522,
        0.024727920548420705,
        -0.12358275937634937,
        -2.2241314094877172e-05,
        -1.9336538388949134e-05,
        -2.2602273171102215e-05,
        -0.04942741941396425,
        0.027046163099835104,
        -0.13516864306788212,
        -2.432643729126835e-05,
        -2.114933886291136e-05,
        -2.472123628094798e-05,
        -0.054061239984023464,
        0.029364405651249714,
        -0.14675452675941467,
        -2.641156048767929e-05,
        -2.2962139336866536e-05,
        -2.684019939073075e-05,
        -0.058695060554082634,
        0.03168264820266406,
        -0.15834041045094746,
        -2.8496683684056857e-05,
        -2.4774939810791446e-05,
        -2.895916250062652e-05,
        -0.06332888112414171,
        0.0001099092057813639,
        0.00015970699807054745,
        0.0,
        0.0,
        8.514932611725564e-05,
        -4.331481543710312e-05,
        1.558985774170399e-05,
        -0.00021061622655577886,
        0.0,
        -0.00022230461859448314,
        9.05621141166556e-06,
        0.0003599676520739272,
        -0.000132328848483317,
        -6.008284017618813e-06,
        -0.00019181007558308877,
        -0.00020046862143749137,
        0.000215494015296669,
        0.0001971965626990397,
        0.0002601950347046191,
        -0.0001298410901286546,
        0.0,
        0.0001195501887154852,
        0.00012613700602438275,
        -1.843629227060837e-05,
        3.8341761364343293e-05,
        0.00011534544522083982,
        -2.2837707480456975e-05,
        0.00011593189838498034,
        0.0001411485891506874,
        -0.00010503219499623579,
        -2.3678837743034878e-05,
        0.0001642938649981969,
        3.501347544549147e-05,
        0.0,
        -0.00022409695291943955,
        3.72636534612876e-05,
        -0.0002475702222968697,
        -0.00015557800455153812,
        0.0004866232925781697,
        -0.00013558571803913422,
        9.859624051124782e-05,
        9.543603755744974e-05,
        0.000129299778571021,
        -0.00013734470562759752,
        0.00010311673828853834,
        -1.973407624771197e-05,
        0.0003541249802194286,
        4.1612879648994135e-05
      ],
      [
        -1.420165940065637e-05,
        -1.3900821309235381e-05,
        -0.09265813190442823,
        3.0267008830874803e-05,
        3.1428275882395065e-05,
        -1.405124035497807e-05,
        -1.6331908310681775e-05,
        -1.598594450542594e-05,
        -0.10655685169009246,
        3.480706015552228e-05,
        3.6142517264490505e-05,
        -1.615892640833839e-05,
        -1.8462157220628227e-05,
        -1.8071067702226807e-05,
        1.2735288135971892,
        3.9347111480106384e-05,
        4.085675864703683e-05,
        -1.826661246156003e-05,
        -2.0592406131495634e-05,
        -2.0156190898225726e-05,
        -0.13435429126142093,
        4.3887162804776315e-05,
        4.557100002938729e-05,
        -2.037429851468569e-05,
        -2.272265504104335e-05,
        -2.2241314094240264e-05,
        -0.14825301104708488,
        4.842721412939113e-05,
        5.0285241411416076e-05,
        -2.2481984568151404e-05,
        -2.4852903951019037e-05,
        -2.4326437290841328e-05,
        -0.1621517308327492,
        5.296726545405998e-05,
        5.4999482793913375e-05,
        -2.4589670621113276e-05,
        -2.6983152861380765e-05,
        -2.64115604874641e-05,
        -0.17605045061841337,
        5.75073167786671e-05,
        5.9713724176030166e-05,
        -2.6697356674191652e-05,
        -2.9113401771420885e-05,
        -2.8496683684105524e-05,
        -0.1899491704040782,
        6.204736810318179e-05,
        6.442796555860427e-05,
        -2.8805042727980946e-05,
        -0.00012032682859339014,
        -0.00035083768453111213,
        0.0,
        0.0,
        -0.00012100002024851929,
        0.0001531970097789796,
        -9.000088434832156e-05,
        0.0003713111153829554,
        0.0,
        0.0006168150389714553,
        3.839560341323203e-05,
        -0.0002653320973624356,
        0.0003562448608014544,
        3.349406333132113e-05,
        0.0002814215937190335,
        0.0003682484029098816,
        -0.00043899985669701853,
        -2.9525810385642647e-05,
        -0.0005002054295245878,
        0.0002518470770743356,
        0.0,
        -0.00047613879516621464,
        -0.00026689631766040414,
        -0.00030828744096814944,
        -0.00023061001585152128,
        -0.00038338993816540575,
        -0.0001696823936083861,
        -0.0005840041713547393,
        -0.00039731739513977176,
        -0.00022327811437155938,
        0.00027088224984543304,
        -0.00027232967957213064,
        -0.0001305506528718994,
        0.0,
        0.0008340929114445514,
        -4.5211641503075756e-05,
        0.00047388908378651924,
        0.0001991477283783482,
        -0.001371807072414865,
        0.00014685957382953385,
        -5.557264786630829e-05,
        -0.00016538788730690213,
        -5.2408871674438925e-05,
        0.0001646276597075813,
        -0.0005275201016867338,
        6.192867153280562e-05,
        -0.0004017473548886033,
        1.30647290578325e-05
      ],
      [
        -1.2426714468797519e-05,
        -1.2085336492985148e-05,
        3.02670088308386e-05,
        -0.09266507734854203,
        2.719856476259283e-05,
        -1.2256025480785548e-05,
        -1.4290721639008467e-05,
        -1.3898136966873896e-05,
        3.480706015550079e-05,
        -0.10656483895082351,
        3.1278349476615386e-05,
        -1.4094429303292997e-05,
        -1.615472880908794e-05,
        -1.5710937441101725e-05,
        3.934711148006684e-05,
        1.2735197845198463,
        3.5358134191236745e-05,
        -1.5932833125354382e-05,
        -1.8018735980408154e-05,
        -1.7523737914753842e-05,
        4.3887162804694654e-05,
        -0.13436436215538602,
        3.9437918905471634e-05,
        -1.7771236947309717e-05,
        -1.9882743150309604e-05,
        -1.9336538388447264e-05,
        4.8427214129394326e-05,
        -0.14826412375766784,
        4.351770361958695e-05,
        -1.9609640769907364e-05,
        -2.1746750320575668e-05,
        -2.1149338862391902e-05,
        5.296726545401342e-05,
        -0.16216388535994844,
        4.759748833418768e-05,
        -2.1448044591595097e-05,
        -2.36107574908371e-05,
        -2.296213933667928e-05,
        5.750731677871169e-05,
        -0.17606364696223015,
        5.167727304833082e-05,
        -2.328644841351921e-05,
        -2.5474764661433734e-05,
        -2.4774939810779126e-05,
        6.204736810328105e-05,
        -0.1899634085645116,
        5.5757057762852764e-05,
        -2.512485223628757e-05,
        -1.665601554874869e-05,
        -0.0003525232830172097,
        0.0,
        0.0,
        -4.756842305385028e-05,
        0.00010813346020915444,
        -1.2689512559608994e-05,
        0.00029843549818110954,
        0.0,
        0.000488516082330479,
        6.995428017165031e-05,
        -0.00032824404024318834,
        0.00042403109389710364,
        -1.194767452008425e-05,
        0.00038068092672538745,
        0.0004676408367793531,
        -0.00025574316660533435,
        -0.0002074852778865162,
        -0.00040884272608206543,
        7.929804254910683e-05,
        0.0,
        -0.0003973055137080474,
        -0.0002212237842044556,
        -8.016029020502855e-05,
        -1.4842431499039365e-05,
        -0.00015780388136968,
        -0.00041133556678616794,
        -0.00032185712453027476,
        -0.00027777892603660976,
        0.00010730502371042507,
        0.0002941926117131351,
        -0.0004201291427740182,
        2.0427217518422046e-05,
        0.0,
        0.0004476266243068192,
        5.562993849625207e-06,
        0.0003058401354366374,
        0.00020063562442950133,
        -0.001132274851183025,
        0.00015612078239998257,
        -0.00017663771968851356,
        -0.00014410824103434138,
        -2.3955420291180707e-05,
        2.8786405575188117e-05,
        -0.0005668458200015248,
        0.00014563541623064636,
        -0.0005080682968690003,
        6.993454869751281e-05
      ],
      [
        -1.3877194455894428e-05,
        -1.4126420731985343e-05,
        3.142827588227868e-05,
        2.7198564762456944e-05,
        -0.09266102130723128,
        -1.4001807593644655e-05,
        -1.595877362393025e-05,
        -1.624538384149403e-05,
        3.6142517264644936e-05,
        3.12783494767905e-05,
        -0.10656017450331634,
        -1.610207873294577e-05,
        -1.8040352792056473e-05,
        -1.8364346951848615e-05,
        4.085675864693151e-05,
        3.535813419111294e-05,
        1.2735250573735497,
        -1.820234987201015e-05,
        -2.012193196129337e-05,
        -2.0483310060977568e-05,
        4.557100002925569e-05,
        3.943791890552765e-05,
        -0.13435848089548572,
        -2.0302621010668002e-05,
        -2.220351112913543e-05,
        -2.260227317045574e-05,
        5.0285241411696085e-05,
        4.351770361991623e-05,
        -0.14825763409157022,
        -2.240289215020941e-05,
        -2.428509029740532e-05,
        -2.472123628046822e-05,
        5.499948279401759e-05,
        4.759748833425875e-05,
        -0.16215678728765484,
        -2.45031632889566e-05,
        -2.6366669466270473e-05,
        -2.684019939018196e-05,
        5.9713724176419436e-05,
        5.167727304858779e-05,
        -0.17605594048373985,
        -2.6603434427940262e-05,
        -2.844824863417175e-05,
        -2.89591625001465e-05,
        6.44279655586991e-05,
        5.5757057762834156e-05,
        -0.18995509367982422,
        -2.87037055675228e-05,
        -0.0002045643751937214,
        -0.000460595665856106,
        0.0,
        0.0,
        -0.00028144382300728725,
        5.129301691000339e-05,
        -9.554840293070774e-06,
        0.0003592012113189486,
        0.0,
        0.0006869315765513037,
        -0.0001369708155746634,
        -0.000813336550083992,
        0.0002943253089924779,
        -5.012229012302645e-05,
        0.00024869851539792393,
        0.0003840942514842457,
        -0.0007591468567025879,
        -0.00017027178257407515,
        -0.0006650871865554584,
        0.0001769511899301283,
        0.0,
        -0.00020418298453216173,
        -0.0003052634490971251,
        -0.00013408117573936865,
        -5.770129259320238e-05,
        -0.00037789579509034876,
        7.361919768628585e-05,
        -0.00015938470054268443,
        -0.0003880207032288486,
        0.0001689805434496305,
        0.00010797814091794267,
        -0.0004305706248952526,
        -7.63228343221241e-05,
        0.0,
        0.0006510543700084534,
        -0.00011645425341787129,
        0.0006996336219739712,
        0.00025088395281958693,
        -0.0010355368018200343,
        0.0003650284608627933,
        -0.0002997443603463799,
        -0.0002749855579157868,
        -0.0003229415964250736,
        0.0001458888667458993,
        -0.00019538882334331256,
        -7.167944137061564e-05,
        -0.0009363417953138533,
        -0.00011371026077419424
      ],
      [
        -0.030892160755302506,
        -0.030892137133727664,
        -1.4051240355062403e-05,
        -1.2256025481095453e-05,
        -1.4001807593875402e-05,
        -0.030892148944515113,
        -0.035525984868597996,
        -0.03552595770378686,
        -1.6158926408330338e-05,
        -1.4094429303255064e-05,
        -1.6102078732838482e-05,
        -0.03552597128619224,
        -0.040159808981893495,
        -0.040159778273845884,
        -1.826661246156563e-05,
        -1.5932833125399295e-05,
        -1.8202349872031997e-05,
        1.3538245914450788,
        -0.044793633095188364,
        -0.04479359884390521,
        -2.0374298514820784e-05,
        -1.7771236947583102e-05,
        -2.030262101107872e-05,
        -0.044793615969547014,
        -0.049427457208484106,
        -0.049427419413964585,
        -2.2481984568114893e-05,
        -1.9609640769747115e-05,
        -2.2402892150031446e-05,
        -0.04942743831122411,
        -0.054061281321779536,
        -0.05406123998402363,
        -2.458967062136878e-05,
        -2.144804459191168e-05,
        -2.4503163289142105e-05,
        -0.05406126065290154,
        -0.05869510543507462,
        -0.05869506055408264,
        -2.669735667465435e-05,
        -2.3286448414064395e-05,
        -2.6603434428177638e-05,
        -0.05869508299457876,
        -0.06332892954837029,
        -0.06332888112414166,
        -2.8805042727891615e-05,
        -2.5124852236179422e-05,
        -2.870370556735384e-05,
        -0.06332890533625601,
        6.281876266642259e-05,
        0.0001777872126568346,
        0.0,
        0.0,
        7.452322023011648e-05,
        -3.403460725438241e-05,
        8.326825445091975e-06,
        -0.00017404399955675535,
        0.0,
        -0.0002590758723430126,
        1.2789234855478488e-05,
        0.0002571493199733613,
        -0.00015865585587974038,
        2.4183675310791536e-06,
        -0.00013018075200641726,
        -0.0001650870444391916,
        0.00023689462816230898,
        9.192310917943862e-05,
        0.0002511353757556437,
        -9.839262078844366e-05,
        0.0,
        0.0001229889938840256,
        0.00014593282676368945,
        5.941114674325618e-05,
        4.45864881965141e-05,
        0.00012207457228296712,
        1.0907505803009796e-05,
        0.00012749455901961526,
        0.0001760585913079148,
        -2.4495332347665723e-05,
        -9.867985711548336e-05,
        0.0001744034940199545,
        4.7417656695610193e-05,
        0.0,
        -0.00030168056224534937,
        3.406216989959129e-05,
        -0.0002775496196744975,
        -0.00011435323773971692,
        0.0004848918112664947,
        -0.00012299996503845103,
        8.682561496597763e-05,
        0.00010752478384162229,
        7.009245401224728e-05,
        -8.278402777323121e-05,
        0.0001111059463306123,
        2.062011867098934e-06,
        0.00030483059477354977,
        2.0947185519842955e-05
      ],
      [
        -0.08615149552875648,
        0.017238213843851036,
        -1.5840312408798122e-05,
        -1.386056613872647e-05,
        -1.547840920087367e-05,
        -0.03445664084245279,
        -0.09907421985807022,
        0.019823945920428514,
        -1.8216359270120276e-05,
        -1.5939651059527868e-05,
        -1.7800170580877974e-05,
        -0.03962513696882071,
        -0.1119969441873836,
        0.022409677997006466,
        -2.0592406131421244e-05,
        -1.8018735980316136e-05,
        -2.0121931961125303e-05,
        -0.04479363309518843,
        1.269064716556252,
        0.02499541007358387,
        -2.296845299272079e-05,
        -2.0097820901144194e-05,
        -2.2443693341236334e-05,
        -0.04996212922155655,
        -0.13784239284601055,
        0.02758114215016128,
        -2.5344499854089015e-05,
        -2.2176905821953912e-05,
        -2.476545472121921e-05,
        -0.05513062534792441,
        -0.150765117175324,
        0.030166874226739072,
        -2.7720546715400516e-05,
        -2.425599074276566e-05,
        -2.708721610138854e-05,
        -0.060299121474292484,
        -0.16368784150463747,
        0.03275260630331678,
        -3.0096593576759848e-05,
        -2.6335075663558794e-05,
        -2.940897748144412e-05,
        -0.06546761760066037,
        -0.1766105658339508,
        0.03533833837989463,
        -3.247264043804663e-05,
        -2.8414160584303273e-05,
        -3.1730738861682716e-05,
        -0.07063611372702798,
        1.7543125687148302e-05,
        0.00021846751498476565,
        0.0,
        0.0,
        7.126985820791589e-05,
        -2.761067590125383e-05,
        1.18653851396498e-06,
        -0.00015333390016695992,
        0.0,
        -0.000329983333021725,
        1.8428672712125544e-05,
        0.0001721384096506957,
        -0.0002063270398423465,
        1.2096367396236134e-05,
        -7.646120871041005e-05,
        -0.00014467148294703718,
        0.00028809853802176704,
        -1.489076863052116e-05,
        0.0002700075303157128,
        -7.466847659357808e-05,
        0.0,
        0.00014101562200616145,
        0.00018485118375439452,
        0.00015309611489090785,
        5.6696355231842945e-05,
        0.00014366566465792114,
        4.9804955898363224e-05,
        0.00015510228345511645,
        0.0002353111235209767,
        6.250786068821756e-05,
        -0.00019372097760484274,
        0.0002058030987545949,
        6.672435770339264e-05,
        0.0,
        -0.0004230254221624529,
        3.442153475244364e-05,
        -0.0003430131344394949,
        -8.15663713966265e-05,
        0.0005389095988252291,
        -0.00012315431340975357,
        8.371518048288574e-05,
        0.0001334150912900006,
        1.2141105934118288e-05,
        -3.1479890302813475e-05,
        0.00013283690292255945,
        2.6610957664584817e-05,
        0.0002850211565886308,
        3.139711597756772e-07
      ],
      [
        0.01723821384385088,
        -0.08615144283447417,
        -1.5504762229412823e-05,
        -1.3479798395984608e-05,
        -1.5756392354678626e-05,
        -0.03445661449531169,
        0.019823945920428417,
        -0.09907415925964547,
        -1.7830476563840328e-05,
        -1.5501768155379887e-05,
        -1.8119851207738176e-05,
        -0.039625106669608445,
        0.022409677997006057,
        -0.11199687568481642,
        -2.0156190898222612e-05,
        -1.752373791475346e-05,
        -2.048331006108285e-05,
        -0.04479359884390515,
        0.024995410073583923,
        1.269064792962961,
        -2.2481905232629684e-05,
        -1.9545707674175482e-05,
        -2.2846768914225942e-05,
        -0.04996209101820203,
        0.027581142150161424,
        -0.1378423085351592,
        -2.4807619567082e-05,
        -2.1567677433571426e-05,
        -2.5210227767290035e-05,
        -0.055130583192498764,
        0.030166874226738947,
        -0.15076502496033026,
        -2.713333390149187e-05,
        -2.358964719296689e-05,
        -2.7573686620534855e-05,
        -0.06029907536679564,
        0.032752606303316674,
        -0.16368774138550146,
        -2.94590482359245e-05,
        -2.56116169523542e-05,
        -2.9937145473709432e-05,
        -0.0654675675410924,
        0.035338338379894293,
        -0.17661045781067233,
        -3.178476257031892e-05,
        -2.7633586711707275e-05,
        -3.23006043270099e-05,
        -0.07063605971538904,
        0.0001225910372030866,
        0.00017813472866756052,
        0.0,
        0.0,
        9.497424848005374e-05,
        -4.831267873325309e-05,
        1.7388687472530082e-05,
        -0.00023491809884774756,
        0.0,
        -0.00024795515139821016,
        1.0101158882255234e-05,
        0.0004015023810501559,
        -0.0001475975617766918,
        -6.701547586197926e-06,
        -0.00021394200736193604,
        -0.00022359961624158508,
        0.0002403587093797302,
        0.0002199500122354569,
        0.0002902175387267401,
        -0.0001448227544076729,
        0.0,
        0.00013334444123363766,
        0.0001406912759575649,
        -2.05635567820679e-05,
        4.276581075560719e-05,
        0.00012865453507178784,
        -2.5472827541563053e-05,
        0.00012930865587178726,
        0.00015743496479025563,
        -0.00011715129439855141,
        -2.6411011346147568e-05,
        0.00018325084942122163,
        3.905349182587951e-05,
        0.0,
        -0.0002499542936211335,
        4.156330580098001e-05,
        -0.0002761360171543893,
        -0.00017352931275643277,
        0.0005427721340373011,
        -0.0001512302239754105,
        0.00010997272976139664,
        0.00010644788808850361,
        0.00014421898378439807,
        -0.0001531921716523879,
        0.00011501482347665639,
        -2.201108504307759e-05,
        0.0003949855548386437,
        4.641436573937877e-05
      ],
      [
        -1.5840312408426698e-05,
        -1.5504762229535087e-05,
        -0.10334945481647739,
        3.3759356003676964e-05,
        3.50546154072837e-05,
        -1.5672537319014364e-05,
        -1.8216359269605673e-05,
        -1.783047656374807e-05,
        -0.11885187303894959,
        3.882325940424731e-05,
        4.031280771808829e-05,
        -1.8023417916993956e-05,
        -2.059240613071463e-05,
        -2.0156190898642036e-05,
        -0.13435429126142082,
        4.388716280474633e-05,
        4.557100002938288e-05,
        -2.0374298514826277e-05,
        -2.296845299282737e-05,
        -2.248190523264102e-05,
        1.244127675589055,
        4.895106620533973e-05,
        5.0829192340468873e-05,
        -2.2725179112537153e-05,
        -2.5344499853481817e-05,
        -2.480761956665826e-05,
        -0.16535912770636416,
        5.401496960587411e-05,
        5.608738465119774e-05,
        -2.5076059710638555e-05,
        -2.7720546714595625e-05,
        -2.713333390132913e-05,
        -0.1808615459288362,
        5.907887300646736e-05,
        6.134557696244558e-05,
        -2.7426940308168058e-05,
        -3.0096593576167403e-05,
        -2.9459048236023777e-05,
        -0.19636396415130775,
        6.414277640699059e-05,
        6.660376927327312e-05,
        -2.9777820905837382e-05,
        -3.2472640437349586e-05,
        -3.178476257074006e-05,
        -0.21186638237377897,
        6.920667980741442e-05,
        7.18619615845973e-05,
        -3.212870150428395e-05,
        -0.00013421069343314007,
        -0.00039131895582259727,
        0.0,
        0.0,
        -0.00013496156104429288,
        0.00017087358783148449,
        -0.0001003856017760038,
        0.0004141547056196515,
        0.0,
        0.0006879860050037649,
        4.282586534354123e-05,
        -0.00029594733936811897,
        0.0003973500370474421,
        3.735876294543811e-05,
        0.0003138933160735756,
        0.0004107386032485737,
        -0.0004896536863138254,
        -3.293263466445483e-05,
        -0.0005579214406194206,
        0.0002809063551984801,
        0.0,
        -0.0005310778869165302,
        -0.00029769204662271725,
        -0.0003438590687691721,
        -0.0002572188638339143,
        -0.00042762723872101353,
        -0.00018926113133191954,
        -0.0006513892680544367,
        -0.0004431617099621108,
        -0.00024904097372255193,
        0.00030213789405678093,
        -0.0003037523349075217,
        -0.00014561418973982242,
        0.0,
        0.0009303344012304243,
        -5.0428369369226014e-05,
        0.0005285685934568704,
        0.00022212631242364767,
        -0.0015300925038431662,
        0.00016380490927065669,
        -6.198487646943108e-05,
        -0.00018447110507065003,
        -5.8456049175604795e-05,
        0.00018362315890563862,
        -0.0005883878057290361,
        6.907428747067366e-05,
        -0.00044810281891341703,
        1.4572197794795495e-05
      ],
      [
        -1.3860566138281318e-05,
        -1.3479798396031832e-05,
        3.375935600363995e-05,
        -0.10335720165798923,
        3.033686069676289e-05,
        -1.3670182267038889e-05,
        -1.593965105890325e-05,
        -1.5501768155371152e-05,
        3.882325940422672e-05,
        -0.11886078190668771,
        3.488738980086944e-05,
        -1.5720709607529124e-05,
        -1.8018735979377186e-05,
        -1.7523737915087854e-05,
        4.3887162804705625e-05,
        -0.13436436215538602,
        3.9437918905642775e-05,
        -1.7771236947521902e-05,
        -2.0097820901235118e-05,
        -1.954570767416375e-05,
        4.895106620525381e-05,
        1.244116442668865,
        4.398844800998496e-05,
        -1.9821764287396807e-05,
        -2.2176905821511555e-05,
        -2.156767743328402e-05,
        5.401496960588416e-05,
        -0.16537152265278277,
        4.853897711419565e-05,
        -2.187229162798778e-05,
        -2.4255990742193733e-05,
        -2.358964719268573e-05,
        5.907887300642139e-05,
        -0.18087510290148112,
        5.308950621894455e-05,
        -2.39228189675639e-05,
        -2.6335075662870888e-05,
        -2.561161695246951e-05,
        6.414277640704895e-05,
        -0.19637868315017948,
        5.764003532318622e-05,
        -2.597334630740384e-05,
        -2.8414160583922583e-05,
        -2.7633586712043838e-05,
        6.920667980753138e-05,
        -0.21188226339887772,
        6.2190564427847e-05,
        -2.802387364818512e-05,
        -1.857786349694301e-05,
        -0.000393199046442091,
        0.0,
        0.0,
        -5.305708725044683e-05,
        0.0001206103979245288,
        -1.415368708545552e-05,
        0.0003328703633549098,
        0.0,
        0.0005448833226051178,
        7.802592788602967e-05,
        -0.000366118352582865,
        0.0004729577585761272,
        -1.3326252347279748e-05,
        0.00042460564903847096,
        0.0005215993948688705,
        -0.0002852519935199201,
        -0.00023142588687648897,
        -0.00045601688678137056,
        8.844781668597002e-05,
        0.0,
        -0.00044314845759789586,
        -0.00024674960545430664,
        -8.940955446084705e-05,
        -1.6555019749795986e-05,
        -0.0001760120215268273,
        -0.00045879736294931605,
        -0.0003589944850542571,
        -0.0003098303405812358,
        0.00011968637259996825,
        0.00032813791306287194,
        -0.0004686055823269084,
        2.2784204153465198e-05,
        0.0,
        0.0004992758501887859,
        6.204877755963617e-06,
        0.0003411293818344646,
        0.0002237858887889933,
        -0.001262921949396015,
        0.0001741347188301272,
        -0.00019701899503966593,
        -0.00016073611499822844,
        -2.6719507248466374e-05,
        3.2107913908440295e-05,
        -0.0006322511069212577,
        0.00016243950271808467,
        -0.0005666915618935836,
        7.800391969822234e-05
      ],
      [
        -1.5478409200752584e-05,
        -1.5756392354832065e-05,
        3.505461540711928e-05,
        3.03368606964958e-05,
        -0.10335267761191191,
        -1.5617400777463086e-05,
        -1.780017058047477e-05,
        -1.811985120773419e-05,
        4.031280771821723e-05,
        3.4887389800930615e-05,
        -0.11885557925369925,
        -1.7960010894366925e-05,
        -2.0121931960296027e-05,
        -2.0483310061580462e-05,
        4.5571000029224434e-05,
        3.943791890535404e-05,
        -0.1343584808954857,
        -2.0302621011005802e-05,
        -2.244369334136822e-05,
        -2.2846768914059134e-05,
        5.082919234026219e-05,
        4.3988448009879025e-05,
        1.2441230025356758,
        -2.2645231127192754e-05,
        -2.476545472088595e-05,
        -2.5210227766927376e-05,
        5.608738465143722e-05,
        4.8538977114376256e-05,
        -0.16536428417905968,
        -2.4987841244364174e-05,
        -2.7087216100869973e-05,
        -2.757368662039132e-05,
        6.134557696249968e-05,
        5.3089506218820164e-05,
        -0.1808671858208464,
        -2.7330451360654643e-05,
        -2.9408977481515208e-05,
        -2.9937145473523024e-05,
        6.660376927363713e-05,
        5.76400353232505e-05,
        -0.19637008746263346,
        -2.9673061477197745e-05,
        -3.1730738861086574e-05,
        -3.230060432693381e-05,
        7.186196158462121e-05,
        6.219056442758896e-05,
        -0.21187298910441987,
        -3.201567159441296e-05,
        -0.0002281679569411038,
        -0.0005137413195994403,
        0.0,
        0.0,
        -0.0003139181102372073,
        5.7211441955217437e-05,
        -1.0657321880365538e-05,
        0.0004006475049392526,
        0.0,
        0.0007661929123369874,
        -0.00015277514042494878,
        -0.0009071830751012103,
        0.0003282859215949351,
        -5.59056312773398e-05,
        0.00027739449800671495,
        0.00042841281899820056,
        -0.0008467407247611325,
        -0.00018991852671458833,
        -0.0007418280157932177,
        0.00019736863493024725,
        0.0,
        -0.00022774255966703528,
        -0.0003404861547627914,
        -0.00014955208062444878,
        -6.435913404759133e-05,
        -0.0004214991560998053,
        8.21137204869721e-05,
        -0.00017777524290316736,
        -0.00043279232286332574,
        0.00018847829848516858,
        0.00012043715718015,
        -0.00048025185082203826,
        -8.512931518637773e-05,
        0.0,
        0.0007261760280315159,
        -0.00012989128266525143,
        0.0007803605783408763,
        0.0002798321012250717,
        -0.0011550218174447428,
        0.0004071471294349278,
        -0.00033433024802812406,
        -0.00030671466073776775,
        -0.0003602040882909229,
        0.00016272219751717703,
        -0.0002179336875727301,
        -7.995014610539732e-05,
        -0.0010443812332334435,
        -0.00012683067541286092
      ],
      [
        -0.03445664084245293,
        -0.03445661449531168,
        -1.5672537319010854e-05,
        -1.3670182267221821e-05,
        -1.5617400777488527e-05,
        -0.0344566276688824,
        -0.03962513696882104,
        -0.03962510666960858,
        -1.8023417916872607e-05,
        -1.572070960730018e-05,
        -1.7960010893981203e-05,
        -0.039625121819214584,
        -0.04479363309518892,
        -0.04479359884390514,
        -2.0374298514699923e-05,
        -1.7771236947361268e-05,
        -2.0302621010732407e-05,
        -0.044793615969546924,
        -0.049962129221556524,
        -0.04996209101820201,
        -2.2725179112540067e-05,
        -1.9821764287466454e-05,
        -2.2645231127311745e-05,
        1.3440222749530726,
        -0.05513062534792481,
        -0.055130583192499055,
        -2.507605971043646e-05,
        -2.1872291627548902e-05,
        -2.4987841243798973e-05,
        -0.05513060427021179,
        -0.06029912147429284,
        -0.06029907536679578,
        -2.7426940308281842e-05,
        -2.3922818967632533e-05,
        -2.7330451360458707e-05,
        -0.060299098420544185,
        -0.06546761760066054,
        -0.06546756754109238,
        -2.9777820906164364e-05,
        -2.597334630770272e-05,
        -2.967306147702868e-05,
        -0.06546759257087653,
        -0.07063611372702863,
        -0.07063605971538896,
        -3.2128701503990735e-05,
        -2.802387364773114e-05,
        -3.20156715937543e-05,
        -0.07063608672120862,
        7.006708145129927e-05,
        0.0001983011217859627,
        0.0,
        0.0,
        8.312205326411119e-05,
        -3.796167734167964e-05,
        9.287613007545413e-06,
        -0.0001941259995179061,
        0.0,
        -0.0002889692422857364,
        1.4264915771580542e-05,
        0.0002868203953882126,
        -0.00017696230081798634,
        2.6974099231824406e-06,
        -0.0001452016080504466,
        -0.00018413554959490852,
        0.0002642286236572394,
        0.00010252962180136511,
        0.00028011253452355823,
        -0.0001097456154930755,
        0.0,
        0.00013718003162211924,
        0.00016277122985239496,
        6.62662790771767e-05,
        4.973108300692156e-05,
        0.0001361600998826249,
        1.2166064154198027e-05,
        0.00014220546967637793,
        0.0001963730441785893,
        -2.7321716859763283e-05,
        -0.00011006599447728235,
        0.0001945269740827189,
        5.2888924811930736e-05,
        0.0,
        -0.0003364898578624386,
        3.799242027812211e-05,
        -0.0003095745757989991,
        -0.00012754784208866886,
        0.0005408408664287383,
        -0.00013719226868806234,
        9.684395511570474e-05,
        0.00011993148964490023,
        7.8180044849838e-05,
        -9.233603097279204e-05,
        0.00012392586318078815,
        2.299936283483192e-06,
        0.00034000335571629655,
        2.336416841099293e-05
      ],
      [
        -0.09506371920414527,
        0.01902147734493895,
        -1.7478965416122693e-05,
        -1.529441780794095e-05,
        -1.7079623945463503e-05,
        -0.038021120929603275,
        -0.10932327708476723,
        0.021874698946679604,
        -2.0100810228554697e-05,
        -1.7588580479123385e-05,
        -1.9641567537143265e-05,
        -0.04372428906904355,
        -0.12358283496538942,
        0.024727920548420764,
        -2.2722655040960134e-05,
        -1.988274315029143e-05,
        -2.220351112908569e-05,
        -0.04942745720848422,
        -0.13784239284601055,
        0.027581142150161313,
        -2.5344499853370846e-05,
        -2.217690582150398e-05,
        -2.476545472088559e-05,
        -0.05513062534792483,
        1.2418824343463166,
        0.030434363751901908,
        -2.7966344665833e-05,
        -2.4471068492695263e-05,
        -2.7327398312553585e-05,
        -0.060833793487365034,
        -0.16636150860725485,
        0.033287585353642894,
        -3.058818947824886e-05,
        -2.6765231163889563e-05,
        -2.9889341904395493e-05,
        -0.06653696162680581,
        -0.18062106648787574,
        0.03614080695538385,
        -3.321003429070834e-05,
        -2.9059393835063276e-05,
        -3.2451285496131644e-05,
        -0.0722401297662463,
        -0.19488062436849846,
        0.038994028557124846,
        -3.5831879103080184e-05,
        -3.135355650618253e-05,
        -3.5013229088069104e-05,
        -0.07794329790568655,
        1.9357931819077812e-05,
        0.00024106760274638593,
        0.0,
        0.0,
        7.864260216405908e-05,
        -3.046695272115892e-05,
        1.3092838862188669e-06,
        -0.00016919602777751218,
        0.0,
        -0.0003641195398665897,
        2.033508714014815e-05,
        0.00018994583131942902,
        -0.00022767121636300697,
        1.3347715755528182e-05,
        -8.437098891613429e-05,
        -0.00015963749842063104,
        0.0003179018350404773,
        -1.6431192982091247e-05,
        0.0002979393437862074,
        -8.239280176608273e-05,
        0.0,
        0.00015560344496260483,
        0.00020397372002758894,
        0.0001689336439767981,
        6.25614954304683e-05,
        0.0001585276299668889,
        5.495719270967831e-05,
        0.00017114734726834008,
        0.0002596536535575729,
        6.897419111612177e-05,
        -0.00021376107874493725,
        0.0002270930744801443,
        7.362687748454571e-05,
        0.0,
        -0.0004667866726902381,
        3.798238316852985e-05,
        -0.0003784972517754548,
        -9.000427188236053e-05,
        0.0005946588676456762,
        -0.00013589441479612533,
        9.237537156748447e-05,
        0.00014721665244908045,
        1.3397082411904734e-05,
        -3.4736430680918216e-05,
        0.0001465786515032445,
        2.9363815370234262e-05,
        0.0003145061038078715,
        3.464508932730112e-07
      ],
      [
        0.019021477344938763,
        -0.09506366105873043,
        -1.7108703149496696e-05,
        -1.4874260298867057e-05,
        -1.7386363977327955e-05,
        -0.03802109185689583,
        0.021874698946679354,
        -0.10932321021754002,
        -1.967500862193818e-05,
        -1.7105399343694516e-05,
        -1.9994318573770122e-05,
        -0.04372425563543023,
        0.024727920548420202,
        -0.1235827593763495,
        -2.2241314094330036e-05,
        -1.9336538388497734e-05,
        -2.2602273170527324e-05,
        -0.049427419413964474,
        0.027581142150161376,
        -0.13784230853515916,
        -2.4807619566749584e-05,
        -2.1567677433354772e-05,
        -2.521022776706196e-05,
        -0.05513058319249899,
        0.030434363751902033,
        1.2418825273789786,
        -2.7373925039218863e-05,
        -2.3798816478183445e-05,
        -2.781818236350907e-05,
        -0.060833746971033234,
        0.03328758535364276,
        -0.16636140685277853,
        -2.994023051164083e-05,
        -2.6029955523011068e-05,
        -3.0426136960155734e-05,
        -0.06653691074956773,
        0.03614080695538366,
        -0.18062095601158762,
        -3.250653598408762e-05,
        -2.826109456782998e-05,
        -3.303409155672496e-05,
        -0.07224007452810213,
        0.03899402855712437,
        -0.19488050517039746,
        -3.507284145649282e-05,
        -3.0492233612609735e-05,
        -3.5642046153432925e-05,
        -0.07794323830663646,
        0.00013527286861260874,
        0.000196562459231961,
        0.0,
        0.0,
        0.00010479917082238389,
        -5.331054204361971e-05,
        1.918751722291455e-05,
        -0.00025921997116205923,
        0.0,
        -0.0002736056842277655,
        1.1146106350934083e-05,
        0.00044303711005286224,
        -0.00016286627503224872,
        -7.3948110834056115e-06,
        -0.00023607393901436342,
        -0.00024673061094252673,
        0.000265223403497726,
        0.00024270346174894275,
        0.00032024004271431284,
        -0.00015980441865490877,
        0.0,
        0.00014713869380939158,
        0.0001552455459124251,
        -2.2690821299120104e-05,
        4.718986014778453e-05,
        0.0001419636248585615,
        -2.810794763851774e-05,
        0.0001426854134245804,
        0.00017372134041469104,
        -0.00012927039382359455,
        -2.9143184942091815e-05,
        0.00020220783389241027,
        4.309350821519063e-05,
        0.0,
        -0.00027581163433746547,
        4.586295812692932e-05,
        -0.00030470181203644595,
        -0.00019148062098294692,
        0.000598920975436362,
        -0.00016687472987488467,
        0.0001213492191003842,
        0.00011745973859400642,
        0.00015913818902470802,
        -0.00016903963769857781,
        0.00012691290867830035,
        -2.4288093823251325e-05,
        0.000435846129465511,
        5.121585187304437e-05
      ],
      [
        -1.7478965416205587e-05,
        -1.7108703149856177e-05,
        -0.11404077772852705,
        3.725170317652317e-05,
        3.868095493224052e-05,
        -1.72938342830714e-05,
        -2.0100810228559718e-05,
        -1.967500862209495e-05,
        -0.13114689438780638,
        4.283945865302165e-05,
        4.4483098171760144e-05,
        -1.9887909425674677e-05,
        -2.2722655040824713e-05,
        -2.224131409508507e-05,
        -0.14825301104708508,
        4.8427214129443203e-05,
        5.028524141182574e-05,
        -2.2481984568118512e-05,
        -2.534449985417729e-05,
        -2.480761956708782e-05,
        -0.16535912770636424,
        5.4014969605968284e-05,
        5.608738465165239e-05,
        -2.5076059710416565e-05,
        -2.7966344665938368e-05,
        -2.737392503911035e-05,
        1.2115191407073076,
        5.960272508242769e-05,
        6.188952789108764e-05,
        -2.767013485315158e-05,
        -3.058818947821869e-05,
        -2.9940230511854208e-05,
        -0.19957136102492265,
        6.51904805589516e-05,
        6.769167113109287e-05,
        -3.026420999525987e-05,
        -3.32100342909912e-05,
        -3.250653598462459e-05,
        -0.21667747768420154,
        7.077823603540107e-05,
        7.349381437063008e-05,
        -3.285828513752387e-05,
        -3.583187910331139e-05,
        -3.5072841457418486e-05,
        -0.23378359434348012,
        7.636599151173587e-05,
        7.929595761073476e-05,
        -3.5452360280635985e-05,
        -0.00014809455827211203,
        -0.0004318002271145396,
        0.0,
        0.0,
        -0.00014892310184181406,
        0.00018855016588054303,
        -0.00011077031919933592,
        0.0004569982958526192,
        0.0,
        0.000759156971040578,
        4.725612727204745e-05,
        -0.00032656258137814145,
        0.00043845521328965436,
        4.1223462560501575e-05,
        0.0003463650384141171,
        0.00045322880356816206,
        -0.0005403075159327796,
        -3.633945894719674e-05,
        -0.000615637451717121,
        0.00030996563332187887,
        0.0,
        -0.0005860169786710858,
        -0.0003284877755874609,
        -0.0003794306965538177,
        -0.00028382771181617795,
        -0.0004718645392707158,
        -0.0002088398690593313,
        -0.0007187743647592824,
        -0.0004890060247892019,
        -0.0002748038330763527,
        0.00033339353826772854,
        -0.0003351749902453876,
        -0.0001606777266125756,
        0.0,
        0.0010265758910185734,
        -5.5645097236750586e-05,
        0.0005832481031188959,
        0.0002451048964646623,
        -0.0016883779352853405,
        0.00018075024470747206,
        -6.83971050714749e-05,
        -0.00020355432284102087,
        -6.450322667776784e-05,
        0.00020261865810252376,
        -0.0006492555097688876,
        7.621990340908189e-05,
        -0.0004944582829402144,
        1.607966652810694e-05
      ],
      [
        -1.5294417807763172e-05,
        -1.487426029907101e-05,
        3.725170317642215e-05,
        -0.11404932596743657,
        3.347515663093463e-05,
        -1.5084339053287128e-05,
        -1.758858047879425e-05,
        -1.7105399343859657e-05,
        4.2839458652930544e-05,
        -0.13115672486255192,
        3.8496430125124874e-05,
        -1.734698991175959e-05,
        -1.98827431496628e-05,
        -1.93365383890646e-05,
        4.842721412931992e-05,
        -0.14826412375766776,
        4.351770362005027e-05,
        -1.9609640769683063e-05,
        -2.2176905822058907e-05,
        -2.1567677433561794e-05,
        5.40149696057858e-05,
        -0.16537152265278268,
        4.853897711450054e-05,
        -2.187229162747647e-05,
        -2.4471068492708856e-05,
        -2.3798816478108466e-05,
        5.960272508234175e-05,
        1.2115054635250535,
        5.356025060880429e-05,
        -2.413494248605965e-05,
        -2.676523116380653e-05,
        -2.6029955522965585e-05,
        6.519048055879563e-05,
        -0.19958632044301342,
        5.858152410370534e-05,
        -2.639759334352366e-05,
        -2.9059393834899166e-05,
        -2.82610945682447e-05,
        7.077823603534793e-05,
        -0.2166937193381289,
        6.360279759804357e-05,
        -2.8660244201278184e-05,
        -3.135355650640539e-05,
        -3.049223361329312e-05,
        7.636599151174203e-05,
        -0.2338011182332448,
        6.86240710928455e-05,
        -3.0922895060071314e-05,
        -2.049971144291768e-05,
        -0.0004338748098701779,
        0.0,
        0.0,
        -5.8545751454651125e-05,
        0.00013308733563599965,
        -1.561786161259001e-05,
        0.0003673052285309838,
        0.0,
        0.000601250562863747,
        8.609757559507585e-05,
        -0.0004039926649159891,
        0.0005218844232538118,
        -1.470483017444678e-05,
        0.00046853037135102625,
        0.0005755579529606028,
        -0.0003147608204446259,
        -0.0002553664958573859,
        -0.0005031910474824941,
        9.759759082749912e-05,
        0.0,
        -0.0004889914014871262,
        -0.0002722754267112873,
        -9.865881871649303e-05,
        -1.8267607999173848e-05,
        -0.00019422016167884362,
        -0.0005062591591203341,
        -0.00039613184557376837,
        -0.00034188175512400845,
        0.00013206772148715426,
        0.0003620832144153642,
        -0.0005170820218769102,
        2.5141190791951623e-05,
        0.0,
        0.0005509250760749297,
        6.846761663728776e-06,
        0.0003764186282352469,
        0.00024693615314275706,
        -0.0013935690476078381,
        0.00019214865526049322,
        -0.0002174002703914725,
        -0.00017736398896623276,
        -2.9483594209046024e-05,
        3.542942223956777e-05,
        -0.0006976563938482192,
        0.0001792435892033658,
        -0.0006253148269157678,
        8.607329069576642e-05
      ],
      [
        -1.7079623945622125e-05,
        -1.7386363977728182e-05,
        3.868095493191555e-05,
        3.347515663054993e-05,
        -0.11404433391659259,
        -1.7232993961311976e-05,
        -1.96415675370427e-05,
        -1.9994318574031208e-05,
        4.448309817172795e-05,
        3.8496430125089495e-05,
        -0.13115098400408193,
        -1.981794305582408e-05,
        -2.22035111285644e-05,
        -2.260227317137622e-05,
        5.028524141144589e-05,
        4.3517703619615524e-05,
        -0.14825763409157036,
        -2.24028921500406e-05,
        -2.4765454721466316e-05,
        -2.5210227767211786e-05,
        5.608738465119909e-05,
        4.853897711425578e-05,
        -0.16536428417905974,
        -2.498784124376383e-05,
        -2.732739831264697e-05,
        -2.7818182363477885e-05,
        6.188952789111056e-05,
        5.3560250608861756e-05,
        1.2115134508064005,
        -2.757279033856905e-05,
        -2.9889341904344444e-05,
        -3.0426136960400543e-05,
        6.769167113088546e-05,
        5.858152410341118e-05,
        -0.1995775843540377,
        -3.0157739432398184e-05,
        -3.245128549678558e-05,
        -3.303409155695707e-05,
        7.349381437074464e-05,
        6.360279759794574e-05,
        -0.21668423444152635,
        -3.274268852651724e-05,
        -3.501322908803e-05,
        -3.564204615382142e-05,
        7.92959576104403e-05,
        6.862407109237759e-05,
        -0.23379088452901514,
        -3.5327637621374376e-05,
        -0.00025177153871212696,
        -0.0005668869733624073,
        0.0,
        0.0,
        -0.000346392397500517,
        6.312986699018181e-05,
        -1.17598034539353e-05,
        0.0004420937985556032,
        0.0,
        0.0008454542480903584,
        -0.00016857946531263055,
        -0.0010010296001050358,
        0.0003622465341742284,
        -6.168897245358703e-05,
        0.00030609048052071715,
        0.0004727313864426368,
        -0.0009343345928221271,
        -0.0002095652708862916,
        -0.0008185688450072243,
        0.00021778607992083298,
        0.0,
        -0.00025130213480560327,
        -0.0003757088604510702,
        -0.00016502298547502436,
        -7.101697549841364e-05,
        -0.00046510251705136327,
        9.060824329168607e-05,
        -0.00019616578528695657,
        -0.00047756394246413936,
        0.00020797605347546336,
        0.0001328961734326735,
        -0.0005299330767822722,
        -9.39357960928194e-05,
        0.0,
        0.000801297686139943,
        -0.00014332831190236791,
        0.0008610875347309296,
        0.00030878024963458675,
        -0.0012745068330260038,
        0.000449265797987609,
        -0.00036891613576785356,
        -0.00033844376357106864,
        -0.00039746658019692194,
        0.0001795555282919863,
        -0.00024047855180043257,
        -8.822085087782049e-05,
        -0.001152420671143797,
        -0.00013995109011280478
      ],
      [
        -0.03802112092960308,
        -0.03802109185689562,
        -1.7293834283188332e-05,
        -1.5084339053777696e-05,
        -1.7232993961736496e-05,
        -0.038021106393249425,
        -0.043724289069043666,
        -0.04372425563543003,
        -1.9887909425681582e-05,
        -1.734698991183873e-05,
        -1.9817943055852028e-05,
        -0.04372427235223676,
        -0.049427457208484314,
        -0.04942741941396415,
        -2.2481984568136655e-05,
        -1.9609640769880415e-05,
        -2.2402892150252322e-05,
        -0.04942743831122409,
        -0.05513062534792432,
        -0.055130583192498805,
        -2.5076059710605318e-05,
        -2.1872291627971324e-05,
        -2.498784124446899e-05,
        -0.055130604270211714,
        -0.06083379348736504,
        -0.06083374697103323,
        -2.76701348531285e-05,
        -2.4134942486037158e-05,
        -2.757279033857051e-05,
        1.333150614843751,
        -0.0665369616268054,
        -0.06653691074956754,
        -3.026420999560094e-05,
        -2.639759334410388e-05,
        -3.015773943287251e-05,
        -0.0665369361881864,
        -0.07224012976624579,
        -0.0722400745281016,
        -3.285828513811322e-05,
        -2.8660244202156394e-05,
        -3.2742688527077406e-05,
        -0.07224010214717391,
        -0.07794329790568674,
        -0.07794323830663606,
        -3.545236028056122e-05,
        -3.092289506016231e-05,
        -3.532763762145167e-05,
        -0.07794326810616127,
        7.731540020311242e-05,
        0.00021881503098339437,
        0.0,
        0.0,
        9.172088645584372e-05,
        -4.188874737955951e-05,
        1.0248400539543895e-05,
        -0.0002142079994460486,
        0.0,
        -0.00031886261208992914,
        1.574059675388018e-05,
        0.0003164914707367162,
        -0.00019526874571460656,
        2.976452305137446e-06,
        -0.00016022246403985508,
        -0.0002031840547277686,
        0.0002915626192681057,
        0.00011313613438728272,
        0.00030908969329199984,
        -0.00012109861020411482,
        0.0,
        0.0001513710693932298,
        0.00017960963294772576,
        7.312141137547449e-05,
        5.487567778234731e-05,
        0.00015024562744110192,
