{
  "metadata": {
    "series_name": "generated_sine",
    "source_artifact": "models/force_resume_source/force_run.json",
    "series_length": 120,
    "train_length": 84,
    "test_length": 36,
    "epochs": 10,
    "resume_epochs": 6,
    "baseline_test_mae": 0.3167376183318737,
    "baseline_test_rmse": 0.39454995510478186,
    "final_test_mae": 0.31547775599671696,
    "final_test_rmse": 0.39485289262520495,
    "history": [
      {
        "epoch": 2,
        "train_mae": 0.013949699554532008,
        "train_rmse": 0.021018305960727422
      },
      {
        "epoch": 4,
        "train_mae": 0.008265979094588727,
        "train_rmse": 0.015407493642516895
      },
      {
        "epoch": 3,
        "train_mae": 0.007999521060621647,
        "train_rmse": 0.015125474800389472
      },
      {
        "epoch": 6,
        "train_mae": 0.007945809627829307,
        "train_rmse": 0.014928746123466593
      }
    ]
  },
  "encoder": {
    "amplitude": 10.0,
    "delta_scale": 1.4,
    "quadratic_scale": 0.7,
    "magnitude_scale": 0.5,
    "band_growth": 0.15
  },
  "reservoir": {
    "n_neurons": 48,
    "dt": 1.0,
    "max_weight": 2.0,
    "max_delay_limit": 50,
    "readout_decay": 0.92,
    "synapses": [
      {
        "5": -0.0063769685921850755,
        "8": -0.00010784560656041058,
        "9": -0.005926145067788769,
        "14": 0.0,
        "17": -0.00016965023225828726,
        "18": 0.0,
        "42": -0.002189743260984727
      },
      {
        "0": 2.0,
        "11": 2.0,
        "15": 2.0,
        "42": 2.0,
        "43": 2.0,
        "45": 2.0
      },
      {
        "0": 2.0,
        "14": 2.0,
        "25": 2.0,
        "27": 2.0,
        "36": 2.0,
        "47": 2.0
      },
      {
        "11": 2.0,
        "21": 2.0,
        "42": 2.0
      },
      {
        "1": 2.0,
        "2": 2.0,
        "5": 2.0,
        "10": 2.0,
        "36": 2.0
      },
      {
        "7": -0.019970897935420378,
        "10": -0.01402732526093268,
        "11": 0.0,
        "18": -0.003241747527853161,
        "19": -0.012676324858848368,
        "20": -0.00026829879853258715,
        "31": 0.0,
        "35": -0.03369595909635041,
        "39": -0.027035791646157412,
        "45": -0.008900319593824424
      },
      {
        "2": 2.0,
        "5": 2.0,
        "21": 2.0,
        "37": 2.0,
        "40": 2.0,
        "47": 2.0
      },
      {
        "12": 2.0,
        "26": 2.0,
        "31": 2.0,
        "47": 2.0
      },
      {
        "5": 2.0,
        "10": 2.0,
        "11": 2.0,
        "14": 2.0,
        "20": 2.0,
        "23": 2.0,
        "24": 2.0,
        "26": 2.0,
        "33": 2.0
      },
      {
        "21": 2.0,
        "25": 2.0,
        "26": 2.0,
        "44": 2.0,
        "45": 2.0
      },
      {
        "7": -0.010968313478947373,
        "12": 0.0,
        "15": -0.006732106291747467
      },
      {
        "5": 2.0,
        "7": 2.0,
        "15": 2.0,
        "36": 2.0,
        "39": 2.0,
        "41": 2.0
      },
      {
        "24": 2.0,
        "32": 2.0,
        "35": 2.0,
        "43": 2.0
      },
      {
        "5": 2.0,
        "12": 2.0,
        "34": 2.0
      },
      {
        "2": 2.0,
        "3": 2.0,
        "10": 2.0,
        "26": 2.0,
        "30": 2.0,
        "31": 2.0,
        "35": 2.0,
        "40": 2.0,
        "41": 2.0
      },
      {
        "6": -0.004756081920955139,
        "9": -0.006547150747194388,
        "14": 0.0,
        "18": -0.0037071482444666444,
        "24": -0.008045246805643235,
        "27": -0.01693493650797867,
        "28": 0.0,
        "46": 0.0
      },
      {
        "10": 2.0,
        "41": 2.0
      },
      {
        "0": 2.0,
        "8": 2.0,
        "10": 2.0,
        "30": 2.0,
        "33": 2.0,
        "34": 2.0
      },
      {
        "5": 2.0,
        "26": 2.0,
        "35": 2.0,
        "39": 2.0,
        "42": 2.0,
        "44": 2.0,
        "47": 2.0
      },
      {
        "0": 2.0,
        "10": 2.0,
        "15": 2.0,
        "25": 2.0,
        "29": 2.0,
        "36": 2.0,
        "39": 2.0,
        "43": 2.0,
        "47": 2.0
      },
      {
        "4": -8.24930394488444e-05,
        "5": -0.00024328510725082575,
        "6": -0.0002185863536600811,
        "10": -0.00010300399796303074,
        "13": -0.00015841437820595807,
        "15": -0.00010061188226018468,
        "18": -0.000248778292414312,
        "21": -0.0003159407819866537,
        "34": -0.0002495815566004004,
        "42": -0.00027699192451670926,
        "47": -0.00017793267509401186
      },
      {
        "6": 2.0,
        "19": 2.0,
        "29": 2.0,
        "45": 2.0
      },
      {
        "3": 2.0,
        "7": 2.0,
        "16": 2.0,
        "21": 2.0,
        "26": 2.0,
        "36": 2.0,
        "37": 2.0,
        "41": 2.0,
        "44": 2.0
      },
      {
        "27": 2.0,
        "29": 2.0,
        "33": 2.0,
        "35": 2.0,
        "44": 2.0,
        "45": 2.0,
        "47": 2.0
      },
      {
        "4": 2.0,
        "9": 2.0,
        "12": 2.0,
        "16": 2.0,
        "18": 2.0,
        "27": 2.0,
        "42": 2.0
      },
      {
        "6": -0.0010395501132193152,
        "15": -0.051830187668339966,
        "20": -0.0002551326722570546,
        "31": -6.836746947799525e-06,
        "32": -0.021257093308801756,
        "45": -0.017365066024319226
      },
      {
        "8": 2.0,
        "16": 2.0,
        "28": 2.0
      },
      {
        "0": 2.0,
        "9": 2.0,
        "12": 2.0,
        "17": 2.0,
        "20": 2.0,
        "21": 2.0,
        "24": 2.0,
        "33": 2.0,
        "36": 2.0,
        "37": 2.0,
        "38": 2.0,
        "44": 2.0,
        "47": 2.0
      },
      {
        "9": 2.0,
        "13": 2.0,
        "30": 2.0,
        "35": 2.0
      },
      {
        "0": 2.0,
        "2": 2.0,
        "9": 2.0,
        "10": 2.0,
        "12": 2.0,
        "16": 2.0,
        "18": 2.0,
        "39": 2.0
      },
      {
        "6": -0.00730978979170517,
        "23": 0.0
      },
      {
        "4": 2.0,
        "12": 2.0,
        "24": 2.0,
        "32": 2.0,
        "37": 2.0,
        "41": 2.0
      },
      {
        "7": 2.0,
        "11": 2.0,
        "14": 2.0,
        "16": 2.0,
        "23": 2.0,
        "25": 2.0,
        "30": 2.0,
        "33": 2.0,
        "40": 2.0,
        "41": 2.0
      },
      {
        "6": 2.0,
        "8": 2.0,
        "9": 2.0,
        "15": 2.0,
        "17": 2.0,
        "34": 2.0
      },
      {
        "4": 2.0,
        "10": 2.0,
        "29": 2.0,
        "38": 2.0,
        "41": 2.0,
        "43": 2.0,
        "44": 2.0,
        "47": 2.0
      },
      {
        "10": -0.011888626201498973,
        "20": -0.00014406184583559554,
        "26": -0.014692136535331088,
        "32": -0.05136750177313785,
        "47": -0.012227566144070919
      },
      {
        "4": 2.0,
        "5": 2.0,
        "14": 2.0,
        "20": 2.0,
        "22": 2.0,
        "38": 2.0,
        "41": 2.0
      },
      {
        "15": 2.0,
        "21": 2.0,
        "32": 2.0,
        "35": 2.0,
        "39": 2.0
      },
      {
        "3": 2.0,
        "18": 2.0,
        "20": 2.0,
        "23": 2.0,
        "30": 2.0,
        "36": 2.0,
        "39": 2.0,
        "40": 2.0,
        "45": 2.0
      },
      {
        "9": 2.0,
        "14": 2.0,
        "26": 2.0,
        "35": 2.0,
        "36": 2.0
      },
      {
        "9": 0.0,
        "12": 0.0,
        "17": 0.0,
        "29": -0.009790007373903547,
        "38": -0.014303308697381539,
        "39": -0.02654221542223828
      },
      {
        "14": 2.0,
        "38": 2.0,
        "43": 2.0,
        "44": 2.0,
        "45": 2.0
      },
      {
        "15": 2.0,
        "41": 2.0
      },
      {
        "9": 2.0,
        "12": 2.0,
        "14": 2.0,
        "17": 2.0,
        "19": 2.0,
        "20": 2.0,
        "27": 2.0,
        "35": 2.0,
        "41": 2.0
      },
      {
        "5": 2.0,
        "14": 2.0,
        "15": 2.0,
        "28": 2.0,
        "30": 2.0,
        "33": 2.0,
        "41": 2.0
      },
      {
        "8": -0.00026789521398965714,
        "27": -0.0097403634775546,
        "29": 0.0,
        "32": -0.004703018173037395,
        "39": 0.0,
        "41": -0.003259426433201346,
        "42": -0.0034107878525689414
      },
      {
        "16": 2.0,
        "26": 2.0,
        "27": 2.0,
        "41": 2.0,
        "44": 2.0
      },
      {
        "30": 2.0,
        "40": 2.0
      }
    ],
    "is_inhibitory": [
      true,
      false,
      false,
      false,
      false,
      true,
      false,
      false,
      false,
      false,
      true,
      false,
      false,
      false,
      false,
      true,
      false,
      false,
      false,
      false,
      true,
      false,
      false,
      false,
      false,
      true,
      false,
      false,
      false,
      false,
      true,
      false,
      false,
      false,
      false,
      true,
      false,
      false,
      false,
      false,
      true,
      false,
      false,
      false,
      false,
      true,
      false,
      false
    ]
  },
  "force_readout": {
    "weights": [
      [
        0.0002703795575520948,
        -0.0004960189221112089,
        0.0041841286182785825,
        -0.0033978263211335348,
        0.0002402391457209985,
        -0.00011281968230531233,
        0.00031093649126379147,
        -0.0005704217604290172,
        0.004811747911023162,
        -0.003907500269305024,
        0.0002762750176615531,
        -0.0001297426346618864,
        0.0003514934247612278,
        -0.0006448245986935984,
        0.005439367203774578,
        -0.004417174217469936,
        0.0003123108894167651,
        -0.00014666558696070373,
        0.0003920503583934944,
        -0.0007192274370359694,
        0.006066986496497479,
        -0.004926848165639174,
        0.00034834676147082577,
        -0.0001635885393831307,
        0.00043260729211347425,
        -0.0007936302753915476,
        0.006694605789242235,
        -0.005436522113834684,
        0.0003843826332962784,
        -0.000180511491672135,
        0.0004731642256614359,
        -0.0008680331137877751,
        0.0073222250819890596,
        -0.0059461960619957765,
        0.0004204185051476443,
        -0.00019743444379140921,
        0.0005137211592608287,
        -0.0009424359519161268,
        0.007949844374731197,
        -0.006455870010169515,
        0.0004564543769737203,
        -0.00021435739637559956,
        0.0005542780929366849,
        -0.0010168387903221078,
        0.00857746366748131,
        -0.006965543958319854,
        0.000492490248970553,
        -0.00023128034868806092,
        -0.006777726565404986,
        0.007120521498255054,
        0.0,
        0.0,
        0.0011727032014639458,
        0.0037206520551685014,
        -0.004082293933294659,
        0.004791161815500792,
        0.0,
        0.002806947289208891,
        0.0008597521481781462,
        -0.008372749377854918,
        -0.00259941840273873,
        -3.9471088933666463e-05,
        -0.00033649724985099113,
        -0.0002504899474589632,
        -0.002626243369463946,
        -0.004201769740494398,
        -0.0029671219787276593,
        0.004501977341699286,
        0.0,
        -0.0004691596269431028,
        6.430964846494164e-05,
        -0.0036529898290812816,
        -0.0073797894003897425,
        -0.0026506770725346703,
        -0.003684490599248261,
        -0.012745434306128898,
        0.004385547484173151,
        -0.0031450438570038482,
        -0.007502424451058604,
        0.004940079116048894,
        -0.0022113491715410535,
        0.0,
        0.005110055583822424,
        -0.007538416806397907,
        -0.005750836904595646,
        -0.0010419554341190068,
        -0.021388258885566398,
        -0.015697209257059478,
        0.004413353969117111,
        -0.0006166012213418348,
        0.0030821712420569186,
        0.004756679161911621,
        -0.01650989643692285,
        -0.016622976853634095,
        0.0003924957714946557,
        -0.0022394597132171035
      ]
    ],
    "bias": [
      0.010939676082030418
    ],
    "inverse_correlation": [
      [
        2.1964789715177666,
        0.01956145668722137,
        -5.891148544778048e-06,
        -5.179595986082772e-06,
        -5.95910865128467e-06,
        -0.039115436035941566,
        -0.1124611780729699,
        0.02249567519030459,
        -6.774820826474446e-06,
        -5.956535384003244e-06,
        -6.852974948810208e-06,
        -0.044982751441332645,
        -0.12713002738683638,
        0.025429893693387894,
        -7.658493108249573e-06,
        -6.733474781872343e-06,
        -7.746841246578073e-06,
        -0.050850066846724114,
        -0.14179887670070154,
        0.028364112196471013,
        -8.542165389934508e-06,
        -7.510414179818582e-06,
        -8.640707544105538e-06,
        -0.056717382252115305,
        -0.15646772601456696,
        0.03129833069955411,
        -9.425837671616952e-06,
        -8.287353577771706e-06,
        -9.534573841700929e-06,
        -0.06258469765750659,
        -0.17113657532843293,
        0.03423254920263733,
        -1.0309509953356739e-05,
        -9.064292975689416e-06,
        -1.0428440139486151e-05,
        -0.06845201306289753,
        -0.1858054246422984,
        0.03716676770572063,
        -1.119318223508068e-05,
        -9.841232373573238e-06,
        -1.1322306437197002e-05,
        -0.07431932846828934,
        -0.20047427395616407,
        0.040100986208803695,
        -1.2076854516802223e-05,
        -1.0618171771388213e-05,
        -1.221617273483598e-05,
        -0.08018664387368021,
        2.0447715932190972e-05,
        7.174003213309008e-05,
        0.0,
        0.0,
        2.3517504292316607e-06,
        -4.50598706598057e-05,
        -2.6361569839071153e-05,
        -0.00010681330201180781,
        0.0,
        -8.351863587333482e-05,
        1.2802401416187005e-05,
        8.230647935595239e-05,
        -0.00010331288229745193,
        7.11011312738251e-05,
        1.9381214263198258e-05,
        -7.330342298809023e-05,
        0.00020021634398949235,
        -0.00010813138420098053,
        0.0001323783437989642,
        -4.0579128320233215e-05,
        0.0,
        -4.8988161736476126e-05,
        9.514348611482871e-05,
        8.446401551385977e-05,
        2.6628445344816024e-05,
        5.122907620277966e-05,
        4.383382653078617e-06,
        -2.1087925892927476e-05,
        8.381194786708156e-05,
        1.153505510056036e-05,
        -6.951950082856602e-05,
        6.679530946515368e-05,
        1.61429831806646e-05,
        0.0,
        -0.00020265328746508574,
        5.962152363146381e-05,
        -0.00012789061340106778,
        -2.2284960360060995e-05,
        0.0001581228807659553,
        2.6441050969094816e-05,
        2.6076321433164664e-05,
        5.679879129745881e-05,
        -3.823870834689053e-05,
        -5.117304618419404e-06,
        6.786861923362841e-05,
        9.369764821295341e-05,
        0.00012079255943305681,
        -2.828796882461856e-05
      ],
      [
        0.019561456687221437,
        2.1964789382522385,
        -5.5501802345063825e-06,
        -4.908138825817525e-06,
        -6.0509608287053895e-06,
        -0.03911545266870733,
        0.022495675190304643,
        -0.11246121632833088,
        -6.382707269667949e-06,
        -5.644359649697049e-06,
        -6.9586049529166226e-06,
        -0.04498277056901305,
        0.02542989369338767,
        -0.12713007063202697,
        -7.215234304889236e-06,
        -6.380580473530413e-06,
        -7.866249077278334e-06,
        -0.05085008846931936,
        0.028364112196471197,
        -0.14179892493572202,
        -8.047761340039546e-06,
        -7.116801297437802e-06,
        -8.77389320146308e-06,
        -0.05671740636962538,
        0.031298330699554476,
        -0.15646777923941776,
        -8.880288375185139e-06,
        -7.853022121328025e-06,
        -9.681537325699601e-06,
        -0.06258472426993146,
        0.034232549202637616,
        -0.17113663354311315,
        -9.712815410366086e-06,
        -8.589242945200936e-06,
        -1.0589181450122366e-05,
        -0.06845204217023741,
        0.037166767705720874,
        -0.18580548784680853,
        -1.0545342445553549e-05,
        -9.325463769047982e-06,
        -1.1496825574464345e-05,
        -0.07431936007054384,
        0.040100986208804014,
        -0.20047434215050347,
        -1.1377869480746187e-05,
        -1.0061684592861975e-05,
        -1.2404469698757243e-05,
        -0.08018667797084979,
        6.459501957162283e-05,
        4.1570857599154116e-05,
        0.0,
        0.0,
        -1.1688571383112176e-05,
        -3.833234800262198e-05,
        -7.2308993014930735e-06,
        -0.00016255670546899513,
        0.0,
        -7.291002944747066e-05,
        1.2008148810040634e-05,
        0.0002232960246892281,
        -7.888764474351135e-05,
        7.040860713732373e-05,
        -3.688052885023967e-05,
        -0.00012488565639810843,
        0.00015595490537202212,
        3.4138334109104116e-05,
        0.00013715636748617526,
        -5.524907356424399e-05,
        0.0,
        -6.501817796614289e-05,
        6.441553826617657e-05,
        1.180953114217073e-05,
        2.5860273689153267e-05,
        3.90657647876122e-05,
        -3.248803400648095e-05,
        -2.5119614919000496e-05,
        5.0301774249059436e-05,
        -0.0001083970808494308,
        -2.1012174904049385e-06,
        6.684234265623525e-05,
        -9.332408589651713e-06,
        0.0,
        -0.00011050546051223284,
        7.15508388829057e-05,
        -9.924753971062583e-05,
        -7.129693106365546e-05,
        0.0001386341201870175,
        -2.404283571072164e-06,
        4.682979530257643e-05,
        5.451771231231453e-05,
        3.223793271231578e-05,
        -6.288327702514981e-05,
        4.874291813562395e-05,
        7.761834329290475e-05,
        0.00018617964186001554,
        -1.3039008329082397e-05
      ],
      [
        -5.891148544749468e-06,
        -5.5501802344916695e-06,
        2.1769320549836024,
        1.217263328465334e-05,
        1.2793693611832084e-05,
        -5.7206643895788695e-06,
        -6.774820826761536e-06,
        -6.382707269740349e-06,
        -0.13494013208726444,
        1.3998528277382472e-05,
        1.4712747653082832e-05,
        -6.578764048409744e-06,
        -7.658493108241014e-06,
        -7.215234304933748e-06,
        -0.15254101888125515,
        1.5824423269986727e-05,
        1.6631801695084715e-05,
        -7.436863706790055e-06,
        -8.542165390258325e-06,
        -8.047761340082655e-06,
        -0.17014190567524629,
        1.7650318262763036e-05,
        1.8550855736348315e-05,
        -8.294963365136911e-06,
        -9.425837671908125e-06,
        -8.88028837497516e-06,
        -0.18774279246923734,
        1.9476213255523125e-05,
        2.0469909777965068e-05,
        -9.153063023693484e-06,
        -1.0309509953527198e-05,
        -9.712815410349923e-06,
        -0.20534367926322844,
        2.1302108248253352e-05,
        2.2388963819911292e-05,
        -1.0011162682655336e-05,
        -1.1193182235236232e-05,
        -1.054534244569218e-05,
        -0.22294456605721996,
        2.3128003240882622e-05,
        2.430801786167647e-05,
        -1.0869262340185844e-05,
        -1.2076854517176178e-05,
        -1.1377869480397308e-05,
        -0.24054545285121096,
        2.495389823339295e-05,
        2.6227071903297327e-05,
        -1.1727361999180951e-05,
        -6.388458089399679e-05,
        -0.00011535144496367559,
        0.0,
        0.0,
        2.391501926927204e-05,
        0.00013332552483173496,
        2.589534172281846e-05,
        0.000265870191810611,
        0.0,
        0.0001425660525087159,
        2.140435929883026e-05,
        -0.00012685266779455815,
        0.0001997497114873955,
        -0.00013928399162161474,
        -1.0345268634809037e-05,
        0.00016587059069225862,
        -0.0003602029841150822,
        0.0002207798537017623,
        -0.00026967002789047927,
        0.00011298956011378306,
        0.0,
        8.415963977361537e-05,
        -0.00018091451644660508,
        -0.0001796299277476239,
        -0.00012488621770771,
        -0.00011507988780096717,
        -4.21191338295555e-05,
        -3.9407312190678444e-05,
        -0.00014074006577495431,
        -0.00010194944178307075,
        0.00013305903587608443,
        -8.0252982847335e-05,
        -4.285485803135083e-06,
        0.0,
        0.00043395254645663356,
        -0.00012972101046881534,
        0.00017472584021360687,
        3.509909898744892e-05,
        -0.00044716416323455603,
        -0.00016591573597572,
        -1.2921252084496155e-06,
        -7.697912274859166e-05,
        7.961328975081175e-05,
        6.171458875442061e-05,
        -0.00024203573827318435,
        -0.0002564197197415487,
        -0.00015049220697226223,
        6.935583328255503e-05
      ],
      [
        -5.179595986027844e-06,
        -4.908138825787797e-06,
        1.2172633284631035e-05,
        2.1769297167617663,
        1.1236020240101792e-05,
        -5.0438674056431686e-06,
        -5.9565353843492275e-06,
        -5.6443596497231884e-06,
        1.3998528277309503e-05,
        -0.13494282104237218,
        1.2921423275500355e-05,
        -5.800447517070789e-06,
        -6.7334747814914365e-06,
        -6.38058047349004e-06,
        1.58244232700455e-05,
        -0.15254405856963774,
        1.4606826311800819e-05,
        -6.5570276279807155e-06,
        -7.510414180286429e-06,
        -7.116801297398687e-06,
        1.7650318262753674e-05,
        -0.17014529609690326,
        1.6292229347221484e-05,
        -7.313607738696166e-06,
        -8.287353578272413e-06,
        -7.85302212114096e-06,
        1.947621325539994e-05,
        -0.18774653362416988,
        1.7977632383065558e-05,
        -8.07018785001427e-06,
        -9.064292976000355e-06,
        -8.58924294507223e-06,
        2.1302108248099758e-05,
        -0.2053477711514355,
        1.966303541930131e-05,
        -8.82676796106111e-06,
        -9.841232373526558e-06,
        -9.325463769047826e-06,
        2.3128003240861273e-05,
        -0.22294900867870113,
        2.134843845525118e-05,
        -9.583348070986924e-06,
        -1.0618171771895436e-05,
        -1.0061684592578605e-05,
        2.4953898233533746e-05,
        -0.24055024620596704,
        2.3033841491153042e-05,
        -1.03399281827435e-05,
        -4.2620842075742835e-06,
        -0.0001538159859014374,
        0.0,
        0.0,
        4.521654181204137e-05,
        0.00013325210469647284,
        6.200779064090472e-05,
        0.00019689476295344294,
        0.0,
        9.476764815392515e-05,
        2.2770835681609606e-05,
        -0.00018647763106265894,
        0.0002468421590063591,
        -0.00011809610739743761,
        5.3097902000012655e-05,
        0.00026673378399827196,
        -0.00023861706005775567,
        6.720867161341897e-05,
        -0.0002590459030305848,
        2.1822922407842648e-05,
        0.0,
        6.41114694104504e-05,
        -0.00013680483663539982,
        -4.587056529022742e-05,
        -3.498411205815732e-06,
        -3.44448072233474e-05,
        -0.00020666035725817305,
        6.33963563086361e-05,
        -0.00014261411896513066,
        0.0001374191065147764,
        0.0001244064485220507,
        -0.00015531344889010718,
        2.810921770026785e-05,
        0.0,
        0.000216643630276562,
        -6.501333739979947e-05,
        0.0001298328126796493,
        5.545201773855078e-05,
        -0.00034638011031469485,
        -0.00011216800056669423,
        -5.485539349377334e-05,
        -9.22446845310465e-05,
        5.60173932553728e-05,
        3.872948784083368e-06,
        -0.00033429242348452997,
        -0.0001923194290240598,
        -0.0002711635519030844,
        5.2698437736011015e-05
      ],
      [
        -5.959108651224693e-06,
        -6.050960828679471e-06,
        1.2793693611692034e-05,
        1.1236020240007306e-05,
        2.176931978480555,
        -6.005034739706063e-06,
        -6.852974948963102e-06,
        -6.95860495287147e-06,
        1.4712747653426827e-05,
        1.292142327601007e-05,
        -0.13494022006577763,
        -6.905789951029604e-06,
        -7.746841246284705e-06,
        -7.866249077386248e-06,
        1.6631801695288e-05,
        1.4606826311900247e-05,
        -0.15254111833522746,
        -7.806545161954919e-06,
        -8.640707544368139e-06,
        -8.773893201463752e-06,
        1.8550855736952104e-05,
        1.6292229347978278e-05,
        -0.1701420166046762,
        -8.707300372627809e-06,
        -9.534573842079998e-06,
        -9.681537325509817e-06,
        2.0469909778663016e-05,
        1.79776323841129e-05,
        -0.1877429148741264,
        -9.608055583929183e-06,
        -1.0428440139554746e-05,
        -1.0589181449706626e-05,
        2.238896382042809e-05,
        1.9663035420090236e-05,
        -0.20534381314357514,
        -1.0508810795398473e-05,
        -1.1322306437609862e-05,
        -1.1496825574137e-05,
        2.4308017862228777e-05,
        2.134843845601905e-05,
        -0.22294471141302413,
        -1.1409566005456051e-05,
        -1.2216172734991674e-05,
        -1.2404469698014832e-05,
        2.6227071904008075e-05,
        2.303384149179245e-05,
        -0.24054560968247357,
        -1.231032121686555e-05,
        -0.00013282020491134502,
        -0.00014135831233138215,
        0.0,
        0.0,
        -5.2999738751110475e-05,
        7.686476008675095e-05,
        4.264331844647574e-05,
        0.0002956594775287848,
        0.0,
        0.00022371468840250212,
        -8.57362107443589e-05,
        -0.0004819503738538129,
        0.00018033870064811274,
        -0.00018892832057554277,
        -8.419630528284222e-06,
        0.0002261598514483458,
        -0.0005355164198608967,
        0.00010716854487195806,
        -0.0003602755217274385,
        0.000103628254600925,
        0.0,
        0.00017351232029299394,
        -0.00017118323438017541,
        -0.000100447556878902,
        -4.397912483634083e-05,
        -0.0001585273697932656,
        8.09505150384485e-05,
        8.142441574386541e-05,
        -0.00013211728457341776,
        0.00019948888754457185,
        2.0915820498145645e-05,
        -0.00018204783739210232,
        1.8392242460144863e-05,
        0.0,
        0.0003380898374501413,
        -0.00017816850739512118,
        0.00028854765218576633,
        0.00012305310930814302,
        -0.00031345939191827575,
        2.670131747291168e-05,
        -0.00013184837617444208,
        -0.00016329304067656217,
        -8.315211953481765e-05,
        4.910813508567929e-05,
        -0.00010075808541805291,
        -0.00018843650895973308,
        -0.0004955660649842516,
        2.069376682072887e-05
      ],
      [
        -0.03911543603594158,
        -0.03911545266870736,
        -5.7206643895877625e-06,
        -5.043867405716986e-06,
        -6.005034739815898e-06,
        2.255155855924552,
        -0.044982751441332694,
        -0.044982770569013224,
        -6.578764048007896e-06,
        -5.80044751658245e-06,
        -6.905789950655265e-06,
        -0.04498276100517282,
        -0.05085006684672421,
        -0.050850088469319446,
        -7.436863706495454e-06,
        -6.557027627398735e-06,
        -7.806545161691077e-06,
        -0.050850077658021645,
        -0.056717382252115235,
        -0.05671740636962543,
        -8.294963364905134e-06,
        -7.3136077382899644e-06,
        -8.707300372520215e-06,
        -0.05671739431087049,
        -0.06258469765750638,
        -0.06258472426993168,
        -9.15306302330962e-06,
        -8.070187849177036e-06,
        -9.608055583413274e-06,
        -0.06258471096371908,
        -0.06845201306289762,
        -0.06845204217023793,
        -1.0011162681764792e-05,
        -8.826767960037388e-06,
        -1.0508810794484472e-05,
        -0.06845202761656759,
        -0.07431932846828926,
        -0.07431936007054381,
        -1.0869262340211402e-05,
        -9.583348070868617e-06,
        -1.1409566005485941e-05,
        -0.07431934426941672,
        -0.08018664387368035,
        -0.08018667797084997,
        -1.1727361998663709e-05,
        -1.0339928181648205e-05,
        -1.2310321216419905e-05,
        -0.08018666092226494,
        4.2521367772862974e-05,
        5.665544478684998e-05,
        0.0,
        0.0,
        -4.668410591622192e-06,
        -4.169610936394191e-05,
        -1.679623455071048e-05,
        -0.00013468500377357992,
        0.0,
        -7.82143326851954e-05,
        1.2405275086184221e-05,
        0.00015280125208664235,
        -9.11002635455802e-05,
        7.075486923648377e-05,
        -8.749657366333036e-06,
        -9.909453970499146e-05,
        0.00017808562464037114,
        -3.699652505217999e-05,
        0.0001347673556262878,
        -4.791410096706963e-05,
        0.0,
        -5.700316986269546e-05,
        7.977951227194219e-05,
        4.813677330321682e-05,
        2.6244359525892677e-05,
        4.51474205454304e-05,
        -1.4052325714765223e-05,
        -2.310377040791638e-05,
        6.705686105790348e-05,
        -4.8431012861409336e-05,
        -3.5810359161453e-05,
        6.681882604781069e-05,
        3.405287307572908e-06,
        0.0,
        -0.0001565793739708046,
        6.558618127308934e-05,
        -0.00011356907655846997,
        -4.679094575130689e-05,
        0.0001483785004812131,
        1.201838368147666e-05,
        3.6453058359234124e-05,
        5.5658251769022685e-05,
        -3.0003878667167113e-06,
        -3.400029084401378e-05,
        5.830576865818119e-05,
        8.565799569329639e-05,
        0.00015348610060902481,
        -2.0663488665790353e-05
      ],
      [
        -0.11246117807296996,
        0.022495675190304685,
        -6.77482082681787e-06,
        -5.956535384384826e-06,
        -6.852974949096513e-06,
        -0.0449827514413327,
        2.164940945492956,
        0.02587002646885034,
        -7.791043950816733e-06,
        -6.850015692052325e-06,
        -7.880921191276335e-06,
        -0.05173016415753247,
        -0.14619953149486106,
        0.029244377747396195,
        -8.807267074912957e-06,
        -7.743495999659766e-06,
        -8.908867433718039e-06,
        -0.058477576873732375,
        -0.16306870820580696,
        0.03261872902594178,
        -9.823490198913275e-06,
        -8.636976307356323e-06,
        -9.936813675893147e-06,
        -0.06522498958993252,
        -0.1799378849167519,
        0.03599308030448719,
        -1.0839713322893164e-05,
        -9.530456615061224e-06,
        -1.0964759918162849e-05,
        -0.07197240230613214,
        -0.19680706162769715,
        0.03936743158303315,
        -1.1855936446911948e-05,
        -1.0423936922725845e-05,
        -1.1992706160624443e-05,
        -0.07871981502233176,
        -0.21367623833864308,
        0.04274178286157874,
        -1.2872159570957757e-05,
        -1.1317417230350682e-05,
        -1.3020652403007298e-05,
        -0.08546722773853224,
        -0.2305454150495887,
        0.04611613414012438,
        -1.3888382694992537e-05,
        -1.2210897537896154e-05,
        -1.4048598645303148e-05,
        -0.09221464045473186,
        2.3514873320255063e-05,
        8.250103696128969e-05,
        0.0,
        0.0,
        2.704512980633392e-06,
        -5.1818851310923175e-05,
        -3.0315805338507592e-05,
        -0.00012283529729441544,
        0.0,
        -9.604643126473168e-05,
        1.4722761611953497e-05,
        9.465245130227561e-05,
        -0.00011880981468122939,
        8.176630095376885e-05,
        2.2288396381309568e-05,
        -8.429893641195961e-05,
        0.00023024879556698616,
        -0.00012435109176542846,
        0.00015223509538433972,
        -4.666599756398015e-05,
        0.0,
        -5.633638603360363e-05,
        0.00010941500900939059,
        9.713361782107828e-05,
        3.062271216260903e-05,
        5.891343759956933e-05,
        5.0408900718501445e-06,
        -2.425111472987346e-05,
        9.638374009036592e-05,
        1.3265313358885002e-05,
        -7.994742595996283e-05,
        7.681460588384758e-05,
        1.856443064458472e-05,
        0.0,
        -0.00023305128060701022,
        6.85647521857584e-05,
        -0.00014707420539077017,
        -2.562770439373898e-05,
        0.0001818413129092829,
        3.0407208626578234e-05,
        2.9987769646986875e-05,
        6.531860997764706e-05,
        -4.397451461858385e-05,
        -5.884900303001076e-06,
        7.804891212027129e-05,
        0.00010775229544733857,
        0.00013891144335344673,
        -3.253116412125775e-05
      ],
      [
        0.02249567519030449,
        -0.11246121632833107,
        -6.382707269444047e-06,
        -5.644359649490565e-06,
        -6.958604952640236e-06,
        -0.044982770569013335,
        0.02587002646885023,
        2.164940901499294,
        -7.3401133598436195e-06,
        -6.491013596922118e-06,
        -8.002395695427517e-06,
        -0.05173018615436527,
        0.02924437774739586,
        -0.1461995812268313,
        -8.297519450312468e-06,
        -7.33766754430022e-06,
        -9.046186438388668e-06,
        -0.05847760173971718,
        0.0326187290259417,
        -0.1630687636760808,
        -9.254925540699614e-06,
        -8.184321491763954e-06,
        -1.0089977181145242e-05,
        -0.0652250173250696,
        0.03599308030448736,
        -0.17993794612533046,
        -1.0212331631081091e-05,
        -9.030975439208447e-06,
        -1.1133767923961277e-05,
        -0.07197243291042159,
        0.03936743158303284,
        -0.19680712857458,
        -1.116973772150374e-05,
        -9.877629386630299e-06,
        -1.217755866699244e-05,
        -0.07871984849577321,
        0.04274178286157875,
        -0.21367631102382906,
        -1.2127143811933552e-05,
        -1.0724283334026127e-05,
        -1.3221349409929824e-05,
        -0.08546726408112544,
        0.046116134140124165,
        -0.23054549347307907,
        -1.3084549902369254e-05,
        -1.1570937281382183e-05,
        -1.4265140152811087e-05,
        -0.09221467966647788,
        7.428427248289802e-05,
        4.780648621060472e-05,
        0.0,
        0.0,
        -1.3441856948545083e-05,
        -4.408220017851853e-05,
        -8.31553422123099e-06,
        -0.00018694021124685952,
        0.0,
        -8.384653392438802e-05,
        1.3809371113871209e-05,
        0.00025679042825339007,
        -9.072079145066809e-05,
        8.096989818670717e-05,
        -4.2412608192579815e-05,
        -0.00014361850486337241,
        0.00017934814121352283,
        3.925908418825362e-05,
        0.00015772982261841388,
        -6.353643460112322e-05,
        0.0,
        -7.477090470930964e-05,
        7.407786897713537e-05,
        1.3580960815670393e-05,
        2.973931474298793e-05,
        4.492562952470287e-05,
        -3.736123908209749e-05,
        -2.888755713087493e-05,
        5.784704036663118e-05,
        -0.0001246566429295139,
        -2.4164001231108122e-06,
        7.686869404388029e-05,
        -1.073226987381142e-05,
        0.0,
        -0.00012708127957084239,
        8.228346472107168e-05,
        -0.00011413467063764632,
        -8.199147073379496e-05,
        0.00015942923821092326,
        -2.764926059566144e-06,
        5.385426455889609e-05,
        6.269536918739877e-05,
        3.7073622600404306e-05,
        -7.231576852847727e-05,
        5.605435584271151e-05,
        8.926109471976512e-05,
        0.00021410658812920835,
        -1.499485956739138e-05
      ],
      [
        -6.774820826426607e-06,
        -6.382707269632498e-06,
        -0.1349401320872645,
        1.3998528277317865e-05,
        1.4712747653545888e-05,
        -6.578764047983514e-06,
        -7.791043950747254e-06,
        -7.340113360163827e-06,
        2.139090148376521,
        1.6098307518952025e-05,
        1.6919659800976233e-05,
        -7.565578655633437e-06,
        -8.807267074455024e-06,
        -8.297519450631896e-06,
        -0.1754221717134437,
        1.8198086760439806e-05,
        1.912657194925688e-05,
        -8.552393262774945e-06,
        -9.823490198764336e-06,
        -9.254925541047962e-06,
        -0.19566319152653433,
        2.0297866002127053e-05,
        2.1333484096712505e-05,
        -9.539207869868231e-06,
        -1.0839713322654402e-05,
        -1.021233163116898e-05,
        -0.21590421133962426,
        2.2397645243797394e-05,
        2.3540396244560917e-05,
        -1.0526022477199752e-05,
        -1.1855936446481036e-05,
        -1.1169737721845373e-05,
        -0.23614523115271296,
        2.4497424485430705e-05,
        2.5747308392795685e-05,
        -1.151283708498658e-05,
        -1.287215957045798e-05,
        -1.2127143812483351e-05,
        -0.25638625096580353,
        2.6597203726952615e-05,
        2.7954220540796803e-05,
        -1.2499651691151715e-05,
        -1.38883826946961e-05,
        -1.3084549902390393e-05,
        -0.27662727077889177,
        2.869698296833321e-05,
        3.016113268864367e-05,
        -1.3486466298988516e-05,
        -7.34672680261552e-05,
        -0.0001326541617096329,
        0.0,
        0.0,
        2.7502272161326386e-05,
        0.00015332435355735593,
        2.9779642982757824e-05,
        0.0003057507205770924,
        0.0,
        0.00016395096038300001,
        2.4615013193668435e-05,
        -0.00014588056796887596,
        0.0002297121682070551,
        -0.00016017659036507195,
        -1.1897058936428755e-05,
        0.00019075117929026603,
        -0.0004142334317302398,
        0.00025389683175469315,
        -0.00031012053207780124,
        0.00012993799412789906,
        0.0,
        9.678358574833349e-05,
        -0.00020805169391782034,
        -0.00020657441688834658,
        -0.00014361915036614547,
        -0.0001323418709582523,
        -4.8437003911177836e-05,
        -4.5318409025084373e-05,
        -0.00016185107564740798,
        -0.00011724185805366325,
        0.00015301789126089368,
        -9.22909302768646e-05,
        -4.928308671940271e-06,
        0.0,
        0.0004990454284279879,
        -0.00014917916204059228,
        0.00020093471623887864,
        4.0363963828304724e-05,
        -0.0005142387877236725,
        -0.0001908030963801028,
        -1.4859439890808396e-06,
        -8.852599116391876e-05,
        9.155528320868006e-05,
        7.09717770659186e-05,
        -0.00027834109901315443,
        -0.00029488267771556016,
        -0.00017306603801660065,
        7.975920826949439e-05
      ],
      [
        -5.95653538394266e-06,
        -5.644359649667744e-06,
        1.3998528277362653e-05,
        -0.1349428210423722,
        1.292142327613076e-05,
        -5.8004475165007925e-06,
        -6.8500156920138695e-06,
        -6.491013597194738e-06,
        1.6098307518948813e-05,
        2.1390870560781488,
        1.4859636766840882e-05,
        -6.670514644644332e-06,
        -7.743495998728487e-06,
        -7.337667544528936e-06,
        1.819808676059967e-05,
        -0.17542566735508364,
        1.6797850258589557e-05,
        -7.540581772192568e-06,
        -8.636976307345117e-06,
        -8.18432149202643e-06,
        2.0297866002220976e-05,
        -0.19566709051143882,
        1.873606374932422e-05,
        -8.410648899517138e-06,
        -9.530456615029728e-06,
        -9.030975439331218e-06,
        2.239764524377e-05,
        -0.2159085136677948,
        2.0674277240546827e-05,
        -9.280716027534713e-06,
        -1.0423936922419044e-05,
        -9.877629386853958e-06,
        2.4497424485380334e-05,
        -0.23614993682415109,
        2.2612490732221555e-05,
        -1.0150783155239379e-05,
        -1.1317417229576076e-05,
        -1.0724283334428615e-05,
        2.659720372706196e-05,
        -0.2563913599805066,
        2.4550704223565245e-05,
        -1.1020850281655392e-05,
        -1.2210897537700645e-05,
        -1.1570937281489632e-05,
        2.8696982968641817e-05,
        -0.2766327831368623,
        2.6488917714853466e-05,
        -1.1890917410178027e-05,
        -4.90139684059508e-06,
        -0.000176888383780688,
        0.0,
        0.0,
        5.199902308659849e-05,
        0.0001532399204020971,
        7.130895923693805e-05,
        0.00022642897740295342,
        0.0,
        0.0001089827953830021,
        2.618646103322343e-05,
        -0.00021444927572181706,
        0.0002838684828603764,
        -0.00013581052351157498,
        6.10625873024689e-05,
        0.00030674385159785994,
        -0.00027440961906578933,
        7.728997235694983e-05,
        -0.00029790278848725537,
        2.5096360771140984e-05,
        0.0,
        7.372818982615818e-05,
        -0.00015732556213158405,
        -5.275115008203942e-05,
        -4.023172887444128e-06,
        -3.96115283099192e-05,
        -0.00023765941084641067,
        7.290580975383917e-05,
        -0.00016400623681193786,
        0.0001580319724921488,
        0.00014306741580107738,
        -0.00017861046622596604,
        3.2325600354453535e-05,
        0.0,
        0.00024914017481638334,
        -7.476533801055617e-05,
        0.00014930773457938462,
        6.376982039699852e-05,
        -0.0003983371268658317,
        -0.00012899320065147638,
        -6.308370251341668e-05,
        -0.00010608138721086189,
        6.442000224651932e-05,
        4.45389110746488e-06,
        -0.0003844362870096496,
        -0.0002211673433777455,
        -0.0003118380846896093,
        6.060320340128234e-05
      ],
      [
        -6.852974948816255e-06,
        -6.958604952988447e-06,
        1.4712747653117367e-05,
        1.2921423275585697e-05,
        -0.1349402200657775,
        -6.9057899506256365e-06,
        -7.880921191219584e-06,
        -8.002395695810503e-06,
        1.6919659801056498e-05,
        1.4859636766924179e-05,
        2.139090047201228,
        -7.941658443639748e-06,
        -8.908867433123958e-06,
        -9.046186439004078e-06,
        1.912657194914636e-05,
        1.679785025813608e-05,
        -0.17542228608551108,
        -8.977526936201293e-06,
        -9.936813675902685e-06,
        -1.0089977181693963e-05,
        2.1333484097006185e-05,
        1.873606374956193e-05,
        -0.19566331909537807,
        -1.0013395428467242e-05,
        -1.0964759918259424e-05,
        -1.11337679243483e-05,
        2.354039624492518e-05,
        2.067427724105281e-05,
        -0.21590435210524525,
        -1.104926392145986e-05,
        -1.1992706160336279e-05,
        -1.2177558667174764e-05,
        2.5747308392901395e-05,
        2.2612490732362633e-05,
        -0.23614538511511116,
        -1.2085132414640895e-05,
        -1.3020652403090026e-05,
        -1.3221349410271628e-05,
        2.7954220540925796e-05,
        2.455070422361794e-05,
        -0.25638641812497803,
        -1.3121000906198148e-05,
        -1.4048598645068333e-05,
        -1.426514015273172e-05,
        3.016113268891038e-05,
        2.6488917714694196e-05,
        -0.2766274511348448,
        -1.4156869399309885e-05,
        -0.00015274323569370161,
        -0.00016256205909455048,
        0.0,
        0.0,
        -6.094969929627679e-05,
        8.839447414327322e-05,
        4.90398161590714e-05,
        0.00034000839924669087,
        0.0,
        0.0002572718916560449,
        -9.859664231154e-05,
        -0.0005542429300652541,
        0.00020738950576946335,
        -0.00021726756871210675,
        -9.682574984417251e-06,
        0.0002600838292017322,
        -0.0006158438827315863,
        0.00012324382662021622,
        -0.00041431684993465366,
        0.00011917249282300525,
        0.0,
        0.00019953916839381673,
        -0.00019686071967889515,
        -0.00011551469044625681,
        -5.057599358298931e-05,
        -0.00018230647532951788,
        9.309309237068735e-05,
        9.36380780988101e-05,
        -0.0001519348772632059,
        0.0002294122207045026,
        2.4053193568042588e-05,
        -0.00020935501293904298,
        2.1151078774526908e-05,
        0.0,
        0.0003888033129950028,
        -0.0002048937835213025,
        0.00033182980003978817,
        0.00014151107575650738,
        -0.0003604783007198049,
        3.0706515086648275e-05,
        -0.0001516256325942332,
        -0.00018778699667667533,
        -9.562493738547652e-05,
        5.6474355395163705e-05,
        -0.0001158717981732364,
        -0.00021670198522157235,
        -0.0005699009746744268,
        2.379783197846301e-05
      ],
      [
        -0.04498275144133261,
        -0.04498277056901306,
        -6.578764048417541e-06,
        -5.800447517088887e-06,
        -6.905789951138414e-06,
        -0.0449827610051729,
        -0.0517301641575325,
        -0.0517301861543651,
        -7.565578655659071e-06,
        -6.670514644660931e-06,
        -7.941658443655082e-06,
        2.242541125120926,
        -0.05847757687373253,
        -0.05847760173971697,
        -8.552393262983307e-06,
        -7.5405817721767984e-06,
        -8.977526936399864e-06,
        -0.058477589306724614,
        -0.06522498958993239,
        -0.06522501732506919,
        -9.539207870221141e-06,
        -8.410648899778965e-06,
        -1.0013395428904192e-05,
        -0.06522500345750087,
        -0.07197240230613199,
        -0.07197243291042148,
        -1.0526022477445808e-05,
        -9.280716027376352e-06,
        -1.104926392148595e-05,
        -0.07197241760827688,
        -0.0787198150223322,
        -0.07871984849577347,
        -1.1512837084709851e-05,
        -1.015078315494277e-05,
        -1.2085132414275652e-05,
        -0.07871983175905244,
        -0.0854672277385322,
        -0.08546726408112484,
        -1.2499651691989895e-05,
        -1.102085028247593e-05,
        -1.3121000906970134e-05,
        -0.08546724590982863,
        -0.09221464045473177,
        -0.09221467966647748,
        -1.34864662992655e-05,
        -1.1890917409949001e-05,
        -1.4156869399601281e-05,
        -0.09221466006060418,
        4.889957291086119e-05,
        6.515376155687606e-05,
        0.0,
        0.0,
        -5.368672032723379e-06,
        -4.79505257466285e-05,
        -1.9315669751753996e-05,
        -0.0001548877543100286,
        0.0,
        -8.994648257311009e-05,
        1.426606636229954e-05,
        0.0001757214397992509,
        -0.00010476530306286397,
        8.136809960364202e-05,
        -1.0062105912666354e-05,
        -0.00011395872064662822,
        0.00020479846835814598,
        -4.254600377609678e-05,
        0.00015498245898576055,
        -5.510121609949935e-05,
        0.0,
        -6.555364534514557e-05,
        9.174643903713497e-05,
        5.535728933967273e-05,
        3.0181013438672685e-05,
        5.1919533603845424e-05,
        -1.6160174532259983e-05,
        -2.6569335949675687e-05,
        7.711539019780966e-05,
        -5.569566476230235e-05,
        -4.118191304332852e-05,
        7.684164995981972e-05,
        3.916080384807257e-06,
        0.0,
        -0.0001800662800636613,
        7.542410844681517e-05,
        -0.00013060443803584903,
        -5.3809587584520264e-05,
        0.00017063527553772952,
        1.3821141245102105e-05,
        4.192101710498954e-05,
        6.400698958185194e-05,
        -3.4504460144985715e-06,
        -3.91003344568106e-05,
        6.705163397134406e-05,
        9.850669509562561e-05,
        0.0001765090157119434,
        -2.3763011921401586e-05
      ],
      [
        -0.1271300273868363,
        0.02542989369338782,
        -7.658493108327537e-06,
        -6.733474781602194e-06,
        -7.74684124647646e-06,
        -0.05085006684672439,
        -0.1461995314948611,
        0.029244377747396067,
        -8.80726707454992e-06,
        -7.74349599885286e-06,
        -8.908867433230312e-06,
        -0.058477576873732576,
        2.1290022646739826,
        0.033058861801404375,
        -9.956041040846642e-06,
        -8.753517216036729e-06,
        -1.0070893620294214e-05,
        -0.06610508690074135,
        -0.1843385397109117,
        0.036873345855412354,
        -1.1104815007063377e-05,
        -9.763538433321039e-06,
        -1.1232919807047763e-05,
        -0.07373259692774972,
        -0.20340804381893757,
        0.04068782990942023,
        -1.2253588973279552e-05,
        -1.0773559650614749e-05,
        -1.2394945993906174e-05,
        -0.08136010695475838,
        -0.22247754792696325,
        0.04450231396342853,
        -1.3402362939528312e-05,
        -1.1783580867862223e-05,
        -1.3556972180988741e-05,
        -0.08898761698176663,
        -0.24154705203498775,
        0.048316798017436935,
        -1.4551136905817946e-05,
        -1.2793602085065257e-05,
        -1.4718998367964965e-05,
        -0.09661512700877571,
        -0.260616556143014,
        0.052131282071444976,
        -1.5699910872064058e-05,
        -1.3803623302178988e-05,
        -1.588102455486879e-05,
        -0.10424263703578417,
        2.6582030744546703e-05,
        9.326204173082937e-05,
        0.0,
        0.0,
        3.05727549771552e-06,
        -5.857783188585862e-05,
        -3.4270040720852534e-05,
        -0.00013885729268218482,
        0.0,
        -0.00010857422660228951,
        1.664312181936108e-05,
        0.00010699842313263067,
        -0.00013430674702308805,
        9.243147071251818e-05,
        2.51955785071347e-05,
        -9.529444985589483e-05,
        0.0002602812471131588,
        -0.000140570799409409,
        0.000172091846886125,
        -5.275286686229651e-05,
        0.0,
        -6.368461024994687e-05,
        0.00012368653201342037,
        0.00010980322010096535,
        3.461697895753016e-05,
        6.659779910020533e-05,
        5.698397391737894e-06,
        -2.7414303660753747e-05,
        0.00010895553223302594,
        1.4995571686289936e-05,
        -9.037535107392498e-05,
        8.683390225827943e-05,
        2.0985878168693274e-05,
        0.0,
        -0.0002634492736466269,
        7.750798071600736e-05,
        -0.00016625779743839315,
        -2.8970448486509268e-05,
        0.00020555974498103025,
        3.4373366269513414e-05,
        3.389921787711315e-05,
        7.383842861964418e-05,
        -4.9710320902325935e-05,
        -6.652496041353481e-06,
        8.822920494664207e-05,
        0.00012180694269138786,
        0.00015703032717843658,
        -3.677435963092314e-05
      ],
      [
        0.025429893693387898,
        -0.1271300706320272,
        -7.215234304823333e-06,
        -6.380580473447624e-06,
        -7.866249077353017e-06,
        -0.050850088469319495,
        0.029244377747396164,
        -0.1461995812268308,
        -8.297519450528146e-06,
        -7.3376675444736685e-06,
        -9.046186438833706e-06,
        -0.058477601739716986,
        0.033058861801404237,
        2.1290022084552396,
        -9.379804596310464e-06,
        -8.294754615440478e-06,
        -1.0226123800509434e-05,
        -0.06610511501011514,
        0.03687334585541255,
        -0.1843386024164383,
        -1.046208974200074e-05,
        -9.251841686501888e-06,
        -1.1406061161954604e-05,
        -0.0737326282805131,
        0.040687829909420666,
        -0.20340811301124337,
        -1.1544374887685134e-05,
        -1.020892875754228e-05,
        -1.2585998523467604e-05,
        -0.08136014155091091,
        0.0445023139634288,
        -0.22247762360604653,
        -1.262666003341577e-05,
        -1.1166015828558781e-05,
        -1.376593588522276e-05,
        -0.08898765482130856,
        0.04831679801743727,
        -0.24154713420085044,
        -1.370894517915402e-05,
        -1.2123102899544346e-05,
        -1.494587324687279e-05,
        -0.09661516809170666,
        0.05213128207144544,
        -0.26061664479565466,
        -1.4791230324899125e-05,
        -1.3080189970485965e-05,
        -1.6125810608458743e-05,
        -0.10424268136210488,
        8.397352545444371e-05,
        5.404211482220218e-05,
        0.0,
        0.0,
        -1.5195142808007666e-05,
        -4.983205239449441e-05,
        -9.400169113303932e-06,
        -0.00021132371704752254,
        0.0,
        -9.478303841154905e-05,
        1.5610593422735516e-05,
        0.00029028483211512347,
        -0.00010255393819230154,
        9.153118924059566e-05,
        -4.794468755703438e-05,
        -0.00016235135334936082,
        0.0002027413769645741,
        4.437983437574028e-05,
        0.00017830327774280577,
        -7.182379563553621e-05,
        0.0,
        -8.452363148310168e-05,
        8.374019977644697e-05,
        1.5352390406789143e-05,
        3.36183558002003e-05,
        5.07854942085191e-05,
        -4.2234444216987436e-05,
        -3.2655499377085986e-05,
        6.539230654914241e-05,
        -0.00014091620508725175,
        -2.731582731555676e-06,
        8.689504544070133e-05,
        -1.213213113857079e-05,
        0.0,
        -0.00014365709866524958,
        9.301609055690492e-05,
        -0.00012902180159748855,
        -9.268601037303013e-05,
        0.0001802243562736713,
        -3.1255685687167005e-06,
        6.087873383610366e-05,
        7.087302601979513e-05,
        4.1909312483697936e-05,
        -8.174826008859316e-05,
        6.336579354481902e-05,
        0.00010090384622070026,
        0.00024203353443865048,
        -1.6950710830100654e-05
      ],
      [
        -7.65849310820334e-06,
        -7.215234304855669e-06,
        -0.15254101888125532,
        1.5824423270070994e-05,
        1.6631801695436762e-05,
        -7.436863706476072e-06,
        -8.807267074826895e-06,
        -8.297519450682059e-06,
        -0.1754221717134437,
        1.8198086760622864e-05,
        1.912657194906077e-05,
        -8.552393262961098e-06,
        -9.956041040725434e-06,
        -9.379804596436009e-06,
        2.095967975731235,
        2.0571750251010162e-05,
        2.1621342203668185e-05,
        -9.667922818842516e-06,
        -1.1104815007358021e-05,
        -1.0462089742132153e-05,
        -0.2211844773778197,
        2.2945413741623344e-05,
        2.4116112457323253e-05,
        -1.0783452374702044e-05,
        -1.2253588973511596e-05,
        -1.154437488749388e-05,
        -0.2440656302100084,
        2.5319077232213486e-05,
        2.6610882711429353e-05,
        -1.1898981930829644e-05,
        -1.3402362939606457e-05,
        -1.2626660033484918e-05,
        -0.2669467830421962,
        2.769274072276665e-05,
        2.9105652965968144e-05,
        -1.3014511487476034e-05,
        -1.4551136905831485e-05,
        -1.3708945179431248e-05,
        -0.2898279358743845,
        3.0066404213191045e-05,
        3.160042322024138e-05,
        -1.413004104227448e-05,
        -1.5699910872382867e-05,
        -1.4791230324551343e-05,
        -0.3127090887065737,
        3.2440067703455954e-05,
        3.409519347436873e-05,
        -1.5245570598974112e-05,
        -8.304995516163808e-05,
        -0.00014995687845469874,
        0.0,
        0.0,
        3.108952503960947e-05,
        0.00017332318228082996,
        3.3663944235811575e-05,
        0.0003456312493594632,
        0.0,
        0.000185335868265373,
        2.7825667088834976e-05,
        -0.00016490846812350403,
        0.00025967462493305056,
        -0.0001810691891093255,
        -1.3448849219677693e-05,
        0.0002156317679099584,
        -0.0004682638793551637,
        0.0002870138098289012,
        -0.00035057103626099897,
        0.00014688642814960197,
        0.0,
        0.00010940753169084035,
        -0.00023518887137023766,
        -0.00023351890611269407,
        -0.00016235208302048238,
        -0.00014960385415737796,
        -5.4754873977096414e-05,
        -5.122950583279017e-05,
        -0.00018296208549793325,
        -0.00013253427431339073,
        0.00017297674664175182,
        -0.00010432887770021834,
        -5.5711315470881e-06,
        0.0,
        0.000564138310387015,
        -0.00016863731360550915,
        0.00022714359228468553,
        4.5628828692682656e-05,
        -0.0005813134122032617,
        -0.0002156904567560702,
        -1.679762772407253e-06,
        -0.00010007285957282671,
        0.00010349727667215333,
        8.022896538093592e-05,
        -0.00031464645975396084,
        -0.0003333456356526938,
        -0.00019563986906559762,
        9.01625832726143e-05
      ],
      [
        -6.733474781801908e-06,
        -6.380580473491245e-06,
        1.5824423269956824e-05,
        -0.15254405856963774,
        1.4606826312028232e-05,
        -6.5570276273022455e-06,
        -7.743495999614168e-06,
        -7.337667544601536e-06,
        1.8198086760429557e-05,
        -0.17542566735508355,
        1.6797850258030295e-05,
        -7.540581772153125e-06,
        -8.7535172158935e-06,
        -8.294754615494822e-06,
        2.0571750250976823e-05,
        2.0959640241363435,
        1.898887420520668e-05,
        -8.524135916331085e-06,
        -9.763538434323e-06,
        -9.251841686570664e-06,
        2.294541374148918e-05,
        -0.22118888492597447,
        2.1179898151238015e-05,
        -9.507690060256352e-06,
        -1.0773559651698341e-05,
        -1.020892875743113e-05,
        2.531907723191755e-05,
        -0.2440704937114215,
        2.3370922097818154e-05,
        -1.0491244204964713e-05,
        -1.1783580868740074e-05,
        -1.1166015828536533e-05,
        2.7692740722419286e-05,
        -0.2669521024968663,
        2.5561946044911438e-05,
        -1.1474798349319832e-05,
        -1.2793602085519109e-05,
        -1.2123102899700529e-05,
        3.006640421299986e-05,
        -0.28983371128231195,
        2.775296999162942e-05,
        -1.2458352492218377e-05,
        -1.3803623303392332e-05,
        -1.3080189970283768e-05,
        3.24400677034648e-05,
        -0.3127153200677575,
        2.9943993938286203e-05,
        -1.3441906637497986e-05,
        -5.540709471002774e-06,
        -0.00019996078166399357,
        0.0,
        0.0,
        5.878150436586044e-05,
        0.0001732277361046912,
        8.061012782884976e-05,
        0.00025596319184863816,
        0.0,
        0.000123197942595444,
        2.960208638602355e-05,
        -0.00024242092038199528,
        0.00032089480670629845,
        -0.00015352493962403566,
        6.902727260328387e-05,
        0.00034675391919431874,
        -0.00031020217807010297,
        8.737127309918277e-05,
        -0.00033675967393463337,
        2.8369799134206944e-05,
        0.0,
        8.334491023339161e-05,
        -0.00017784628763167903,
        -5.9631734875977364e-05,
        -4.547934566757886e-06,
        -4.4778249397045886e-05,
        -0.00026865846442709716,
        8.241526319865276e-05,
        -0.00018539835465134126,
        0.0001786448384669035,
        0.00016172838307979576,
        -0.00020190748355615603,
        3.654198301030357e-05,
        0.0,
        0.00028163671935197814,
        -8.451733861958486e-05,
        0.000168782656481384,
        7.208762305942658e-05,
        -0.00045029414340636714,
        -0.00014581840073559337,
        -7.131201154081539e-05,
        -0.00011991808988816977,
        7.282261123462615e-05,
        5.0348334285207594e-06,
        -0.00043458015052665863,
        -0.00025001525773059324,
        -0.00035251261746550345,
        6.850796907012417e-05
      ],
      [
        -7.746841246551608e-06,
        -7.866249077323251e-06,
        1.6631801695013066e-05,
        1.4606826311765284e-05,
        -0.15254111833522715,
        -7.806545161621296e-06,
        -8.90886743362064e-06,
        -9.046186438779325e-06,
        1.9126571949229446e-05,
        1.6797850258531254e-05,
        -0.1754222860855114,
        -8.977526936345778e-06,
        -1.0070893620129215e-05,
        -1.022612380065439e-05,
        2.16213422036218e-05,
        1.8988874205152307e-05,
        2.095967846441085,
        -1.0148508710545958e-05,
        -1.1232919807624044e-05,
        -1.1406061161960944e-05,
        2.4116112457764117e-05,
        2.1179898152016473e-05,
        -0.22118462158607927,
        -1.1319490484417722e-05,
        -1.2394945994641798e-05,
        -1.2585998523227207e-05,
        2.6610882711965372e-05,
        2.3370922098955438e-05,
        -0.2440657893363633,
        -1.249047225911164e-05,
        -1.3556972181355142e-05,
        -1.3765935884688882e-05,
        2.9105652966212364e-05,
        2.556194604569134e-05,
        -0.26694695708664673,
        -1.3661454034023303e-05,
        -1.4718998368803606e-05,
        -1.4945873246453987e-05,
        3.160042322052119e-05,
        2.775296999236096e-05,
        -0.2898281248369311,
        -1.4832435807091235e-05,
        -1.5881024555407826e-05,
        -1.6125810607501535e-05,
        3.409519347480494e-05,
        2.9943993938830198e-05,
        -0.31270929258721497,
        -1.6003417581919475e-05,
        -0.00017266626641623153,
        -0.00018376580600300987,
        0.0,
        0.0,
        -6.889966027691995e-05,
        9.99241881102254e-05,
        5.543631394333692e-05,
        0.00038435732077898247,
        0.0,
        0.0002908290949545479,
        -0.00011145707395515649,
        -0.0006265354860854085,
        0.00023444031084517361,
        -0.00024560681672944324,
        -1.0945519616202531e-05,
        0.0002940078068863718,
        -0.0006961713457852662,
        0.00013931910834948975,
        -0.0004683581782137513,
        0.0001347167310067718,
        0.0,
        0.00022556601645420938,
        -0.00022253820475965594,
        -0.00013058182392142027,
        -5.71728623073865e-05,
        -0.0002060855807464596,
        0.00010523566957827982,
        0.00010585174046463083,
        -0.00017175246997329108,
        0.00025933555381066093,
        2.7190566644417358e-05,
        -0.0002366621885958402,
        2.3909915169832837e-05,
        0.0,
        0.00043951678868238235,
        -0.00023161905961921564,
        0.0003751119478459982,
        0.00015996904210780524,
        -0.00040749720949707425,
        3.471171270454406e-05,
        -0.000171402889034659,
        -0.00021228095285068813,
        -0.00010809775536715556,
        6.384057562799224e-05,
        -0.00013098551100712935,
        -0.0002449674616054798,
        -0.0006442358844619363,
        2.69018969053786e-05
      ],
      [
        -0.05085006684672407,
        -0.05085008846931935,
        -7.436863706721896e-06,
        -6.557027627903659e-06,
        -7.80654516202517e-06,
        -0.05085007765802167,
        -0.05847757687373234,
        -0.058477601739717104,
        -8.552393262708902e-06,
        -7.540581772099186e-06,
        -8.97752693616202e-06,
        -0.05847758930672456,
        -0.06610508690074152,
        -0.06610511501011498,
        -9.667922818770286e-06,
        -8.524135916231098e-06,
        -1.0148508710545776e-05,
        2.2281661993214406,
        -0.07373259692774936,
        -0.07373262828051307,
        -1.0783452374748614e-05,
        -9.507690060460773e-06,
        -1.1319490484666145e-05,
        -0.0737326126041313,
        -0.08136010695475836,
        -0.08136014155091098,
        -1.1898981930720931e-05,
        -1.049124420468492e-05,
        -1.2490472258861153e-05,
        -0.08136012425283451,
        -0.08898761698176688,
        -0.08898765482130906,
        -1.3014511486731192e-05,
        -1.1474798348874125e-05,
        -1.3661454033295952e-05,
        -0.08898763590153745,
        -0.09661512700877509,
        -0.09661516809170671,
        -1.413004104276533e-05,
        -1.2458352493025335e-05,
        -1.4832435807627951e-05,
        -0.09661514755024131,
        -0.10424263703578394,
        -0.10424268136210477,
        -1.524557059878731e-05,
        -1.3441906637108893e-05,
        -1.600341758188966e-05,
        -0.1042426591989446,
        5.5277778073157e-05,
        7.365207827951304e-05,
        0.0,
        0.0,
        -6.068933606966069e-06,
        -5.420494212958373e-05,
        -2.1835104938741734e-05,
        -0.00017509050484836304,
        0.0,
        -0.00010167863245332146,
        1.612685764099938e-05,
        0.00019864162760699654,
        -0.00011843034258052973,
        9.198132997838157e-05,
        -1.137455449113917e-05,
        -0.00012882290158125392,
        0.00023151131208052044,
        -4.8095482558396636e-05,
        0.00017519756231585646,
        -6.228833123931524e-05,
        0.0,
        -7.410412079507607e-05,
        0.0001037133658526261,
        6.257780529107461e-05,
        3.411766737226793e-05,
        5.8691646662903304e-05,
        -1.82680233892184e-05,
        -3.0034901511339115e-05,
        8.717391937709163e-05,
        -6.296031668225367e-05,
        -4.6553466907234284e-05,
        8.686447387565676e-05,
        4.426873493674139e-06,
        0.0,
        -0.00020355318617167872,
        8.526203563533158e-05,
        -0.00014763979951569012,
        -6.082822944812483e-05,
        0.00019289205060257102,
        1.562389879141075e-05,
        4.738897587144737e-05,
        7.23557273357601e-05,
        -3.900504191592244e-06,
        -4.4200378069272256e-05,
        7.579749926283108e-05,
        0.00011135539446512301,
        0.0001995319308084141,
        -2.6862535183587908e-05
      ],
      [
        -0.14179887670070151,
        0.028364112196471135,
        -8.542165390254098e-06,
        -7.510414180242136e-06,
        -8.64070754433941e-06,
        -0.05671738225211508,
        -0.1630687082058069,
        0.03261872902594177,
        -9.823490198764182e-06,
        -8.63697630729122e-06,
        -9.936813675745889e-06,
        -0.06522498958993254,
        -0.1843385397109117,
        0.03687334585541256,
        -1.1104815007363354e-05,
        -9.763538434264459e-06,
        -1.1232919807508956e-05,
        -0.07373259692774943,
        2.088662929060855,
        0.041127962684883175,
        -1.2386139815846561e-05,
        -1.0890100561349447e-05,
        -1.2529025938923643e-05,
        -0.08224020426556673,
        -0.22687820272112227,
        0.04538257951435343,
        -1.3667464624367219e-05,
        -1.2016662688445736e-05,
        -1.3825132070434495e-05,
        -0.09074781160338423,
        -0.24814803422622778,
        0.04963719634382436,
        -1.4948789432905244e-05,
        -1.3143224815490638e-05,
        -1.5121238202233828e-05,
        -0.09925541894120105,
        -0.2694178657313328,
        0.053891813173295125,
        -1.623011424148676e-05,
        -1.4269786942485282e-05,
        -1.6417344333893954e-05,
        -0.10776302627901899,
        -0.29068769723643745,
        0.058146430002765766,
        -1.751143905003023e-05,
        -1.5396349069380903e-05,
        -1.7713450465461012e-05,
        -0.11627063361683616,
        2.964918811733583e-05,
        0.00010402304656430038,
        0.0,
        0.0,
        3.4100380672258716e-06,
        -6.533681247930332e-05,
        -3.822427624033189e-05,
        -0.00015487928796442934,
        0.0,
        -0.00012110202198704789,
        1.8563482029488517e-05,
        0.00011934439508577555,
        -0.0001498036793752456,
        0.00010309664037193602,
        2.8102760639266484e-05,
        -0.0001062899632994097,
        0.0002903136987052546,
        -0.0001567905070354587,
        0.00019194859850786602,
        -5.88397360826923e-05,
        0.0,
        -7.1032834498355e-05,
        0.0001379580548995271,
        0.0001224728224738333,
        3.861124575335245e-05,
        7.428216052063317e-05,
        6.355904821845423e-06,
        -3.0577492563595795e-05,
        0.00012152732440027142,
        1.6725829876641693e-05,
        -0.00010080327619727216,
        9.685319870794547e-05,
        2.3407325600843584e-05,
        0.0,
        -0.00029384726678204217,
        8.645120926557559e-05,
        -0.00018544138946490878,
        -3.231319253706306e-05,
        0.00022927817709628015,
        3.833952390974565e-05,
        3.781066607750539e-05,
        8.23582473332071e-05,
        -5.5446127123870754e-05,
        -7.42009172393582e-06,
        9.840949781219262e-05,
        0.0001358615899272856,
        0.00017514921116014692,
        -4.1017554892316995e-05
      ],
      [
        0.028364112196471135,
        -0.14179892493572188,
        -8.047761340147965e-06,
        -7.116801297468437e-06,
        -8.773893201617257e-06,
        -0.056717406369625425,
        0.03261872902594178,
        -0.1630687636760805,
        -9.25492554114885e-06,
        -8.1843214920991e-06,
        -1.0089977181723247e-05,
        -0.06522501732506915,
        0.03687334585541253,
        -0.1843386024164386,
        -1.046208974223714e-05,
        -9.251841686662784e-06,
        -1.1406061162046638e-05,
        -0.07373262828051302,
        0.04112796268488313,
        2.0886628591200718,
        -1.1669253943221526e-05,
        -1.0319361881332843e-05,
        -1.2722145142113675e-05,
        -0.0822402392359567,
        0.045382579514353864,
        -0.22687827989715553,
        -1.287641814419971e-05,
        -1.138688207597871e-05,
        -1.4038229122255458e-05,
        -0.09074785019140054,
        0.04963719634382446,
        -0.24814811863751396,
        -1.4083582345229575e-05,
        -1.2454402270598484e-05,
        -1.535431310266786e-05,
        -0.09925546114684443,
        0.05389181317329516,
        -0.2694179573778718,
        -1.529074654626924e-05,
        -1.3521922465183127e-05,
        -1.6670397082963083e-05,
        -0.10776307210228865,
        0.05814643000276598,
        -0.2906877961182305,
        -1.649791074731479e-05,
        -1.4589442659718126e-05,
        -1.7986481063186675e-05,
        -0.11627068305773199,
        9.366277837791812e-05,
        6.027774356519486e-05,
        0.0,
        0.0,
        -1.6948428398264272e-05,
        -5.558190458853013e-05,
        -1.0484803990304443e-05,
        -0.00023570722286506195,
        0.0,
        -0.00010571954269964738,
        1.7411815775283723e-05,
        0.00032377923570278553,
        -0.0001143870848977465,
        0.00010209248029726282,
        -5.347676680052287e-05,
        -0.00018108420178019385,
        0.0002261346128144711,
        4.950058448319417e-05,
        0.00019887673287095133,
        -8.011115669730734e-05,
        0.0,
        -9.427635802006882e-05,
        9.340253049166738e-05,
        1.712382002750184e-05,
        3.749739683082691e-05,
        5.664535899867348e-05,
        -4.71076492816359e-05,
        -3.642344161944545e-05,
        7.29375726667559e-05,
        -0.00015717576714409842,
        -3.046765364851028e-06,
        9.692139687425873e-05,
        -1.3531992489952574e-05,
        0.0,
        -0.00016023291775375424,
        0.0001037487163607973,
        -0.00014390893254841047,
        -0.00010338055007066323,
        0.00020101947424025767,
        -3.48621120008518e-06,
        6.790320315411491e-05,
        7.905068290229244e-05,
        4.67450024393937e-05,
        -9.118075164252953e-05,
        7.067723129888387e-05,
        0.00011254659777601023,
        0.00026996048069104727,
        -1.890656211456947e-05
      ],
      [
        -8.542165389899847e-06,
        -8.04776134000785e-06,
        -0.17014190567524606,
        1.765031826278353e-05,
        1.8550855737128958e-05,
        -8.294963364890225e-06,
        -9.823490198817458e-06,
        -9.254925541118313e-06,
        -0.19566319152653433,
        2.0297866002248057e-05,
        2.1333484096937494e-05,
        -9.539207870197914e-06,
        -1.1104815006956062e-05,
        -1.0462089742148399e-05,
        -0.22118447737781954,
        2.2945413741527985e-05,
        2.411611245782152e-05,
        -1.0783452374844375e-05,
        -1.2386139815874725e-05,
        -1.166925394311317e-05,
        2.04756553704777,
        2.559296148105764e-05,
        2.689874081765966e-05,
        -1.2027696879442954e-05,
        -1.3667464624281707e-05,
        -1.2876418143706282e-05,
        -0.27222704908039463,
        2.8240509220565827e-05,
        2.9681369178003407e-05,
        -1.3271941384358852e-05,
        -1.4948789432593522e-05,
        -1.40835823450004e-05,
        -0.2977483349316812,
        3.0888056960030266e-05,
        3.246399753882415e-05,
        -1.4516185889837068e-05,
        -1.6230114241095698e-05,
        -1.5290746546243902e-05,
        -0.3232696207829681,
        3.353560469934935e-05,
        3.5246625899354834e-05,
        -1.5760430393270433e-05,
        -1.7511439049911016e-05,
        -1.6497910746567122e-05,
        -0.34879090663425455,
        3.618315243849633e-05,
        3.8029254259701467e-05,
        -1.7004674898798308e-05,
        -9.263264230109426e-05,
        -0.00016725959520133565,
        0.0,
        0.0,
        3.4676777963799424e-05,
        0.00019332201101032628,
        3.7548245491267235e-05,
        0.0003855117781196176,
        0.0,
        0.00020672077613112443,
        3.1036320982289616e-05,
        -0.0001839363683155362,
        0.0002896370816661775,
        -0.00020196178784885266,
        -1.5000639516531794e-05,
        0.00024051235649966696,
        -0.0005222943269581915,
        0.00032013078786255017,
        -0.0003910215404381528,
        0.0001638348621641505,
        0.0,
        0.00012203147769351284,
        -0.0002623260488675731,
        -0.0002604633951869768,
        -0.00018108501568198234,
        -0.0001668658372936136,
        -6.107274405940513e-05,
        -5.714060268099885e-05,
        -0.0002040730953869843,
        -0.00014782669059093474,
        0.00019293560202367986,
        -0.00011636682512882759,
        -6.213954400509337e-06,
        0.0,
        0.0006292311923780169,
        -0.00018809546517936236,
        0.00025335246830459924,
        5.089369352286047e-05,
        -0.0006483880366953226,
        -0.00024057781718070555,
        -1.8735815534117603e-06,
        -0.00011161972798208237,
        0.00011543927013662077,
        8.948615369787724e-05,
        -0.00035095182049743097,
        -0.0003718085936481008,
        -0.0002182137001100112,
        0.00010056595825559923
      ],
      [
        -7.51041417974388e-06,
        -7.116801297403503e-06,
        1.7650318262741907e-05,
        -0.1701452960969037,
        1.6292229348137584e-05,
        -7.3136077381901e-06,
        -8.636976307311583e-06,
        -8.184321492111204e-06,
        2.0297866002130408e-05,
        -0.19566709051143885,
        1.873606374946468e-05,
        -8.410648899761099e-06,
        -9.763538433167187e-06,
        -9.251841686575509e-06,
        2.2945413741601087e-05,
        -0.22118888492597458,
        2.1179898152099932e-05,
        -9.507690060581592e-06,
        -1.0890100561421258e-05,
        -1.0319361881245592e-05,
        2.5592961481033162e-05,
        2.047560620936361,
        2.3623732553457582e-05,
        -1.0604731221120958e-05,
        -1.2016662688501072e-05,
        -1.1386882075672845e-05,
        2.824050922037506e-05,
        -0.27223247375504567,
        2.6067566955430625e-05,
        -1.1701772382533142e-05,
        -1.3143224815207286e-05,
        -1.245440227037523e-05,
        3.0888056959793415e-05,
        -0.29775426816958145,
        2.8511401357970793e-05,
        -1.2798813543551343e-05,
        -1.4269786941620647e-05,
        -1.3521922465142543e-05,
        3.353560469930284e-05,
        -0.323276062584116,
        3.0955235760097335e-05,
        -1.3895854702945361e-05,
        -1.5396349069255695e-05,
        -1.4589442659261697e-05,
        3.618315243868124e-05,
        -0.348797856998652,
        3.33990701621505e-05,
        -1.499289586499455e-05,
        -6.180022105512925e-06,
        -0.00022303317954698387,
        0.0,
        0.0,
        6.556398563779199e-05,
        0.0001932155518150128,
        8.991129642854393e-05,
        0.00028549740629192486,
        0.0,
        0.00013741308983699488,
        3.301771174057174e-05,
        -0.0002703925650460715,
        0.00035792113056060164,
        -0.00017123935573222165,
        7.699195790417342e-05,
        0.00038676398679544455,
        -0.0003459947370731705,
        9.745257383323542e-05,
        -0.000375616559393665,
        3.164323749261968e-05,
        0.0,
        9.296163065229756e-05,
        -0.0001983670131238049,
        -6.651231967211368e-05,
        -5.0726962498260824e-06,
        -4.9944970478781926e-05,
        -0.00029965751801661137,
        9.192471664350091e-05,
        -0.00020679047249888633,
        0.00019925770444721537,
        0.00018038935035656547,
        -0.0002252045008912309,
        4.0758365660827604e-05,
        0.0,
        0.00031413326389700345,
        -9.426933923253356e-05,
        0.00018825757838251183,
        8.040542572144269e-05,
        -0.0005022511599619706,
        -0.00016264360082426395,
        -7.954032056274279e-05,
        -0.00013375479256700883,
        8.122522022658904e-05,
        5.615775741757756e-06,
        -0.00048472401405062206,
        -0.00027886317208101325,
        -0.00039318715025564525,
        7.641273472701987e-05
      ],
      [
        -8.640707544037892e-06,
        -8.773893201462826e-06,
        1.8550855736185316e-05,
        1.6292229347122564e-05,
        -0.17014201660467615,
        -8.707300372397834e-06,
        -9.936813675736278e-06,
        -1.0089977181523076e-05,
        2.1333484096577834e-05,
        1.873606374919142e-05,
        -0.19566331909537837,
        -1.0013395428795336e-05,
        -1.1232919806806574e-05,
        -1.140606116205171e-05,
        2.4116112457163923e-05,
        2.117989815110016e-05,
        -0.22118462158607924,
        -1.131949048460657e-05,
        -1.252902593899693e-05,
        -1.272214514194532e-05,
        2.6898740817452253e-05,
        2.362373255327792e-05,
        2.0475653762000885,
        -1.2625585540053883e-05,
        -1.3825132070657247e-05,
        -1.4038229121794081e-05,
        2.968136917781892e-05,
        2.6067566955541393e-05,
        -0.2722272265674828,
        -1.39316805964166e-05,
        -1.512123820196032e-05,
        -1.5354313101860335e-05,
        3.2463997538269256e-05,
        2.851140135757538e-05,
        -0.29774852905818433,
        -1.5237775653030156e-05,
        -1.641734433407846e-05,
        -1.6670397082266632e-05,
        3.524662589876484e-05,
        3.095523575953751e-05,
        -0.32326983154888517,
        -1.6543870707568963e-05,
        -1.771345046525733e-05,
        -1.798648106187163e-05,
        3.802925425920433e-05,
        3.3399070161276755e-05,
        -0.3487911340395868,
        -1.7849965764078194e-05,
        -0.00019258929715961076,
        -0.00020496955275017514,
        0.0,
        0.0,
        -7.684962081667233e-05,
        0.00011145390216659053,
        6.18328116617743e-05,
        0.00042870624255231737,
        0.0,
        0.0003243862981067992,
        -0.00012431750552170927,
        -0.0006988280423238753,
        0.00026149111593335393,
        -0.0002739460649247657,
        -1.220846410442165e-05,
        0.0003279317846498253,
        -0.0007764988086755892,
        0.00015539439014614743,
        -0.0005223995064232596,
        0.00015026096923265552,
        0.0,
        0.0002515928644206326,
        -0.00024821569004230675,
        -0.0001456489576153633,
        -6.37697310463629e-05,
        -0.00022986468633212704,
        0.0001173782469196925,
        0.00011806540284674338,
        -0.00019157006257510155,
        0.00028925888697462073,
        3.032793972452335e-05,
        -0.0002639693641435691,
        2.6668751492081748e-05,
        0.0,
        0.000490230264190727,
        -0.0002583443357478207,
        0.0004183940957080842,
        0.00017842700860223448,
        -0.0004545161182512463,
        3.871691039724206e-05,
        -0.0001911801454814861,
        -0.0002367749088396396,
        -0.00012057057322756475,
        7.120679595882885e-05,
        -0.00014609922376391594,
        -0.0002732329378916371,
        -0.000718570794125329,
        3.0005962084428876e-05
      ],
      [
        -0.05671738225211514,
        -0.05671740636962525,
        -8.294963365166356e-06,
        -7.313607738768523e-06,
        -8.70730037270091e-06,
        -0.05671739431087051,
        -0.06522498958993253,
        -0.06522501732506931,
        -9.539207869918484e-06,
        -8.410648899595526e-06,
        -1.0013395428421868e-05,
        -0.06522500345750082,
        -0.0737325969277498,
        -0.07373262828051312,
        -1.0783452374756801e-05,
        -9.507690060351353e-06,
        -1.131949048442076e-05,
        -0.07373261260413115,
        -0.08224020426556672,
        -0.08224023923595664,
        -1.2027696879487148e-05,
        -1.060473122121609e-05,
        -1.2625585540112587e-05,
        2.2120310785261146,
        -0.09074781160338417,
        -0.09074785019140115,
        -1.3271941384231903e-05,
        -1.170177238207368e-05,
        -1.393168059590851e-05,
        -0.09074783089739259,
        -0.09925541894120185,
        -0.09925546114684493,
        -1.451618588900876e-05,
        -1.2798813542893171e-05,
        -1.5237775651965898e-05,
        -0.09925544004402286,
        -0.10776302627901908,
        -0.10776307210228843,
        -1.5760430393815447e-05,
        -1.3895854703669835e-05,
        -1.654387070789874e-05,
        -0.10776304919065387,
        -0.11627063361683648,
        -0.11627068305773203,
        -1.7004674898604666e-05,
        -1.4992895864371618e-05,
        -1.784996576375119e-05,
        -0.11627065833728431,
        6.165598325327674e-05,
        8.215039493831146e-05,
        0.0,
        0.0,
        -6.769195368513233e-06,
        -6.045935857353668e-05,
        -2.4354540100446227e-05,
        -0.0001952932554803262,
        0.0,
        -0.00011341078233872993,
        1.7987648872461813e-05,
        0.0002215618155061503,
        -0.00013209538212185503,
        0.0001025945604189669,
        -1.2687003137945679e-05,
        -0.00014368708256174404,
        0.00025822415568454976,
        -5.364496133056501e-05,
        0.00019541266564322246,
        -6.947544641266723e-05,
        0.0,
        -8.265459626168183e-05,
        0.00011568029274607505,
        6.979832137696491e-05,
        3.805432132702422e-05,
        6.546375979006739e-05,
        -2.0375872290780474e-05,
        -3.350046708596948e-05,
        9.723244852005583e-05,
        -7.022496864956069e-05,
        -5.1925020788418e-05,
        9.688729774373076e-05,
        4.937666628918068e-06,
        0.0,
        -0.0002270400922348898,
        9.509996283817691e-05,
        -0.0001646751610229307,
        -6.784687134310586e-05,
        0.00021514882567017613,
        1.742665632522995e-05,
        5.285693463963922e-05,
        8.070446503343964e-05,
        -4.35056240427041e-06,
        -4.930042173074431e-05,
        8.454336453269044e-05,
        0.00012420409379240585,
        0.00022255484587522083,
        -2.996205855952908e-05
      ],
      [
        -0.1564677260145671,
        0.031298330699554414,
        -9.425837671881702e-06,
        -8.287353578368648e-06,
        -9.534573842135673e-06,
        -0.0625846976575065,
        -0.17993788491675217,
        0.035993080304487404,
        -1.0839713322651016e-05,
        -9.530456615137498e-06,
        -1.0964759918186358e-05,
        -0.07197240230613212,
        -0.20340804381893746,
        0.04068782990942074,
        -1.225358897351347e-05,
        -1.077355965182274e-05,
        -1.239494599462167e-05,
        -0.08136010695475843,
        -0.22687820272112225,
        0.045382579514353705,
        -1.3667464624259166e-05,
        -1.20166626886322e-05,
        -1.3825132070685364e-05,
        -0.09074781160338433,
        2.0439229386535667,
        0.05007732911928668,
        -1.5081340275005925e-05,
        -1.3259765725452622e-05,
        -1.5255318146870909e-05,
        -0.10013551625201024,
        -0.2738185205254931,
        0.05477207872422007,
        -1.649521592579885e-05,
        -1.4502868762217524e-05,
        -1.668550422332239e-05,
        -0.10952322090063596,
        -0.29728867942767634,
        0.05946682832915337,
        -1.7909091576624604e-05,
        -1.574597179892688e-05,
        -1.8115690299652622e-05,
        -0.11891092554926225,
        -0.3207588383298632,
        0.06416157793408628,
        -1.932296722739603e-05,
        -1.698907483552569e-05,
        -1.9545876375879337e-05,
        -0.12829863019788806,
        3.2716345526827226e-05,
        0.00011478405141802028,
        0.0,
        0.0,
        3.762800667277211e-06,
        -7.209579310762721e-05,
        -4.2178511749958566e-05,
        -0.00017090128322506663,
        0.0,
        -0.00013362981737893176,
        2.048384225531908e-05,
        0.0001316903669558716,
        -0.0001653006117356572,
        0.00011376181004746012,
        3.1009942785891606e-05,
        -0.00011728547675980552,
        0.0003203461503180545,
        -0.00017301021469702844,
        0.00021180535011999988,
        -6.492660532282151e-05,
        0.0,
        -7.838105879512288e-05,
        0.000152229577811118,
        0.00013514242475579002,
        4.260551257610029e-05,
        8.19665219263701e-05,
        7.013412252341285e-06,
        -3.374068140985496e-05,
        0.00013409911664001383,
        1.8456088131620282e-05,
        -0.0001112312013418569,
        0.00010687249512976061,
        2.582877307168345e-05,
        0.0,
        -0.0003242452598762714,
        9.53944377969876e-05,
        -0.00020462498145274428,
        -3.56559365699204e-05,
        0.0002529966092420555,
        4.230568155893987e-05,
        4.172211427211264e-05,
        9.087806605071708e-05,
        -6.118193337869018e-05,
        -8.187687396384533e-06,
        0.00010858979074750602,
        0.0001499162371448059,
        0.00019326809510279654,
        -4.526075018734597e-05
      ],
      [
        0.03129833069955412,
        -0.15646777923941765,
        -8.880288375056691e-06,
        -7.853022121190582e-06,
        -9.681537325592802e-06,
        -0.06258472426993167,
        0.03599308030448717,
        -0.17993794612533034,
        -1.0212331631291277e-05,
        -9.030975439380671e-06,
        -1.1133767924280737e-05,
        -0.07197243291042152,
        0.04068782990942028,
        -0.2034081130112432,
        -1.1544374887622776e-05,
        -1.0208928757496525e-05,
        -1.2585998523209482e-05,
        -0.08136014155091106,
        0.04538257951435352,
        -0.2268782798971556,
        -1.287641814384023e-05,
        -1.1386882075730143e-05,
        -1.403822912185504e-05,
        -0.090747850191401,
        0.05007732911928688,
        2.043922853493806,
        -1.4208461400050466e-05,
        -1.256483539393799e-05,
        -1.549045972058237e-05,
        -0.1001355588318905,
        0.054772078724219915,
        -0.2738186136689814,
        -1.5540504656317024e-05,
        -1.374278871211605e-05,
        -1.694269031960872e-05,
        -0.10952326747238048,
        0.059466828329152975,
        -0.29728878055489333,
        -1.687254791259391e-05,
        -1.4920742030255864e-05,
        -1.839492091850589e-05,
        -0.11891097611287063,
        0.06416157793408592,
        -0.320758947440807,
        -1.8204591168878157e-05,
        -1.60986953483386e-05,
        -1.9847151517323612e-05,
        -0.12829868475336012,
        0.00010335203127889368,
        6.651337217908659e-05,
        0.0,
        0.0,
        -1.8701713942535376e-05,
        -6.133175675659005e-05,
        -1.156943889632937e-05,
        -0.0002600907286912918,
        0.0,
        -0.00011665604708092214,
        1.9213038071623562e-05,
        0.0003572736392762471,
        -0.0001262202315852527,
        0.00011265377139902203,
        -5.9008846056618605e-05,
        -0.00019981705022011488,
        0.0002495278486837032,
        5.462133454878955e-05,
        0.00021945018801069994,
        -8.839851771977408e-05,
        0.0,
        -0.00010402908469026247,
        0.00010306486114476868,
        1.8895249779109625e-05,
        4.1376437905505455e-05,
        6.250522368583496e-05,
        -5.198085435628519e-05,
        -4.019138383697601e-05,
        8.048283878912824e-05,
        -0.00017343532933059716,
        -3.3619480020923543e-06,
        0.00010694774829099554,
        -1.4931853792829903e-05,
        0.0,
        -0.00017680873675993266,
        0.00011448134222260121,
        -0.0001587960634864927,
        -0.00011407508969708585,
        0.00022181459224697445,
        -3.846853773589293e-06,
        7.492767244481493e-05,
        8.722833978171427e-05,
        5.158069235467537e-05,
        -0.0001006132431980813,
        7.798866902667007e-05,
        0.00012418934924235246,
        0.00029788742697484365,
        -2.0862413341460107e-05
      ],
      [
        -9.425837671565473e-06,
        -8.880288375144571e-06,
        -0.18774279246923747,
        1.9476213255422688e-05,
        2.0469909778849617e-05,
        -9.153063023290666e-06,
        -1.0839713322805813e-05,
        -1.0212331631537047e-05,
        -0.21590421133962412,
        2.2397645243786694e-05,
        2.3540396244839493e-05,
        -1.0526022477421073e-05,
        -1.2253588973166962e-05,
        -1.15443748878406e-05,
        -0.24406563021000863,
        2.5319077231950072e-05,
        2.6610882712025095e-05,
        -1.1898981930826853e-05,
        -1.3667464624356118e-05,
        -1.2876418144072513e-05,
        -0.2722270490803948,
        2.8240509220387917e-05,
        2.968136917804212e-05,
        -1.327194138416027e-05,
        -1.5081340275009648e-05,
        -1.4208461399893588e-05,
        1.9938828323260969,
        3.116194120880098e-05,
        3.2751855644621235e-05,
        -1.4644900837854022e-05,
        -1.649521592557836e-05,
        -1.554050465648836e-05,
        -0.32854988682116654,
        3.408337319716552e-05,
        3.582234211172229e-05,
        -1.6017860292175235e-05,
        -1.79090915763355e-05,
        -1.687254791302793e-05,
        -0.35671130569155174,
        3.700480518537365e-05,
        3.8892828578497026e-05,
        -1.7390819744242428e-05,
        -1.9322967227401263e-05,
        -1.8204591168551266e-05,
        -0.38487272456193683,
        3.992623717338408e-05,
        4.196331504509971e-05,
        -1.87637791986052e-05,
        -0.00010221532943109212,
        -0.00018456231194604344,
        0.0,
        0.0,
        3.826403084575456e-05,
        0.00021332083973341575,
        4.143254675791224e-05,
        0.0004253923068860972,
        0.0,
        0.00022810568400739276,
        3.424697487817783e-05,
        -0.00020296426848620425,
        0.0003195995383820234,
        -0.00022285438659204755,
        -1.655242982433512e-05,
        0.00026539294509527275,
        -0.000576324774579174,
        0.0003532477659137771,
        -0.00043147204463186506,
        0.00018078329617934402,
        0.0,
        0.00013465542366026802,
        -0.00028946322633242617,
        -0.0002874078843335098,
        -0.0001998179483360118,
        -0.00018412782045638035,
        -6.739061413804226e-05,
        -6.305169951658926e-05,
        -0.00022518410525896676,
        -0.00016311910685992136,
        0.000212894457408022,
        -0.00012840477255909402,
        -6.8567772750338025e-06,
        0.0,
        0.0006943240743397787,
        -0.00020755361675257696,
        0.00027956134432828057,
        5.615855836452723e-05,
        -0.0007154626611855045,
        -0.0002654651775846801,
        -2.06740032992943e-06,
        -0.0001231665964020104,
        0.00012738126359663796,
        9.874334200554297e-05,
        -0.0003872571812378185,
        -0.00041027155160708794,
        -0.0002407875311557129,
        0.00011096933324200664
      ],
      [
        -8.287353577697857e-06,
        -7.853022121292785e-06,
        1.9476213255515804e-05,
        -0.1877465336241697,
        1.7977632384303374e-05,
        -8.070187849071936e-06,
        -9.530456615020231e-06,
        -9.030975439594325e-06,
        2.2397645243818034e-05,
        -0.21590851366779487,
        2.067427724096307e-05,
        -9.280716027362443e-06,
        -1.0773559650454778e-05,
        -1.0208928757627049e-05,
        2.5319077232211064e-05,
        -0.2440704937114213,
        2.3370922099065196e-05,
        -1.0491244204824595e-05,
        -1.2016662688536324e-05,
        -1.1386882075885861e-05,
        2.824050922056163e-05,
        -0.2722324737550457,
        2.6067566955759012e-05,
        -1.170177238197664e-05,
        -1.325976572532047e-05,
        -1.256483539387732e-05,
        3.116194120881189e-05,
        1.9938768464782088,
        2.8764211813128998e-05,
        -1.2912300560091172e-05,
        -1.4502868761692391e-05,
        -1.3742788712172407e-05,
        3.4083373197147494e-05,
        -0.32855643384229677,
        3.146085667113061e-05,
        -1.4122828737772146e-05,
        -1.5745971797742137e-05,
        -1.492074203053983e-05,
        3.700480518558148e-05,
        -0.35671841388592085,
        3.415750152867103e-05,
        -1.5333356913659784e-05,
        -1.6989074835140247e-05,
        -1.6098695348192638e-05,
        3.992623717387394e-05,
        -0.384880393929548,
        3.68541463861317e-05,
        -1.6543885092477266e-05,
        -6.81933472919217e-06,
        -0.00024610557745059666,
        0.0,
        0.0,
        7.23464668750215e-05,
        0.0002132033675113024,
        9.921246503319213e-05,
        0.0003150316207145768,
        0.0,
        0.0001516282370649054,
        3.643333708358277e-05,
        -0.000298364209686928,
        0.0003949474544153569,
        -0.00018895377182135832,
        8.4956643193791e-05,
        0.0004267740544041501,
        -0.0003817872961080186,
        0.00010753387458846815,
        -0.00041447344486174466,
        3.491667584163783e-05,
        0.0,
        0.00010257835106485113,
        -0.00021888773859915508,
        -7.339290447061031e-05,
        -5.597457926658331e-06,
        -5.511169155060435e-05,
        -0.00033065657163007663,
        0.00010143417009697895,
        -0.0002281825903537901,
        0.0002198705704279783,
        0.00019905031763619853,
        -0.0002485015182312911,
        4.497474832712156e-05,
        0.0,
        0.000346629808452815,
        -0.0001040213398366222,
        0.00020773250028965752,
        8.872322837227488e-05,
        -0.0005542081765139284,
        -0.00017946880091083078,
        -8.776862958279421e-05,
        -0.0001475914952615569,
        8.962782920262922e-05,
        6.196718037507399e-06,
        -0.0005348678775916278,
        -0.0003077110864412728,
        -0.0004338616830593582,
        8.431750035953772e-05
      ],
      [
        -9.534573841713251e-06,
        -9.681537325777452e-06,
        2.0469909778038458e-05,
        1.7977632383153212e-05,
        -0.18774291487412584,
        -9.608055583356638e-06,
        -1.0964759918086306e-05,
        -1.1133767924468235e-05,
        2.3540396244692445e-05,
        2.067427724062796e-05,
        -0.21590435210524495,
        -1.1049263921456001e-05,
        -1.2394945993752845e-05,
        -1.258599852367609e-05,
        2.661088271156858e-05,
        2.3370922097924507e-05,
        -0.2440657893363629,
        -1.249047225890328e-05,
        -1.3825132070655067e-05,
        -1.4038229122182644e-05,
        2.9681369178118966e-05,
        2.6067566955521247e-05,
        -0.272227226567483,
        -1.3931680595957692e-05,
        -1.5255318146962675e-05,
        -1.549045972064074e-05,
        3.2751855644766844e-05,
        2.876421181320661e-05,
        1.9938826364782674,
        -1.5372888934015235e-05,
        -1.6685504222879555e-05,
        -1.6942690319337746e-05,
        3.582234211148742e-05,
        3.146085667064243e-05,
        -0.3285501010297206,
        -1.681409727234315e-05,
        -1.811569029971929e-05,
        -1.8394920918410605e-05,
        3.8892828578259735e-05,
        3.415750152799949e-05,
        -0.35671153826083857,
        -1.8255305608399824e-05,
        -1.9545876375502956e-05,
        -1.9847151516599084e-05,
        4.19633150449794e-05,
        3.6854146385108025e-05,
        -0.38487297549195704,
        -1.9696513946624837e-05,
        -0.00021251232791733455,
        -0.00022617329962738698,
        0.0,
        0.0,
        -8.479958166019124e-05,
        0.00012298361618489582,
        6.822930943264047e-05,
        0.0004730551641329564,
        0.0,
        0.0003579435014099964,
        -0.00013717793714487287,
        -0.0007711205983836073,
        0.00028854192102864464,
        -0.0003022853129753666,
        -1.3471408699278849e-05,
        0.00036185576234756676,
        -0.0008568262716583865,
        0.00017146967185061943,
        -0.0005764408346851983,
        0.00016580520742491605,
        0.0,
        0.000277619712484912,
        -0.00027389317519086565,
        -0.00016071609105499664,
        -7.03665997700224e-05,
        -0.00025364379178078597,
        0.0001295208241537015,
        0.00013027906520514723,
        -0.00021138765530677372,
        0.00031918222008968806,
        3.3465312794125507e-05,
        -0.0002912765397715577,
        2.942758784844627e-05,
        0.0,
        0.0005409437398186505,
        -0.0002850696118469566,
        0.00046167624353066715,
        0.00019688497498383887,
        -0.0005015350270474007,
        4.272210800694289e-05,
        -0.00021095740189256562,
        -0.0002612688649572809,
        -0.00013304339117104904,
        7.85730162099485e-05,
        -0.0001612129365853495,
        -0.00030149841423659374,
        -0.0007929057038768632,
        3.311002709924967e-05
      ],
      [
        -0.06258469765750649,
        -0.06258472426993157,
        -9.153063023489438e-06,
        -8.070187849844125e-06,
        -9.608055583880013e-06,
        -0.06258471096371905,
        -0.07197240230613235,
        -0.07197243291042141,
        -1.0526022476994023e-05,
        -9.280716027333377e-06,
        -1.104926392125745e-05,
        -0.0719724176082769,
        -0.08136010695475872,
        -0.08136014155091087,
        -1.189898193059344e-05,
        -1.0491244204743502e-05,
        -1.2490472258940733e-05,
        -0.08136012425283455,
        -0.0907478116033843,
        -0.090747850191401,
        -1.327194138407264e-05,
        -1.1701772382274945e-05,
        -1.3931680596294948e-05,
        -0.09074783089739263,
        -0.10013551625201056,
        -0.10013555883189058,
        -1.4644900837555348e-05,
        -1.2912300559798327e-05,
        -1.537288893374189e-05,
        2.1941357627349247,
        -0.10952322090063607,
        -0.10952326747238084,
        -1.6017860291082705e-05,
        -1.4122828737279039e-05,
        -1.6814097271493986e-05,
        -0.10952324418650788,
        -0.11891092554926198,
        -0.1189109761128698,
        -1.7390819744640963e-05,
        -1.533335691471355e-05,
        -1.825530560911203e-05,
        -0.11891095083106598,
        -0.12829863019788873,
        -0.12829868475336023,
        -1.876377919817621e-05,
        -1.6543885092064602e-05,
        -1.9696513946637306e-05,
        -0.12829865747562416,
        6.803418841517126e-05,
        9.064871177726465e-05,
        0.0,
        0.0,
        -7.46945672558297e-06,
        -6.671377493948981e-05,
        -2.6873975318580806e-05,
        -0.00021549600596581812,
        0.0,
        -0.00012514293223278258,
        1.9848440160409894e-05,
        0.0002444820031870985,
        -0.00014576042166730585,
        0.0001132077907275072,
        -1.399945168762364e-05,
        -0.00015855126350715608,
        0.0002849369994715473,
        -5.9194440060895794e-05,
        0.00021562776905829196,
        -7.666256153365729e-05,
