{
  "metadata": {
    "series_name": "resume_test",
    "epochs": 4,
    "history": []
  },
  "encoder": {
    "amplitude": 10.0,
    "delta_scale": 1.4,
    "quadratic_scale": 0.7,
    "magnitude_scale": 0.5,
    "band_growth": 0.15
  },
  "reservoir": {
    "n_neurons": 24,
    "dt": 1.0,
    "max_weight": 2.0,
    "max_delay_limit": 50,
    "readout_decay": 0.92,
    "synapses": [
      {
        "4": 0.0,
        "5": 0.0,
        "9": -5.739758909473451e-06,
        "11": 0.0,
        "13": -0.004333245480823601,
        "14": -6.380461490664972e-06,
        "15": -7.76998632852482e-06
      },
      {
        "7": 2.0,
        "12": 2.0,
        "23": 2.0
      },
      {
        "1": 2.0,
        "13": 2.0,
        "21": 2.0
      },
      {
        "19": 2.0,
        "23": 2.0
      },
      {
        "5": 2.0,
        "9": 2.0,
        "14": 2.0,
        "21": 2.0
      },
      {
        "23": 0.0
      },
      {
        "13": 2.0,
        "18": 2.0
      },
      {
        "1": 2.0,
        "6": 2.0,
        "8": 2.0,
        "11": 2.0,
        "13": 2.0
      },
      {
        "0": 2.0,
        "2": 2.0,
        "10": 2.0
      },
      {
        "10": 2.0,
        "14": 2.0
      },
      {
        "9": -1.4044391107916872e-05,
        "11": -0.008431309733782668,
        "23": 0.0
      },
      {
        "14": 2.0,
        "18": 2.0
      },
      {
        "21": 2.0,
        "23": 2.0
      },
      {
        "14": 2.0,
        "19": 2.0
      },
      {
        "4": 2.0,
        "6": 2.0,
        "10": 2.0,
        "13": 2.0,
        "16": 2.0,
        "23": 2.0
      },
      {
        "21": -1.4585158480148662e-05
      },
      {
        "1": 2.0,
        "21": 2.0
      },
      {
        "2": 2.0,
        "11": 2.0,
        "16": 2.0,
        "23": 2.0
      },
      {
        "1": 2.0,
        "4": 2.0,
        "5": 2.0,
        "9": 2.0,
        "19": 2.0
      },
      {
        "15": 2.0,
        "20": 2.0
      },
      {
        "3": -9.304491948411808e-06,
        "9": -4.536711688115353e-06,
        "18": -1.518899548026281e-05,
        "21": -1.531870863866222e-05
      },
      {
        "2": 2.0,
        "4": 2.0,
        "9": 2.0,
        "13": 2.0,
        "17": 2.0
      },
      {
        "15": 2.0,
        "19": 2.0,
        "23": 2.0
      },
      {
        "10": 2.0
      }
    ],
    "is_inhibitory": [
      true,
      false,
      false,
      false,
      false,
      true,
      false,
      false,
      false,
      false,
      true,
      false,
      false,
      false,
      false,
      true,
      false,
      false,
      false,
      false,
      true,
      false,
      false,
      false
    ]
  },
  "force_readout": {
    "weights": [
      [
        0.0010526818085865592,
        -0.001459104492056803,
        0.012751074019503102,
        -0.011230641707621211,
        0.0003747605559629139,
        -0.00020321134174331612,
        0.0012105840798991108,
        -0.001677970165890537,
        0.014663735122432197,
        -0.012915237963765057,
        0.0004309746393701124,
        -0.00023369304300288808,
        0.0013684863511802192,
        -0.0018968358396917913,
        0.016576396225356806,
        -0.014599834219907364,
        0.0004871887227685078,
        -0.0002641747442544084,
        0.0015263886224810722,
        -0.0021157015135176574,
        0.018489057328278272,
        -0.01628443047605273,
        0.0005434028061802727,
        -0.0002946564455195412,
        -0.011235635524519892,
        0.00641737775785212,
        0.0,
        0.0,
        -0.0075352247136199245,
        0.007639542177353543,
        -0.006377096812175185,
        0.008734188832758135,
        0.0,
        0.0,
        0.0068160664111977885,
        -0.007535224713619931,
        -0.0015478838767004149,
        0.010287504340760032,
        0.0,
        0.0,
        0.009122845889726165,
        -0.02014903765626833,
        -0.007052624332258211,
        0.015152346518745466,
        0.0,
        -0.010776252984859328,
        0.0051039744044521764,
        -0.006256840284856515
      ]
    ],
    "bias": [
      0.00315723688200482
    ],
    "inverse_correlation": [
      [
        1.1614527487675117,
        0.03667945365992864,
        -6.717934379878828e-05,
        -6.362721474267929e-05,
        -7.092767094813887e-05,
        -0.07326854174340236,
        -0.21069901771874325,
        0.04218137170891785,
        -7.725624536856608e-05,
        -7.317129695407263e-05,
        -8.156682159041354e-05,
        -0.08425882300491246,
        -0.23818149829075283,
        0.04768328975790753,
        -8.733314693842998e-05,
        -8.271537916543184e-05,
        -9.220597223247877e-05,
        -0.09524910426642277,
        -0.26566397886276266,
        0.053185207806896666,
        -9.741004850816479e-05,
        -9.225946137687468e-05,
        -0.00010284512287474399,
        -0.10623938552793322,
        0.00043445245895762824,
        0.000191110161067987,
        0.0,
        0.0,
        1.4092113621215e-05,
        0.0007478491172003106,
        -0.0004907539819885078,
        7.952757437403066e-06,
        0.0,
        0.0,
        0.0004836825951179574,
        1.409211362121482e-05,
        9.950025048246682e-05,
        -0.00011260265828482807,
        0.0,
        0.0,
        0.0004490864023959101,
        -0.00019290516319909242,
        -0.0002622884872113948,
        0.00013248310744955484,
        0.0,
        2.9163747144302158e-05,
        0.0006573362526178557,
        -0.00030697780291021455
      ],
      [
        0.03667945365992871,
        1.1614534553858957,
        -6.91651314020353e-05,
        -6.392447462256303e-05,
        -7.124853098454414e-05,
        -0.07326818843420918,
        0.042181371708918045,
        -0.2106982051075994,
        -7.95399011122969e-05,
        -7.351314581594139e-05,
        -8.193581063216516e-05,
        -0.08425841669934023,
        0.04768328975790752,
        -0.23818057968685138,
        -8.991467082264871e-05,
        -8.3101817009275e-05,
        -9.262309027981852e-05,
        -0.09524864496447179,
        0.05318520780689682,
        -0.26566295426610326,
        -0.0001002894405328912,
        -9.26904882027098e-05,
        -0.00010331036992736912,
        -0.10623887322960301,
        0.0005557889511773492,
        0.00017912227802087383,
        0.0,
        0.0,
        0.00014767648019104875,
        0.0006647426074525459,
        -0.0003114611311211799,
        -0.00017850271887433035,
        0.0,
        0.0,
        0.00028810594212543445,
        0.0001476764801910494,
        0.00021036893707483697,
        -0.00026997201483599056,
        0.0,
        0.0,
        0.0002826691203219599,
        0.00019233654212098673,
        -0.00015480887951184062,
        -3.957132663875826e-05,
        0.0,
        7.559960074317728e-05,
        0.0006224904216958758,
        -0.00034715645891345584
      ],
      [
        -6.717934379889489e-05,
        -6.916513140218796e-05,
        1.1249401666012142,
        0.0001473470999975974,
        0.00015438123213637705,
        -6.817223760088895e-05,
        -7.72562453692121e-05,
        -7.953990111255058e-05,
        -0.25268848720998255,
        0.00016944916499721474,
        0.0001775384169569269,
        -7.839807324117414e-05,
        -8.733314693906247e-05,
        -8.991467082329027e-05,
        -0.285647855106937,
        0.0001915512299967466,
        0.00020069560177705964,
        -8.86239088811286e-05,
        -9.741004850937945e-05,
        -0.00010028944053341276,
        -0.31860722300389127,
        0.0002136532949965038,
        0.00022385278659766263,
        -9.884974452154949e-05,
        -0.0009037410348970047,
        -0.0001982626175555204,
        0.0,
        0.0,
        -4.640153487369499e-05,
        -0.0009037674955235235,
        0.000959996151485878,
        0.00035066382669964545,
        0.0,
        0.0,
        -0.0006541271022288912,
        -4.640153487369778e-05,
        -0.0001919475013497954,
        0.00046279384456776335,
        0.0,
        0.0,
        -0.0005334493574433361,
        -0.0002136203642910145,
        -0.00015242905223482005,
        0.00013014799761334363,
        0.0,
        -0.00023625389215321653,
        -0.0012425026244883475,
        0.0005239035646321843
      ],
      [
        -6.362721474267567e-05,
        -6.392447462277887e-05,
        0.00014734709999760705,
        1.1249305961336062,
        0.00014330588162486565,
        -6.377584468290369e-05,
        -7.317129695554228e-05,
        -7.351314581561207e-05,
        0.00016944916499716573,
        -0.25269949324773217,
        0.00016480176386826778,
        -7.334222138566332e-05,
        -8.271537916645084e-05,
        -8.310181700951927e-05,
        0.0001915512299969162,
        -0.2856602967148272,
        0.00018629764611176718,
        -8.290859808806952e-05,
        -9.225946137892867e-05,
        -9.269048820223151e-05,
        0.00021365329499641167,
        -0.3186211001819223,
        0.00020779352835533687,
        -9.247497479111853e-05,
        -0.0007739948127829024,
        -0.00042836667635083174,
        0.0,
        0.0,
        -0.00026972660082854075,
        -0.0010761567345927833,
        0.0005527067752977718,
        0.00018281742928519178,
        0.0,
        0.0,
        -0.000279708340399559,
        -0.0002697266008285413,
        -5.951601878338213e-05,
        0.0002570347780393357,
        0.0,
        0.0,
        -0.0004222043916763683,
        -0.00028585018106624233,
        0.0006202633254585953,
        -0.000496681657496179,
        0.0,
        -0.0011771151375204463,
        -0.0008487271885801983,
        0.0006733198398806893
      ],
      [
        -7.092767094822637e-05,
        -7.124853098462495e-05,
        0.00015438123213628942,
        0.0001433058816246588,
        1.1249421930554366,
        -7.108810096657543e-05,
        -8.156682159067495e-05,
        -8.193581063196671e-05,
        0.00017753841695663998,
        0.00016480176386834107,
        -0.2526861567876279,
        -8.175131611182938e-05,
        -9.220597223332648e-05,
        -9.262309028024365e-05,
        0.00020069560177719261,
        0.00018629764611192761,
        -0.28564522071644954,
        -9.241453125641681e-05,
        -0.00010284512287517128,
        -0.00010331036992761789,
        0.00022385278659748344,
        0.0002077935283557191,
        -0.3186042846452704,
        -0.0001030777464017282,
        -0.0013324721724700158,
        -0.0005483544652138015,
        0.0,
        0.0,
        -0.00024637543656282404,
        -0.0021350892732693357,
        0.000688980967077007,
        -2.693387019806175e-05,
        0.0,
        0.0,
        -0.0012948472088882427,
        -0.00024637543656282675,
        -0.0007277901277450788,
        0.00034639591921974914,
        0.0,
        0.0,
        -0.001194695209425459,
        0.0003107854109146323,
        0.0007424922039235469,
        -0.0002738760037330907,
        0.0,
        -2.597351197441894e-05,
        -0.0016811358667223383,
        0.000719282346611689
      ],
      [
        -0.073268541743402,
        -0.07326818843420912,
        -6.817223760095891e-05,
        -6.377584468304206e-05,
        -7.108810096665193e-05,
        1.2714009208254373,
        -0.08425882300491228,
        -0.08425841669934055,
        -7.839807324105973e-05,
        -7.33422213854913e-05,
        -8.175131611165444e-05,
        -0.08425861985212607,
        -0.09524910426642244,
        -0.09524864496447157,
        -8.862390888124602e-05,
        -8.290859808789961e-05,
        -9.241453125655176e-05,
        -0.0952488746154472,
        -0.10623938552793283,
        -0.10623887322960318,
        -9.884974452132315e-05,
        -9.247497479040352e-05,
        -0.00010307774640151169,
        -0.10623912937876785,
        0.0004951207050671743,
        0.00018511621953565686,
        0.0,
        0.0,
        8.088429690233238e-05,
        0.0007062958623332375,
        -0.0004011075565531724,
        -8.527498070431117e-05,
        0.0,
        0.0,
        0.00038589426862083517,
        8.08842969023314e-05,
        0.00015493459378615403,
        -0.0001912873365588603,
        0.0,
        0.0,
        0.00036587776138210035,
        -2.843105571626509e-07,
        -0.00020854868336588932,
        4.645589041823248e-05,
        0.0,
        5.238167395626172e-05,
        0.0006399133371726282,
        -0.00032706713092214677
      ],
      [
        -0.210699017718743,
        0.042181371708918135,
        -7.725624536922508e-05,
        -7.317129695534845e-05,
        -8.156682159079457e-05,
        -0.08425882300491219,
        1.102365415537687,
        0.04850857746525583,
        -8.884468217455551e-05,
        -8.41469914986419e-05,
        -9.380184482950139e-05,
        -0.09689764645564912,
        -0.2739087230343653,
        0.05483578322159388,
        -0.00010043311898001049,
        -9.51226860418934e-05,
        -0.00010603686806791357,
        -0.10953646990638585,
        -0.30551357569217596,
        0.06116298897793147,
        -0.00011202155578533665,
        -0.00010609838058524511,
        -0.00011827189130661907,
        -0.12217529335712267,
        0.000499620327796979,
        0.00021977668524344145,
        0.0,
        0.0,
        1.6205930667051167e-05,
        0.0008600264847757117,
        -0.000564367079273995,
        9.145671042829023e-06,
        0.0,
        0.0,
        0.0005562349843750183,
        1.620593066705054e-05,
        0.00011442528804604767,
        -0.00012949305702943375,
        0.0,
        0.0,
        0.0005164493627501237,
        -0.0002218409376486632,
        -0.00030163176030474203,
        0.00015235557358476645,
        0.0,
        3.353830930104803e-05,
        0.000755936690508182,
        -0.0003530244733380753
      ],
      [
        0.042181371708917934,
        -0.21069820510759946,
        -7.953990111259807e-05,
        -7.351314581582403e-05,
        -8.193581063210037e-05,
        -0.0842584166993405,
        0.04850857746525582,
        1.102366350040505,
        -9.147088627943537e-05,
        -8.454011768819098e-05,
        -9.422618222684497e-05,
        -0.09689717920424147,
        0.05483578322159365,
        -0.27390766663987914,
        -0.00010340187144637831,
        -9.556708956050665e-05,
        -0.00010651655382162933,
        -0.10953594170914292,
        0.06116298897793128,
        -0.3055123974060187,
        -0.00011533285661319474,
        -0.00010659406143293772,
        -0.0001188069254162934,
        -0.12217470421404356,
        0.0006391572938399103,
        0.00020599061971036915,
        0.0,
        0.0,
        0.0001698279522058621,
        0.0007644539985864998,
        -0.00035818030078638087,
        -0.00020527812667993998,
        0.0,
        0.0,
        0.000331321833449182,
        0.00016982795220586236,
        0.00024192427764033092,
        -0.00031046781707166714,
        0.0,
        0.0,
        0.0003250694884105549,
        0.00022118702339702105,
        -0.00017803021143800082,
        -4.55070256187775e-05,
        0.0,
        8.693954083630814e-05,
        0.000715863984990374,
        -0.0003992299277813886
      ],
      [
        -7.725624536870229e-05,
        -7.953990111248235e-05,
        -0.2526884872099827,
        0.00016944916499718566,
        0.0001775384169567807,
        -7.839807324099055e-05,
        -8.884468217455977e-05,
        -9.147088627939412e-05,
        1.0540775256227615,
        0.00019486653974674296,
        0.00020416917950045855,
        -9.015778422731653e-05,
        -0.00010043311897990413,
        -0.00010340187144673913,
        -0.32849503337297703,
        0.00022028391449620095,
        0.00023079994204354152,
        -0.00010191749521327401,
        -0.00011202155578577976,
        -0.00011533285661337592,
        -0.36639830645447474,
        0.000245701289245917,
        0.0002574307045872492,
        -0.00011367720619976537,
        -0.0010393021901303747,
        -0.00022800201019006273,
        0.0,
        0.0,
        -5.336176510450911e-05,
        -0.0010393326198517008,
        0.0011039955742084063,
        0.00040326340070427825,
        0.0,
        0.0,
        -0.0007522461675641749,
        -5.3361765104508394e-05,
        -0.00022073962655344423,
        0.0005322129212510974,
        0.0,
        0.0,
        -0.0006134667610613636,
        -0.00024566341893211515,
        -0.00017529341007320361,
        0.00014967019725281884,
        0.0,
        -0.0002716919759737406,
        -0.001428878018162688,
        0.0006024890993263456
      ],
      [
        -7.31712969540587e-05,
        -7.351314581618211e-05,
        0.00016944916499720674,
        -0.2526994932477323,
        0.00016480176386856374,
        -7.334222138532385e-05,
        -8.414699149885463e-05,
        -8.45401176879379e-05,
        0.00019486653974669295,
        1.0540648686793532,
        0.00018952202844847268,
        -8.43435545934952e-05,
        -9.512268604139537e-05,
        -9.556708956093236e-05,
        0.0002202839144964038,
        -0.3285093412220518,
        0.00021424229302848726,
        -9.534488780125886e-05,
        -0.00010609838058574277,
        -0.00010659406143254787,
        0.0002457012892458191,
        -0.3664142652092106,
        0.0002389625576085886,
        -0.00010634622100976399,
        -0.000890094034699773,
        -0.0004926216778000975,
        0.0,
        0.0,
        -0.0003101855909526326,
        -0.0012375802447835414,
        0.0006356127915916147,
        0.00021024004367884507,
        0.0,
        0.0,
        -0.0003216645914593411,
        -0.0003101855909526317,
        -6.844342160191357e-05,
        0.00029558999474733075,
        0.0,
        0.0,
        -0.0004855350504278193,
        -0.00032872770822558637,
        0.0007133028242783077,
        -0.0005711839061238742,
        0.0,
        -0.0013536824081580724,
        -0.0009760362668692236,
        0.0007743178158633252
      ],
      [
        -8.156682159046718e-05,
        -8.193581063224488e-05,
        0.0001775384169568434,
        0.00016480176386831155,
        -0.25268615678762824,
        -8.175131611152913e-05,
        -9.38018448293021e-05,
        -9.4226182226677e-05,
        0.00020416917950032577,
        0.00018952202844853933,
        1.05408020560847,
        -9.401401352857801e-05,
        -0.00010603686806833898,
        -0.00010651655382218322,
        0.0002307999420439496,
        0.0002142422930286556,
        -0.32849200382391613,
        -0.00010627671094484066,
        -0.00011827189130648864,
        -0.00011880692541665333,
        0.0002574307045872917,
        0.00023896255760900704,
        -0.3663949273420612,
        -0.0001185394083619473,
        -0.00153234299833524,
        -0.000630607634996018,
        0.0,
        0.0,
        -0.0002833317520375066,
        -0.002455352664258474,
        0.0007923281121368336,
        -3.097395072260715e-05,
        0.0,
        0.0,
        -0.0014890742902285872,
        -0.0002833317520375031,
        -0.0008369586469083528,
        0.00039835530709297147,
        0.0,
        0.0,
        -0.0013738994908372064,
        0.00035740322255304403,
        0.0008538660345173955,
        -0.0003149574042908902,
        0.0,
        -2.986953874417195e-05,
        -0.0019333062467431633,
        0.0008271746986088091
      ],
      [
        -0.08425882300491253,
        -0.08425841669934028,
        -7.839807324105755e-05,
        -7.33422213855142e-05,
        -8.175131611173539e-05,
        -0.08425861985212625,
        -0.09689764645564926,
        -0.09689717920424153,
        -9.015778422716689e-05,
        -8.43435545933336e-05,
        -9.401401352850904e-05,
        1.2477718730842966,
        -0.10953646990638577,
        -0.10953594170914262,
        -0.00010191749521338356,
        -9.534488780110638e-05,
        -0.00010627671094514544,
        -0.10953620580776394,
        -0.12217529335712246,
        -0.1221747042140436,
        -0.0001136772061994675,
        -0.00010634622100898797,
        -0.00011853940836187891,
        -0.12217499878558291,
        0.000569388810823555,
        0.00021288365245970305,
        0.0,
        0.0,
        9.301694143719261e-05,
        0.0008122402416813197,
        -0.00046127369003356013,
        -9.806622780447489e-05,
        0.0,
        0.0,
        0.0004437784089226547,
        9.301694143719314e-05,
        0.00017817478284525595,
        -0.0002199804370472725,
        0.0,
        0.0,
        0.0004207594255904146,
        -3.2695713617221323e-07,
        -0.00023983098586342961,
        5.34242739744305e-05,
        0.0,
        6.023892503521346e-05,
        0.0007359003377501279,
        -0.0003761272005566188
      ],
      [
        -0.2381814982907527,
        0.04768328975790761,
        -8.733314693895102e-05,
        -8.271537916633395e-05,
        -9.220597223318745e-05,
        -0.09524910426642261,
        -0.2739087230343653,
        0.054835783221593645,
        -0.00010043311897975802,
        -9.51226860412721e-05,
        -0.00010603686806827098,
        -0.10953646990638582,
        1.0350333381362646,
        0.06198827668528004,
        -0.00011353309102064119,
        -0.00010752999291616626,
        -0.0001198677639030289,
        -0.1238238355463496,
        -0.3453631725215913,
        0.06914077014896605,
        -0.00012663306306141028,
        -0.00011993729979117093,
        -0.00013369865973810642,
        -0.1381112011863129,
        0.000564788196641256,
        0.00024844320938696273,
        0.0,
        0.0,
        1.831974771071043e-05,
        0.0009722038523657522,
        -0.0006379801765691408,
        1.033858466890377e-05,
        0.0,
        0.0,
        0.0006287873736441814,
        1.831974771070874e-05,
        0.00012935032562860866,
        -0.0001463834557658051,
        0.0,
        0.0,
        0.0005838123231196668,
        -0.0002507767121497759,
        -0.00034097503337556005,
        0.00017222803969108106,
        0.0,
        3.791287134131522e-05,
        0.0008545371283986988,
        -0.00039907114377706884
      ],
      [
        0.04768328975790754,
        -0.23818057968685125,
        -8.991467082334123e-05,
        -8.310181700957203e-05,
        -9.262309028037536e-05,
        -0.09524864496447148,
        0.05483578322159384,
        -0.27390766663987887,
        -0.00010340187144678798,
        -9.556708956099905e-05,
        -0.0001065165538223512,
        -0.10953594170914249,
        0.06198827668528015,
        1.0350345323213377,
        -0.00011688907207034673,
        -0.0001080323621123678,
        -0.00012041001736437375,
        -0.12382323845381324,
        0.06914077014896623,
        -0.34536184054593466,
        -0.00013037627269376815,
        -0.00012049763466387252,
        -0.00013430348090626046,
        -0.1381105351984839,
        0.0007225256365282768,
        0.00023285896140572452,
        0.0,
        0.0,
        0.00019197942424256417,
        0.00086416538969645,
        -0.000404899470460699,
        -0.00023205353449838568,
        0.0,
        0.0,
        0.00037453772476489527,
        0.00019197942424256453,
        0.00027347961820036826,
        -0.00035096361929520196,
        0.0,
        0.0,
        0.0003674698564650681,
        0.00025003750472071145,
        -0.0002012515433610561,
        -5.144272461566766e-05,
        0.0,
        9.827948094459102e-05,
        0.0008092375482303398,
        -0.00045130339660993013
      ],
      [
        -8.733314693856972e-05,
        -8.991467082286027e-05,
        -0.28564785510693685,
        0.00019155122999693836,
        0.00020069560177734543,
        -8.862390888117095e-05,
        -0.00010043311898002396,
        -0.00010340187144633524,
        -0.3284950333729769,
        0.00022028391449645398,
        0.00023079994204408058,
        -0.00010191749521355162,
        -0.00011353309102081609,
        -0.00011688907207029679,
        0.9733270742752249,
        0.00024901659899585575,
        0.00026090428231023824,
        -0.00011521108154549095,
        -0.00012663306306221996,
        -0.00013037627269346132,
        -0.4141893899050594,
        0.0002777492834955455,
        0.0002910086225770255,
        -0.00012850466787804547,
        -0.001174863345367519,
        -0.0002577414028236151,
        0.0,
        0.0,
        -6.032199533422154e-05,
        -0.0011748977441786677,
        0.0012479949969312182,
        0.0004558629747104802,
        0.0,
        0.0,
        -0.0008503652328984789,
        -6.03219953342224e-05,
        -0.0002495317517557051,
        0.0006016319979369918,
        0.0,
        0.0,
        -0.000693484164677024,
        -0.0002777064735767111,
        -0.00019815776790966673,
        0.00016919239689562916,
        0.0,
        -0.00030713005979802685,
        -0.0016152534118373577,
        0.0006810746340210959
      ],
      [
        -8.271537916542909e-05,
        -8.310181700955901e-05,
        0.00019155122999676977,
        -0.28566029671482696,
        0.00018629764611220249,
        -8.290859808772511e-05,
        -9.512268604215265e-05,
        -9.556708956023607e-05,
        0.00022028391449618117,
        -0.3285093412220515,
        0.00021424229302860457,
        -9.534488780130465e-05,
        -0.00010752999291632207,
        -0.00010803236211230829,
        0.00024901659899583906,
        0.9733109001849675,
        0.0002421869399451338,
        -0.000107781177514425,
        -0.00011993729979253326,
        -0.00012049763466282172,
        0.0002777492834951645,
        -0.4142074302364999,
        0.00027013158686175457,
        -0.00012021746722837709,
        -0.001006193256615792,
        -0.0005568766792531866,
        0.0,
        0.0,
        -0.0003506445810757212,
        -0.0013990037549725636,
        0.0007185188078856772,
        0.0002376626580714258,
        0.0,
        0.0,
        -0.00036362084252068114,
        -0.00035064458107571494,
        -7.737082441858859e-05,
        0.0003341452114531766,
        0.0,
        0.0,
        -0.000548865709177876,
        -0.00037160523538538713,
        0.0008063423230982094,
        -0.0006456861547468303,
        0.0,
        -0.0015302496787788474,
        -0.0011033453451546207,
        0.0008753157918461201
      ],
      [
        -9.220597223261298e-05,
        -9.262309027997681e-05,
        0.00020069560177702388,
        0.00018629764611171085,
        -0.28564522071644943,
        -9.241453125649156e-05,
        -0.00010603686806778642,
        -0.00010651655382151509,
        0.00023079994204346004,
        0.00021424229302844465,
        -0.3284920038239161,
        -0.00010627671094531528,
        -0.00011986776390323061,
        -0.0001204100173642693,
        0.00026090428231014174,
        0.00024218693994505617,
        0.9733304989828583,
        -0.00012013889063326583,
        -0.00013369865973763252,
        -0.00013430348090584954,
        0.00029100862257648775,
        0.00027013158686193725,
        -0.41418557003885165,
        -0.00013400107032216814,
        -0.0017322138242182208,
        -0.0007128608047764278,
        0.0,
        0.0,
        -0.00032028806753077585,
        -0.002775616055252728,
        0.0008956752572006608,
        -3.50140312634322e-05,
        0.0,
        0.0,
        -0.0016833013715661272,
        -0.00032028806753077563,
        -0.0009461271660792151,
        0.0004503146949819772,
        0.0,
        0.0,
        -0.0015531037722489335,
        0.000404021034193827,
        0.0009652398650922434,
        -0.00035603880484927114,
        0.0,
        -3.376556554215059e-05,
        -0.0021854766267549288,
        0.0009350670505934068
      ],
      [
        -0.09524910426642279,
        -0.09524864496447165,
        -8.862390888111948e-05,
        -8.290859808818903e-05,
        -9.241453125643657e-05,
        -0.09524887461544718,
        -0.10953646990638607,
        -0.1095359417091429,
        -0.00010191749521325228,
        -9.53448878014071e-05,
        -0.00010627671094490639,
        -0.10953620580776413,
        -0.12382383554634936,
        -0.12382323845381338,
        -0.00011521108154546399,
        -0.00010778117751457517,
        -0.00012013889063325274,
        1.220845748914162,
        -0.13811120118631287,
        -0.13811053519848435,
        -0.0001285046678775424,
        -0.00012021746722786517,
        -0.00013400107032168434,
        -0.1381108681923985,
        0.0006436569165777561,
        0.00024065108539340227,
        0.0,
        0.0,
        0.00010514958596970628,
        0.0009181846210349618,
        -0.0005214398235097003,
        -0.00011085747490260032,
        0.0,
        0.0,
        0.0005016625492081134,
        0.00010514958596970423,
        0.00020141497190827475,
        -0.0002486735375300915,
        0.0,
        0.0,
        0.00047564108979068217,
        -3.696037223443825e-07,
        -0.000271113288376179,
        6.039265754090712e-05,
        0.0,
        6.809617615555306e-05,
        0.0008318873383174792,
        -0.0004251872701947247
      ],
      [
        -0.2656639788627626,
        0.05318520780689687,
        -9.741004850942378e-05,
        -9.225946137899608e-05,
        -0.00010284512287527659,
        -0.10623938552793265,
        -0.3055135756921766,
        0.06116298897793122,
        -0.00011202155578578968,
        -0.00010609838058583382,
        -0.00011827189130670334,
        -0.12217529335712238,
        -0.3453631725215912,
        0.06914077014896607,
        -0.00012663306306225083,
        -0.0001199372997926216,
        -0.00013369865973773904,
        -0.13811120118631276,
        0.959456516563237,
        0.07711855132000046,
        -0.00014124457033856338,
        -0.00013377621899953056,
        -0.00014912542816914628,
        -0.1540471090155022,
        0.000629956065483374,
        0.00027710973354895237,
        0.0,
        0.0,
        2.0433564766129668e-05,
        0.0010843812199444669,
        -0.000711593273882497,
        1.1531498283573496e-05,
        0.0,
        0.0,
        0.0007013397628985341,
        2.043356476613071e-05,
        0.00014427536321254505,
        -0.000163273854513334,
        0.0,
        0.0,
        0.0006511752834595326,
        -0.0002797124866335244,
        -0.00038031830648041406,
        0.00019210050581334236,
        0.0,
        4.228743344711734e-05,
        0.0009531375662604878,
        -0.0004451178142166768
      ],
      [
        0.05318520780689675,
        -0.26566295426610315,
        -0.00010028944053333682,
        -9.269048820217688e-05,
        -0.00010331036992761134,
        -0.10623887322960329,
        0.06116298897793141,
        -0.3055123974060191,
        -0.00011533285661327538,
        -0.00010659406143249658,
        -0.00011880692541666437,
        -0.12217470421404349,
        0.06914077014896612,
        -0.3453618405459345,
        -0.00013037627269334317,
        -0.00012049763466274716,
        -0.0001343034809057656,
        -0.1381105351984844,
        0.07711855132000045,
        0.9594580022283932,
        -0.00014541968877325128,
        -0.00013440120789314874,
        -0.0001498000363947168,
        -0.15404636618292483,
        0.0008058939791976675,
        0.0002597273031198091,
        0.0,
        0.0,
        0.0002141308962623598,
        0.0009638767808161724,
        -0.00045161864012934773,
        -0.00025882894231193536,
        0.0,
        0.0,
        0.00041775361609586485,
        0.00021413089626235837,
        0.00030503495876184924,
        -0.0003914594215298854,
        0.0,
        0.0,
        0.0004098702245072706,
        0.0002788879860347778,
        -0.00022447287528308576,
        -5.737842358335082e-05,
        0.0,
        0.00010961942102430623,
        0.0009026111114997538,
        -0.0005033768654554734
      ],
      [
        -9.741004850836051e-05,
        -0.00010028944053313866,
        -0.3186072230038913,
        0.00021365329499646888,
        0.00022385278659767756,
        -9.884974452125717e-05,
        -0.00011202155578534066,
        -0.0001153328566131622,
        -0.36639830645447474,
        0.00024570128924590676,
        0.00025743070458750787,
        -0.00011367720619967081,
        -0.00012663306306160029,
        -0.00013037627269372586,
        -0.414189389905059,
        0.00027774928349522115,
        0.00029100862257661265,
        -0.00012850466787759287,
        -0.00014124457033857116,
        -0.00014541968877340296,
        0.8826888125586018,
        0.00030979727774486384,
        0.00032458654056650196,
        -0.00014333212955620528,
        -0.0013104245006009855,
        -0.00028748079545539324,
        0.0,
        0.0,
        -6.728222556767172e-05,
        -0.001310462868507206,
        0.0013919944196543047,
        0.0005084625487137747,
        0.0,
        0.0,
        -0.0009484842982326089,
        -6.728222556766578e-05,
        -0.0002783238769584799,
        0.0006710510746227348,
        0.0,
        0.0,
        -0.0007735015682928183,
        -0.0003097495282215728,
        -0.00022102212574187308,
        0.000188714596539174,
        0.0,
        -0.0003425681436214052,
        -0.0018016288055087387,
        0.0007596601687169882
      ],
      [
        -9.225946137687721e-05,
        -9.26904882030317e-05,
        0.00021365329499653448,
        -0.3186211001819223,
        0.00020779352835604013,
        -9.247497479021092e-05,
        -0.0001060983805855375,
        -0.00010659406143264089,
        0.0002457012892459016,
        -0.3664142652092105,
        0.00023896255760896118,
        -0.00010634622100921046,
        -0.00011993729979134919,
        -0.00012049763466380944,
        0.0002777492834955424,
        -0.4142074302364999,
        0.00027013158686203846,
        -0.00012021746722769931,
        -0.00013377621899944288,
        -0.00013440120789324163,
        0.0003097972777448144,
        0.8826686906504564,
        0.00030130061611521533,
        -0.00013408871344712132,
        -0.0011222924785343543,
        -0.0006211316807084733,
        0.0,
        0.0,
        -0.00039110357120151926,
        -0.001560427265161086,
        0.0008014248241811761,
        0.0002650852724678214,
        0.0,
        0.0,
        -0.0004055770935777392,
        -0.00039110357120152023,
        -8.62982272369442e-05,
        0.00037270042815869584,
        0.0,
        0.0,
        -0.0006121963679281395,
        -0.0004144827625472631,
        0.00089938182191731,
        -0.0007201884033746318,
        0.0,
        -0.0017068169494298877,
        -0.0012306544234385705,
        0.0009763137678239806
      ],
      [
        -0.00010284512287487687,
        -0.00010331036992750852,
        0.0002238527865976115,
        0.0002077935283552077,
        -0.31860428464527035,
        -0.0001030777464014125,
        -0.00011827189130645313,
        -0.00011880692541612429,
        0.0002574307045871391,
        0.00023896255760846286,
        -0.3663949273420613,
        -0.00011853940836202623,
        -0.00013369865973828946,
        -0.00013430348090609498,
        0.00029100862257689503,
        0.0002701315868615782,
        -0.4141855700388518,
        -0.00013400107032166222,
        -0.00014912542816900883,
        -0.00014980003639475866,
        0.00032458654056633857,
        0.00030130061611499757,
        0.8826930731786006,
        -0.00014946273228235427,
        -0.0019320846500763928,
        -0.000795113974559343,
        0.0,
        0.0,
        -0.0003572443830087067,
        -0.0030958794462520004,
        0.0009990224022603908,
        -3.905411180552944e-05,
        0.0,
        0.0,
        -0.0018775284529024309,
        -0.00035724438300870434,
        -0.0010552956852313148,
        0.0005022740828554158,
        0.0,
        0.0,
        -0.001732308053656172,
        0.0004506388458343878,
        0.0010766136956786496,
        -0.00039712020542474074,
        0.0,
        -3.7661592313625906e-05,
        -0.0024376470067705184,
        0.0010429594025947648
      ],
      [
        -0.10623938552793327,
        -0.10623887322960293,
        -9.884974452153808e-05,
        -9.24749747910265e-05,
        -0.0001030777464017651,
        -0.10623912937876788,
        -0.12217529335712257,
        -0.1221747042140436,
        -0.0001136772061997253,
        -0.00010634622100966807,
        -0.00011853940836204283,
        -0.12217499878558281,
        -0.13811120118631268,
        -0.13811053519848407,
        -0.00012850466787800408,
        -0.00012021746722825537,
        -0.00013400107032215917,
        -0.13811086819239865,
        -0.15404710901550256,
        -0.15404636618292464,
        -0.00014333212955615213,
        -0.0001340887134469771,
        -0.00014946273228238043,
        1.1906225483150294,
        0.0007179250223444503,
        0.00026841851831426166,
        0.0,
        0.0,
        0.00011728223051521243,
        0.0010241290003731606,
        -0.0005816059570090063,
        -0.0001236487220043199,
        0.0,
        0.0,
        0.0005595466894940824,
        0.00011728223051521047,
        0.00022465516099340338,
        -0.00027736663801043515,
        0.0,
        0.0,
        0.0005305227539878104,
        -4.122503002005985e-07,
        -0.00030239559088048105,
        6.736104109782762e-05,
        0.0,
        7.595342723189943e-05,
        0.0009278743388894369,
        -0.00047424733983317675
      ],
      [
        0.00043445245896231926,
        0.0005557889511786412,
        -0.0009037410348948933,
        -0.0007739948127791299,
        -0.0013324721724679574,
        0.0004951207050638712,
        0.0004996203277996399,
        0.0006391572938372503,
        -0.0010393021901288282,
        -0.0008900940346955175,
        -0.0015323429983356898,
        0.0005693888108241583,
        0.0005647881966408087,
        0.0007225256365261947,
        -0.0011748633453649896,
        -0.001006193256611081,
        -0.0017322138242140698,
        0.000643656916575954,
        0.0006299560654758244,
        0.0008058939791964001,
        -0.0013104245005988795,
        -0.0011222924785286297,
        -0.0019320846500733926,
        0.0007179250223438709,
        0.20324477304126007,
        -0.013437610545223124,
        0.0,
        0.0,
        -0.010050753075931984,
        0.002826315407277341,
        -0.008107050722567389,
        0.011700955700924562,
        0.0,
        0.0,
        0.024939858661239062,
        -0.010050753075931946,
        -0.11793585335168,
        0.009532955697064286,
        0.0,
        0.0,
        0.021400092488086494,
        -0.027910354642386757,
        0.03475090122245937,
        -0.005528738691042843,
        0.0,
        0.004287358199412,
        0.00590585437758246,
        -0.036831971083247185
      ],
      [
        0.00019111016106010146,
        0.0001791222780249126,
        -0.00019826261755784673,
        -0.00042836667635747535,
        -0.0005483544652093675,
        0.00018511621953871295,
        0.0002197766852458947,
        0.00020599061970529248,
        -0.00022800201019232974,
        -0.0004926216778070046,
        -0.0006306076349925979,
        0.00021288365246246784,
        0.00024844320939111197,
        0.00023285896141287817,
        -0.00025774140282608013,
        -0.0005568766792580709,
        -0.0007128608047771623,
        0.00024065108538814212,
        0.000277109733547477,
        0.00025972730311109185,
        -0.00028748079545860914,
        -0.0006211316807167074,
        -0.000795113974565315,
        0.00026841851831632885,
        -0.013437610545177737,
        0.29525143023187994,
        0.0,
        0.0,
        -0.006878906080116531,
        0.052815317605910954,
        0.009620125546202073,
        -0.14303592728850095,
        0.0,
        0.0,
        0.029939231447296343,
        -0.00687890608011651,
        0.028850970395141246,
        -0.046539551251360334,
        0.0,
        0.0,
        0.06758471404956064,
        -0.10094940719686164,
        -0.0382250269929054,
        -0.03447120212117075,
        0.0,
        0.005151785368793089,
        -0.0066197491191168235,
        0.07234046032750195
      ],
      [
        0.0,
        0.0,
        0.0,
        0.0,
        0.0,
        0.0,
        0.0,
        0.0,
        0.0,
        0.0,
        0.0,
        0.0,
        0.0,
        0.0,
        0.0,
        0.0,
        0.0,
        0.0,
        0.0,
        0.0,
        0.0,
        0.0,
        0.0,
        0.0,
        0.0,
        0.0,
        1.3446692859142435,
        0.0,
        0.0,
        0.0,
        0.0,
        0.0,
        0.0,
        0.0,
        0.0,
        0.0,
        0.0,
        0.0,
        0.0,
        0.0,
        0.0,
        0.0,
        0.0,
        0.0,
        0.0,
        0.0,
        0.0,
        0.0
      ],
      [
        0.0,
        0.0,
        0.0,
        0.0,
        0.0,
        0.0,
        0.0,
        0.0,
        0.0,
        0.0,
        0.0,
        0.0,
        0.0,
        0.0,
        0.0,
        0.0,
        0.0,
        0.0,
        0.0,
        0.0,
        0.0,
        0.0,
        0.0,
        0.0,
        0.0,
        0.0,
        0.0,
        1.3446692859142435,
        0.0,
        0.0,
        0.0,
        0.0,
        0.0,
        0.0,
        0.0,
        0.0,
        0.0,
        0.0,
        0.0,
        0.0,
        0.0,
        0.0,
        0.0,
        0.0,
        0.0,
        0.0,
        0.0,
        0.0
      ],
      [
        1.4092113624422047e-05,
        0.00014767648019387104,
        -4.640153487284586e-05,
        -0.0002697266008294868,
        -0.0002463754365619955,
        8.088429690056524e-05,
        1.6205930668765088e-05,
        0.00016982795220290124,
        -5.336176510384091e-05,
        -0.00031018559095426153,
        -0.0002833317520410554,
        9.301694143792605e-05,
        1.8319747712067794e-05,
        0.00019197942424194385,
        -6.03219953337635e-05,
        -0.00035064458107698037,
        -0.0003202880675280873,
        0.0001051495859702633,
        2.043356476135505e-05,
        0.00021413089626217115,
        -6.728222556701346e-05,
        -0.00039110357120297626,
        -0.0003572443830052891,
        0.00011728223050977145,
        -0.010050753075906513,
        -0.006878906080106553,
        0.0,
        0.0,
        0.7513235051467807,
        -0.022198522399894418,
        0.02698025841636528,
        -0.0005265637111277921,
        0.0,
        0.0,
        -0.018113352574086406,
        -0.5933457807674635,
        0.034092412860064335,
        0.004703683375411318,
        0.0,
        0.0,
        -0.0037404330576276883,
        -0.028410991134980614,
        -0.03937971504648777,
        0.005752651510580495,
        0.0,
        0.005156924960300649,
        0.0159217083333832,
        6.756363592020848e-05
      ],
      [
        0.0007478491171973214,
        0.0006647426074427019,
        -0.0009037674955237601,
        -0.0010761567345933675,
        -0.002135089273265455,
        0.0007062958623337938,
        0.0008600264847717542,
        0.0007644539985866945,
        -0.001039332619851506,
        -0.0012375802447831669,
        -0.0024553526642623873,
        0.0008122402416828096,
        0.0009722038523640174,
        0.0008641653896945299,
        -0.0011748977441786968,
        -0.0013990037549718461,
        -0.002775616055248897,
        0.0009181846210354955,
        0.0010843812199398568,
        0.0009638767808193241,
        -0.0013104628685073106,
        -0.001560427265161395,
        -0.003095879446249569,
        0.001024129000375586,
        0.002826315407250775,
        0.052815317605809216,
        0.0,
        0.0,
        -0.022198522399895455,
        0.219007150167737,
        0.03073587098644233,
        0.02392911752727806,
        0.0,
        0.0,
        0.012215214257537398,
        -0.022198522399895476,
        0.0647860518867225,
        -0.044230216419975564,
        0.0,
        0.0,
        0.03370246559841075,
        0.00769037715814987,
        -0.0889195201713573,
        0.029738286743365885,
        0.0,
        -0.012713829322415842,
        0.0006263666354692094,
        0.03204155581457538
      ],
      [
        -0.0004907539819935309,
        -0.00031146113112352666,
        0.0009599961514859469,
        0.000552706775296707,
        0.00068898096707509,
        -0.00040110755655606474,
        -0.0005643670792731738,
        -0.000358180300785704,
        0.00110399557420801,
        0.0006356127915905018,
        0.0007923281121334838,
        -0.00046127369003407025,
        -0.0006379801765667854,
        -0.0004048994704596906,
        0.0012479949969307887,
        0.0007185188078847644,
        0.0008956752572009997,
        -0.0005214398235110463,
        -0.0007115932738844559,
        -0.0004516186401279022,
        0.0013919944196531203,
        0.0008014248241796889,
        0.0009990224022617166,
        -0.0005816059570075338,
        -0.008107050722519606,
        0.009620125546198793,
        0.0,
        0.0,
        0.02698025841639685,
        0.03073587098648433,
        0.12534995918880898,
        0.00608476070066235,
        0.0,
        0.0,
        -0.0031412801279660993,
        0.026980258416396827,
        0.028720995888856522,
        -0.0030148337077240688,
        0.0,
        0.0,
        0.001973167327052423,
        0.015298545354939987,
        -0.040825228462284195,
        0.009313962458873781,
        0.0,
        -0.0012277140662121221,
        -0.015479312285310473,
        0.00549837426851151
      ],
      [
        7.952757439124559e-06,
        -0.00017850271888378226,
        0.00035066382670004406,
        0.0001828174292908404,
        -2.6933870195595975e-05,
        -8.527498070077816e-05,
        9.145671040957303e-06,
        -0.00020527812667259107,
        0.00040326340070498065,
        0.00021024004368530114,
        -3.097395073348826e-05,
        -9.806622780556762e-05,
        1.03385846682952e-05,
        -0.00023205353450495692,
        0.0004558629747105398,
        0.00023766265807779257,
        -3.5014031256320436e-05,
        -0.00011085747489943179,
        1.1531498279851626e-05,
        -0.0002588289423046342,
        0.0005084625487144299,
        0.00026508527247536543,
        -3.905411179784558e-05,
        -0.0001236487220081236,
        0.01170095570086792,
        -0.14303592728837305,
        0.0,
        0.0,
        -0.000526563711160015,
        0.023929117527355565,
        0.006084760700653563,
        0.2361994667030528,
        0.0,
        0.0,
        0.0015088435893487275,
        -0.0005265637111600182,
        -0.0008062301264203838,
        -0.03185731819399998,
        0.0,
        0.0,
        -0.03975724409677072,
        0.06278706144256123,
        -0.007274900268669152,
        0.024424350433027906,
        0.0,
        0.0006310800624423747,
        0.07153018187031772,
        -0.1087715688753214
      ],
      [
        0.0,
        0.0,
        0.0,
        0.0,
        0.0,
        0.0,
        0.0,
        0.0,
        0.0,
        0.0,
        0.0,
        0.0,
        0.0,
        0.0,
        0.0,
        0.0,
        0.0,
        0.0,
        0.0,
        0.0,
        0.0,
        0.0,
        0.0,
        0.0,
        0.0,
        0.0,
        0.0,
        0.0,
        0.0,
        0.0,
        0.0,
        0.0,
        1.3446692859142435,
        0.0,
        0.0,
        0.0,
        0.0,
        0.0,
        0.0,
        0.0,
        0.0,
        0.0,
        0.0,
        0.0,
        0.0,
        0.0,
        0.0,
        0.0
      ],
      [
        0.0,
        0.0,
        0.0,
        0.0,
        0.0,
        0.0,
        0.0,
        0.0,
        0.0,
        0.0,
        0.0,
        0.0,
        0.0,
        0.0,
        0.0,
        0.0,
        0.0,
        0.0,
        0.0,
        0.0,
        0.0,
        0.0,
        0.0,
        0.0,
        0.0,
        0.0,
        0.0,
        0.0,
        0.0,
        0.0,
        0.0,
        0.0,
        0.0,
        1.3446692859142435,
        0.0,
        0.0,
        0.0,
        0.0,
        0.0,
        0.0,
        0.0,
        0.0,
        0.0,
        0.0,
        0.0,
        0.0,
        0.0,
        0.0
      ],
      [
        0.00048368259512047724,
        0.00028810594212476983,
        -0.0006541271022286798,
        -0.000279708340396335,
        -0.0012948472088821692,
        0.0003858942686230347,
        0.0005562349843695327,
        0.0003313218334535875,
        -0.0007522461675637493,
        -0.0003216645914549867,
        -0.001489074290231172,
        0.00044377840892300833,
        0.0006287873736473703,
        0.0003745377247626402,
        -0.0008503652328979499,
        -0.0003636208425173688,
        -0.0016833013715616893,
        0.0005016625492136787,
        0.0007013397628933768,
        0.0004177536160900675,
        -0.0009484842982314479,
        -0.0004055770935726708,
        -0.0018775284528996696,
        0.0005595466894918312,
        0.024939858661222045,
        0.029939231447247878,
        0.0,
        0.0,
        -0.01811335257405335,
        0.012215214257677121,
        -0.003141280127962637,
        0.0015088435893727836,
        0.0,
        0.0,
        0.1387149932017667,
        -0.01811335257405336,
        0.013813275370989964,
        0.02326204022517513,
        0.0,
        0.0,
        0.02828561361604988,
        -0.05874450411778769,
        -0.005037156403569351,
        -0.006819629735334055,
        0.0,
        -0.012232169043460044,
        0.031726266927859695,
        -0.033359266427474527
      ],
      [
        1.4092113624421238e-05,
        0.0001476764801938727,
        -4.640153487284598e-05,
        -0.000269726600829489,
        -0.0002463754365619933,
        8.088429690056421e-05,
        1.6205930668767317e-05,
        0.00016982795220289973,
        -5.3361765103841576e-05,
        -0.00031018559095426717,
        -0.0002833317520410563,
        9.301694143792542e-05,
        1.8319747712066523e-05,
        0.00019197942424194434,
        -6.0321995333764336e-05,
        -0.0003506445810769788,
        -0.0003202880675280886,
        0.00010514958597026269,
        2.043356476135474e-05,
        0.00021413089626217037,
        -6.728222556701211e-05,
        -0.0003911035712029764,
        -0.0003572443830052875,
        0.00011728223050977314,
        -0.0100507530759065,
        -0.006878906080106544,
        0.0,
        0.0,
        -0.5933457807674635,
        -0.022198522399894442,
        0.026980258416365227,
        -0.0005265637111277995,
        0.0,
        0.0,
        -0.018113352574086403,
        0.7513235051467807,
        0.03409241286006438,
        0.004703683375411348,
        0.0,
        0.0,
        -0.0037404330576277,
        -0.028410991134980603,
        -0.039379715046487726,
        0.005752651510580493,
        0.0,
        0.005156924960300728,
        0.01592170833338319,
        6.75636359201983e-05
      ],
      [
        9.950025048795681e-05,
        0.00021036893707098404,
        -0.00019194750135101318,
        -5.951601878512373e-05,
        -0.000727790127743302,
        0.0001549345937862382,
        0.00011442528804402462,
        0.00024192427763960263,
        -0.00022073962655426725,
        -6.844342160369307e-05,
        -0.0008369586469071008,
        0.0001781747828486052,
        0.00012935032562579602,
        0.000273479618198846,
        -0.0002495317517567973,
        -7.737082442029303e-05,
        -0.0009461271660730391,
        0.0002014149719092524,
        0.00014427536321013902,
        0.00030503495876200987,
        -0.0002783238769600597,
        -8.629822723923255e-05,
        -0.0010552956852295102,
        0.00022465516098847915,
        -0.11793585335174823,
        0.028850970395090512,
        0.0,
        0.0,
        0.03409241286007119,
        0.06478605188667919,
        0.02872099588880845,
        -0.0008062301264559136,
        0.0,
        0.0,
        0.01381327537085456,
        0.03409241286007123,
        0.3000860140491341,
        -0.014267399765503314,
        0.0,
        0.0,
        0.013868508067129625,
        0.026101012656867845,
        -0.16844842687517866,
        0.011961945828655458,
        0.0,
        -0.0009014813694372771,
        0.022906628916560673,
        0.02660476530133807
      ],
      [
        -0.00011260265828279137,
        -0.00026997201483935625,
        0.0004627938445661484,
        0.00025703477804052177,
        0.0003463959192147361,
        -0.0001912873365607166,
        -0.0001294930570279213,
        -0.00031046781706846425,
        0.0005322129212498236,
        0.0002955899947472181,
        0.0003983553070983595,
        -0.00021998043704283957,
        -0.00014638345576604482,
        -0.00035096361929775325,
        0.000601631997935131,
        0.0003341452114550048,
        0.0004503146949786592,
        -0.00024867353752858185,
        -0.00016327385451397834,
        -0.0003914594215242409,
        0.0006710510746204595,
        0.00037270042816108694,
        0.0005022740828546798,
        -0.00027736663800778953,
        0.009532955697120527,
        -0.04653955125130634,
        0.0,
        0.0,
        0.004703683375430159,
        -0.04423021642008982,
        -0.0030148337077545925,
        -0.031857318193943024,
        0.0,
        0.0,
        0.02326204022522853,
        0.0047036833754301515,
        -0.014267399765525934,
        0.17881202616926795,
        0.0,
        0.0,
        0.007831805575169928,
        -0.01080999163636673,
        0.011957056449565852,
        -0.029983952524354533,
        0.0,
        0.005568429873629998,
        -0.07098574372473866,
        0.0418340043422942
      ],
      [
        0.0,
        0.0,
        0.0,
        0.0,
        0.0,
        0.0,
        0.0,
        0.0,
        0.0,
        0.0,
        0.0,
        0.0,
        0.0,
        0.0,
        0.0,
        0.0,
        0.0,
        0.0,
        0.0,
        0.0,
        0.0,
        0.0,
        0.0,
        0.0,
        0.0,
        0.0,
        0.0,
        0.0,
        0.0,
        0.0,
        0.0,
        0.0,
        0.0,
        0.0,
        0.0,
        0.0,
        0.0,
        0.0,
        1.3446692859142435,
        0.0,
        0.0,
        0.0,
        0.0,
        0.0,
        0.0,
        0.0,
        0.0,
        0.0
      ],
      [
        0.0,
        0.0,
        0.0,
        0.0,
        0.0,
        0.0,
        0.0,
        0.0,
        0.0,
        0.0,
        0.0,
        0.0,
        0.0,
        0.0,
        0.0,
        0.0,
        0.0,
        0.0,
        0.0,
        0.0,
        0.0,
        0.0,
        0.0,
        0.0,
        0.0,
        0.0,
        0.0,
        0.0,
        0.0,
        0.0,
        0.0,
        0.0,
        0.0,
        0.0,
        0.0,
        0.0,
        0.0,
        0.0,
        0.0,
        1.3446692859142435,
        0.0,
        0.0,
        0.0,
        0.0,
        0.0,
        0.0,
        0.0,
        0.0
      ],
      [
        0.00044908640239663296,
        0.0002826691203171295,
        -0.0005334493574459915,
        -0.00042220439167653964,
        -0.001194695209421365,
        0.00036587776138406985,
        0.0005164493627485061,
        0.00032506948841814863,
        -0.000613466761063808,
        -0.0004855350504284809,
        -0.0013738994908445421,
        0.0004207594255913172,
        0.0005838123231205924,
        0.000367469856466023,
        -0.0006934841646801369,
        -0.0005488657091779435,
        -0.0015531037722468605,
        0.0004756410897916429,
        0.0006511752834583291,
        0.00040987022451498706,
        -0.0007735015682961213,
        -0.000612196367928978,
        -0.001732308053660552,
        0.0005305227539853775,
        0.021400092488123117,
        0.06758471404984316,
        0.0,
        0.0,
        -0.0037404330575754054,
        0.03370246559840123,
        0.0019731673269952634,
        -0.03975724409692857,
        0.0,
        0.0,
        0.02828561361604553,
        -0.003740433057575418,
        0.013868508067206261,
        0.007831805575136566,
        0.0,
        0.0,
        0.21046520591813808,
        -0.1486592515493493,
        -0.014444319274304701,
        0.03223059289764037,
        0.0,
        -0.010866157880677907,
        -0.035280181375583086,
        0.0005830176169744243
      ],
      [
        -0.00019290516320348582,
        0.00019233654212343694,
        -0.0002136203642886074,
        -0.0002858501810680273,
        0.0003107854109108771,
        -2.8431056385121783e-07,
        -0.00022184093764918034,
        0.0002211870233893038,
        -0.000245663418931119,
        -0.00032872770822697816,
        0.0003574032225572554,
        -3.269571392484447e-07,
        -0.00025077671215145226,
        0.00025003750471901814,
        -0.00027770647357426337,
        -0.00037160523538740196,
        0.00040402103418849303,
        -3.696037275143049e-07,
        -0.0002797124866285795,
        0.00027888798603120034,
        -0.00030974952821820714,
        -0.0004144827625490621,
        0.00045063884584069816,
        -4.122502953727926e-07,
        -0.027910354642338,
        -0.10094940719705045,
        0.0,
        0.0,
        -0.028410991134921137,
        0.0076903771581709485,
        0.015298545354952007,
        0.06278706144266039,
        0.0,
        0.0,
        -0.05874450411774672,
        -0.02841099113492113,
        0.026101012656880904,
        -0.010809991636335165,
        0.0,
        0.0,
        -0.14865925154939633,
        0.3916786246349051,
        -0.014405839395047897,
        -0.04085710495250325,
        0.0,
        0.017080327559891292,
        -0.0326225153725497,
        -0.058983318792864635
      ],
      [
        -0.000262288487214054,
        -0.00015480887950829498,
        -0.00015242905223576884,
        0.000620263325459227,
        0.0007424922039230486,
        -0.00020854868336263034,
        -0.00030163176030368103,
        -0.00017803021143604904,
        -0.00017529341007385132,
        0.0007133028242791903,
        0.0008538660345168132,
        -0.00023983098586431706,
        -0.0003409750333725629,
        -0.00020125154335972383,
        -0.00019815776791059386,
        0.0008063423230981959,
        0.0009652398650880319,
        -0.0002711132883728947,
        -0.0003803183064811671,
        -0.0002244728752837336,
        -0.00022102212574287702,
        0.0008993818219181506,
        0.0010766136956727105,
        -0.00030239559087352237,
        0.03475090122259034,
        -0.038225026992825234,
        0.0,
        0.0,
        -0.03937971504646444,
        -0.0889195201712432,
        -0.04082522846227184,
        -0.007274900268627199,
        0.0,
        0.0,
        -0.005037156403451478,
        -0.039379715046464446,
        -0.16844842687502487,
        0.011957056449451376,
        0.0,
        0.0,
        -0.014444319274258655,
        -0.014405839394976694,
        0.23979165647082096,
        -0.03180489319705479,
        0.0,
        0.0031767530438811167,
        -0.012403122107589723,
        -0.023090906439574354
      ],
      [
        0.00013248310744867612,
        -3.9571326642247685e-05,
        0.00013014799760714652,
        -0.000496681657502745,
        -0.00027387600373765075,
        4.6455890424712216e-05,
        0.00015235557358661293,
        -4.550702561149078e-05,
        0.00014967019724708205,
        -0.0005711839061316093,
        -0.00031495740429933743,
        5.3424273978499734e-05,
        0.00017222803969360373,
        -5.144272461530021e-05,
        0.00016919239688831304,
        -0.0006456861547553897,
        -0.0003560388048563238,
        6.039265754146138e-05,
        0.0001921005058165289,
        -5.737842357745752e-05,
        0.00018871459653047498,
        -0.0007201884033856376,
        -0.00039712020543100895,
        6.736104110395758e-05,
        -0.005528738690984248,
        -0.03447120212103853,
        0.0,
        0.0,
        0.005752651510564547,
        0.029738286743560816,
        0.009313962458850201,
        0.024424350432885888,
        0.0,
        0.0,
        -0.006819629735337509,
        0.005752651510564528,
        0.011961945828727385,
        -0.02998395252439478,
        0.0,
        0.0,
        0.032230592897508875,
        -0.040857104952342196,
        -0.03180489319715958,
        0.11423496383385776,
        0.0,
        0.008790129279786764,
        0.006356504356186347,
        0.01821071580963671
      ],
      [
        0.0,
        0.0,
        0.0,
        0.0,
        0.0,
        0.0,
        0.0,
        0.0,
        0.0,
        0.0,
        0.0,
        0.0,
        0.0,
        0.0,
        0.0,
        0.0,
        0.0,
        0.0,
        0.0,
        0.0,
        0.0,
        0.0,
        0.0,
        0.0,
        0.0,
        0.0,
        0.0,
        0.0,
        0.0,
        0.0,
        0.0,
        0.0,
        0.0,
        0.0,
        0.0,
        0.0,
        0.0,
        0.0,
        0.0,
        0.0,
        0.0,
        0.0,
        0.0,
        0.0,
        1.3446692859142435,
        0.0,
        0.0,
        0.0
      ],
      [
        2.91637471318752e-05,
        7.559960075424959e-05,
        -0.00023625389215487454,
        -0.0011771151375204374,
        -2.597351199491951e-05,
        5.238167394595558e-05,
        3.353830933162821e-05,
        8.693954082073119e-05,
        -0.0002716919759769174,
        -0.001353682408159775,
        -2.9869538715503384e-05,
        6.0238925041222795e-05,
        3.791287134481524e-05,
        9.827948094712742e-05,
        -0.0003071300598012478,
        -0.001530249678770049,
        -3.376556554735115e-05,
        6.80961761396411e-05,
        4.228743344336189e-05,
        0.00010961942102348326,
        -0.000342568143624449,
        -0.0017068169494292038,
        -3.7661592322362386e-05,
        7.595342723455193e-05,
        0.0042873581996836965,
        0.005151785368440297,
        0.0,
        0.0,
        0.0051569249599849884,
        -0.012713829322503388,
        -0.0012277140663529442,
        0.0006310800629290441,
        0.0,
        0.0,
        -0.012232169043025057,
        0.005156924959985037,
        -0.0009014813697717055,
        0.005568429873869043,
        0.0,
        0.0,
        -0.010866157880600353,
        0.017080327559478838,
        0.00317675304420925,
        0.008790129279489155,
        0.0,
        0.13276698274720458,
        -0.007545710049880432,
        -0.0053916771171488445
      ],
      [
        0.0006573362526206704,
        0.000622490421697829,
        -0.001242502624491776,
        -0.0008487271885824988,
        -0.0016811358667245945,
        0.0006399133371817984,
        0.0007559366905019386,
        0.0007158639849909049,
        -0.0014288780181657785,
        -0.0009760362668709534,
        -0.0019333062467567896,
        0.0007359003377500633,
        0.0008545371284052688,
        0.0008092375482319866,
        -0.0016152534118412968,
        -0.001103345345158203,
        -0.0021854766267570508,
        0.0008318873383231813,
        0.0009531375662615259,
        0.0009026111115040613,
        -0.0018016288055129593,
        -0.0012306544234422932,
        -0.0024376470067750088,
        0.0009278743388846681,
        0.00590585437764383,
        -0.006619749119005615,
        0.0,
        0.0,
        0.015921708333497632,
        0.0006263666355106093,
        -0.015479312285353493,
        0.07153018187016748,
        0.0,
        0.0,
        0.031726266927837594,
        0.01592170833349761,
        0.022906628916714165,
        -0.07098574372478415,
        0.0,
        0.0,
        -0.035280181375536374,
        -0.03262251537252304,
        -0.01240312210771274,
        0.006356504356170455,
        0.0,
        -0.007545710049898038,
        0.2042660095970598,
        -0.09014921392573831
      ],
      [
        -0.00030697780291473806,
        -0.00034715645891508643,
        0.0005239035646337207,
        0.0006733198398802962,
        0.0007192823466089247,
        -0.0003270671309263558,
        -0.00035302447333945917,
        -0.00039922992778300713,
        0.000602489099328022,
        0.0007743178158618318,
        0.0008271746986225992,
        -0.0003761272005518788,
        -0.00039907114378287035,
        -0.0004513033966106421,
        0.0006810746340238465,
        0.0008753157918461235,
        0.0009350670506008609,
        -0.00042518727019693746,
        -0.00044511781421579627,
        -0.0005033768654589522,
        0.0007596601687185772,
        0.0009763137678235612,
        0.0010429594025920873,
        -0.0004742473398278676,
        -0.03683197108322328,
        0.0723404603273916,
        0.0,
        0.0,
        6.756363590363821e-05,
        0.032041555814588354,
        0.005498374268541578,
        -0.1087715688751996,
        0.0,
        0.0,
        -0.03335926642755797,
        6.75636359036374e-05,
        0.026604765301298915,
        0.041834004342346943,
        0.0,
        0.0,
        0.0005830176169370827,
        -0.05898331879275717,
        -0.023090906439535198,
        0.018210715809636204,
        0.0,
        -0.005391677116877951,
        -0.09014921392586324,
        0.20547543517234054
      ]
    ],
    "alpha": 1.0,
    "forgetting_factor": 0.999,
    "weight_clip": 10.0
  }
}