{
  "metadata": {
    "series_name": "resume_test",
    "epochs": 4,
    "history": []
  },
  "encoder": {
    "amplitude": 10.0,
    "delta_scale": 1.4,
    "quadratic_scale": 0.7,
    "magnitude_scale": 0.5,
    "band_growth": 0.15
  },
  "reservoir": {
    "n_neurons": 24,
    "dt": 1.0,
    "max_weight": 2.0,
    "max_delay_limit": 50,
    "readout_decay": 0.92,
    "synapses": [
      {
        "3": -3.384920149150989e-06,
        "4": 0.0,
        "16": -0.00040740442783394643
      },
      {
        "0": 2.0,
        "6": 2.0,
        "18": 2.0
      },
      {
        "7": 2.0
      },
      {
        "0": 2.0,
        "5": 2.0,
        "9": 2.0
      },
      {
        "0": 2.0,
        "21": 2.0
      },
      {
        "17": 0.0,
        "23": 0.0
      },
      {
        "4": 2.0,
        "13": 2.0,
        "16": 2.0,
        "21": 2.0
      },
      {
        "8": 2.0,
        "9": 2.0
      },
      {
        "3": 2.0,
        "4": 2.0,
        "18": 2.0,
        "23": 2.0
      },
      {
        "3": 2.0,
        "11": 2.0,
        "12": 2.0,
        "14": 2.0
      },
      {
        "7": 0.0,
        "12": -0.00717759072093404,
        "18": -0.007827801383429554
      },
      {
        "4": 2.0,
        "8": 2.0,
        "9": 2.0
      },
      {
        "6": 2.0,
        "11": 2.0,
        "23": 2.0
      },
      {
        "1": 2.0,
        "16": 2.0
      },
      {
        "15": 2.0,
        "19": 2.0
      },
      {
        "16": -3.504493816836801e-06
      },
      {
        "0": 2.0,
        "2": 2.0,
        "22": 2.0
      },
      {
        "14": 2.0,
        "21": 2.0
      },
      {
        "19": 2.0,
        "23": 2.0
      },
      {
        "2": 2.0,
        "18": 2.0,
        "20": 2.0,
        "22": 2.0
      },
      {
        "11": -1.2172367004747593e-06,
        "12": -3.5652616794616503e-06
      },
      {
        "8": 2.0,
        "15": 2.0,
        "17": 2.0,
        "18": 2.0,
        "20": 2.0
      },
      {
        "0": 2.0,
        "9": 2.0,
        "10": 2.0,
        "14": 2.0
      },
      {
        "5": 2.0,
        "13": 2.0,
        "22": 2.0
      }
    ],
    "is_inhibitory": [
      true,
      false,
      false,
      false,
      false,
      true,
      false,
      false,
      false,
      false,
      true,
      false,
      false,
      false,
      false,
      true,
      false,
      false,
      false,
      false,
      true,
      false,
      false,
      false
    ]
  },
  "force_readout": {
    "weights": [
      [
        0.0010684844415565463,
        -0.0014292688093070485,
        0.012698348513709167,
        -0.011298106607500271,
        0.00032869655588267204,
        -0.00018039218389253892,
        0.0012287571078020937,
        -0.0016436591307223533,
        0.014603100790765175,
        -0.012992822598625704,
        0.00037800103927305566,
        -0.00020745101144246456,
        0.0013890297740293944,
        -0.0018580494521198312,
        0.01650785306782208,
        -0.014687538589750356,
        0.00042730552265508013,
        -0.00023450983902120466,
        0.0015493024402822297,
        -0.002072439773527755,
        0.018412605344880338,
        -0.016382254580877494,
        0.00047661000604274603,
        -0.00026156866661503574,
        -0.009411170907925879,
        0.012127358729696643,
        0.0,
        0.0,
        -0.006534956926793621,
        0.004059665689896359,
        -0.008027323532997583,
        0.008238530140235678,
        0.0,
        0.0,
        0.006158711242805916,
        -0.0065349569267936424,
        -0.0019010554039827579,
        0.006065756924596164,
        0.0,
        0.0,
        0.009569692137881143,
        -0.019064270003107366,
        -0.0044190312014700545,
        0.013582309995644602,
        0.0,
        0.0,
        0.0029537595374520688,
        -0.0049005959788579875
      ]
    ],
    "bias": [
      0.001914619973029801
    ],
    "inverse_correlation": [
      [
        1.1614541329340797,
        0.036680572487480315,
        -6.924145033291887e-05,
        -6.499179644291673e-05,
        -7.458759925574784e-05,
        -0.07326729024634221,
        -0.2106974259271896,
        0.042182658360602296,
        -7.962766788278251e-05,
        -7.47405659093622e-05,
        -8.577573914404949e-05,
        -0.08425738378329337,
        -0.2381796988742142,
        0.047684744233724624,
        -9.001388543279877e-05,
        -8.448933537576891e-05,
        -9.696387903247397e-05,
        -0.09524747732024481,
        -0.265661971821239,
        0.053186830106846605,
        -0.00010040010298265936,
        -9.423810484222026e-05,
        -0.00010815201892071107,
        -0.10623757085719605,
        0.0004493267998042316,
        0.0003788612018186334,
        0.0,
        0.0,
        4.6459468198729126e-05,
        0.000854249870102505,
        -0.0005012544432771112,
        0.0001726084835431,
        0.0,
        0.0,
        0.00045105518709689246,
        4.6459468198729356e-05,
        0.00016835090534272028,
        -0.0007618547931191993,
        0.0,
        0.0,
        0.0006785623459639373,
        -0.00041550082691791426,
        -0.0003274052058062287,
        0.0006199436250029788,
        0.0,
        0.0,
        0.0006950076379632436,
        -0.00017397869036222692
      ],
      [
        0.03668057248748035,
        1.1614541649032943,
        -7.043363091086252e-05,
        -6.475467670161041e-05,
        -7.417206686222685e-05,
        -0.07326727426173353,
        0.04218265836060261,
        -0.21069738916258973,
        -8.099867554741704e-05,
        -7.446787820685415e-05,
        -8.529787689140277e-05,
        -0.08425736540099323,
        0.04768474423372479,
        -0.2381796573142319,
        -9.156372018412306e-05,
        -8.418107971205931e-05,
        -9.642368692092709e-05,
        -0.09524745654025346,
        0.05318683010684656,
        -0.26566192546587386,
        -0.00010212876482067998,
        -9.389428121731101e-05,
        -0.00010754949695000034,
        -0.10623754767951346,
        0.0005489792721287827,
        0.00025919662962949416,
        0.0,
        0.0,
        0.00018194553796100276,
        0.0007884772250144305,
        -0.0003105275135584827,
        2.8343506327083264e-05,
        0.0,
        0.0,
        0.00022738622593915575,
        0.000181945537961004,
        0.00028345972386943267,
        -0.0008995349929637132,
        0.0,
        0.0,
        0.0005193832592532757,
        -5.602175458785541e-05,
        -0.00024293209436726626,
        0.0005094364766129985,
        0.0,
        0.0,
        0.0007229703567072682,
        -0.00024737085010619953
      ],
      [
        -6.924145033286456e-05,
        -7.043363091088228e-05,
        1.1249425752774627,
        0.00014825382954551905,
        0.0001596010822664611,
        -6.98375406221274e-05,
        -7.962766788321668e-05,
        -8.099867554737309e-05,
        -0.2526857172322977,
        0.00017049190397735265,
        0.00018354124460634233,
        -8.031317171575746e-05,
        -9.001388543322585e-05,
        -9.156372018442932e-05,
        -0.2856447238278151,
        0.00019272997840911245,
        0.00020748140694656412,
        -9.078880280855872e-05,
        -0.0001004001029832305,
        -0.00010212876482090134,
        -0.3186037304233324,
        0.00021496805284096482,
        0.0002314215692863511,
        -0.00010126443390252049,
        -0.0008833419612899912,
        -0.0003372416170860979,
        0.0,
        0.0,
        -0.00013523324893115844,
        -0.0010017403922770278,
        0.0009836359922651414,
        -2.975169994107474e-05,
        0.0,
        0.0,
        -0.0005560404639687152,
        -0.00013523324893116137,
        -0.00030455077346589176,
        0.0015691101896232443,
        0.0,
        0.0,
        -0.0010116564378295349,
        0.0003633668047543391,
        -2.118263790100542e-05,
        -0.0007819853265515997,
        0.0,
        0.0,
        -0.0015542321629611422,
        0.0003874530766390793
      ],
      [
        -6.499179644284721e-05,
        -6.475467670167732e-05,
        0.00014825382954556418,
        1.1249212984586305,
        0.00014750667183463195,
        -6.48732365723235e-05,
        -7.47405659099405e-05,
        -7.446787820664822e-05,
        0.0001704919039772531,
        -0.25271018557395436,
        0.00016963267260988374,
        -7.460422205856975e-05,
        -8.448933537621578e-05,
        -8.418107971218053e-05,
        0.0001927299784092596,
        -0.2856723836922963,
        0.0001917586733851592,
        -8.433520754423443e-05,
        -9.423810484330193e-05,
        -9.389428121713844e-05,
        0.00021496805284095685,
        -0.31863458181063786,
        0.00021388467416000396,
        -9.406619303088134e-05,
        -0.0007607408176946805,
        -0.0005829377863993297,
        0.0,
        0.0,
        -0.00027527021628617976,
        -0.0012884822062810431,
        0.0005759362362220345,
        -8.117246644385116e-05,
        0.0,
        0.0,
        -0.00027857984141918513,
        -0.00027527021628618204,
        -0.00014871596729965536,
        0.001257310312345413,
        0.0,
        0.0,
        -0.0008004201767478213,
        0.00010394398428516877,
        0.0006839989114735642,
        -0.001067101961020832,
        0.0,
        0.0,
        -0.0010045936715328474,
        0.0004916242299667178
      ],
      [
        -7.458759925571319e-05,
        -7.417206686222289e-05,
        0.00015960108226632046,
        0.00014750667183441977,
        1.1249519242083303,
        -7.437983305892696e-05,
        -8.577573914433712e-05,
        -8.529787689101951e-05,
        0.00018354124460609765,
        0.0001696326726095961,
        -0.2526749659618003,
        -8.553680801803677e-05,
        -9.696387903299288e-05,
        -9.642368692088052e-05,
        0.0002074814069462278,
        0.00019175867338466616,
        -0.28563257021768723,
        -9.66937829765882e-05,
        -0.00010815201892069307,
        -0.00010754949694995085,
        0.00023142156928602546,
        0.00021388467415985816,
        -0.31859017447357396,
        -0.00010785075793568648,
        -0.0013741846577546388,
        -0.0010309189567874247,
        0.0,
        0.0,
        -0.0003116100348057973,
        -0.0025089353265623747,
        0.0006929321179824622,
        -0.0004640580781667951,
        0.0,
        0.0,
        -0.0012188951244089857,
        -0.0003116100348058011,
        -0.0009232011804720855,
        0.0020626389912888304,
        0.0,
        0.0,
        -0.0017676297169357251,
        0.0008254000236152445,
        0.0009484613182599013,
        -0.0016192643372002946,
        0.0,
        0.0,
        -0.001700279265687644,
        0.0003475271238974199
      ],
      [
        -0.07326729024634224,
        -0.07326727426173349,
        -6.98375406221507e-05,
        -6.487323657230477e-05,
        -7.437983305900001e-05,
        1.2714020036602067,
        -0.0842573837832935,
        -0.08425736540099373,
        -8.031317171539828e-05,
        -7.46042220581556e-05,
        -8.553680801774875e-05,
        -0.0842573745921434,
        -0.0952474773202446,
        -0.09524745654025357,
        -9.078880280879484e-05,
        -8.43352075439663e-05,
        -9.669378297671718e-05,
        -0.09524746693024906,
        -0.10623757085719594,
        -0.10623754767951385,
        -0.00010126443390204869,
        -9.406619302982593e-05,
        -0.00010785075793537865,
        -0.10623755926835465,
        0.0004991530359665141,
        0.00031902891571160106,
        0.0,
        0.0,
        0.00011420250307560597,
        0.0008213635475626549,
        -0.00040589097841868977,
        0.00010047599495049716,
        0.0,
        0.0,
        0.0003392207065186106,
        0.00011420250307560548,
        0.00022590531460482997,
        -0.0008306948930448472,
        0.0,
        0.0,
        0.0005989728026149703,
        -0.00023576129075744218,
        -0.00028516865008428624,
        0.0005646900508133724,
        0.0,
        0.0,
        0.0007089889973533122,
        -0.000210674770254594
      ],
      [
        -0.2106974259271896,
        0.0421826583606026,
        -7.962766788314513e-05,
        -7.474056590992125e-05,
        -8.577573914440003e-05,
        -0.08425738378329338,
        1.1023672460979754,
        0.04851005711469273,
        -9.157181806552486e-05,
        -8.595165079641955e-05,
        -9.864210001601524e-05,
        -0.09689599135078725,
        -0.27390665370534617,
        0.054837455868783476,
        -0.00010351596824810587,
        -9.716273568287047e-05,
        -0.00011150846088771902,
        -0.10953459891828124,
        -0.3055112675944245,
        0.06116485462287372,
        -0.00011546011843052675,
        -0.00010837382056937703,
        -0.00012437482175927018,
        -0.12217320648577538,
        0.0005167258197786578,
        0.0004356903821036726,
        0.0,
        0.0,
        5.342838843187094e-05,
        0.0009823873506145343,
        -0.0005764426097616572,
        0.00019849975607571369,
        0.0,
        0.0,
        0.0005187134651637692,
        5.3428388431870806e-05,
        0.00019360354112728275,
        -0.0008761330120892346,
        0.0,
        0.0,
        0.0007803466978605441,
        -0.0004778259509234301,
        -0.00037651598666503685,
        0.0007129351687590332,
        0.0,
        0.0,
        0.0007992587836620781,
        -0.0002000754939137634
      ],
      [
        0.04218265836060237,
        -0.21069738916258973,
        -8.099867554742822e-05,
        -7.446787820663041e-05,
        -8.529787689116567e-05,
        -0.08425736540099377,
        0.04851005711469286,
        1.1023672883772637,
        -9.314847687945428e-05,
        -8.56380599376276e-05,
        -9.80925584246584e-05,
        -0.09689597021114246,
        0.0548374558687833,
        -0.27390660591136656,
        -0.0001052982782116563,
        -9.68082416685805e-05,
        -0.00011088723995855346,
        -0.10953457502129194,
        0.06116485462287341,
        -0.3055112142857548,
        -0.00011744807954368574,
        -0.00010797842339958617,
        -0.00012368192149192822,
        -0.12217317983144062,
        0.0006313261629317118,
        0.00029807612405679715,
        0.0,
        0.0,
        0.00020923736864226917,
        0.0009067488087842268,
        -0.00035710664058787056,
        3.2595032301204086e-05,
        0.0,
        0.0,
        0.0002614941598368026,
        0.0002092373686422695,
        0.0003259786824577425,
        -0.0010344652419103399,
        0.0,
        0.0,
        0.0005972907481537123,
        -6.442501780481674e-05,
        -0.0002793719085264136,
        0.0005858519481082289,
        0.0,
        0.0,
        0.0008314159102523654,
        -0.000284476477641464
      ],
      [
        -7.96276678827242e-05,
        -8.099867554744664e-05,
        -0.25268571723229794,
        0.00017049190397722632,
        0.00018354124460627898,
        -8.031317171537578e-05,
        -9.15718180656158e-05,
        -9.314847687940029e-05,
        1.0540807110971004,
        0.00019606568957382118,
        0.00021107243129717446,
        -9.236014747304245e-05,
        -0.00010351596824813601,
        -0.00010529827821200407,
        -0.32849143240198636,
        0.00022163947517033134,
        0.0002386036179883449,
        -0.00010440712322976884,
        -0.00011546011843064566,
        -0.00011744807954393706,
        -0.3663942899868324,
        0.00024721326076694805,
        0.00026613480467909946,
        -0.00011645409898782585,
        -0.0010158432554823575,
        -0.00038782785964985796,
        0.0,
        0.0,
        -0.00015551823627136025,
        -0.0011520014511178026,
        0.0011311813911041185,
        -3.421445493288683e-05,
        0.0,
        0.0,
        -0.0006394465335632328,
        -0.00015551823627136022,
        -0.00035023338948653534,
        0.0018044767180657752,
        0.0,
        0.0,
        -0.001163404903503877,
        0.00041787182546739864,
        -2.4360033586942032e-05,
        -0.0008992831255351654,
        0.0,
        0.0,
        -0.001787366987405256,
        0.00044557103813617046
      ],
      [
        -7.474056590927882e-05,
        -7.446787820693234e-05,
        0.00017049190397740356,
        -0.25271018557395447,
        0.00016963267260984268,
        -7.460422205817631e-05,
        -8.595165079643881e-05,
        -8.563805993764925e-05,
        0.00019606568957384785,
        1.0540525725041958,
        0.00019507757350138393,
        -8.579485536736061e-05,
        -9.71627356826545e-05,
        -9.680824166901455e-05,
        0.00022163947517065983,
        -0.3285232412461408,
        0.00022052247439294893,
        -9.698548867587493e-05,
        -0.00010837382056980502,
        -0.00010797842339971578,
        0.00024721326076711307,
        -0.36642976908223307,
        0.00024596737528402243,
        -0.00010817612198552005,
        -0.000874851940348427,
        -0.0006703784543566865,
        0.0,
        0.0,
        -0.0003165607487285343,
        -0.001481754537225,
        0.0006623266716548532,
        -9.33483364102411e-05,
        0.0,
        0.0,
        -0.00032036681763335484,
        -0.0003165607487285344,
        -0.0001710233623951482,
        0.0014459068591974348,
        0.0,
        0.0,
        -0.0009204832032617333,
        0.00011953558193019388,
        0.000786598748195568,
        -0.0012271672551729706,
        0.0,
        0.0,
        -0.0011552827222643858,
        0.000565367864462499
      ],
      [
        -8.577573914408247e-05,
        -8.529787689144451e-05,
        0.000183541244606293,
        0.00016963267260983091,
        -0.25267496596180045,
        -8.553680801771764e-05,
        -9.864210001602015e-05,
        -9.809255842454443e-05,
        0.00021107243129710459,
        0.0001950775735013195,
        1.0540930750581723,
        -9.836732922069801e-05,
        -0.00011150846088796289,
        -0.00011088723995886689,
        0.00023860361798822927,
        0.00022052247439268712,
        -0.32847745575033993,
        -0.00011119785042301703,
        -0.000124374821758847,
        -0.00012368192149228162,
        0.00026613480467899147,
        0.00024596737528419303,
        -0.36637870064461076,
        -0.00012402837162597588,
        -0.0015803123564162875,
        -0.0011855568003055503,
        0.0,
        0.0,
        -0.0003583515400211195,
        -0.002885275625535266,
        0.0007968719356802739,
        -0.0005336667898941669,
        0.0,
        0.0,
        -0.0014017293930694947,
        -0.0003583515400211175,
        -0.0010616813575417031,
        0.0023720348399799635,
        0.0,
        0.0,
        -0.002032774174469119,
        0.0009492100271547355,
        0.0010907305160025125,
        -0.0018621539877794956,
        0.0,
        0.0,
        -0.0019553211555617188,
        0.00039965619249991946
      ],
      [
        -0.08425738378329349,
        -0.08425736540099331,
        -8.031317171571364e-05,
        -7.460422205847251e-05,
        -8.553680801808216e-05,
        -0.08425737459214337,
        -0.09689599135078739,
        -0.09689597021114248,
        -9.23601474729838e-05,
        -8.579485536724964e-05,
        -9.836732922068609e-05,
        1.2477733051332769,
        -0.10953459891828092,
        -0.10953457502129138,
        -0.00010440712323043475,
        -9.698548867598135e-05,
        -0.00011119785042352503,
        -0.10953458696978609,
        -0.12217320648577526,
        -0.12217317983144062,
        -0.00011645409898771504,
        -0.0001081761219847679,
        -0.0001240283716260379,
        -0.1221731931586079,
        0.0005740259913563434,
        0.00036688325306672386,
        0.0,
        0.0,
        0.0001313328785404773,
        0.0009445680797031434,
        -0.00046677462517483756,
        0.00011554739419078645,
        0.0,
        0.0,
        0.0003901038124978979,
        0.0001313328785404775,
        0.00025979111179381037,
        -0.0009552991269938585,
        0.0,
        0.0,
        0.0006888187230092043,
        -0.00027112548437029224,
        -0.00032794394760169907,
        0.0006493935584281446,
        0.0,
        0.0,
        0.0008153373469376167,
        -0.0002422759857587155
      ],
      [
        -0.23817969887421422,
        0.04768474423372481,
        -9.001388543317567e-05,
        -8.448933537614473e-05,
        -9.696387903302099e-05,
        -0.09524747732024473,
        -0.27390665370534606,
        0.05483745586878327,
        -0.00010351596824807284,
        -9.71627356825766e-05,
        -0.0001115084608879299,
        -0.10953459891828098,
        1.0350356773777651,
        0.06199016750384232,
        -0.00011701805106313226,
        -0.00010983613598895752,
        -0.00012605304274294657,
        -0.12382172051631818,
        -0.3453605633676103,
        0.06914287913890084,
        -0.00013052013387804305,
        -0.00012250953629539847,
        -0.00014059762459777805,
        -0.13810884211435495,
        0.0005841248397494091,
        0.0004925195623681789,
        0.0,
        0.0,
        6.039730866181462e-05,
        0.001110524831155376,
        -0.0006516307762418479,
        0.00022439102861266137,
        0.0,
        0.0,
        0.0005863717432274613,
        6.039730866181345e-05,
        0.00021885617694330058,
        -0.0009904112310582512,
        0.0,
        0.0,
        0.0008821310497630514,
        -0.0005401510749791929,
        -0.0004256267675454759,
        0.0008059267125076296,
        0.0,
        0.0,
        0.0009035099293394839,
        -0.00022617229746550732
      ],
      [
        0.047684744233724624,
        -0.2381796573142319,
        -9.156372018444545e-05,
        -8.418107971221542e-05,
        -9.642368692104233e-05,
        -0.0952474565402536,
        0.05483745586878358,
        -0.27390660591136645,
        -0.0001052982782120174,
        -9.680824166904953e-05,
        -0.00011088723995899165,
        -0.10953457502129135,
        0.061990167503842265,
        1.0350357314057426,
        -0.00011903283623978102,
        -0.00010943540362583338,
        -0.00012535079299739758,
        -0.12382169350232962,
        0.0691428791389008,
        -0.3453605031056363,
        -0.00013276739426735523,
        -0.00012206256558268233,
        -0.0001398143460352158,
        -0.1381088119833675,
        0.000713673053765391,
        0.0003369556184860101,
        0.0,
        0.0,
        0.00023652919934590962,
        0.0010250203925209133,
        -0.000403685767627226,
        3.684655826569944e-05,
        0.0,
        0.0,
        0.0002956020937215219,
        0.00023652919934591046,
        0.00036849764103100206,
        -0.0011693954908524125,
        0.0,
        0.0,
        0.0006751982370378539,
        -7.282828097246972e-05,
        -0.00031581172267402115,
        0.0006622674195746074,
        0.0,
        0.0,
        0.000939861463751111,
        -0.0003215821051663141
      ],
      [
        -9.00138854327059e-05,
        -9.15637201841427e-05,
        -0.2856447238278151,
        0.00019272997840919632,
        0.0002074814069463972,
        -9.078880280875854e-05,
        -0.00010351596824820247,
        -0.00010529827821158132,
        -0.32849143240198625,
        0.00022163947517058686,
        0.0002386036179882548,
        -0.00010440712323048437,
        -0.00011701805106319779,
        -0.00011903283623975047,
        0.9733311449380831,
        0.0002505489719318785,
        0.000269725829030521,
        -0.00011802544365112168,
        -0.00013052013387819102,
        -0.00013276739426716554,
        -0.41418484955033247,
        0.00027945846869328655,
        0.0003008480400722388,
        -0.0001316437640732753,
        -0.0011483445496789436,
        -0.0004384141022126963,
        0.0,
        0.0,
        -0.00017580322361044907,
        -0.001302262509956295,
        0.0012787267899443094,
        -3.86772099235121e-05,
        0.0,
        0.0,
        -0.0007228526031587266,
        -0.00017580322361045002,
        -0.0003959160055054083,
        0.002039843246510129,
        0.0,
        0.0,
        -0.0013151533691786452,
        0.000472376846182643,
        -2.7537429274868057e-05,
        -0.0010165809245180667,
        0.0,
        0.0,
        -0.002020501811853453,
        0.0005036889996313927
      ],
      [
        -8.448933537566719e-05,
        -8.418107971213709e-05,
        0.00019272997840914932,
        -0.2856723836922963,
        0.00019175867338492507,
        -8.433520754398345e-05,
        -9.716273568288843e-05,
        -9.680824166859476e-05,
        0.00022163947517033676,
        -0.32852324124614085,
        0.00022052247439273447,
        -9.698548867609812e-05,
        -0.00010983613598903646,
        -0.00010943540362578117,
        0.0002505489719319322,
        0.9732951871142584,
        0.00024928627540057776,
        -0.00010963576980745575,
        -0.00012250953629624082,
        -0.00012206256558221562,
        0.0002794584686931249,
        -0.4142249563538298,
        0.00027805007640785797,
        -0.00012228605094008753,
        -0.0009889630630012718,
        -0.000757819122316513,
        0.0,
        0.0,
        -0.00035785128117072663,
        -0.0016750268681658602,
        0.000748717107087564,
        -0.00010552420637814826,
        0.0,
        0.0,
        -0.00036215379384718643,
        -0.00035785128117072154,
        -0.00019333075748914971,
        0.0016345034060497737,
        0.0,
        0.0,
        -0.001040546229769979,
        0.00013512717957139437,
        0.0008891985849175957,
        -0.0013872325493267455,
        0.0,
        0.0,
        -0.0013059717729931957,
        0.0006391114989587907
      ],
      [
        -9.696387903245178e-05,
        -9.64236869209433e-05,
        0.00020748140694645538,
        0.00019175867338497665,
        -0.2856325702176876,
        -9.669378297664656e-05,
        -0.0001115084608876698,
        -0.00011088723995838611,
        0.00023860361798820525,
        0.00022052247439273892,
        -0.32847745575033993,
        -0.00011119785042349741,
        -0.0001260530427429345,
        -0.0001253507929972137,
        0.00026972582903039453,
        0.0002492862754003654,
        0.9733469446312499,
        -0.00012570191786961574,
        -0.00014059762459696454,
        -0.00013981434603501232,
        0.00030084804007215956,
        0.00027805007640815504,
        -0.4141672268156462,
        -0.00014020598531645564,
        -0.0017864400550891275,
        -0.0013401946438255543,
        0.0,
        0.0,
        -0.0004050930452502342,
        -0.003261615924527779,
        0.0009008117533804015,
        -0.0006032755016168891,
        0.0,
        0.0,
        -0.0015845636617374,
        -0.00040509304525023496,
        -0.0012001615346213428,
        0.0026814306886784513,
        0.0,
        0.0,
        -0.00229791863201199,
        0.0010730200307060445,
        0.0012329997137285882,
        -0.002105043638363926,
        0.0,
        0.0,
        -0.0022103630454101395,
        0.0004517852610671244
      ],
      [
        -0.09524747732024473,
        -0.09524745654025346,
        -9.078880280860667e-05,
        -8.43352075442379e-05,
        -9.669378297667535e-05,
        -0.09524746693024908,
        -0.10953459891828131,
        -0.10953457502129185,
        -0.0001044071232298204,
        -9.698548867587961e-05,
        -0.00011119785042304287,
        -0.10953458696978631,
        -0.12382172051631798,
        -0.12382169350232972,
        -0.0001180254436511968,
        -0.0001096357698074718,
        -0.0001257019178697085,
        1.220847578904916,
        -0.13810884211435492,
        -0.13810881198336786,
        -0.00013164376407239533,
        -0.00012228605093912514,
        -0.00014020598531598125,
        -0.138108827048861,
        0.0006488989467484174,
        0.0004147375904189524,
        0.0,
        0.0,
        0.00014846325399764523,
        0.0010677726118592855,
        -0.0005276582719295379,
        0.00013061879344371737,
        0.0,
        0.0,
        0.0004409869184784764,
        0.00014846325399764363,
        0.0002936769089929359,
        -0.001079903360955055,
        0.0,
        0.0,
        0.0007786646433861361,
        -0.0003064896779796987,
        -0.0003707192451290136,
        0.0007340970660542343,
        0.0,
        0.0,
        0.0009216856965355377,
        -0.0002738772012974608
      ],
      [
        -0.26566197182123896,
        0.053186830106846696,
        -0.0001004001029833545,
        -9.423810484335682e-05,
        -0.00010815201892098411,
        -0.10623757085719586,
        -0.30551126759442443,
        0.061164854622873376,
        -0.00011546011843076084,
        -0.0001083738205698732,
        -0.00012437482175910067,
        -0.12217320648577512,
        -0.3453605633676101,
        0.0691428791389008,
        -0.0001305201338783595,
        -0.00012250953629633178,
        -0.0001405976245973084,
        -0.13810884211435473,
        0.9594594267734462,
        0.07712090365492766,
        -0.0001455801493257705,
        -0.00013664525202285554,
        -0.00015682042743532534,
        -0.15404447774293367,
        0.000651523859721701,
        0.0005493487426371925,
        0.0,
        0.0,
        6.736622890019885e-05,
        0.001238662311670269,
        -0.0007268189427532309,
        0.0002502823011370493,
        0.0,
        0.0,
        0.0006540300212808716,
        6.736622890020026e-05,
        0.00024410881276709558,
        -0.0011046894500106976,
        0.0,
        0.0,
        0.0009839154016320927,
        -0.0006024761990005553,
        -0.0004747375484371125,
        0.0008989182562556207,
        0.0,
        0.0,
        0.0010077610750031144,
        -0.000252269101026239
      ],
      [
        0.053186830106846564,
        -0.2656619254658737,
        -0.0001021287648209115,
        -9.389428121711376e-05,
        -0.00010754949694995212,
        -0.1062375476795138,
        0.06116485462287375,
        -0.3055112142857552,
        -0.00011744807954394156,
        -0.0001079784233996854,
        -0.00012368192149221565,
        -0.12217317983144049,
        0.0691428791389008,
        -0.3453605031056361,
        -0.0001327673942671887,
        -0.000122062565582198,
        -0.00013981434603498415,
        -0.138108811983368,
        0.0771209036549275,
        0.9594594939887252,
        -0.00014808670899021893,
        -0.00013614670776478108,
        -0.00015594677057709864,
        -0.15404444413529478,
        0.0007960199445799582,
        0.0003758351129407518,
        0.0,
        0.0,
        0.00026382103003647626,
        0.001143291976257031,
        -0.00045026489466355187,
        4.109808422336402e-05,
        0.0,
        0.0,
        0.0003297100276167471,
        0.00026382103003647593,
        0.0004110165996051503,
        -0.001304325739817069,
        0.0,
        0.0,
        0.0007531057258898553,
        -8.123154413601536e-05,
        -0.0003522515368155647,
        0.0007386828910910222,
        0.0,
        0.0,
        0.0010483070172779185,
        -0.00035868773270229267
      ],
      [
        -0.00010040010298259736,
        -0.00010212876482071514,
        -0.31860373042333223,
        0.0002149680528409212,
        0.0002314215692862432,
        -0.00010126443390202837,
        -0.00011546011843062494,
        -0.0001174480795436196,
        -0.36639428998683277,
        0.0002472132607670688,
        0.00026613480467909594,
        -0.00011645409898778815,
        -0.00013052013387811198,
        -0.00013276739426733677,
        -0.4141848495503323,
        0.0002794584686931076,
        0.00030084804007232235,
        -0.00013164376407233483,
        -0.00014558014932562738,
        -0.0001480867089902166,
        0.8826938768004113,
        0.00031170367661928326,
        0.0003355612754650193,
        -0.0001468334291585765,
        -0.0012808458438695435,
        -0.000489000344776043,
        0.0,
        0.0,
        -0.0001960882109505395,
        -0.0014525235687985652,
        0.0014262721887843706,
        -4.3139964915032724e-05,
        0.0,
        0.0,
        -0.0008062586727543991,
        -0.00019608821095053416,
        -0.0004415986215264232,
        0.0022752097749512237,
        0.0,
        0.0,
        -0.0014669018348536544,
        0.0005268818668946009,
        -3.071482495745947e-05,
        -0.001133878723500812,
        0.0,
        0.0,
        -0.0022536366362942107,
        0.0005618069611268346
      ],
      [
        -9.423810484211414e-05,
        -9.389428121740572e-05,
        0.00021496805284102215,
        -0.31863458181063786,
        0.0002138846741601637,
        -9.406619302984897e-05,
        -0.00010837382056940149,
        -0.0001079784233996099,
        0.00024721326076697077,
        -0.3664297690822331,
        0.0002459673752842596,
        -0.00010817612198490211,
        -0.00012250953629549302,
        -0.00012206256558263015,
        0.00027945846869337324,
        -0.4142249563538297,
        0.00027805007640840766,
        -0.0001222860509391121,
        -0.00013664525202276682,
        -0.0001361467077648148,
        0.0003117036766193298,
        0.8826491422888187,
        0.0003101327775319242,
        -0.0001363959798947483,
        -0.0011030741856553048,
        -0.0008452597902779852,
        0.0,
        0.0,
        -0.00039914181361352523,
        -0.0018682991991091653,
        0.0008351075425210868,
        -0.00011770007634304087,
        0.0,
        0.0,
        -0.00040394077006019246,
        -0.00039914181361352567,
        -0.000215638152584395,
        0.0018230999529019272,
        0.0,
        0.0,
        -0.0011606092562836785,
        0.0001507187772158841,
        0.0009917984216392948,
        -0.001547297843477659,
        0.0,
        0.0,
        -0.0014566608237214014,
        0.0007128551334510183
      ],
      [
        -0.00010815201892083593,
        -0.00010754949695015538,
        0.00023142156928651584,
        0.00021388467416008405,
        -0.3185901744735735,
        -0.00010785075793543901,
        -0.0001243748217593828,
        -0.00012368192149189955,
        0.0002661348046792657,
        0.00024596737528411264,
        -0.36637870064461064,
        -0.00012402837162616155,
        -0.00014059762459794033,
        -0.00013981434603518693,
        0.0003008480400724629,
        0.0002780500764079885,
        -0.4141672268156459,
        -0.0001402059853160619,
        -0.00015682042743516577,
        -0.00015594677057732944,
        0.0003355612754652455,
        0.00031013277753204934,
        0.8827135329275607,
        -0.0001563835990067631,
        -0.00199256775374216,
        -0.0014948324873416234,
        0.0,
        0.0,
        -0.00045183455046801196,
        -0.0036379562235184875,
        0.0010047515710776926,
        -0.0006728842133537888,
        0.0,
        0.0,
        -0.001767397930394926,
        -0.00045183455046801153,
        -0.0013386417116842862,
        0.0029908265373664667,
        0.0,
        0.0,
        -0.002563063089547861,
        0.001196830034249365,
        0.0013752689114717208,
        -0.0023479332889450207,
        0.0,
        0.0,
        -0.0024654049352696005,
        0.0005039143296677518
      ],
      [
        -0.10623757085719619,
        -0.10623754767951345,
        -0.00010126443390240379,
        -9.40661930307825e-05,
        -0.00010785075793573626,
        -0.10623755926835476,
        -0.12217320648577534,
        -0.1221731798314405,
        -0.00011645409898767443,
        -0.00010817612198540569,
        -0.00012402837162595637,
        -0.1221731931586078,
        -0.1381088421143548,
        -0.13810881198336764,
        -0.000131643764073129,
        -0.00012228605093997532,
        -0.00014020598531648475,
        -0.13810882704886115,
        -0.15404447774293376,
        -0.15404444413529494,
        -0.00014683342915840426,
        -0.00013639597989461126,
        -0.00015638359900658425,
        1.1906248249751288,
        0.0007237719021482335,
        0.0004625919277836132,
        0.0,
        0.0,
        0.00016559362946835825,
        0.0011909771439739733,
        -0.000588541918708512,
        0.0001456901926844866,
        0.0,
        0.0,
        0.0004918700244491487,
        0.0001655936294683572,
        0.00032756270619163305,
        -0.0012045075949110326,
        0.0,
        0.0,
        0.0008685105637832832,
        -0.00034185387159254524,
        -0.0004134945426362569,
        0.0008188005736691928,
        0.0,
        0.0,
        0.001028034046130984,
        -0.0003054784168472913
      ],
      [
        0.00044932679981172,
        0.0005489792721287129,
        -0.0008833419612904396,
        -0.0007607408176957291,
        -0.0013741846577560335,
        0.0004991530359659364,
        0.0005167258197814378,
        0.0006313261629320697,
        -0.0010158432554833528,
        -0.0008748519403486227,
        -0.001580312356416703,
        0.0005740259913551351,
        0.0005841248397487211,
        0.0007136730537645498,
        -0.0011483445496786235,
        -0.000988963063002314,
        -0.0017864400550882782,
        0.0006488989467493916,
        0.0006515238597182701,
        0.0007960199445807825,
        -0.0012808458438701969,
        -0.0011030741856559007,
        -0.001992567753739734,
        0.0007237719021492851,
        0.2014365319062916,
        -0.00022608772116099077,
        0.0,
        0.0,
        -0.009924824024200137,
        0.00926479944416613,
        -0.0068917170135403116,
        0.010283854275209087,
        0.0,
        0.0,
        0.024909265393974686,
        -0.009924824024200106,
        -0.11461117338733587,
        -0.0012844132491067087,
        0.0,
        0.0,
        0.03139764023808475,
        -0.040612744103063224,
        0.029804981304239034,
        0.005259749564886874,
        0.0,
        0.0,
        0.003369181223133757,
        -0.025806081181124745
      ],
      [
        0.0003788612018135106,
        0.0002591966296314073,
        -0.00033724161708530484,
        -0.0005829377863989706,
        -0.0010309189567833756,
        0.0003190289157126241,
        0.0004356903821024983,
        0.00029807612405589195,
        -0.0003878278596488894,
        -0.0006703784543556586,
        -0.0011855568003046296,
        0.0003668832530666594,
        0.0004925195623677518,
        0.0003369556184882015,
        -0.00043841410221168484,
        -0.0007578191223160949,
        -0.00134019464381945,
        0.0004147375904209524,
        0.0005493487426353552,
        0.0003758351129338434,
        -0.000489000344775244,
        -0.0008452597902773279,
        -0.0014948324873489014,
        0.00046259192778302775,
        -0.00022608772115109414,
        0.2186641605000444,
        0.0,
        0.0,
        -0.006386343770404768,
        0.076592837035685,
        0.011951103294176757,
        -0.05560023412695914,
        0.0,
        0.0,
        0.03187348609898752,
        -0.006386343770404739,
        0.03064950233332621,
        -0.02354669410479419,
        0.0,
        0.0,
        0.060519194576321,
        -0.06773977518448611,
        -0.04456856861890009,
        -0.01286723821431735,
        0.0,
        0.0,
        -0.01478482114165778,
        0.05311751669917905
      ],
      [
        0.0,
        0.0,
        0.0,
        0.0,
        0.0,
        0.0,
        0.0,
        0.0,
        0.0,
        0.0,
        0.0,
        0.0,
        0.0,
        0.0,
        0.0,
        0.0,
        0.0,
        0.0,
        0.0,
        0.0,
        0.0,
        0.0,
        0.0,
        0.0,
        0.0,
        0.0,
        1.3446692859142435,
        0.0,
        0.0,
        0.0,
        0.0,
        0.0,
        0.0,
        0.0,
        0.0,
        0.0,
        0.0,
        0.0,
        0.0,
        0.0,
        0.0,
        0.0,
        0.0,
        0.0,
        0.0,
        0.0,
        0.0,
        0.0
      ],
      [
        0.0,
        0.0,
        0.0,
        0.0,
        0.0,
        0.0,
        0.0,
        0.0,
        0.0,
        0.0,
        0.0,
        0.0,
        0.0,
        0.0,
        0.0,
        0.0,
        0.0,
        0.0,
        0.0,
        0.0,
        0.0,
        0.0,
        0.0,
        0.0,
        0.0,
        0.0,
        0.0,
        1.3446692859142435,
        0.0,
        0.0,
        0.0,
        0.0,
        0.0,
        0.0,
        0.0,
        0.0,
        0.0,
        0.0,
        0.0,
        0.0,
        0.0,
        0.0,
        0.0,
        0.0,
        0.0,
        0.0,
        0.0,
        0.0
      ],
      [
        4.645946820097203e-05,
        0.00018194553796053848,
        -0.00013523324893112136,
        -0.0002752702162849752,
        -0.0003116100348074056,
        0.00011420250307533184,
        5.342838843141976e-05,
        0.0002092373686434718,
        -0.0001555182362716707,
        -0.000316560748726946,
        -0.0003583515400231154,
        0.0001313328785401494,
        6.0397308661340456e-05,
        0.00023652919934488112,
        -0.00017580322361052513,
        -0.00035785128116921184,
        -0.0004050930452479428,
        0.00014846325399813512,
        6.736622889522855e-05,
        0.00026382103003597807,
        -0.00019608821095094483,
        -0.0003991418136116733,
        -0.0004518345504639082,
        0.0001655936294640646,
        -0.009924824024188353,
        -0.006386343770384614,
        0.0,
        0.0,
        0.7557179580712702,
        -0.03787558741915712,
        0.02286785861966415,
        6.112199137533476e-05,
        0.0,
        0.0,
        -0.019320195457591113,
        -0.5889513278429731,
        0.032269246698355986,
        -0.002524153113737635,
        0.0,
        0.0,
        0.0035812043823756747,
        -0.04349109760359061,
        -0.03510831565631743,
        0.005792041110582367,
        0.0,
        0.0,
        0.033144173818868736,
        -0.00532849641161029
      ],
      [
        0.0008542498701062233,
        0.0007884772250180163,
        -0.0010017403922755901,
        -0.0012884822062786997,
        -0.0025089353265605255,
        0.000821363547561594,
        0.0009823873506178914,
        0.0009067488087773413,
        -0.0011520014511172412,
        -0.0014817545372241743,
        -0.002885275625534674,
        0.0009445680797012169,
        0.0011105248311526037,
        0.0010250203925152755,
        -0.0013022625099549782,
        -0.0016750268681634966,
        -0.0032616159245277532,
        0.0010677726118591682,
        0.0012386623116651559,
        0.0011432919762637168,
        -0.0014525235687972054,
        -0.001868299199107608,
        -0.0036379562235199676,
        0.001190977143972186,
        0.009264799444186067,
        0.07659283703561563,
        0.0,
        0.0,
        -0.03787558741935059,
        0.2959968039061982,
        0.044306521296624206,
        0.024848953936128213,
        0.0,
        0.0,
        0.0190816260933823,
        -0.0378755874193506,
        0.0784137461405182,
        -0.10783467643158841,
        0.0,
        0.0,
        0.018660559571297305,
        0.061808927709554644,
        -0.10916140972321565,
        0.09003850493236301,
        0.0,
        0.0,
        -0.06498783363037978,
        0.058529629087696156
      ],
      [
        -0.0005012544432785758,
        -0.0003105275135582655,
        0.0009836359922655896,
        0.0005759362362229136,
        0.0006929321179847915,
        -0.00040589097841895925,
        -0.0005764426097562573,
        -0.0003571066405892698,
        0.0011311813911045374,
        0.0006623266716546929,
        0.0007968719356772655,
        -0.0004667746251759446,
        -0.0006516307762442927,
        -0.0004036857676287962,
        0.001278726789945048,
        0.0007487171070882846,
        0.0009008117533808037,
        -0.0005276582719293432,
        -0.0007268189427591222,
        -0.0004502648946627072,
        0.0014262721887848,
        0.0008351075425214293,
        0.001004751571079064,
        -0.0005885419187072197,
        -0.006891717013541353,
        0.011951103294144087,
        0.0,
        0.0,
        0.02286785861968326,
        0.04430652129665975,
        0.12811600353205113,
        0.00271062813915333,
        0.0,
        0.0,
        -0.0011168392797516232,
        0.022867858619683244,
        0.029994374503565048,
        -0.0020150452251315133,
        0.0,
        0.0,
        -0.0059973508894113955,
        0.03188473191124676,
        -0.04283711526393121,
        0.00913268881799408,
        0.0,
        0.0,
        -0.031414088332830874,
        0.009386990539413368
      ],
      [
        0.0001726084835469781,
        2.8343506322743518e-05,
        -2.975169994198944e-05,
        -8.117246644354132e-05,
        -0.0004640580781710877,
        0.00010047599495231345,
        0.00019849975607400393,
        3.259503230143795e-05,
        -3.42144549335031e-05,
        -9.334833640909141e-05,
        -0.0005336667898992874,
        0.00011554739419103777,
        0.00022439102861247155,
        3.6846558263613274e-05,
        -3.867720992463815e-05,
        -0.00010552420637625544,
        -0.0006032755016226414,
        0.00013061879344553891,
        0.00025028230113586223,
        4.1098084234642324e-05,
        -4.313996491620541e-05,
        -0.00011770007634074461,
        -0.0006728842133422142,
        0.00014569019268049083,
        0.010283854275193897,
        -0.055600234126939624,
        0.0,
        0.0,
        6.112199143212143e-05,
        0.024848953936026142,
        0.0027106281391213616,
        0.18771571080342922,
        0.0,
        0.0,
        0.01886734301381572,
        6.112199143212964e-05,
        0.007428555180215378,
        -0.07728500995602727,
        0.0,
        0.0,
        -0.020017567215442372,
        0.022436833943908514,
        -0.011707566625504,
        0.017435639502333067,
        0.0,
        0.0,
        0.08391912358858289,
        -0.08702802494530898
      ],
      [
        0.0,
        0.0,
        0.0,
        0.0,
        0.0,
        0.0,
        0.0,
        0.0,
        0.0,
        0.0,
        0.0,
        0.0,
        0.0,
        0.0,
        0.0,
        0.0,
        0.0,
        0.0,
        0.0,
        0.0,
        0.0,
        0.0,
        0.0,
        0.0,
        0.0,
        0.0,
        0.0,
        0.0,
        0.0,
        0.0,
        0.0,
        0.0,
        1.3446692859142435,
        0.0,
        0.0,
        0.0,
        0.0,
        0.0,
        0.0,
        0.0,
        0.0,
        0.0,
        0.0,
        0.0,
        0.0,
        0.0,
        0.0,
        0.0
      ],
      [
        0.0,
        0.0,
        0.0,
        0.0,
        0.0,
        0.0,
        0.0,
        0.0,
        0.0,
        0.0,
        0.0,
        0.0,
        0.0,
        0.0,
        0.0,
        0.0,
        0.0,
        0.0,
        0.0,
        0.0,
        0.0,
        0.0,
        0.0,
        0.0,
        0.0,
        0.0,
        0.0,
        0.0,
        0.0,
        0.0,
        0.0,
        0.0,
        0.0,
        1.3446692859142435,
        0.0,
        0.0,
        0.0,
        0.0,
        0.0,
        0.0,
        0.0,
        0.0,
        0.0,
        0.0,
        0.0,
        0.0,
        0.0,
        0.0
      ],
      [
        0.0004510551870995413,
        0.00022738622594074942,
        -0.0005560404639688043,
        -0.00027857984141967665,
        -0.0012188951244061406,
        0.00033922070652111504,
        0.0005187134651601463,
        0.00026149415983086445,
        -0.0006394465335637979,
        -0.0003203668176337065,
        -0.001401729393073102,
        0.0003901038125004594,
        0.0005863717432290176,
        0.0002956020937199314,
        -0.0007228526031595385,
        -0.0003621537938476262,
        -0.0015845636617396299,
        0.0004409869184798855,
        0.0006540300212752176,
        0.0003297100276174338,
        -0.0008062586727551905,
        -0.00040394077006020347,
        -0.0017673979303908837,
        0.000491870024447525,
        0.02490926539397131,
        0.03187348609889387,
        0.0,
        0.0,
        -0.0193201954575326,
        0.019081626093456622,
        -0.0011168392797318248,
        0.01886734301387224,
        0.0,
        0.0,
        0.13654029812744004,
        -0.019320195457532607,
        0.015419104388091376,
        0.029747411672259763,
        0.0,
        0.0,
        0.032273573146702636,
        -0.057433002810442,
        -0.007304659481369124,
        -0.010036972411886558,
        0.0,
        0.0,
        0.013298064755330612,
        -0.019937660458009376
      ],
      [
        4.645946820097159e-05,
        0.00018194553796053962,
        -0.00013523324893112158,
        -0.000275270216284977,
        -0.000311610034807405,
        0.00011420250307533157,
        5.3428388431422115e-05,
        0.00020923736864347027,
        -0.0001555182362716716,
        -0.00031656074872695263,
        -0.0003583515400231166,
        0.00013133287854014944,
        6.039730866133923e-05,
        0.00023652919934488164,
        -0.00017580322361052662,
        -0.0003578512811692091,
        -0.0004050930452479445,
        0.000148463253998135,
        6.736622889522858e-05,
        0.00026382103003597785,
        -0.0001960882109509435,
        -0.00039914181361167266,
        -0.0004518345504639069,
        0.000165593629464066,
        -0.009924824024188353,
        -0.006386343770384621,
        0.0,
        0.0,
        -0.5889513278429731,
        -0.0378755874191572,
        0.022867858619664165,
        6.112199137534359e-05,
        0.0,
        0.0,
        -0.0193201954575911,
        0.7557179580712703,
        0.032269246698356006,
        -0.002524153113737607,
        0.0,
        0.0,
        0.0035812043823756808,
        -0.04349109760359062,
        -0.03510831565631738,
        0.005792041110582359,
        0.0,
        0.0,
        0.03314417381886873,
        -0.005328496411610287
      ],
      [
        0.00016835090534459985,
        0.0002834597238689111,
        -0.0003045507734660734,
        -0.00014871596729781235,
        -0.0009232011804678659,
        0.00022590531460875486,
        0.00019360354112530278,
        0.00032597868245281864,
        -0.00035023338948620775,
        -0.00017102336239328863,
        -0.0010616813575415613,
        0.0002597911117925393,
        0.00021885617694249968,
        0.0003684976410278197,
        -0.00039591600550636,
        -0.00019333075748675634,
        -0.0012001615346172642,
        0.0002936769089909707,
        0.00024410881276060474,
        0.00041101659960680783,
        -0.0004415986215270208,
        -0.0002156381525819526,
        -0.0013386417116813363,
        0.0003275627061873204,
        -0.11461117338739005,
        0.030649502333259214,
        0.0,
        0.0,
        0.032269246698368066,
        0.07841374614060265,
        0.029994374503557224,
        0.007428555180198617,
        0.0,
        0.0,
        0.015419104388010243,
        0.03226924669836808,
        0.30272557779506354,
        -0.04184226151235918,
        0.0,
        0.0,
        0.013235330507671776,
        0.035798887354834115,
        -0.171412134021625,
        0.033110720570907366,
        0.0,
        0.0,
        0.013180050435909077,
        0.02927257950056378
      ],
      [
        -0.0007618547931192712,
        -0.0008995349929628085,
        0.0015691101896216856,
        0.0012573103123432361,
        0.0020626389912842646,
        -0.0008306948930445761,
        -0.0008761330120884961,
        -0.0010344652419128377,
        0.0018044767180640199,
        0.001445906859196187,
        0.002372034839981084,
        -0.0009552991269919367,
        -0.000990411231056226,
        -0.0011693954908585209,
        0.00203984324650812,
        0.0016345034060472542,
        0.0026814306886810252,
        -0.0010799033609518107,
        -0.001104689450012943,
        -0.0013043257398088935,
        0.0022752097749491754,
        0.0018230999529006153,
        0.0029908265373570727,
        -0.001204507594901045,
        -0.0012844132490716868,
        -0.023546694104788612,
        0.0,
        0.0,
        -0.0025241531137048735,
        -0.10783467643163996,
        -0.002015045225156724,
        -0.07728500995596664,
        0.0,
        0.0,
        0.029747411672322442,
        -0.002524153113704905,
        -0.04184226151238433,
        0.3234769659549765,
        0.0,
        0.0,
        -0.024504084425837937,
        0.011002339224835282,
        0.04053878427999865,
        -0.15930898407929878,
        0.0,
        0.0,
        -0.12423190262004087,
        0.04881666335383216
      ],
      [
        0.0,
        0.0,
        0.0,
        0.0,
        0.0,
        0.0,
        0.0,
        0.0,
        0.0,
        0.0,
        0.0,
        0.0,
        0.0,
        0.0,
        0.0,
        0.0,
        0.0,
        0.0,
        0.0,
        0.0,
        0.0,
        0.0,
        0.0,
        0.0,
        0.0,
        0.0,
        0.0,
        0.0,
        0.0,
        0.0,
        0.0,
        0.0,
        0.0,
        0.0,
        0.0,
        0.0,
        0.0,
        0.0,
        1.3446692859142435,
        0.0,
        0.0,
        0.0,
        0.0,
        0.0,
        0.0,
        0.0,
        0.0,
        0.0
      ],
      [
        0.0,
        0.0,
        0.0,
        0.0,
        0.0,
        0.0,
        0.0,
        0.0,
        0.0,
        0.0,
        0.0,
        0.0,
        0.0,
        0.0,
        0.0,
        0.0,
        0.0,
        0.0,
        0.0,
        0.0,
        0.0,
        0.0,
        0.0,
        0.0,
        0.0,
        0.0,
        0.0,
        0.0,
        0.0,
        0.0,
        0.0,
        0.0,
        0.0,
        0.0,
        0.0,
        0.0,
        0.0,
        0.0,
        0.0,
        1.3446692859142435,
        0.0,
        0.0,
        0.0,
        0.0,
        0.0,
        0.0,
        0.0,
        0.0
      ],
      [
        0.0006785623459654327,
        0.0005193832592518598,
        -0.001011656437831561,
        -0.0008004201767466952,
        -0.0017676297169310292,
        0.0005989728026129849,
        0.0007803466978615614,
        0.0005972907481514906,
        -0.001163404903505757,
        -0.0009204832032597456,
        -0.002032774174478817,
        0.0006888187230059279,
        0.0008821310497642227,
        0.0006751982370335768,
        -0.0013151533691815158,
        -0.0010405462297678055,
        -0.0022979186320161923,
        0.0007786646433840458,
        0.000983915401627716,
        0.0007531057259017029,
        -0.0014669018348559587,
        -0.001160609256282424,
        -0.002563063089551061,
        0.0008685105637970433,
        0.03139764023817239,
        0.06051919457653306,
        0.0,
        0.0,
        0.0035812043824690032,
        0.018660559571183098,
        -0.00599735088946001,
        -0.020017567215446952,
        0.0,
        0.0,
        0.03227357314674833,
        0.003581204382469017,
        0.013235330507716593,
        -0.02450408442591965,
        0.0,
        0.0,
        0.2185614689377338,
        -0.15599574038795733,
        -0.007830604549689283,
        0.05240525355627019,
        0.0,
        0.0,
        -0.02377161028342073,
        -0.004178341104853169
      ],
      [
        -0.00041550082691898556,
        -5.602175458802581e-05,
        0.00036336680475540495,
        0.0001039439842857956,
        0.0008254000236140392,
        -0.00023576129075767891,
        -0.0004778259509309505,
        -6.442501779979975e-05,
        0.00041787182546796747,
        0.00011953558193117434,
        0.0009492100271610341,
        -0.0002711254843711518,
        -0.0005401510749803235,
        -7.282828096996806e-05,
        0.0004723768461831681,
        0.00013512717957191004,
        0.0010730200307109933,
        -0.00030648967798049755,
        -0.0006024761990001175,
        -8.123154414618689e-05,
        0.0005268818668978236,
        0.00015071877721767787,
        0.0011968300342563199,
        -0.00034185387160443704,
        -0.04061274410310361,
        -0.06773977518458091,
        0.0,
        0.0,
        -0.04349109760357066,
        0.061808927709682784,
        0.031884731911288725,
        0.02243683394379725,
        0.0,
        0.0,
        -0.05743300281050206,
        -0.04349109760357064,
        0.03579888735483787,
        0.011002339224860616,
        0.0,
        0.0,
        -0.15599574038809647,
        0.4053399517797619,
        -0.0368461459907332,
        -0.03928733201049784,
        0.0,
        0.0,
        -0.07191800984914977,
        -0.03057039927866339
      ],
      [
        -0.0003274052058004963,
        -0.00024293209436770572,
        -2.118263790219866e-05,
        0.000683998911469686,
        0.0009484613182529671,
        -0.00028516865008634503,
        -0.0003765159866685191,
        -0.00027937190852103243,
        -2.436003358806179e-05,
        0.0007865987481930016,
        0.0010907305159985339,
        -0.0003279439476001381,
        -0.00042562676754247144,
        -0.00031581172266868313,
        -2.7537429276683296e-05,
        0.000889198584913549,
        0.0012329997137238641,
        -0.00037071924512508086,
        -0.00047473754843139,
        -0.0003522515368188813,
        -3.071482495957147e-05,
        0.0009917984216354825,
        0.0013752689114670705,
        -0.00041349454262724276,
        0.029804981304309763,
        -0.044568568618800514,
        0.0,
        0.0,
        -0.03510831565626114,
        -0.10916140972320149,
        -0.04283711526387085,
        -0.01170756662553204,
        0.0,
        0.0,
        -0.007304659481244543,
        -0.03510831565626112,
        -0.1714121340214198,
        0.04053878427993795,
        0.0,
        0.0,
        -0.007830604549687498,
        -0.03684614599058014,
        0.24173882390464752,
        -0.04985115492197176,
        0.0,
        0.0,
        0.008483211834114227,
        -0.028424352419092035
      ],
      [
        0.0006199436250070325,
        0.0005094364766111037,
        -0.0007819853265521923,
        -0.0010671019610197527,
        -0.0016192643371980412,
        0.0005646900508145589,
        0.0007129351687567946,
        0.0005858519481096565,
        -0.000899283125535278,
        -0.0012271672551737586,
        -0.0018621539877831206,
        0.0006493935584284997,
        0.0008059267125084755,
        0.0006622674195825691,
        -0.0010165809245185173,
        -0.0013872325493277029,
        -0.0021050436383642014,
        0.0007340970660544431,
        0.0008989182562558392,
        0.0007386828910854365,
        -0.0011338787235015443,
        -0.0015472978434791474,
        -0.0023479332889500717,
        0.0008188005736648535,
        0.005259749564892536,
        -0.012867238214346462,
        0.0,
        0.0,
        0.005792041110574955,
        0.09003850493251413,
        0.009132688818027628,
        0.01743563950228695,
        0.0,
        0.0,
        -0.010036972411835208,
        0.005792041110574977,
        0.03311072057102282,
        -0.15930898407926303,
        0.0,
        0.0,
        0.052405253556134235,
        -0.03928733201041655,
        -0.04985115492211667,
        0.2085617795995395,
        0.0,
        0.0,
        0.011531535282479882,
        0.03343206374221806
      ],
      [
        0.0,
        0.0,
        0.0,
        0.0,
        0.0,
        0.0,
        0.0,
        0.0,
        0.0,
        0.0,
        0.0,
        0.0,
        0.0,
        0.0,
        0.0,
        0.0,
        0.0,
        0.0,
        0.0,
        0.0,
        0.0,
        0.0,
        0.0,
        0.0,
        0.0,
        0.0,
        0.0,
        0.0,
        0.0,
        0.0,
        0.0,
        0.0,
        0.0,
        0.0,
        0.0,
        0.0,
        0.0,
        0.0,
        0.0,
        0.0,
        0.0,
        0.0,
        0.0,
        0.0,
        1.3446692859142435,
        0.0,
        0.0,
        0.0
      ],
      [
        0.0,
        0.0,
        0.0,
        0.0,
        0.0,
        0.0,
        0.0,
        0.0,
        0.0,
        0.0,
        0.0,
        0.0,
        0.0,
        0.0,
        0.0,
        0.0,
        0.0,
        0.0,
        0.0,
        0.0,
        0.0,
        0.0,
        0.0,
        0.0,
        0.0,
        0.0,
        0.0,
        0.0,
        0.0,
        0.0,
        0.0,
        0.0,
        0.0,
        0.0,
        0.0,
        0.0,
        0.0,
        0.0,
        0.0,
        0.0,
        0.0,
        0.0,
        0.0,
        0.0,
        0.0,
        1.3446692859142435,
        0.0,
        0.0
      ],
      [
        0.0006950076379637367,
        0.0007229703567071058,
        -0.0015542321629622802,
        -0.001004593671533937,
        -0.0017002792656943177,
        0.0007089889973559334,
        0.0007992587836590621,
        0.0008314159102510979,
        -0.0017873669874055968,
        -0.0011552827222646742,
        -0.0019553211555686195,
        0.000815337346938795,
        0.0009035099293425986,
        0.0009398614637579595,
        -0.0020205018118544887,
        -0.0013059717729932607,
        -0.002210363045414484,
        0.0009216856965405041,
        0.0010077610750062664,
        0.0010483070172745892,
        -0.002253636636295995,
        -0.001456660823721828,
        -0.002465404935260933,
        0.001028034046124337,
        0.0033691812231168,
        -0.014784821141557145,
        0.0,
        0.0,
        0.03314417381905273,
        -0.06498783363024871,
        -0.031414088332757585,
        0.08391912358837711,
        0.0,
        0.0,
        0.013298064755343144,
        0.033144173819052776,
        0.013180050436133921,
        -0.12423190261994366,
        0.0,
        0.0,
        -0.023771610283418215,
        -0.07191800984914716,
        0.008483211833937696,
        0.011531535282459402,
        0.0,
        0.0,
        0.2651098020888517,
        -0.10987266804073073
      ],
      [
        -0.00017397869036163175,
        -0.00024737085010343216,
        0.00038745307664041955,
        0.0004916242299668293,
        0.00034752712389990323,
        -0.00021067477025529569,
        -0.00020007549391358215,
        -0.0002844764776428653,
        0.0004455710381366405,
        0.0005653678644612037,
        0.00039965619250857806,
        -0.0002422759857575274,
        -0.00022617229746761344,
        -0.00032158210517287925,
        0.0005036889996329644,
        0.0006391114989576048,
        0.00045178526107046474,
        -0.00027387720129855964,
        -0.0002522691010246842,
        -0.0003586877326967551,
        0.0005618069611280278,
        0.0007128551334495147,
        0.0005039143296488058,
        -0.00030547841684083673,
        -0.025806081180971125,
        0.05311751669904246,
        0.0,
        0.0,
        -0.005328496411710563,
        0.05852962908762856,
        0.009386990539418468,
        -0.0870280249449898,
        0.0,
        0.0,
        -0.01993766045797152,
        -0.005328496411710585,
        0.02927257950045615,
        0.04881666335376653,
        0.0,
        0.0,
        -0.0041783411046874205,
        -0.030570399278878214,
        -0.028424352418997472,
        0.033432063742175895,
        0.0,
        0.0,
        -0.10987266804079766,
        0.19356836217543744
      ]
    ],
    "alpha": 1.0,
    "forgetting_factor": 0.999,
    "weight_clip": 10.0
  }
}