{
  "metadata": {
    "series_name": "resume_test",
    "epochs": 4,
    "history": []
  },
  "encoder": {
    "amplitude": 10.0,
    "delta_scale": 1.4,
    "quadratic_scale": 0.7,
    "magnitude_scale": 0.5,
    "band_growth": 0.15
  },
  "reservoir": {
    "n_neurons": 24,
    "dt": 1.0,
    "max_weight": 2.0,
    "max_delay_limit": 50,
    "readout_decay": 0.92,
    "synapses": [
      {
        "6": 0.0,
        "14": -0.0012677372401584674,
        "17": 0.0
      },
      {
        "14": 2.0
      },
      {
        "11": 2.0
      },
      {
        "14": 2.0,
        "19": 2.0
      },
      {
        "2": 2.0,
        "18": 2.0
      },
      {
        "7": 0.0,
        "20": -8.556988273083417e-06
      },
      {
        "2": 2.0,
        "10": 2.0,
        "12": 2.0,
        "14": 2.0,
        "19": 2.0
      },
      {
        "2": 2.0,
        "8": 2.0,
        "9": 2.0,
        "10": 2.0,
        "11": 2.0,
        "15": 2.0,
        "23": 2.0
      },
      {
        "3": 2.0,
        "19": 2.0
      },
      {
        "2": 2.0,
        "10": 2.0,
        "14": 2.0,
        "16": 2.0,
        "23": 2.0
      },
      {
        "11": -0.00818535874525095,
        "14": -0.009300677336031482,
        "17": 0.0
      },
      {
        "22": 2.0
      },
      {
        "18": 2.0
      },
      {
        "1": 2.0,
        "5": 2.0,
        "16": 2.0
      },
      {
        "1": 2.0,
        "16": 2.0,
        "18": 2.0
      },
      {
        "1": -6.942925109947868e-06,
        "11": -6.4688143571413665e-06,
        "14": -4.611568285459269e-06
      },
      {
        "4": 2.0,
        "11": 2.0,
        "21": 2.0
      },
      {
        "5": 2.0,
        "21": 2.0
      },
      {
        "13": 2.0,
        "21": 2.0
      },
      {
        "6": 2.0,
        "9": 2.0,
        "16": 2.0,
        "23": 2.0
      },
      {
        "5": -6.89018124705655e-06,
        "7": -1.1407639519166396e-05
      },
      {},
      {
        "2": 2.0,
        "12": 2.0,
        "14": 2.0
      },
      {
        "2": 2.0,
        "7": 2.0,
        "14": 2.0,
        "21": 2.0
      }
    ],
    "is_inhibitory": [
      true,
      false,
      false,
      false,
      false,
      true,
      false,
      false,
      false,
      false,
      true,
      false,
      false,
      false,
      false,
      true,
      false,
      false,
      false,
      false,
      true,
      false,
      false,
      false
    ]
  },
  "force_readout": {
    "weights": [
      [
        0.0010075666745666889,
        -0.0014368420910695907,
        0.012932812940185806,
        -0.011230018322053904,
        0.0004488568459502302,
        -0.00021463770825054258,
        0.0011587016757721616,
        -0.0016523684047401767,
        0.01487273488121165,
        -0.012914521070365196,
        0.000516185372853989,
        -0.00024683336449592825,
        0.0013098366769270086,
        -0.0018678947184005798,
        0.016812656822239938,
        -0.014599023818673333,
        0.0005835138997408824,
        -0.00027902902071896325,
        0.001460971678108467,
        -0.0020834210320569454,
        0.018752578763266494,
        -0.016283526566981496,
        0.0006508424266369645,
        -0.0003112246769908699,
        -0.006483752341738627,
        0.006074646289849358,
        -0.010534380913258638,
        0.0,
        -0.0012438302663970212,
        -0.005196021329461541,
        -0.007588463340090052,
        0.0033294962200580507,
        0.0,
        0.0,
        0.0018448355967167153,
        -0.0012438302663970383,
        -0.005472175898367463,
        0.005575521448292528,
        -0.02654538298626534,
        0.0,
        0.0031482381257820534,
        -0.012108235933465055,
        -0.005081617606927409,
        0.007737878182201307,
        0.0,
        0.0,
        0.002144785511113709,
        -0.009677558284014932
      ]
    ],
    "bias": [
      0.005690968042335414
    ],
    "inverse_correlation": [
      [
        1.161457285486683,
        0.03668386092864052,
        -7.835881033328246e-05,
        -7.206510476402505e-05,
        -8.158851339838085e-05,
        -0.07326406974945966,
        -0.21069380049169376,
        0.04218644006793662,
        -9.011263188321922e-05,
        -8.287487047860793e-05,
        -9.382679040805732e-05,
        -0.08425368021187854,
        -0.2381756005558276,
        0.047689019207232834,
        -0.00010186645343328447,
        -9.36846361931714e-05,
        -0.00010606506741798829,
        -0.09524329067429736,
        -0.26565740061996174,
        0.053191598346528896,
        -0.00011362027498320399,
        -0.00010449440190780392,
        -0.00011830334442766981,
        -0.10623290113671653,
        0.0004961227214211816,
        0.0003301704698934802,
        -0.0004919921603243629,
        0.0,
        6.450439333986506e-05,
        0.0007069869874505605,
        -0.0005724903940793815,
        0.0001937969642433459,
        0.0,
        0.0,
        0.0005147162705419227,
        6.450439333986528e-05,
        0.0001421353022376444,
        -0.0005814011872611235,
        0.0005466269753417781,
        0.0,
        0.0007221512488820577,
        -0.00047504447630105956,
        -0.000231788733808015,
        0.0003593571295169851,
        0.0,
        0.0,
        0.0008753452443992438,
        -0.0003010732311061012
      ],
      [
        0.03668386092864054,
        1.1614579201492705,
        -7.889265514925409e-05,
        -7.233195118718762e-05,
        -8.176946998593562e-05,
        -0.07326375241816617,
        0.04218644006793673,
        -0.21069307062971956,
        -9.072655342158328e-05,
        -8.318174386524154e-05,
        -9.403489048374233e-05,
        -0.08425331528089118,
        0.047689019207232966,
        -0.2381747754944656,
        -0.00010256045169403959,
        -9.403153654327469e-05,
        -0.00010630031098189481,
        -0.09524287814361646,
        0.05319159834652888,
        -0.26565648035921136,
        -0.00011439434996636249,
        -0.00010488132922137801,
        -0.00011856573147959846,
        -0.10623244100634092,
        0.0006216933084582962,
        0.00019410453891885348,
        -0.0006639997746330225,
        0.0,
        0.00022138939007683425,
        0.0006749070873659163,
        -0.00036993956438867806,
        2.8931000217388707e-05,
        0.0,
        0.0,
        0.000276283985700553,
        0.000221389390076835,
        0.00025712486250159305,
        -0.0007639962907077438,
        0.000498902618953705,
        0.0,
        0.0005279432345820644,
        -4.795263354236346e-05,
        -0.00018534831081823077,
        0.00023561123395875901,
        0.0,
        0.0,
        0.000888838421901436,
        -0.00040520570076880107
      ],
      [
        -7.835881033317666e-05,
        -7.88926551492161e-05,
        1.1249681200774277,
        0.00016686298592638571,
        0.00018047569056507827,
        -7.862573274128575e-05,
        -9.011263188344442e-05,
        -9.072655342195842e-05,
        -0.25265634071233506,
        0.00019189243381530137,
        0.00020754704414941287,
        -9.041959265275122e-05,
        -0.00010186645343351229,
        -0.0001025604516945257,
        -0.28561151558785713,
        0.00021692188170417505,
        0.00023461839773466828,
        -0.00010221345256393421,
        -0.00011362027498379874,
        -0.00011439434996665998,
        -0.3185666904633797,
        0.00024195132959320244,
        0.0002616897513193203,
        -0.00011400731247557179,
        -0.0009488576894941411,
        -0.0004459011863832015,
        0.0009629296850584583,
        0.0,
        -2.1980761129749216e-05,
        -0.001289354327467669,
        0.0010765575780926767,
        -0.00018557520762494317,
        0.0,
        0.0,
        -0.0007918575543470946,
        -2.1980761129752367e-05,
        -0.0004202607759852437,
        0.0014264692005624504,
        -0.001754902106260605,
        0.0,
        -0.001226481284890515,
        0.000490555772774921,
        -8.206069528391766e-05,
        -0.0005468314390917239,
        0.0,
        0.0,
        -0.0018378798627112346,
        0.00048553145646252125
      ],
      [
        -7.206510476393948e-05,
        -7.23319511871618e-05,
        0.00016686298592637655,
        1.1249369566030665,
        0.00016384473968339959,
        -7.219852797565963e-05,
        -8.28748704791819e-05,
        -8.318174386561556e-05,
        0.00019189243381521987,
        -0.2526921787078509,
        0.0001884214506359643,
        -8.302830717246825e-05,
        -9.368463619365072e-05,
        -9.403153654367747e-05,
        0.0002169218817043288,
        -0.2856520281045265,
        0.0002129981615886837,
        -9.385808636856322e-05,
        -0.00010449440190893518,
        -0.00010488132922154314,
        0.0002419513295931616,
        -0.3186118775012032,
        0.0002375748725410383,
        -0.00010468786556579168,
        -0.00088013255368417,
        -0.0005284801753906578,
        0.0012349047168188712,
        0.0,
        -0.000298953650923471,
        -0.0012299768943984269,
        0.0006800551302984627,
        -0.00011086072809744404,
        0.0,
        0.0,
        -0.00040779075517409583,
        -0.0002989536509234724,
        -0.00014802523072130727,
        0.0010494447126393937,
        -0.0012056284953981939,
        0.0,
        -0.0008635117536191289,
        0.00011598399636323954,
        0.0005986992923489883,
        -0.0006427009783711821,
        0.0,
        0.0,
        -0.0012926726656869508,
        0.0007189246868827808
      ],
      [
        -8.158851339838082e-05,
        -8.176946998598678e-05,
        0.00018047569056511424,
        0.00016384473968339782,
        1.1249671503455148,
        -8.16789916923445e-05,
        -9.382679040856344e-05,
        -9.40348904839444e-05,
        0.00020754704414975388,
        0.00018842145063586264,
        -0.2526574559040388,
        -9.393084044633491e-05,
        -0.00010606506741870255,
        -0.00010630031098206583,
        0.0002346183977346909,
        0.00021299816158826054,
        -0.2856127762393485,
        -0.00010618268919978926,
        -0.00011830334442784605,
        -0.00011856573147977126,
        0.00026168975131931883,
        0.0002375748725408319,
        -0.31856809657465784,
        -0.00011843453795435275,
        -0.0014968301454651076,
        -0.0008303467595865805,
        0.001214233621789128,
        0.0,
        -0.00040866549400297503,
        -0.0019026816132849626,
        0.0008977505400516052,
        -0.0004907616779737035,
        0.0,
        0.0,
        -0.001341821518731906,
        -0.0004086654940029795,
        -0.0007935834589483624,
        0.0014997117008836577,
        -0.001155657126889046,
        0.0,
        -0.0018464606643844674,
        0.0009983319076809244,
        0.0006429096284441034,
        -0.0008399401409998448,
        0.0,
        0.0,
        -0.002202727731492569,
        0.0007272465081325767
      ],
      [
        -0.07326406974945973,
        -0.07326375241816624,
        -7.862573274154744e-05,
        -7.219852797580838e-05,
        -8.167899169243184e-05,
        1.2714053748304286,
        -0.08425368021187811,
        -0.084253315280891,
        -9.041959265272135e-05,
        -8.302830717215752e-05,
        -9.393084044622236e-05,
        -0.08425349774638476,
        -0.09524329067429713,
        -0.09524287814361622,
        -0.00010221345256402067,
        -9.385808636848427e-05,
        -0.0001061826892002969,
        -0.09524308440895692,
        -0.10623290113671631,
        -0.10623244100634112,
        -0.00011400731247518956,
        -0.0001046878655648849,
        -0.00011843453795403537,
        -0.10623267107152852,
        0.0005589080149433365,
        0.00026213750438948196,
        -0.000577995967482345,
        0.0,
        0.00014294689170825668,
        0.0006909470374138318,
        -0.000471214979236599,
        0.00011136398223952975,
        0.0,
        0.0,
        0.0003955001281266804,
        0.00014294689170825576,
        0.00019963008237500966,
        -0.0006726987389857851,
        0.0005227647971406589,
        0.0,
        0.0006250472417373502,
        -0.00026149855492729106,
        -0.00020856852231267926,
        0.0002974841817435611,
        0.0,
        0.0,
        0.0008820918331656559,
        -0.0003531394659459339
      ],
      [
        -0.21069380049169367,
        0.042186440067936704,
        -9.011263188338902e-05,
        -8.28748704791907e-05,
        -9.382679040856624e-05,
        -0.08425368021187829,
        1.1023714153487933,
        0.04851440607812737,
        -0.00010362952666582691,
        -9.530610105104675e-05,
        -0.00010790080896978376,
        -0.09689173224366014,
        -0.2739019406392021,
        0.05484237208831803,
        -0.00011714642144843823,
        -0.0001077373316228765,
        -0.00012197482753124024,
        -0.10952978427544184,
        -0.30550601071295547,
        0.06117033809850835,
        -0.00013066331623090018,
        -0.00012016856219479158,
        -0.00013604884609247342,
        -0.12216783630722362,
        0.0005705411296384967,
        0.0003796960403917036,
        -0.0005657909843767426,
        0.0,
        7.418005234869951e-05,
        0.000813035035565584,
        -0.0006583639531879098,
        0.00022286650888250417,
        0.0,
        0.0,
        0.0005919237111281039,
        7.418005234869914e-05,
        0.00016345559756482871,
        -0.0006686113653500559,
        0.0006286210216410055,
        0.0,
        0.0008304739362211451,
        -0.0005463011477172635,
        -0.0002665570438551203,
        0.0004132606989538361,
        0.0,
        0.0,
        0.0010066470310752258,
        -0.000346234215770178
      ],
      [
        0.042186440067936655,
        -0.21069307062971962,
        -9.07265534218844e-05,
        -8.318174386558098e-05,
        -9.403489048388463e-05,
        -0.08425331528089126,
        0.04851440607812731,
        1.1023722546900676,
        -0.00010433553643509685,
        -9.565900544539064e-05,
        -0.00010814012405636963,
        -0.09689131257302476,
        0.054842372088317985,
        -0.2739009918186354,
        -0.00011794451944845825,
        -0.00010813626702517652,
        -0.00012224535762925563,
        -0.10952930986515873,
        0.06117033809850825,
        -0.30550495241309317,
        -0.00013155350246166366,
        -0.00012061352860504228,
        -0.00013635059120162366,
        -0.12216730715729213,
        0.0007149473047178709,
        0.0002232202197320327,
        -0.000763599740871218,
        0.0,
        0.0002545977985812618,
        0.0007761431504829589,
        -0.00042543049904338195,
        3.3270650261200265e-05,
        0.0,
        0.0,
        0.00031772658356543046,
        0.000254597798581262,
        0.00029569359188055664,
        -0.000878595734324016,
        0.0005737380117657414,
        0.0,
        0.0006071347197770191,
        -5.514552859544218e-05,
        -0.00021315055744864847,
        0.0002709529190494043,
        0.0,
        0.0,
        0.0010221641852207477,
        -0.0004659865559075228
      ],
      [
        -9.011263188310307e-05,
        -9.072655342154615e-05,
        -0.2526563407123353,
        0.00019189243381525104,
        0.00020754704414973406,
        -9.041959265242593e-05,
        -0.00010362952666589992,
        -0.00010433553643519151,
        1.054114494095057,
        0.0002206762988874949,
        0.00023867910077175712,
        -0.00010398253155060542,
        -0.00011714642144849103,
        -0.00011794451944863539,
        -0.3284532429260357,
        0.0002494601639596904,
        0.00026981115739472384,
        -0.00011754547044847302,
        -0.0001306633162313275,
        -0.0001315535024615824,
        -0.3663516940328865,
        0.0002782440290320619,
        0.0003009432140170788,
        -0.00013110840934686067,
        -0.0010911863429164564,
        -0.0005127863643415102,
        0.0011073691378108313,
        0.0,
        -2.527787529914099e-05,
        -0.0014827574765878889,
        0.001238041214806302,
        -0.00021341148877042777,
        0.0,
        0.0,
        -0.0009106361875000621,
        -2.5277875299140967e-05,
        -0.00048329989238447244,
        0.0016404395806456826,
        -0.0020181374222037213,
        0.0,
        -0.0014104534776252621,
        0.0005641391386941268,
        -9.436979957809333e-05,
        -0.0006288561549563585,
        0.0,
        0.0,
        -0.0021135618421179807,
        0.0005583611749312771
      ],
      [
        -8.28748704785205e-05,
        -8.318174386522381e-05,
        0.0001918924338153174,
        -0.25269217870785093,
        0.00018842145063589669,
        -8.302830717199786e-05,
        -9.530610105104981e-05,
        -9.565900544544356e-05,
        0.00022067629888748583,
        1.0540732804002153,
        0.000216684668231344,
        -9.548255324832625e-05,
        -0.00010773733162268645,
        -0.0001081362670252153,
        0.0002494601639599624,
        -0.32849983232020613,
        0.00024494788582696487,
        -0.00010793679932383368,
        -0.00012016856219526212,
        -0.00012061352860475837,
        0.00027824402903211956,
        -0.3664036591263834,
        0.00027321110342217163,
        -0.0001203910454006449,
        -0.0010121524367364759,
        -0.0006077522016956056,
        0.0014201404243387617,
        0.0,
        -0.000343796698561532,
        -0.0014144734285590048,
        0.0007820633998434218,
        -0.00012748983731341497,
        0.0,
        0.0,
        -0.0004689593684504971,
        -0.0003437966985615314,
        -0.00017022901533015892,
        0.0012068614195345736,
        -0.0013864727697078928,
        0.0,
        -0.0009930385166634764,
        0.00013338159581944325,
        0.0006885041862008067,
        -0.0007391061251282491,
        0.0,
        0.0,
        -0.0014865735655413604,
        0.000826763389914695
      ],
      [
        -9.382679040805534e-05,
        -9.403489048374305e-05,
        0.00020754704414948012,
        0.00018842145063600996,
        -0.2526574559040393,
        -9.393084044608538e-05,
        -0.00010790080896977193,
        -0.0001081401240563733,
        0.00023867910077181979,
        0.0002166846682313601,
        1.0541132116245953,
        -0.00010802046651316965,
        -0.00012197482753140651,
        -0.00012224535762919144,
        0.0002698111573944079,
        0.0002449478858266327,
        -0.3284546926752499,
        -0.00012211009257961683,
        -0.00013604884609193628,
        -0.0001363505912015315,
        0.0003009432140166618,
        0.0002732111034221041,
        -0.36635331106085606,
        -0.00013619971864735253,
        -0.0017213546672907492,
        -0.0009548987735219712,
        0.0013963686651015917,
        0.0,
        -0.0004699653181007724,
        -0.002188083855275937,
        0.0010324131210567896,
        -0.0005643759296741485,
        0.0,
        0.0,
        -0.0015430947465443446,
        -0.00046996531810077015,
        -0.0009126209777883242,
        0.0017246684560274588,
        -0.001329005695916143,
        0.0,
        -0.0021234297640282747,
        0.0011480816938119857,
        0.0007393460727116596,
        -0.0009659311621572608,
        0.0,
        0.0,
        -0.00253313689122421,
        0.0008363334843587716
      ],
      [
        -0.08425368021187865,
        -0.08425331528089115,
        -9.041959265284596e-05,
        -8.302830717254531e-05,
        -9.393084044641162e-05,
        -0.08425349774638471,
        -0.09689173224366003,
        -0.09689131257302479,
        -0.00010398253155070594,
        -9.548255324840173e-05,
        -0.00010802046651329619,
        1.2477777635059,
        -0.10952978427544169,
        -0.10952930986515838,
        -0.00011754547044871915,
        -0.00010793679932423394,
        -0.00012211009258049024,
        -0.10952954707030003,
        -0.12216783630722351,
        -0.12216730715729227,
        -0.00013110840934657547,
        -0.00012039104540014878,
        -0.00013619971864732352,
        -0.12216757173225783,
        0.0006427442171818564,
        0.0003014581300470573,
        -0.0006646953626254691,
        0.0,
        0.00016438892546374672,
        0.0007945890930232272,
        -0.000541897226117123,
        0.00012806857958685635,
        0.0,
        0.0,
        0.0004548251473492365,
        0.0001643889254637469,
        0.00022957459472151565,
        -0.0007736035498301267,
        0.0006011795167038852,
        0.0,
        0.0007188043280051384,
        -0.00030072333816396696,
        -0.00023985380064789504,
        0.00034210680900041674,
        0.0,
        0.0,
        0.0010144056081376892,
        -0.00040611038582604006
      ],
      [
        -0.23817560055582765,
        0.04768901920723291,
        -0.00010186645343346408,
        -9.368463619358744e-05,
        -0.00010606506741851976,
        -0.0952432906742973,
        -0.27390194063920187,
        0.054842372088317964,
        -0.00011714642144842857,
        -0.00010773733162259797,
        -0.0001219748275312272,
        -0.10952978427544183,
        1.035041005191668,
        0.061995724969403115,
        -0.00013242638946352387,
        -0.00012179002705158223,
        -0.00013788458764421363,
        -0.1238162778765865,
        -0.34535462080594986,
        0.06914907785048789,
        -0.00014770635747848426,
        -0.00013584272248066024,
        -0.0001537943477569347,
        -0.13810277147773117,
        0.0006449595378530702,
        0.0004292216108647977,
        -0.0006395898084313398,
        0.0,
        8.385571134738879e-05,
        0.000919083083688864,
        -0.0007442375122875956,
        0.00025193605352339185,
        0.0,
        0.0,
        0.0006691311517092374,
        8.385571134738756e-05,
        0.00018477589290468084,
        -0.0007558215434410495,
        0.0007106150679415731,
        0.0,
        0.00093879662355987,
        -0.0006175578191806763,
        -0.0003013253539287124,
        0.0004671642683718477,
        0.0,
        0.0,
        0.0011379488177321276,
        -0.0003913952004409256
      ],
      [
        0.04768901920723288,
        -0.23817477549446547,
        -0.0001025604516946665,
        -9.403153654385224e-05,
        -0.00010630031098220671,
        -0.09524287814361611,
        0.05484237208831809,
        -0.27390099181863525,
        -0.00011794451944879158,
        -0.00010813626702539752,
        -0.00012224535762942704,
        -0.10952930986515824,
        0.061995724969403226,
        1.0350420777714389,
        -0.00013332858720307807,
        -0.0001222409975069155,
        -0.00013819040427710127,
        -0.12381574158670101,
        0.0691490778504879,
        -0.34535342446697453,
        -0.00014871265495719474,
        -0.00013634572798852987,
        -0.00015413545092419063,
        -0.13810217330824295,
        0.0008082013009953284,
        0.0002523359005668829,
        -0.0008631997070544501,
        0.0,
        0.0002878062070961088,
        0.0008773792135822342,
        -0.00048092143370688116,
        3.761030030620977e-05,
        0.0,
        0.0,
        0.0003591691814191462,
        0.0002878062070961097,
        0.0003342623212535388,
        -0.000993195177918691,
        0.0006485734046201672,
        0.0,
        0.0006863262049653001,
        -6.233842361677782e-05,
        -0.00024095280406327446,
        0.00030629460413500985,
        0.0,
        0.0,
        0.0011554899484941062,
        -0.0005267674110145051
      ],
      [
        -0.00010186645343313531,
        -0.00010256045169399513,
        -0.2856115155878569,
        0.0002169218817043599,
        0.0002346183977346514,
        -0.00010221345256368555,
        -0.00011714642144852535,
        -0.00011794451944856394,
        -0.3284532429260358,
        0.00024946016395996297,
        0.0002698111573943064,
        -0.00011754547044860062,
        -0.00013242638946360042,
        -0.00013332858720290042,
        0.9733743156500277,
        0.0002819984462155081,
        0.0003050039170551237,
        -0.00013287748833313694,
        -0.00014770635747896375,
        -0.00014871265495667956,
        -0.414136697602393,
        0.000314536728471249,
        0.0003401966767151732,
        -0.0001482095062182728,
        -0.0012335149963429006,
        -0.0005796715422990646,
        0.0012518085905700916,
        0.0,
        -2.8574989467406387e-05,
        -0.0016761606257068465,
        0.0013995248515206798,
        -0.00024124776991367181,
        0.0,
        0.0,
        -0.0010294148206522243,
        -2.8574989467407973e-05,
        -0.00054633900878192,
        0.001854409960731905,
        -0.0022813727381444026,
        0.0,
        -0.0015944256703592113,
        0.0006377225046101725,
        -0.0001066789038722365,
        -0.0007108808708208151,
        0.0,
        0.0,
        -0.0023892438215275045,
        0.0006311908934013309
      ],
      [
        -9.368463619306158e-05,
        -9.403153654324073e-05,
        0.00021692188170416505,
        -0.28565202810452633,
        0.00021299816158827645,
        -9.385808636829473e-05,
        -0.00010773733162287241,
        -0.00010813626702522251,
        0.00024946016395964633,
        -0.32849983232020613,
        0.0002449478858265866,
        -0.00010793679932413559,
        -0.00012179002705166883,
        -0.00012224099750669318,
        0.00028199844621547044,
        0.9733216493783586,
        0.0002768976100650997,
        -0.0001220155122790499,
        -0.00013584272248152676,
        -0.00013634572798790396,
        0.00031453672847093323,
        -0.4141954407515642,
        0.0003088473343031368,
        -0.00013609422523543243,
        -0.0011441723197875991,
        -0.0006870242280042264,
        0.001605376131859377,
        0.0,
        -0.00038863974619874036,
        -0.001598969962718398,
        0.0008840716693876378,
        -0.0001441189465279686,
        0.0,
        0.0,
        -0.0005301279817281931,
        -0.0003886397461987354,
        -0.0001924327999379255,
        0.0013642781264307593,
        -0.0015673170440173943,
        0.0,
        -0.0011225652797044485,
        0.00015077919527404767,
        0.0007783090800535682,
        -0.0008355112718865796,
        0.0,
        0.0,
        -0.0016804744653928783,
        0.0009346020929470988
      ],
      [
        -0.0001060650674179293,
        -0.00010630031098189056,
        0.00023461839773458818,
        0.00021299816158868023,
        -0.28561277623934894,
        -0.00010618268920012151,
        -0.00012197482753117566,
        -0.0001222453576292507,
        0.00026981115739461395,
        0.0002449478858269237,
        -0.32845469267524996,
        -0.00012211009258032221,
        -0.00013788458764437062,
        -0.00013819040427682548,
        0.00030500391705500873,
        0.0002768976100650815,
        0.9733726768030908,
        -0.0001380374959598183,
        -0.00015379434775627854,
        -0.00015413545092385692,
        0.00034019667671500735,
        0.0003088473343034692,
        -0.4141385255470546,
        -0.0001539648993407689,
        -0.0019458791891190325,
        -0.001079450787460597,
        0.0015785037083628222,
        0.0,
        -0.0005312651422084651,
        -0.002473486097272239,
        0.0011670757020613277,
        -0.0006379901813702246,
        0.0,
        0.0,
        -0.0017443679743647145,
        -0.0005312651422084646,
        -0.001031658496642898,
        0.001949625211162375,
        -0.0015023542649489328,
        0.0,
        -0.0024003988636908695,
        0.0012978314799761699,
        0.0008357825169763406,
        -0.0010919221833016162,
        0.0,
        0.0,
        -0.0028635460509545524,
        0.0009454204605692687
      ],
      [
        -0.09524329067429743,
        -0.09524287814361632,
        -0.00010221345256395595,
        -9.385808636856125e-05,
        -0.00010618268919976598,
        -0.09524308440895682,
        -0.10952978427544198,
        -0.1095293098651586,
        -0.00011754547044849415,
        -0.00010793679932381583,
        -0.0001221100925796322,
        -0.10952954707030016,
        -0.1238162778765863,
        -0.1238157415867013,
        -0.00013287748833316446,
        -0.00012201551227904442,
        -0.00013803749595988086,
        1.2208532761825972,
        -0.13810277147773115,
        -0.13810217330824362,
        -0.0001482095062176727,
        -0.0001360942252343668,
        -0.00015396489933969782,
        -0.1381024723929873,
        0.0007265804194073348,
        0.0003407787557119547,
        -0.0007513947577027226,
        0.0,
        0.00018583095921120537,
        0.0008982311486412892,
        -0.0006125794730010214,
        0.0001447731769298542,
        0.0,
        0.0,
        0.0005141501665727115,
        0.00018583095921120385,
        0.00025951910708327936,
        -0.000874508360667274,
        0.0006795942362920733,
        0.0,
        0.0008125614142612595,
        -0.000339948121421383,
        -0.0002711390790018053,
        0.00038672943626515415,
        0.0,
        0.0,
        0.0011467193831008616,
        -0.00045908130570649426
      ],
      [
        -0.26565740061996174,
        0.05319159834652895,
        -0.00011362027498376895,
        -0.00010449440190900435,
        -0.00011830334442796169,
        -0.10623290113671617,
        -0.3055060107129557,
        0.06117033809850836,
        -0.0001306633162312649,
        -0.00012016856219532608,
        -0.0001360488460920958,
        -0.12216783630722364,
        -0.34535462080594953,
        0.06914907785048785,
        -0.00014770635747891694,
        -0.00013584272248161775,
        -0.00015379434775651248,
        -0.1381027714777311,
        0.9594660550152985,
        0.07712781760246704,
        -0.0001647493987263969,
        -0.00015151688276801134,
        -0.00017153984942064757,
        -0.1540377066482383,
        0.0007193779460702322,
        0.0004787471813495926,
        -0.0007133886324776204,
        0.0,
        9.35313703540913e-05,
        0.0010251311318052786,
        -0.0008301110714271884,
        0.0002810055981508457,
        0.0,
        0.0,
        0.0007463385922765143,
        9.353137035409266e-05,
        0.0002060961882621845,
        -0.0008430317215147618,
        0.0007926091142517097,
        0.0,
        0.001047119310869239,
        -0.0006888144906143939,
        -0.0003360936640087873,
        0.0005210678378019682,
        0.0,
        0.0,
        0.0012692506043591257,
        -0.00043655618510899443
      ],
      [
        0.053191598346528944,
        -0.26565648035921147,
        -0.00011439434996667966,
        -0.00010488132922156876,
        -0.00011856573147973915,
        -0.1062324410063411,
        0.061170338098508366,
        -0.30550495241309333,
        -0.00013155350246159741,
        -0.00012061352860477065,
        -0.0001363505912015785,
        -0.12216730715729232,
        0.06914907785048793,
        -0.3453534244669743,
        -0.00014871265495669842,
        -0.00013634572798793869,
        -0.0001541354509239193,
        -0.13810217330824376,
        0.07712781760246695,
        0.9594673893933872,
        -0.00016587180745160376,
        -0.00015207792737121227,
        -0.00017192031064561003,
        -0.15403703945919464,
        0.0009014552972639958,
        0.0002814515814070776,
        -0.0009627996732813215,
        0.0,
        0.0003210146156083032,
        0.0009786152766792307,
        -0.0005364123683649942,
        4.194995034638996e-05,
        0.0,
        0.0,
        0.0004006117792779237,
        0.00032101461560830224,
        0.00037283105062579014,
        -0.0011077946215405216,
        0.0007234087974515629,
        0.0,
        0.000765517690126184,
        -6.953131863040813e-05,
        -0.0002687550506848808,
        0.00034163628923610667,
        0.0,
        0.0,
        0.0012888157117842249,
        -0.0005875482661411356
      ],
      [
        -0.00011362027498308119,
        -0.0001143943499663254,
        -0.31856669046337965,
        0.0002419513295932325,
        0.0002616897513193096,
        -0.00011400731247483674,
        -0.00013066331623099134,
        -0.00013155350246179856,
        -0.3663516940328866,
        0.00027824402903215654,
        0.000300943214016631,
        -0.00013110840934646203,
        -0.00014770635747856804,
        -0.00014871265495701073,
        -0.4141366976023928,
        0.00031453672847101916,
        0.0003401966767151657,
        -0.0001482095062176661,
        -0.00016474939872649621,
        -0.000165871807451605,
        0.8827475847423432,
        0.0003508294279101066,
        0.0003794501394129275,
        -0.00016531060308954304,
        -0.001375843649764698,
        -0.0006465567202569902,
        0.0013962480433250886,
        0.0,
        -3.187210363680735e-05,
        -0.0018695637748280863,
        0.0015610084882341916,
        -0.0002690840510586172,
        0.0,
        0.0,
        -0.0011481934538051808,
        -3.187210363680234e-05,
        -0.0006093781251806289,
        0.00206838034081418,
        -0.002544608054086308,
        0.0,
        -0.0017783978630932847,
        0.0007113058705272327,
        -0.00011898800816377615,
        -0.0007929055866842974,
        0.0,
        0.0,
        -0.0026649258009319617,
        0.000704020611869899
      ],
      [
        -0.00010449440190768907,
        -0.00010488132922134839,
        0.00024195132959320322,
        -0.3186118775012032,
        0.00023757487254086454,
        -0.00010468786556467706,
        -0.00012016856219479101,
        -0.00012061352860510108,
        0.00027824402903202584,
        -0.3664036591263835,
        0.00027321110342206305,
        -0.0001203910454000427,
        -0.0001358427224807624,
        -0.00013634572798828796,
        0.00031453672847122857,
        -0.4141954407515641,
        0.0003088473343035005,
        -0.00013609422523437712,
        -0.0001515168827679213,
        -0.0001520779273711866,
        0.00035082942791003367,
        0.8826820635374989,
        0.00034448356518440674,
        -0.00015179740507035355,
        -0.0012761922028405753,
        -0.0007662962543158577,
        0.0017906118393832106,
        0.0,
        -0.0004334827938374331,
        -0.0017834664968781476,
        0.000986079938932794,
        -0.0001607480557415515,
        0.0,
        0.0,
        -0.0005912965950047932,
        -0.0004334827938374336,
        -0.00021463658454607315,
        0.0015216948333259604,
        -0.0017481613183276611,
        0.0,
        -0.0012520920427478812,
        0.00016817679472918063,
        0.0008681139739063515,
        -0.0009319164186394649,
        0.0,
        0.0,
        -0.0018743753652446181,
        0.001042440795978185
      ],
      [
        -0.00011830334442769154,
        -0.00011856573147967982,
        0.00026168975131938904,
        0.00023757487254111136,
        -0.31856809657465734,
        -0.00011843453795392183,
        -0.00013604884609249684,
        -0.0001363505912017178,
        0.00030094321401713227,
        0.00027321110342221137,
        -0.36635331106085595,
        -0.00013619971864722543,
        -0.00015379434775720355,
        -0.0001541354509239931,
        0.0003401966767152423,
        0.000308847334303214,
        -0.4141385255470545,
        -0.00015396489933973837,
        -0.0001715398494205206,
        -0.0001719203106456654,
        0.0003794501394129746,
        0.0003444835651844744,
        0.8827455458809887,
        -0.00017173008003386925,
        -0.0021704037109314725,
        -0.0012040028013979892,
        0.001760638751653076,
        0.0,
        -0.000592564966306187,
        -0.002758888339268463,
        0.0013017382830731287,
        -0.000711604433062251,
        0.0,
        0.0,
        -0.001945641202165607,
        -0.0005925649663061861,
        -0.001150696015472593,
        0.002174581966289366,
        -0.00167570283398313,
        0.0,
        -0.0026773679633484743,
        0.0014475812661306664,
        0.0009322189612466045,
        -0.0012179132044481673,
        0.0,
        0.0,
        -0.0031939552106778194,
        0.0010545074368018001
      ],
      [
        -0.10623290113671668,
        -0.106232441006341,
        -0.00011400731247536994,
        -0.0001046878655656414,
        -0.00011843453795418323,
        -0.1062326710715285,
        -0.12216783630722368,
        -0.1221673071572921,
        -0.00013110840934661005,
        -0.00012039104540045392,
        -0.0001361997186472093,
        -0.12216757173225792,
        -0.13810277147773106,
        -0.13810217330824326,
        -0.00014820950621799976,
        -0.0001360942252352389,
        -0.00015396489934063777,
        -0.13810247239298748,
        -0.1540377066482384,
        -0.15403703945919467,
        -0.00016531060308922797,
        -0.00015179740507012627,
        -0.0001717300800335944,
        1.1906319128605283,
        0.0008104166216675614,
        0.0003800993813735981,
        -0.0008380941529155852,
        0.0,
        0.00020727299298370816,
        0.001001873204241584,
        -0.000683261719899439,
        0.0001614777742511573,
        0.0,
        0.0,
        0.0005734751857835878,
        0.0002072729929837066,
        0.0002894636194509802,
        -0.0009754131715291131,
        0.0007580089558372771,
        0.0,
        0.00090631850050995,
        -0.0003791729046339356,
        -0.00030242435735004504,
        0.0004313520635175907,
        0.0,
        0.0,
        0.0012790331580798122,
        -0.0005120522256285814
      ],
      [
        0.0004961227214243099,
        0.0006216933084587084,
        -0.0009488576894934516,
        -0.0008801325536848327,
        -0.0014968301454635765,
        0.0005589080149453679,
        0.0005705411296393583,
        0.00071494730471899,
        -0.0010911863429159715,
        -0.001012152436736413,
        -0.001721354667293625,
        0.0006427442171812284,
        0.0006449595378576773,
        0.0008082013009937628,
        -0.001233514996341945,
        -0.0011441723197878736,
        -0.0019458791891190468,
        0.0007265804194062379,
        0.0007193779460637631,
        0.0009014552972630879,
        -0.0013758436497641766,
        -0.001276192202840386,
        -0.0021704037109278756,
        0.0008104166216691408,
        0.20417412295556325,
        -0.00171740934134974,
        -0.013857678767426216,
        0.0,
        -0.008116229316414541,
        0.0075053837799262885,
        -0.007295141908329794,
        0.007106807687120228,
        0.0,
        0.0,
        0.026213078168582555,
        -0.00811622931641452,
        -0.11556742187185952,
        -0.00017831397029325867,
        -0.00036386605684400326,
        0.0,
        0.028550903451949678,
        -0.0365671006533086,
        0.029199587848188522,
        -0.0005393170333366189,
        0.0,
        0.0,
        0.004500131036286085,
        -0.030005949396796048
      ],
      [
        0.00033017046988967715,
        0.00019410453892098982,
        -0.0004459011863840618,
        -0.0005284801753902888,
        -0.0008303467595807754,
        0.0002621375043946738,
        0.00037969604039171927,
        0.00022322021973059997,
        -0.0005127863643423491,
        -0.0006077522016954889,
        -0.0009548987735229423,
        0.00030145813004442363,
        0.0004292216108650169,
        0.0002523359005672348,
        -0.0005796715423005554,
        -0.0006870242280043477,
        -0.0010794507874570928,
        0.00034077875571075273,
        0.0004787471813471937,
        0.00028145158140284086,
        -0.0006465567202584147,
        -0.0007662962543151592,
        -0.0012040028014034185,
        0.00038009938137395277,
        -0.0017174093413668966,
        0.20663863246146133,
        0.012133689273086494,
        0.0,
        -0.002687442179553789,
        0.03579337889989315,
        0.004597663204508601,
        -0.04768693475467318,
        0.0,
        0.0,
        0.03045582063363468,
        -0.002687442179553756,
        0.02070130074807161,
        -0.0031696850596653215,
        0.0012579659174555102,
        0.0,
        0.06483021630424932,
        -0.08188869502896305,
        -0.026550295259384158,
        -0.03258994606820951,
        0.0,
        0.0,
        0.004972922921357011,
        0.03667042426297823
      ],
      [
        -0.0004919921603260645,
        -0.0006639997746359702,
        0.0009629296850603822,
        0.0012349047168207857,
        0.0012142336217985709,
        -0.000577995967499749,
        -0.0005657909843754876,
        -0.0007635997408592873,
        0.0011073691378125636,
        0.001420140424341022,
        0.0013963686651122652,
        -0.0006646953626332455,
        -0.0006395898084364224,
        -0.0008631997070682943,
        0.0012518085905723363,
        0.00160537613186247,
        0.0015785037083654357,
        -0.000751394757699616,
        -0.0007133886324712968,
        -0.0009627996732792347,
        0.001396248043329165,
        0.001790611839386433,
        0.0017606387516443083,
        -0.0008380941529114269,
        -0.013857678767321717,
        0.01213368927287245,
        0.22082954237662755,
        0.0,
        -0.011419002115942807,
        -0.005466419897842222,
        0.0036382994612523794,
        0.011097351544913493,
        0.0,
        0.0,
        0.008254062404838947,
        -0.01141900211594276,
        0.001425809961551514,
        0.01837450278018931,
        -0.1378460241328405,
        0.0,
        0.010950691885213703,
        -0.023821932036572756,
        0.008594378579393101,
        0.013276885730222293,
        0.0,
        0.0,
        -0.00345462951793612,
        0.009704326762916184
      ],
      [
        0.0,
        0.0,
        0.0,
        0.0,
        0.0,
        0.0,
        0.0,
        0.0,
        0.0,
        0.0,
        0.0,
        0.0,
        0.0,
        0.0,
        0.0,
        0.0,
        0.0,
        0.0,
        0.0,
        0.0,
        0.0,
        0.0,
        0.0,
        0.0,
        0.0,
        0.0,
        0.0,
        1.3446692859142435,
        0.0,
        0.0,
        0.0,
        0.0,
        0.0,
        0.0,
        0.0,
        0.0,
        0.0,
        0.0,
        0.0,
        0.0,
        0.0,
        0.0,
        0.0,
        0.0,
        0.0,
        0.0,
        0.0,
        0.0
      ],
      [
        6.450439334223731e-05,
        0.00022138939007528867,
        -2.198076113096471e-05,
        -0.0002989536509221216,
        -0.0004086654940020416,
        0.00014294689170789974,
        7.418005234611235e-05,
        0.00025459779857937143,
        -2.527787530014782e-05,
        -0.0003437966985597976,
        -0.00046996531810424144,
        0.00016438892546486906,
        8.38557113469604e-05,
        0.00028780620709490843,
        -2.857498946858893e-05,
        -0.00038863974619697387,
        -0.0005312651422051893,
        0.00018583095921318826,
        9.353137034802227e-05,
        0.0003210146156068981,
        -3.187210363880257e-05,
        -0.0004334827938353469,
        -0.0005925649663027669,
        0.00020727299298162267,
        -0.008116229316459079,
        -0.002687442179515277,
        -0.011419002115849583,
        0.0,
        0.755028806145164,
        -0.016336225498098916,
        0.027222211701174993,
        -0.0008278383683622721,
        0.0,
        0.0,
        -0.020650749320393045,
        -0.5896404797690796,
        0.03702765368442504,
        -0.015769353707942555,
        -0.00620103424273836,
        0.0,
        0.001100582586494796,
        -0.033692649432242414,
        -0.04565434234255065,
        0.014677920986934687,
        0.0,
        0.0,
        0.025272390886208904,
        -0.0019190491783593706
      ],
      [
        0.0007069869874460131,
        0.0006749070873700001,
        -0.0012893543274673444,
        -0.0012299768943969287,
        -0.0019026816132831621,
        0.0006909470374103057,
        0.0008130350355655695,
        0.0007761431504755605,
        -0.0014827574765881898,
        -0.001414473428557676,
        -0.002188083855271231,
        0.000794589093018676,
        0.000919083083688565,
        0.0008773792135805731,
        -0.0016761606257077982,
        -0.00159896996271635,
        -0.0024734860972687816,
        0.0008982311486384003,
        0.0010251311318062075,
        0.0009786152766808555,
        -0.001869563774828252,
        -0.001783466496876351,
        -0.002758888339268012,
        0.0010018732042357485,
        0.007505383779880978,
        0.03579337889986964,
        -0.0054664198974962285,
        0.0,
        -0.01633622549823837,
        0.14298916009719634,
        0.017732429168943215,
        0.019028177191461545,
        0.0,
        0.0,
        0.010903040139249358,
        -0.016336225498238356,
        0.04181974049431691,
        -0.017743649840987134,
        -0.00881208693602052,
        0.0,
        0.019628379975777564,
        0.018629312022758738,
        -0.050050437636153564,
        0.004384411679362096,
        0.0,
        0.0,
        -0.015263779218486418,
        0.026751469293761387
      ],
      [
        -0.0005724903940848495,
        -0.00036993956438778955,
        0.0010765575780916875,
        0.000680055130299491,
        0.0008977505400488387,
        -0.0004712149792371537,
        -0.0006583639531899874,
        -0.00042543049904508615,
        0.0012380412148045752,
        0.0007820633998435491,
        0.0010324131210539425,
        -0.0005418972261154029,
        -0.0007442375122927933,
        -0.0004809214337067308,
        0.001399524851518965,
        0.0008840716693880698,
        0.0011670757020621708,
        -0.0006125794729985412,
        -0.0008301110714246791,
        -0.0005364123683645145,
        0.0015610084882321604,
        0.000986079938933162,
        0.0013017382830716974,
        -0.000683261719897991,
        -0.007295141908339545,
        0.004597663204480818,
        0.003638299461260064,
        0.0,
        0.027222211701210027,
        0.01773242916899728,
        0.12431366860961067,
        0.0005253751277848632,
        0.0,
        0.0,
        -0.003725900718823029,
        0.027222211701209996,
        0.023363677509762502,
        0.012242838443197629,
        -0.012265523333709836,
        0.0,
        -0.007294546946782244,
        0.02590868002442094,
        -0.033708050428586336,
        -0.0042800480617272525,
        0.0,
        0.0,
        -0.024895364111310884,
        0.004589443420358499
      ],
      [
        0.00019379696424451346,
        2.8931000216257674e-05,
        -0.0001855752076248034,
        -0.00011086072809847485,
        -0.0004907616779781179,
        0.0001113639822376489,
        0.00022286650888203203,
        3.32706502629042e-05,
        -0.00021341148876992015,
        -0.00012748983731345785,
        -0.0005643759296745777,
        0.00012806857958446788,
        0.0002519360535238122,
        3.7610300304053306e-05,
        -0.00024124776991366317,
        -0.000144118946528712,
        -0.0006379901813724887,
        0.00014477317693291366,
        0.0002810055981509211,
        4.1949950347000145e-05,
        -0.00026908405105814805,
        -0.00016074805574217149,
        -0.000711604433056115,
        0.00016147777424798185,
        0.007106807687150174,
        -0.04768693475477637,
        0.011097351544802342,
        0.0,
        -0.0008278383683352409,
        0.019028177191406037,
        0.0005253751277798021,
        0.16956532716503986,
        0.0,
        0.0,
        0.02266734923249225,
        -0.0008278383683352307,
        0.00861027163636782,
        -0.05679001635842358,
        0.002679863787262487,
        0.0,
        -0.021121313891931583,
        0.012878648328933808,
        -0.008346337874104971,
        0.011814534854696496,
        0.0,
        0.0,
        0.07219143569547401,
        -0.06109795236179709
      ],
      [
        0.0,
        0.0,
        0.0,
        0.0,
        0.0,
        0.0,
        0.0,
        0.0,
        0.0,
        0.0,
        0.0,
        0.0,
        0.0,
        0.0,
        0.0,
        0.0,
        0.0,
        0.0,
        0.0,
        0.0,
        0.0,
        0.0,
        0.0,
        0.0,
        0.0,
        0.0,
        0.0,
        0.0,
        0.0,
        0.0,
        0.0,
        0.0,
        1.3446692859142435,
        0.0,
        0.0,
        0.0,
        0.0,
        0.0,
        0.0,
        0.0,
        0.0,
        0.0,
        0.0,
        0.0,
        0.0,
        0.0,
        0.0,
        0.0
      ],
      [
        0.0,
        0.0,
        0.0,
        0.0,
        0.0,
        0.0,
        0.0,
        0.0,
        0.0,
        0.0,
        0.0,
        0.0,
        0.0,
        0.0,
        0.0,
        0.0,
        0.0,
        0.0,
        0.0,
        0.0,
        0.0,
        0.0,
        0.0,
        0.0,
        0.0,
        0.0,
        0.0,
        0.0,
        0.0,
        0.0,
        0.0,
        0.0,
        0.0,
        1.3446692859142435,
        0.0,
        0.0,
        0.0,
        0.0,
        0.0,
        0.0,
        0.0,
        0.0,
        0.0,
        0.0,
        0.0,
        0.0,
        0.0,
        0.0
      ],
      [
        0.0005147162705408691,
        0.0002762839857075764,
        -0.0007918575543488585,
        -0.00040779075517591084,
        -0.001341821518734678,
        0.0003955001281287729,
        0.000591923711128092,
        0.00031772658356871966,
        -0.0009106361875023142,
        -0.0004689593684527036,
        -0.0015430947465476337,
        0.00045482514734898063,
        0.0006691311517117268,
        0.00035916918141757693,
        -0.0010294148206548054,
        -0.000530127981730393,
        -0.001744367974367814,
        0.0005141501665753102,
        0.0007463385922755292,
        0.0004006117792750161,
        -0.0011481934538077178,
        -0.0005912965950068838,
        -0.0019456412021650938,
        0.0005734751857821776,
        0.02621307816861729,
        0.030455820633553045,
        0.008254062404866055,
        0.0,
        -0.020650749320408248,
        0.010903040139248612,
        -0.003725900718830222,
        0.02266734923254769,
        0.0,
        0.0,
        0.14287249048699033,
        -0.020650749320408206,
        0.013079148205668394,
        0.03346499462170897,
        0.009792929339224314,
        0.0,
        0.034045902238554304,
        -0.05988282981649649,
        -0.001312916193483949,
        -0.015800753455310467,
        0.0,
        0.0,
        0.022709446084293202,
        -0.03192394287085693
      ],
      [
        6.450439334223669e-05,
        0.00022138939007528962,
        -2.198076113096511e-05,
        -0.00029895365092212303,
        -0.0004086654940020416,
        0.00014294689170789917,
        7.418005234611461e-05,
        0.00025459779857936915,
        -2.5277875300148956e-05,
        -0.00034379669855980354,
        -0.0004699653181042427,
        0.00016438892546486854,
        8.385571134695912e-05,
        0.00028780620709490794,
        -2.8574989468590434e-05,
        -0.0003886397461969709,
        -0.0005312651422051897,
        0.0001858309592131884,
        9.353137034802208e-05,
        0.000321014615606897,
        -3.187210363880176e-05,
        -0.0004334827938353453,
        -0.0005925649663027655,
        0.00020727299298162468,
        -0.008116229316459082,
        -0.0026874421795152633,
        -0.011419002115849477,
        0.0,
        -0.5896404797690796,
        -0.016336225498098912,
        0.027222211701174955,
        -0.000827838368362252,
        0.0,
        0.0,
        -0.020650749320393007,
        0.755028806145164,
        0.037027653684425114,
        -0.015769353707942513,
        -0.006201034242738326,
        0.0,
        0.001100582586494817,
        -0.033692649432242455,
        -0.045654342342550676,
        0.014677920986934689,
        0.0,
        0.0,
        0.025272390886208904,
        -0.001919049178359349
      ],
      [
        0.00014213530224133756,
        0.0002571248625023219,
        -0.0004202607759848747,
        -0.00014802523072059655,
        -0.0007935834589467458,
        0.00019963008237412554,
        0.0001634555975647646,
        0.00029569359187818067,
        -0.0004832998923843282,
        -0.00017022901532925275,
        -0.0009126209777872993,
        0.00022957459472352484,
        0.00018477589290401766,
        0.00033426232125230215,
        -0.0005463390087822337,
        -0.00019243279993655946,
        -0.0010316584966365127,
        0.00025951910708269535,
        0.00020609618825502543,
        0.0003728310506258604,
        -0.0006093781251806609,
        -0.00021463658454472226,
        -0.0011506960154696927,
        0.00028946361944592853,
        -0.1155674218718724,
        0.020701300747992733,
        0.0014258099615577764,
        0.0,
        0.03702765368443873,
        0.041819740494308776,
        0.02336367750978205,
        0.008610271636380059,
        0.0,
        0.0,
        0.013079148205630713,
        0.03702765368443877,
        0.29431250113322516,
        -0.018791890910118268,
        -0.0009098842313042306,
        0.0,
        0.015374511733381413,
        0.023429343736785638,
        -0.1565584400613074,
        0.011601565117429968,
        0.0,
        0.0,
        0.026953649938944658,
        0.021335851754529404
      ],
      [
        -0.0005814011872609965,
        -0.0007639962907061622,
        0.001426469200560746,
        0.001049444712638322,
        0.001499711700875934,
        -0.0006726987389871026,
        -0.0006686113653494779,
        -0.0008785957343258287,
        0.0016404395806434648,
        0.0012068614195347841,
        0.001724668456031113,
        -0.0007736035498294621,
        -0.0007558215434427926,
        -0.0009931951779202177,
        0.0018544099607295007,
        0.0013642781264302697,
        0.0019496252111676615,
        -0.0008745083606609377,
        -0.0008430317215159227,
        -0.0011077946215405836,
        0.0020683803408114215,
        0.001521694833326784,
        0.0021745819662886746,
        -0.0009754131715280769,
        -0.00017831397029136409,
        -0.003169685059675573,
        0.018374502780367383,
        0.0,
        -0.015769353708004426,
        -0.017743649841031363,
        0.01224283844319564,
        -0.05679001635837718,
        0.0,
        0.0,
        0.03346499462172554,
        -0.015769353708004443,
        -0.018791890910125196,
        0.28130545036191956,
        -0.004043471359253009,
        0.0,
        -0.014971637494348874,
        0.02854600045909682,
        0.00872691838388773,
        -0.1239315028944084,
        0.0,
        0.0,
        -0.1375030651414096,
        0.055967337263936066
      ],
      [
        0.0005466269753373381,
        0.0004989026189478458,
        -0.001754902106257063,
        -0.0012056284953947127,
        -0.0011556571268931343,
        0.0005227647971349539,
        0.0006286210216419532,
        0.0005737380117674526,
        -0.0020181374222004505,
        -0.0013864727697038854,
        -0.0013290056959116957,
        0.0006011795167024749,
        0.0007106150679364854,
        0.0006485734046198,
        -0.0022813727381392973,
        -0.0015673170440127287,
        -0.0015023542649452346,
        0.0006795942362962048,
        0.0007926091142517028,
        0.0007234087974400887,
        -0.0025446080540813135,
        -0.0017481613183225981,
        -0.001675702833970119,
        0.0007580089558478586,
        -0.0003638660568626445,
        0.0012579659174179714,
        -0.13784602413280628,
        0.0,
        -0.00620103424281142,
        -0.008812086936089663,
        -0.012265523333692598,
        0.0026798637873351803,
        0.0,
        0.0,
        0.009792929339208252,
        -0.006201034242811418,
        -0.000909884231334137,
        -0.00404347135927302,
        0.22205107642443098,
        0.0,
        0.010652479415082702,
        -0.014321457589794431,
        0.016345985192870827,
        0.005695987564938225,
        0.0,
        0.0,
        0.015121422837831605,
        0.001400847912486506
      ],
      [
        0.0,
        0.0,
        0.0,
        0.0,
        0.0,
        0.0,
        0.0,
        0.0,
        0.0,
        0.0,
        0.0,
        0.0,
        0.0,
        0.0,
        0.0,
        0.0,
        0.0,
        0.0,
        0.0,
        0.0,
        0.0,
        0.0,
        0.0,
        0.0,
        0.0,
        0.0,
        0.0,
        0.0,
        0.0,
        0.0,
        0.0,
        0.0,
        0.0,
        0.0,
        0.0,
        0.0,
        0.0,
        0.0,
        0.0,
        1.3446692859142435,
        0.0,
        0.0,
        0.0,
        0.0,
        0.0,
        0.0,
        0.0,
        0.0
      ],
      [
        0.0007221512488827364,
        0.0005279432345801373,
        -0.0012264812848913976,
        -0.0008635117536189578,
        -0.0018464606643806567,
        0.000625047241735901,
        0.0008304739362229444,
        0.0006071347197853207,
        -0.0014104534776261102,
        -0.0009930385166631315,
        -0.002123429764027051,
        0.0007188043280057895,
        0.0009387966235636513,
        0.0006863262049599976,
        -0.0015944256703605433,
        -0.0011225652797025112,
        -0.0024003988637038886,
        0.0008125614142564299,
        0.0010471193108667095,
        0.0007655176901290068,
        -0.0017783978630943297,
        -0.0012520920427471919,
        -0.0026773679633436045,
        0.0009063185005160347,
        0.02855090345203132,
        0.06483021630434849,
        0.01095069188517526,
        0.0,
        0.0011005825865213893,
        0.019628379975632364,
        -0.007294546946823805,
        -0.0211213138919759,
        0.0,
        0.0,
        0.034045902238530955,
        0.0011005825865214045,
        0.015374511733386644,
        -0.014971637494441815,
        0.010652479415094755,
        0.0,
        0.22309498215838575,
        -0.16462277871378445,
        -0.005318049918417839,
        0.05089490526391598,
        0.0,
        0.0,
        -0.025028793214142198,
        0.006641648559012307
      ],
      [
        -0.0004750444762970073,
        -4.795263354328156e-05,
        0.0004905557727767344,
        0.00011598399636279043,
        0.000998331907678669,
        -0.0002614985549250126,
        -0.0005463011477228623,
        -5.514552860018359e-05,
        0.0005641391386952009,
        0.0001333815958195135,
        0.0011480816938086306,
        -0.00030072333816615374,
        -0.0006175578191802549,
        -6.233842361396019e-05,
        0.0006377225046121093,
        0.00015077919527226703,
        0.0012978314799852314,
        -0.00033994812141977264,
        -0.0006888144906113139,
        -6.953131862988704e-05,
        0.0007113058705285124,
        0.00016817679472892896,
        0.0014475812661274717,
        -0.00037917290463470584,
        -0.03656710065335717,
        -0.08188869502895245,
        -0.023821932036649184,
        0.0,
        -0.03369264943224423,
        0.018629312022924754,
        0.02590868002450268,
        0.012878648328916617,
        0.0,
        0.0,
        -0.05988282981651889,
        -0.033692649432244225,
        0.02342934373681007,
        0.028546000459120677,
        -0.014321457589787596,
        0.0,
        -0.16462277871385347,
        0.40564808100241423,
        -0.024712455697476897,
        -0.06409612541239464,
        0.0,
        0.0,
        -0.06203884705382639,
        -0.045672099331170696
      ],
      [
        -0.00023178873380005804,
        -0.00018534831082038769,
        -8.206069528428219e-05,
        0.0005986992923470528,
        0.0006429096284458911,
        -0.0002085685223099345,
        -0.0002665570438604569,
        -0.00021315055744211073,
        -9.436979957864198e-05,
        0.0006885041861994131,
        0.0007393460727106565,
        -0.00023985380065383703,
        -0.000301325353921807,
        -0.0002409528040622884,
        -0.00010667890387255891,
        0.0007783090800516642,
        0.0008357825169690126,
        -0.00027113907900133,
        -0.00033609366401140574,
        -0.000268755050685453,
        -0.00011898800816343254,
        0.0008681139739044918,
        0.0009322189612408817,
        -0.0003024243573429456,
        0.02919958784829341,
        -0.0265502952593616,
        0.008594378579313078,
        0.0,
        -0.045654342342487296,
        -0.05005043763615873,
        -0.033708050428499683,
        -0.00834633787410071,
        0.0,
        0.0,
        -0.001312916193451728,
        -0.0456543423424873,
        -0.15655844006122677,
        0.008726918383848531,
        0.016345985192806802,
        0.0,
        -0.005318049918464129,
        -0.02471245569738868,
        0.22143825715473628,
        -0.016130803195032118,
        0.0,
        0.0,
        -0.00925465236161446,
        -0.01405734114865932
      ],
      [
        0.00035935712952078855,
        0.00023561123396151104,
        -0.0005468314390928255,
        -0.0006427009783723823,
        -0.0008399401409987888,
        0.0002974841817439309,
        0.000413260698953876,
        0.00027095291905105816,
        -0.0006288561549569156,
        -0.0007391061251293382,
        -0.0009659311621586619,
        0.00034210680899867345,
        0.00046716426837569716,
        0.00030629460413883404,
        -0.0007108808708220893,
        -0.0008355112718872568,
        -0.001091922183306146,
        0.0003867294362600323,
        0.0005210678378020718,
        0.00034163628923984885,
        -0.0007929055866855881,
        -0.0009319164186407492,
        -0.0012179132044561653,
        0.0004313520635191694,
        -0.000539317033303267,
        -0.03258994606825407,
        0.01327688573017713,
        0.0,
        0.01467792098698544,
        0.004384411679375084,
        -0.004280048061698617,
        0.01181453485475033,
        0.0,
        0.0,
        -0.015800753455243476,
        0.014677920986985454,
        0.011601565117515424,
        -0.12393150289439535,
        0.005695987564891696,
        0.0,
        0.05089490526381533,
        -0.06409612541238818,
        -0.016130803195073498,
        0.1850433636638301,
        0.0,
        0.0,
        0.029498851217963248,
        0.023783049983321165
      ],
      [
        0.0,
        0.0,
        0.0,
        0.0,
        0.0,
        0.0,
        0.0,
        0.0,
        0.0,
        0.0,
        0.0,
        0.0,
        0.0,
        0.0,
        0.0,
        0.0,
        0.0,
        0.0,
        0.0,
        0.0,
        0.0,
        0.0,
        0.0,
        0.0,
        0.0,
        0.0,
        0.0,
        0.0,
        0.0,
        0.0,
        0.0,
        0.0,
        0.0,
        0.0,
        0.0,
        0.0,
        0.0,
        0.0,
        0.0,
        0.0,
        0.0,
        0.0,
        0.0,
        0.0,
        1.3446692859142435,
        0.0,
        0.0,
        0.0
      ],
      [
        0.0,
        0.0,
        0.0,
        0.0,
        0.0,
        0.0,
        0.0,
        0.0,
        0.0,
        0.0,
        0.0,
        0.0,
        0.0,
        0.0,
        0.0,
        0.0,
        0.0,
        0.0,
        0.0,
        0.0,
        0.0,
        0.0,
        0.0,
        0.0,
        0.0,
        0.0,
        0.0,
        0.0,
        0.0,
        0.0,
        0.0,
        0.0,
        0.0,
        0.0,
        0.0,
        0.0,
        0.0,
        0.0,
        0.0,
        0.0,
        0.0,
        0.0,
        0.0,
        0.0,
        0.0,
        1.3446692859142435,
        0.0,
        0.0
      ],
      [
        0.0008753452444027673,
        0.0008888384218987687,
        -0.0018378798627118333,
        -0.001292672665688394,
        -0.0022027277314932135,
        0.0008820918331711959,
        0.0010066470310724285,
        0.0010221641852231267,
        -0.002113561842117689,
        -0.0014865735655429167,
        -0.002533136891229986,
        0.0010144056081386392,
        0.001137948817738365,
        0.0011554899484931143,
        -0.0023892438215277322,
        -0.0016804744653944642,
        -0.0028635460509603625,
        0.0011467193831048805,
        0.0012692506043572045,
        0.0012888157117834345,
        -0.0026649258009319894,
        -0.0018743753652475214,
        -0.003193955210680137,
        0.0012790331580780395,
        0.004500131036308658,
        0.00497292292132435,
        -0.0034546295180068027,
        0.0,
        0.025272390886335733,
        -0.015263779218480754,
        -0.024895364111285477,
        0.07219143569549309,
        0.0,
        0.0,
        0.022709446084324573,
        0.025272390886335733,
        0.026953649939028733,
        -0.13750306514135682,
        0.01512142283781431,
        0.0,
        -0.025028793214086773,
        -0.062038847053994046,
        -0.009254652361661316,
        0.029498851217898393,
        0.0,
        0.0,
        0.2435370028101554,
        -0.08541881204812578
      ],
      [
        -0.00030107323110603514,
        -0.00040520570076548655,
        0.00048553145646240724,
        0.000718924686882993,
        0.0007272465081319125,
        -0.0003531394659553666,
        -0.0003462342157712234,
        -0.00046598655591381584,
        0.0005583611749308565,
        0.0008267633899148747,
        0.0008363334843684214,
        -0.000406110385829229,
        -0.0003913952004424935,
        -0.0005267674110129157,
        0.0006311908934010421,
        0.0009346020929478113,
        0.0009454204605733339,
        -0.0004590813057076009,
        -0.00043655618510498055,
        -0.0005875482661391045,
        0.0007040206118697982,
        0.0010424407959790918,
        0.0010545074367989376,
        -0.0005120522256260103,
        -0.030005949396799927,
        0.036670424262945464,
        0.00970432676320689,
        0.0,
        -0.0019190491784327505,
        0.026751469293707825,
        0.004589443420362914,
        -0.06109795236172044,
        0.0,
        0.0,
        -0.031923942870888344,
        -0.001919049178432751,
        0.02133585175454772,
        0.05596733726387324,
        0.0014008479124875764,
        0.0,
        0.006641648559075184,
        -0.045672099331244505,
        -0.014057341148614906,
        0.023783049983359162,
        0.0,
        0.0,
        -0.08541881204812964,
        0.1722377328267286
      ]
    ],
    "alpha": 1.0,
    "forgetting_factor": 0.999,
    "weight_clip": 10.0
  }
}