{
  "metadata": {
    "series_name": "resume_test",
    "epochs": 4,
    "history": []
  },
  "encoder": {
    "amplitude": 10.0,
    "delta_scale": 1.4,
    "quadratic_scale": 0.7,
    "magnitude_scale": 0.5,
    "band_growth": 0.15
  },
  "reservoir": {
    "n_neurons": 24,
    "dt": 1.0,
    "max_weight": 2.0,
    "max_delay_limit": 50,
    "readout_decay": 0.92,
    "synapses": [
      {
        "2": -4.371283614695149e-06,
        "7": -0.003455303523511218
      },
      {
        "12": 2.0
      },
      {
        "5": 2.0,
        "8": 2.0,
        "11": 2.0
      },
      {
        "0": 2.0,
        "14": 2.0
      },
      {
        "0": 2.0,
        "13": 2.0,
        "17": 2.0,
        "22": 2.0
      },
      {
        "4": 0.0,
        "6": 0.0,
        "9": -4.314323142072508e-06,
        "21": -4.549510985451806e-06
      },
      {
        "20": 2.0,
        "22": 2.0
      },
      {
        "18": 2.0
      },
      {
        "18": 2.0,
        "20": 2.0,
        "22": 2.0
      },
      {
        "12": 2.0,
        "23": 2.0
      },
      {
        "2": -1.9674945615395747e-06
      },
      {
        "16": 2.0
      },
      {
        "7": 2.0
      },
      {
        "5": 2.0,
        "9": 2.0,
        "12": 2.0,
        "18": 2.0
      },
      {},
      {
        "11": -5.408211658601158e-06
      },
      {},
      {
        "7": 2.0,
        "12": 2.0,
        "16": 2.0,
        "20": 2.0
      },
      {
        "14": 2.0
      },
      {
        "0": 2.0,
        "14": 2.0,
        "21": 2.0
      },
      {
        "14": -1.270304004918893e-06
      },
      {
        "1": 2.0,
        "3": 2.0,
        "8": 2.0,
        "9": 2.0
      },
      {
        "4": 2.0,
        "12": 2.0,
        "21": 2.0
      },
      {
        "0": 2.0,
        "2": 2.0,
        "17": 2.0,
        "20": 2.0,
        "22": 2.0
      }
    ],
    "is_inhibitory": [
      true,
      false,
      false,
      false,
      false,
      true,
      false,
      false,
      false,
      false,
      true,
      false,
      false,
      false,
      false,
      true,
      false,
      false,
      false,
      false,
      true,
      false,
      false,
      false
    ]
  },
  "force_readout": {
    "weights": [
      [
        0.0010963216712784887,
        -0.001393881675594748,
        0.012642709168095038,
        -0.01136339642316175,
        0.00026213428926981017,
        -0.00014878000217690917,
        0.0012607699219852396,
        -0.0016029639269392487,
        0.014539115543312482,
        -0.013067905886635568,
        0.0003014544326666939,
        -0.00017109700250056737,
        0.0014252181726670313,
        -0.0018120461782699811,
        0.016435521918522482,
        -0.0147724153501107,
        0.0003407745760540164,
        -0.0001934140028199083,
        0.0015896664233655423,
        -0.0020211284296174094,
        0.018331928293732914,
        -0.01647692481358406,
        0.00038009471944852445,
        -0.00021573100314681268,
        -0.00802498568762554,
        0.01133795215023621,
        0.0,
        0.0,
        -0.006200520389020115,
        0.0025783403519858833,
        -0.008514537207053618,
        0.0077829982845370686,
        0.0,
        0.0,
        0.008121446624192194,
        -0.006200520389020104,
        -0.0026897732987998767,
        0.0055296112821145,
        0.0,
        0.0,
        0.007089844546797438,
        -0.0163090751500827,
        -0.0038519934007465876,
        0.011722261090995976,
        0.0,
        0.0,
        0.004523212899792595,
        -0.00855731469990915
      ]
    ],
    "bias": [
      0.0017921888476155692
    ],
    "inverse_correlation": [
      [
        1.1614558497233394,
        0.036682763688745235,
        -7.266469111713883e-05,
        -6.901016571218497e-05,
        -7.867464040884282e-05,
        -0.07326533625107906,
        -0.21069545161953845,
        0.04218517824205703,
        -8.35643947846903e-05,
        -7.936169056902781e-05,
        -9.047583647010063e-05,
        -0.08425513668874064,
        -0.23817746704817389,
        0.047687592795369084,
        -9.446409845229982e-05,
        -8.971321542580556e-05,
        -0.00010227703253144067,
        -0.09524493712640247,
        -0.26565948247680893,
        0.05319000734868075,
        -0.00010536380211978314,
        -0.00010006474028266668,
        -0.00011407822859271214,
        -0.1062347375640645,
        0.0005479539088953097,
        0.00031774929253855386,
        0.0,
        0.0,
        7.469670721864895e-05,
        0.0007368807152476638,
        -0.0005351487294803878,
        0.0001839850600445326,
        0.0,
        0.0,
        0.0005542051988667895,
        7.46967072186494e-05,
        0.00010523001086234902,
        -0.0008323376970024975,
        0.0,
        0.0,
        0.0005729505565321963,
        -0.0002497395146070848,
        -0.00028118640492633666,
        0.000510309192970774,
        0.0,
        0.0,
        0.0008685969063865834,
        -0.0005297520492624835
      ],
      [
        0.0366827636887453,
        1.1614569529056842,
        -7.478372870706688e-05,
        -6.985536978239351e-05,
        -7.939841657644086e-05,
        -0.07326478465990714,
        0.0421851782420572,
        -0.21069418295984393,
        -8.600128801309486e-05,
        -8.033367524976225e-05,
        -9.130817906274911e-05,
        -0.0842545023588931,
        0.047687592795369216,
        -0.23817603291112782,
        -9.721884731920612e-05,
        -9.081198071707158e-05,
        -0.00010321794154932852,
        -0.09524422005787943,
        0.05319000734868076,
        -0.2656578828624117,
        -0.000108436406625195,
        -0.00010129028618445795,
        -0.00011512770403557353,
        -0.10623393775686531,
        0.0006745279636406351,
        0.0001924198148484444,
        0.0,
        0.0,
        0.00021911847606840347,
        0.0006428830545503804,
        -0.0003533045019180227,
        2.6551095983141733e-05,
        0.0,
        0.0,
        0.00034883511811306016,
        0.00021911847606840467,
        0.00020471198593136045,
        -0.0009879508738066158,
        0.0,
        0.0,
        0.00041650684675083544,
        0.00013433165817678408,
        -0.00018559904222264196,
        0.0003797973707088701,
        0.0,
        0.0,
        0.0009459307068666576,
        -0.0007037001190356023
      ],
      [
        -7.266469111727827e-05,
        -7.478372870715865e-05,
        1.1249493620164872,
        0.00015621203999404936,
        0.0001677685908837136,
        -7.372420991236933e-05,
        -8.356439478519113e-05,
        -8.600128801330455e-05,
        -0.2526779124824184,
        0.00017964384599317536,
        0.0001929338795161505,
        -8.478284139968327e-05,
        -9.446409845288625e-05,
        -9.721884731969277e-05,
        -0.28563590106708137,
        0.00020307565199218262,
        0.00021809916814876732,
        -9.584147288616254e-05,
        -0.00010536380212059069,
        -0.00010843640662572874,
        -0.31859388965174495,
        0.00022650745799136652,
        0.00024326445678135288,
        -0.00010690010437348588,
        -0.0010793087132007682,
        -0.00023279514331539552,
        0.0,
        0.0,
        -0.00019327477477782253,
        -0.0007759095468887533,
        0.00105022469821173,
        -2.9792996807523868e-05,
        0.0,
        0.0,
        -0.000745328456215114,
        -0.00019327477477782545,
        -0.00018220550316916346,
        0.0017084629206029788,
        0.0,
        0.0,
        -0.0008522982877689891,
        6.714759194282229e-05,
        -0.00011000809806615766,
        -0.0005809576300354534,
        0.0,
        0.0,
        -0.0019033211088042234,
        0.0011001157845829566
      ],
      [
        -6.901016571226321e-05,
        -6.985536978248247e-05,
        0.00015621203999403757,
        1.1249306243892867,
        0.00015710631111154796,
        -6.943276774732167e-05,
        -7.936169056955766e-05,
        -8.033367524992244e-05,
        0.00017964384599310527,
        -0.25269946075370225,
        0.00018067225777838655,
        -7.984768290988803e-05,
        -8.971321542609185e-05,
        -9.081198071745279e-05,
        0.00020307565199230548,
        -0.2856602599824463,
        0.00020423820444492231,
        -9.026259807180475e-05,
        -0.00010006474028356304,
        -0.00010129028618452348,
        0.00022650745799126344,
        -0.3186210592111894,
        0.00022780415111148331,
        -0.00010067751323451379,
        -0.0009877185914570698,
        -0.00046743628296840256,
        0.0,
        0.0,
        -0.00034272498745282343,
        -0.0010323255021644656,
        0.0006529386269463961,
        -6.858557111022002e-05,
        0.0,
        0.0,
        -0.0005004729030103708,
        -0.0003427249874528259,
        -9.477062331654121e-06,
        0.001413629284689833,
        0.0,
        0.0,
        -0.0006057174673026949,
        -0.00024419206775409184,
        0.0005843263089471909,
        -0.0008343154820134491,
        0.0,
        0.0,
        -0.0013966944719640126,
        0.0012974006779168587
      ],
      [
        -7.86746404090586e-05,
        -7.939841657656823e-05,
        0.00016776859088380372,
        0.00015710631111157008,
        1.1249616322996743,
        -7.903652849277826e-05,
        -9.047583647052215e-05,
        -9.130817906279942e-05,
        0.00019293387951631734,
        0.00018067225777833337,
        -0.2526638016567546,
        -9.089200776708012e-05,
        -0.00010227703253239863,
        -0.00010321794154977372,
        0.00021809916814899142,
        0.00020423820444493947,
        -0.2856199496989398,
        -0.00010274748704066475,
        -0.00011407822859299606,
        -0.00011512770403596322,
        0.00024326445678139367,
        0.000227804151111738,
        -0.31857609774112566,
        -0.00011460296631477696,
        -0.00161329086806653,
        -0.0008681961346222732,
        0.0,
        0.0,
        -0.0003789974966681535,
        -0.0022155296900650888,
        0.0007753817988991657,
        -0.0005211266791356725,
        0.0,
        0.0,
        -0.0014712946526227867,
        -0.00037899749666815675,
        -0.0007661649474112912,
        0.002242241299949873,
        0.0,
        0.0,
        -0.0015066095948146562,
        0.00041816580284139744,
        0.0008315076130140605,
        -0.0013480925749581414,
        0.0,
        0.0,
        -0.002137431689805695,
        0.0012352053257818408
      ],
      [
        -0.07326533625107905,
        -0.07326478465990711,
        -7.372420991238682e-05,
        -6.943276774731468e-05,
        -7.903652849276449e-05,
        1.271404225458751,
        -0.08425513668874057,
        -0.08425450235889327,
        -8.47828413992181e-05,
        -7.984768290942451e-05,
        -9.08920077665742e-05,
        -0.08425481952381687,
        -0.09524493712640228,
        -0.09524422005787936,
        -9.58414728861176e-05,
        -9.026259807147023e-05,
        -0.00010274748704054369,
        -0.09524457859214103,
        -0.10623473756406429,
        -0.10623393775686545,
        -0.0001069001043729025,
        -0.00010067751323359999,
        -0.00011460296631432509,
        -0.10623433766046472,
        0.0006112409362732965,
        0.0002550845536820211,
        0.0,
        0.0,
        0.00014690759164074797,
        0.0006898818848972903,
        -0.0004442266157012497,
        0.00010526807802337504,
        0.0,
        0.0,
        0.000451520158495028,
        0.00014690759164074672,
        0.00015497099839848955,
        -0.0009101442854088945,
        0.0,
        0.0,
        0.0004947287016532079,
        -5.7703928224542164e-05,
        -0.0002333927235693459,
        0.0004450532818470973,
        0.0,
        0.0,
        0.0009072638066418454,
        -0.0006167260841621022
      ],
      [
        -0.2106954516195382,
        0.04218517824205726,
        -8.356439478518862e-05,
        -7.936169056957281e-05,
        -9.04758364705544e-05,
        -0.0842551366887405,
        1.1023695165517744,
        0.04851295497836582,
        -9.609905400293806e-05,
        -9.126594415502748e-05,
        -0.00010404721194108404,
        -0.09689340719205151,
        -0.27390408710540054,
        0.05484073171467463,
        -0.00010863371322077998,
        -0.00010317019774040393,
        -0.00011761858741165477,
        -0.10953167769536262,
        -0.3055084048483306,
        0.06116850845098305,
        -0.0001211683724384957,
        -0.0001150744513258808,
        -0.00013118996288221006,
        -0.12216994819867379,
        0.0006301469952369418,
        0.00036541168642544855,
        0.0,
        0.0,
        8.590121330824112e-05,
        0.0008474128225378987,
        -0.000615421038906648,
        0.00021158281905078383,
        0.0,
        0.0,
        0.00063733597869552,
        8.590121330824111e-05,
        0.00012101451248347271,
        -0.000957188351556055,
        0.0,
        0.0,
        0.0006588931400154223,
        -0.00028720044176866477,
        -0.0003233643656631164,
        0.000586855571918919,
        0.0,
        0.0,
        0.000998886442349616,
        -0.000609214856649154
      ],
      [
        0.04218517824205725,
        -0.21069418295984396,
        -8.600128801333031e-05,
        -8.033367524996578e-05,
        -9.130817906290097e-05,
        -0.08425450235889337,
        0.048512954978365816,
        1.102370975510423,
        -9.890148121529062e-05,
        -9.238372653747217e-05,
        -0.00010500440592215375,
        -0.0968926777127269,
        0.05484073171467453,
        -0.2739024378477969,
        -0.0001118016744173489,
        -0.00010443377782491011,
        -0.00011870063278172086,
        -0.10953085306656131,
        0.06116850845098287,
        -0.3055065652917732,
        -0.0001247018676192652,
        -0.00011648382911243625,
        -0.00013239685964090114,
        -0.12216902842039505,
        0.0007757071581783605,
        0.00022128278705249596,
        0.0,
        0.0,
        0.00025198624746715386,
        0.0007393155127416732,
        -0.00040630017720225684,
        3.053376039112823e-05,
        0.0,
        0.0,
        0.0004011603858520113,
        0.00025198624746715435,
        0.00023541878382401355,
        -0.0011361435048851864,
        0.0,
        0.0,
        0.0004789828737854403,
        0.00015448140687093764,
        -0.00021343889855951766,
        0.00043676697630422117,
        0.0,
        0.0,
        0.0010878203129247477,
        -0.0008092551369163248
      ],
      [
        -8.356439478484913e-05,
        -8.600128801320358e-05,
        -0.25267791248241855,
        0.00017964384599312763,
        0.000192933879516225,
        -8.478284139919808e-05,
        -9.609905400294231e-05,
        -9.890148121526658e-05,
        1.0540896865594611,
        0.00020659042289212267,
        0.0002218739614435759,
        -9.750026760960814e-05,
        -0.00010863371322080897,
        -0.00011180167441760857,
        -0.32848128622714395,
        0.00023353699979097978,
        0.00025081404337101677,
        -0.0001102176938190706,
        -0.00012116837243868043,
        -0.00012470186761954572,
        -0.3663829730995073,
        0.0002604835766900422,
        0.00027975412529850503,
        -0.00012293512002949997,
        -0.0012412050201806343,
        -0.0002677144148143894,
        0.0,
        0.0,
        -0.000222265990994496,
        -0.0008922959789198475,
        0.001207758402944015,
        -3.4261946329771086e-05,
        0.0,
        0.0,
        -0.0008571277246483418,
        -0.00022226599099449596,
        -0.0002095363286440949,
        0.0019647323586922815,
        0.0,
        0.0,
        -0.0009801430309356012,
        7.721973073592962e-05,
        -0.00012650931277949167,
        -0.0006681012745426097,
        0.0,
        0.0,
        -0.0021888192751274085,
        0.0012651331522727269
      ],
      [
        -7.93616905691129e-05,
        -8.033367524986086e-05,
        0.0001796438459931569,
        -0.25269946075370237,
        0.00018067225777830117,
        -7.984768290942847e-05,
        -9.126594415500487e-05,
        -9.238372653741744e-05,
        0.00020659042289208798,
        1.054064906047486,
        0.00020777309644516817,
        -9.182483534638109e-05,
        -0.00010317019774001944,
        -0.00010443377782508073,
        0.00023353699979117453,
        -0.3285092989798128,
        0.00023487393511168378,
        -0.00010380198778258619,
        -0.00011507445132611319,
        -0.00011648382911221255,
        0.00026048357668997756,
        -0.3664142180928679,
        0.0002619747737782332,
        -0.00011577914021970345,
        -0.001135876380175183,
        -0.0005375517254095162,
        0.0,
        0.0,
        -0.000394133735570503,
        -0.001187174327490263,
        0.0007508794209873602,
        -7.887340677423454e-05,
        0.0,
        0.0,
        -0.0005755438384629175,
        -0.0003941337355705026,
        -1.0898621681359554e-05,
        0.0016256736773927365,
        0.0,
        0.0,
        -0.0006965750873984294,
        -0.000280820877916413,
        0.0006719752552906262,
        -0.0009594628043165689,
        0.0,
        0.0,
        -0.0016061986427587712,
        0.0014920107796050418
      ],
      [
        -9.047583647035556e-05,
        -9.130817906290887e-05,
        0.0001929338795161933,
        0.00018067225777845109,
        -0.2526638016567547,
        -9.089200776659239e-05,
        -0.00010404721194104748,
        -0.0001050044059220533,
        0.00022187396144362077,
        0.00020777309644525195,
        1.0541059140089741,
        -0.00010452580893203581,
        -0.00011761858741218279,
        -0.00011870063278205099,
        0.0002508140433711404,
        0.00023487393511186937,
        -0.32846294215378036,
        -0.00011815961009663507,
        -0.0001311899628818877,
        -0.00013239685964114729,
        0.00027975412529836674,
        0.00026197477377870853,
        -0.3663625124022944,
        -0.00013179341126185248,
        -0.001855284498280843,
        -0.0009984255548027455,
        0.0,
        0.0,
        -0.00043584712116010187,
        -0.0025478591435651745,
        0.000891689068740657,
        -0.0005992956810190205,
        0.0,
        0.0,
        -0.0016919888505128385,
        -0.0004358471211600997,
        -0.0008810896895235752,
        0.0025785774949419137,
        0.0,
        0.0,
        -0.0017326010340310372,
        0.0004808906732605629,
        0.0009562337549595715,
        -0.0015503064612057411,
        0.0,
        0.0,
        -0.0024580464432890393,
        0.0014204861246488614
      ],
      [
        -0.08425513668874074,
        -0.08425450235889308,
        -8.478284139960827e-05,
        -7.984768290981379e-05,
        -9.089200776696834e-05,
        -0.0842548195238169,
        -0.09689340719205154,
        -0.09689267771272707,
        -9.750026760951892e-05,
        -9.182483534630072e-05,
        -0.0001045258089319006,
        1.247776243461855,
        -0.1095316776953625,
        -0.10953085306656093,
        -0.00011021769381951652,
        -0.00010380198778271473,
        -0.00011815961009700046,
        -0.10953126538096174,
        -0.12216994819867365,
        -0.12216902842039516,
        -0.00012293512002937567,
        -0.00011577914021922426,
        -0.00013179341126190951,
        -0.12216948830953432,
        0.0007029270767081624,
        0.0002933472367320605,
        0.0,
        0.0,
        0.00016894373038763146,
        0.0007933641676318395,
        -0.0005108606080544483,
        0.00012105828973190994,
        0.0,
        0.0,
        0.0005192481822743626,
        0.00016894373038763184,
        0.00017821664814960617,
        -0.001046665928212341,
        0.0,
        0.0,
        0.0005689380069037406,
        -6.63595174538951e-05,
        -0.00026840163210336345,
        0.0005118112741133501,
        0.0,
        0.0,
        0.0010433533776388949,
        -0.0007092349967794912
      ],
      [
        -0.23817746704817366,
        0.047687592795369285,
        -9.446409845283669e-05,
        -8.971321542597373e-05,
        -0.00010227703253223898,
        -0.09524493712640225,
        -0.27390408710540043,
        0.05484073171467447,
        -0.00010863371322075439,
        -0.00010317019773988941,
        -0.00011761858741202017,
        -0.10953167769536257,
        1.0350385787516168,
        0.06199387063398016,
        -0.00012280332798871098,
        -0.0001166271800537193,
        -0.0001329601422918563,
        -0.12381841826432315,
        -0.34535732721985235,
        0.06914700955328541,
        -0.0001369729427565582,
        -0.0001300841623676602,
        -0.0001483016971716621,
        -0.1381051588332832,
        0.0007123400815749869,
        0.00041307408029803724,
        0.0,
        0.0,
        9.710571939073338e-05,
        0.0009579449298488955,
        -0.0006956933483121633,
        0.00023918057806674914,
        0.0,
        0.0,
        0.0007204667585281291,
        9.710571939073212e-05,
        0.00013679901412651412,
        -0.0010820390061147928,
        0.0,
        0.0,
        0.0007448357235017511,
        -0.00032466136897558626,
        -0.00036554232640826213,
        0.0006634019508647658,
        0.0,
        0.0,
        0.00112917597830205,
        -0.0006886776640380002
      ],
      [
        0.04768759279536906,
        -0.2381760329111279,
        -9.721884731949539e-05,
        -9.081198071730933e-05,
        -0.00010321794154962982,
        -0.09524422005787937,
        0.05484073171467458,
        -0.27390243784779694,
        -0.0001118016744173797,
        -0.0001044337778249177,
        -0.00011870063278186702,
        -0.10953085306656103,
        0.06199387063398011,
        1.0350404431297773,
        -0.00012638450151536792,
        -0.00011805557493244838,
        -0.00013418332401446078,
        -0.12381748607524305,
        0.06914700955328523,
        -0.34535524772113485,
        -0.0001409673286132011,
        -0.00013167737204008368,
        -0.00014966601524661914,
        -0.13810411908392486,
        0.0008768863527337355,
        0.00025014575928286907,
        0.0,
        0.0,
        0.00028485401888580456,
        0.0008357479709172696,
        -0.00045929585249532414,
        3.451642480124066e-05,
        0.0,
        0.0,
        0.0004534856535571305,
        0.00028485401888580516,
        0.0002661255817127815,
        -0.0012843361359440222,
        0.0,
        0.0,
        0.0005414589007899618,
        0.00017463115561646857,
        -0.00024127875488933235,
        0.0004937365819030121,
        0.0,
        0.0,
        0.0012297099189375368,
        -0.0009148101547567809
      ],
      [
        -9.446409845246302e-05,
        -9.721884731932507e-05,
        -0.2856359010670812,
        0.00020307565199232153,
        0.0002180991681488738,
        -9.584147288609396e-05,
        -0.0001086337132207909,
        -0.00011180167441731901,
        -0.32848128622714373,
        0.00023353699979119732,
        0.00025081404337106154,
        -0.00011021769381961232,
        -0.00012280332798878134,
        -0.00012638450151562393,
        0.973342614527036,
        0.000263998347589914,
        0.00028352891859344877,
        -0.00012459391475203377,
        -0.00013697294275678674,
        -0.0001409673286134754,
        -0.4141720565472691,
        0.00029445969538886043,
        0.0003162437938158115,
        -0.00013897013568556094,
        -0.0014031013271630323,
        -0.00030263368631060596,
        0.0,
        0.0,
        -0.0002512572072114357,
        -0.0010086824109521151,
        0.0013652921076754915,
        -3.873089584950596e-05,
        0.0,
        0.0,
        -0.0009689269930798393,
        -0.000251257207211437,
        -0.00023686715411922127,
        0.0022210017967841883,
        0.0,
        0.0,
        -0.0011079877741002266,
        8.729186952614743e-05,
        -0.00014301052748961926,
        -0.0007552449190466195,
        0.0,
        0.0,
        -0.0024743174414492007,
        0.0014301505199588718
      ],
      [
        -8.971321542589977e-05,
        -9.081198071717875e-05,
        0.0002030756519921451,
        -0.28566025998244615,
        0.0002042382044449019,
        -9.026259807147495e-05,
        -0.00010317019774038031,
        -0.0001044337778248456,
        0.00023353699979092112,
        -0.3285092989798129,
        0.00023487393511177412,
        -0.0001038019877828037,
        -0.00011662718005386412,
        -0.00011805557493262845,
        0.00026399834758986584,
        0.973310947937064,
        0.0002655096657782541,
        -0.0001173413774932886,
        -0.0001300841623685681,
        -0.0001316773720398092,
        0.00029445969538849256,
        -0.4142073769745469,
        0.00029614539644476264,
        -0.00013088076720480004,
        -0.001284034168892561,
        -0.0006076671678541528,
        0.0,
        0.0,
        -0.00044554248368790895,
        -0.0013420231528137687,
        0.0008488202150290571,
        -8.916124244013006e-05,
        0.0,
        0.0,
        -0.0006506147739143305,
        -0.000445542483687904,
        -1.232018103063801e-05,
        0.001837718070095377,
        0.0,
        0.0,
        -0.0007874327074910017,
        -0.0003174496880806413,
        0.0007596242016326949,
        -0.0010846101266196295,
        0.0,
        0.0,
        -0.0018157028135521685,
        0.00168662088129208
      ],
      [
        -0.0001022770325316248,
        -0.00010321794154942743,
        0.0002180991681486549,
        0.00020423820444486813,
        -0.28561994969894006,
        -0.00010274748704048243,
        -0.00011761858741150771,
        -0.00011870063278151004,
        0.0002508140433708842,
        0.00023487393511163428,
        -0.3284629421537806,
        -0.00011815961009705746,
        -0.00013296014229193296,
        -0.00013418332401455977,
        0.0002835289185933013,
        0.0002655096657781966,
        0.9733633513056212,
        -0.00013357173315269318,
        -0.00014830169717070318,
        -0.00014966601524658894,
        0.0003162437938153734,
        0.0002961453964450137,
        -0.41414892706346373,
        -0.00014898385620902604,
        -0.002097278128492478,
        -0.0011286549750002507,
        0.0,
        0.0,
        -0.0004926967456650801,
        -0.00288018859708056,
        0.0010079963385713222,
        -0.0006774646828918891,
        0.0,
        0.0,
        -0.0019126830484064235,
        -0.0004926967456650792,
        -0.0009960144316423904,
        0.002914913689932896,
        0.0,
        0.0,
        -0.001958592473260824,
        0.0005436155437026804,
        0.0010809598969081817,
        -0.0017525203474419956,
        0.0,
        0.0,
        -0.0027786611967513053,
        0.0016057669234916657
      ],
      [
        -0.09524493712640238,
        -0.0952442200578793,
        -9.58414728861975e-05,
        -9.026259807180318e-05,
        -0.00010274748704068114,
        -0.09524457859214103,
        -0.10953167769536282,
        -0.10953085306656125,
        -0.00011021769381911286,
        -0.00010380198778258926,
        -0.00011815961009664438,
        -0.1095312653809619,
        -0.12381841826432294,
        -0.12381748607524293,
        -0.00012459391475208586,
        -0.00011734137749329529,
        -0.00013357173315282927,
        1.2208513337444598,
        -0.13810515883328317,
        -0.13810411908392484,
        -0.00013897013568491654,
        -0.00013088076720410723,
        -0.00014898385620877442,
        -0.138104638958604,
        0.0007946132171448263,
        0.0003316099197810284,
        0.0,
        0.0,
        0.00019097986913017568,
        0.0008968464503815605,
        -0.0005774946004064458,
        0.0001368485014419976,
        0.0,
        0.0,
        0.000586976206052105,
        0.0001909798691301739,
        0.00020146229791955596,
        -0.001183187571029499,
        0.0,
        0.0,
        0.0006431473121436617,
        -7.501510669190878e-05,
        -0.000303410540650948,
        0.0005785692663943972,
        0.0,
        0.0,
        0.001179442948625245,
        -0.000801743909404448
      ],
      [
        -0.2656594824768089,
        0.05319000734868079,
        -0.00010536380212062159,
        -0.00010006474028365524,
        -0.00011407822859303526,
        -0.10623473756406422,
        -0.3055084048483302,
        0.06116850845098292,
        -0.0001211683724386972,
        -0.00011507445132622642,
        -0.00013118996288194747,
        -0.12216994819867363,
        -0.345357327219852,
        0.06914700955328539,
        -0.00013697294275682816,
        -0.00013008416236870194,
        -0.00014830169717089351,
        -0.13810515883328323,
        0.9594630363228684,
        0.07712551065558718,
        -0.00015277751307481486,
        -0.0001450938734112991,
        -0.00016541343145981915,
        -0.15404036946789296,
        0.0007945331679092588,
        0.0004607364741730452,
        0.0,
        0.0,
        0.00010831022547808019,
        0.0010684770371337943,
        -0.0007759656577572726,
        0.00026677833706433105,
        0.0,
        0.0,
        0.0008035975383399314,
        0.00010831022547808145,
        0.00015258351577293686,
        -0.0012068896606462196,
        0.0,
        0.0,
        0.0008307783069543792,
        -0.0003621222961404821,
        -0.00040772028716230173,
        0.0007399483298091494,
        0.0,
        0.0,
        0.0012594655142225473,
        -0.0007681404714318664
      ],
      [
        0.05319000734868093,
        -0.26565788286241154,
        -0.00010843640662573734,
        -0.00010129028618457444,
        -0.00011512770403591234,
        -0.10623393775686543,
        0.06116850845098308,
        -0.30550656529177334,
        -0.00012470186761955258,
        -0.00011648382911227625,
        -0.00013239685964107,
        -0.12216902842039512,
        0.06914700955328541,
        -0.3453552477211347,
        -0.00014096732861348683,
        -0.00013167737203988874,
        -0.0001496660152466206,
        -0.1381041190839249,
        0.07712551065558712,
        0.9594653557637457,
        -0.00015723278960724253,
        -0.00014687091496761646,
        -0.00016693517085168678,
        -0.15403920974745489,
        0.0009780655472760205,
        0.0002790087315192737,
        0.0,
        0.0,
        0.00031772179029155505,
        0.0009321804290845494,
        -0.0005122915277858618,
        3.849908920537246e-05,
        0.0,
        0.0,
        0.000505810921283302,
        0.0003177217902915539,
        0.0002968323795961156,
        -0.001432528767031188,
        0.0,
        0.0,
        0.0006039349277745344,
        0.00019478090435892114,
        -0.0002691186112097045,
        0.0005507061875263887,
        0.0,
        0.0,
        0.0013715995249862286,
        -0.0010203651726300661
      ],
      [
        -0.00010536380211999819,
        -0.00010843640662533142,
        -0.31859388965174495,
        0.00022650745799129436,
        0.00024326445678127492,
        -0.00010690010437288689,
        -0.00012116837243848821,
        -0.000124701867619238,
        -0.3663829730995075,
        0.00026048357669001507,
        0.00027975412529833725,
        -0.0001229351200294899,
        -0.00013697294275662037,
        -0.00014096732861349016,
        -0.41417205654726863,
        0.00029445969538856277,
        0.0003162437938155379,
        -0.00013897013568487084,
        -0.00015277751307480027,
        -0.00015723278960723877,
        0.8827081459192135,
        0.000328435814087371,
        0.00035273346233279345,
        -0.00015500515134148803,
        -0.00156499763414179,
        -0.0003375529578075796,
        0.0,
        0.0,
        -0.000280248423429413,
        -0.001125068842986972,
        0.0015228258124062983,
        -4.319984537025718e-05,
        0.0,
        0.0,
        -0.0010807262615117371,
        -0.0002802484234294079,
        -0.0002641979795947411,
        0.002477271234872758,
        0.0,
        0.0,
        -0.0012358325172652153,
        9.73640083152945e-05,
        -0.00015951174219640894,
        -0.0008423885635509047,
        0.0,
        0.0,
        -0.002759815607765359,
        0.0015951678876450549
      ],
      [
        -0.00010006474028277648,
        -0.0001012902861845809,
        0.0002265074579913329,
        -0.31862105921118944,
        0.00022780415111170376,
        -0.000100677513233605,
        -0.000115074451325856,
        -0.00011648382911236603,
        0.0002604835766899851,
        -0.3664142180928679,
        0.00026197477377860266,
        -0.00011577914021932265,
        -0.0001300841623678253,
        -0.00013167737204028456,
        0.0002944596953888229,
        -0.4142073769745469,
        0.0002961453964450821,
        -0.00013088076720409964,
        -0.00014509387341115826,
        -0.00014687091496753385,
        0.000328435814087311,
        0.8826687500580185,
        0.0003303160191115898,
        -0.0001459823941900269,
        -0.001432191957610798,
        -0.0006777826103008976,
        0.0,
        0.0,
        -0.0004969512318056033,
        -0.0014968719781393897,
        0.0009467610090710119,
        -9.944907810628468e-05,
        0.0,
        0.0,
        -0.0007256857093663981,
        -0.0004969512318056042,
        -1.3741740380346915e-05,
        0.002049762462798911,
        0.0,
        0.0,
        -0.0008782903275872735,
        -0.0003540784982423944,
        0.0008472731479763028,
        -0.001209757448919095,
        0.0,
        0.0,
        -0.0020252069843450533,
        0.0018812309829783738
      ],
      [
        -0.00011407822859289094,
        -0.00011512770403566874,
        0.00024326445678115186,
        0.00022780415111134085,
        -0.3185760977411253,
        -0.00011460296631423171,
        -0.0001311899628820112,
        -0.00013239685964065045,
        0.0002797541252982621,
        0.0002619747737780816,
        -0.3663625124022948,
        -0.00013179341126193914,
        -0.0001483016971716944,
        -0.0001496660152467088,
        0.00031624379381554,
        0.0002961453964445925,
        -0.4141489270634639,
        -0.00014898385620859412,
        -0.00016541343145957604,
        -0.00016693517085163032,
        0.0003527334623324935,
        0.0003303160191113911,
        0.882733944189611,
        -0.0001661743011560219,
        -0.002339271758690987,
        -0.0012588843951966662,
        0.0,
        0.0,
        -0.0005495463701576372,
        -0.003212518050596976,
        0.0011243036084109606,
        -0.0007556336847525342,
        0.0,
        0.0,
        -0.0021333772463017937,
        -0.0005495463701576359,
        -0.001110939173745095,
        0.003251249884917818,
        0.0,
        0.0,
        -0.0021845839124765266,
        0.0006063404141301934,
        0.0012056860388600414,
        -0.0019547342336902083,
        0.0,
        0.0,
        -0.0030992759502236856,
        0.0017910477223712176
      ],
      [
        -0.10623473756406446,
        -0.10623393775686518,
        -0.00010690010437353046,
        -0.00010067751323457765,
        -0.00011460296631478406,
        -0.10623433766046483,
        -0.12216994819867383,
        -0.12216902842039506,
        -0.00012293512002954074,
        -0.00011577914021978076,
        -0.00013179341126185528,
        -0.12216948830953418,
        -0.13810515883328298,
        -0.1381041190839246,
        -0.00013897013568561677,
        -0.00013088076720489642,
        -0.0001489838562091494,
        -0.13810463895860406,
        -0.15404036946789282,
        -0.15403920974745478,
        -0.0001550051513415548,
        -0.00014598239419012833,
        -0.0001661743011561859,
        1.1906294963065702,
        0.0008862993575897285,
        0.0003698726028442722,
        0.0,
        0.0,
        0.000213016007877423,
        0.0010003287331030594,
        -0.0006441285927749471,
        0.00015263871314150047,
        0.0,
        0.0,
        0.0006547042298210574,
        0.00021301600787742217,
        0.00022470794768521152,
        -0.0013197092138343353,
        0.0,
        0.0,
        0.0007173566173873981,
        -8.367069592142192e-05,
        -0.00033841944917850083,
        0.0006453272586654896,
        0.0,
        0.0,
        0.0013155325196172482,
        -0.0008942528220285738
      ],
      [
        0.000547953908903016,
        0.000674527963640496,
        -0.0010793087132004364,
        -0.0009877185914567562,
        -0.0016132908680660152,
        0.0006112409362700798,
        0.0006301469952357452,
        0.0007757071581776364,
        -0.001241205020180203,
        -0.0011358763801743877,
        -0.00185528449827976,
        0.0007029270767093642,
        0.0007123400815751304,
        0.0008768863527332308,
        -0.0014031013271629846,
        -0.0012840341688918054,
        -0.002097278128493553,
        0.0007946132171449996,
        0.0007945331679063237,
        0.0009780655472762516,
        -0.0015649976341409694,
        -0.0014321919576100394,
        -0.002339271758692003,
        0.0008862993575899171,
        0.2060520516473385,
        0.0002491262469977638,
        0.0,
        0.0,
        -0.008390430768830667,
        0.005426097697006278,
        -0.00848329605342879,
        0.0029759473095810154,
        0.0,
        0.0,
        0.02970065365074589,
        -0.008390430768830635,
        -0.11678646906435147,
        -0.0019243228908580818,
        0.0,
        0.0,
        0.025816852510387758,
        -0.032954830957335514,
        0.030982400905534876,
        0.0006115977947822774,
        0.0,
        0.0,
        0.006786386561898314,
        -0.035598714346144644
      ],
      [
        0.00031774929253608594,
        0.0001924198148479492,
        -0.00023279514331487637,
        -0.00046743628296786247,
        -0.0008681961346204527,
        0.0002550845536848135,
        0.00036541168642298063,
        0.00022128278704960485,
        -0.0002677144148137705,
        -0.0005375517254088468,
        -0.000998425554806516,
        0.00029334723673211715,
        0.00041307408029995823,
        0.00025014575928090015,
        -0.0003026336863102131,
        -0.0006076671678540601,
        -0.001128654974999169,
        0.0003316099197808405,
        0.0004607364741748839,
        0.00027900873152433993,
        -0.00033755295780699623,
        -0.0006777826103004511,
        -0.0012588843951954313,
        0.00036987260283755894,
        0.0002491262469775324,
        0.21209334323665116,
        0.0,
        0.0,
        -0.006499971696294948,
        0.06831235565631583,
        0.011513876252438073,
        -0.04239171941608132,
        0.0,
        0.0,
        0.02881064048317895,
        -0.006499971696294927,
        0.02688020337063934,
        -0.029255253789829783,
        0.0,
        0.0,
        0.07323664755532301,
        -0.07352052139889574,
        -0.03987072050619889,
        -0.01401471475472882,
        0.0,
        0.0,
        0.0007762234736603809,
        0.026731589449504142
      ],
      [
        0.0,
        0.0,
        0.0,
        0.0,
        0.0,
        0.0,
        0.0,
        0.0,
        0.0,
        0.0,
        0.0,
        0.0,
        0.0,
        0.0,
        0.0,
        0.0,
        0.0,
        0.0,
        0.0,
        0.0,
        0.0,
        0.0,
        0.0,
        0.0,
        0.0,
        0.0,
        1.3446692859142435,
        0.0,
        0.0,
        0.0,
        0.0,
        0.0,
        0.0,
        0.0,
        0.0,
        0.0,
        0.0,
        0.0,
        0.0,
        0.0,
        0.0,
        0.0,
        0.0,
        0.0,
        0.0,
        0.0,
        0.0,
        0.0
      ],
      [
        0.0,
        0.0,
        0.0,
        0.0,
        0.0,
        0.0,
        0.0,
        0.0,
        0.0,
        0.0,
        0.0,
        0.0,
        0.0,
        0.0,
        0.0,
        0.0,
        0.0,
        0.0,
        0.0,
        0.0,
        0.0,
        0.0,
        0.0,
        0.0,
        0.0,
        0.0,
        0.0,
        1.3446692859142435,
        0.0,
        0.0,
        0.0,
        0.0,
        0.0,
        0.0,
        0.0,
        0.0,
        0.0,
        0.0,
        0.0,
        0.0,
        0.0,
        0.0,
        0.0,
        0.0,
        0.0,
        0.0,
        0.0,
        0.0
      ],
      [
        7.469670722401992e-05,
        0.000219118476068395,
        -0.00019327477477707088,
        -0.000342724987452091,
        -0.0003789974966663028,
        0.00014690759163984825,
        8.590121330481426e-05,
        0.00025198624746668874,
        -0.00022226599099343158,
        -0.000394133735569642,
        -0.0004358471211627041,
        0.00016894373038784963,
        9.710571939085644e-05,
        0.0002848540188846577,
        -0.0002512572072098462,
        -0.0004455424836869866,
        -0.0004926967456627768,
        0.00019097986913107088,
        0.00010831022547728292,
        0.00031772179028990625,
        -0.00028024842342816203,
        -0.0004969512318045865,
        -0.000549546370156681,
        0.0002130160078785274,
        -0.008390430768821837,
        -0.006499971696254185,
        0.0,
        0.0,
        0.7562204882665285,
        -0.03975546651678164,
        0.022304397076972075,
        -0.0020148394416649035,
        0.0,
        0.0,
        -0.01799324163810777,
        -0.588448797647714,
        0.03128187674001337,
        -0.002902922957510788,
        0.0,
        0.0,
        0.002652544180786629,
        -0.04141286820988371,
        -0.03437929798977571,
        0.004138661144892824,
        0.0,
        0.0,
        0.03507709381464329,
        -0.010080322825606957
      ],
      [
        0.0007368807152445236,
        0.0006428830545539012,
        -0.000775909546887654,
        -0.0010323255021633363,
        -0.0022155296900657935,
        0.0006898818848983966,
        0.0008474128225362352,
        0.0007393155127326811,
        -0.0008922959789186843,
        -0.0011871743274904022,
        -0.0025478591435629124,
        0.0007933641676312249,
        0.0009579449298426227,
        0.0008357479709146811,
        -0.0010086824109507655,
        -0.0013420231528122341,
        -0.0028801885970782706,
        0.0008968464503812622,
        0.0010684770371360015,
        0.0009321804290843604,
        -0.0011250688429852475,
        -0.0014968719781378002,
        -0.0032125180505929414,
        0.001000328733106031,
        0.0054260976969243,
        0.06831235565623318,
        0.0,
        0.0,
        -0.03975546651674537,
        0.29504881429794616,
        0.04551674041586036,
        0.0470466513184978,
        0.0,
        0.0,
        0.01693367199272322,
        -0.03975546651674534,
        0.07833968509548565,
        -0.11192324985445824,
        0.0,
        0.0,
        0.018684429737285103,
        0.05943849499798186,
        -0.10786597356699705,
        0.0908932175436512,
        0.0,
        0.0,
        -0.05994503434094665,
        0.05488631283354531
      ],
      [
        -0.0005351487294869104,
        -0.0003533045019189085,
        0.0010502246982131728,
        0.0006529386269469106,
        0.000775381798899038,
        -0.0004442266157012187,
        -0.0006154210389072461,
        -0.00040630017720376133,
        0.0012077584029455976,
        0.0007508794209876564,
        0.0008916890687362879,
        -0.0005108606080574495,
        -0.0006956933483114053,
        -0.00045929585249697473,
        0.0013652921076774134,
        0.0008488202150295178,
        0.0010079963385764043,
        -0.0005774946004077548,
        -0.0007759656577574956,
        -0.0005122915277883806,
        0.0015228258124084587,
        0.0009467610090716543,
        0.0011243036084167457,
        -0.0006441285927714225,
        -0.008483296053392249,
        0.011513876252415933,
        0.0,
        0.0,
        0.022304397076977213,
        0.045516740415807465,
        0.12864982312717194,
        0.005530256687902402,
        0.0,
        0.0,
        -0.0024585667213745614,
        0.022304397076977175,
        0.030698917471743605,
        -0.001757988163155466,
        0.0,
        0.0,
        -0.0050878619332625444,
        0.029900159738424876,
        -0.04320289884873153,
        0.01041177902069596,
        0.0,
        0.0,
        -0.03276540515637172,
        0.01301033261198167
      ],
      [
        0.000183985060044805,
        2.655109598245301e-05,
        -2.9792996807705658e-05,
        -6.858557111048332e-05,
        -0.0005211266791386677,
        0.00010526807802034745,
        0.0002115828190506144,
        3.053376039526466e-05,
        -3.426194632993525e-05,
        -7.887340677584412e-05,
        -0.0005992956810168044,
        0.00012105828973670744,
        0.0002391805780649538,
        3.451642480149477e-05,
        -3.8730895849627306e-05,
        -8.916124244103447e-05,
        -0.0006774646828869462,
        0.000136848501443455,
        0.0002667783370614927,
        3.84990891978398e-05,
        -4.319984537034463e-05,
        -9.944907810691539e-05,
        -0.0007556336847569265,
        0.00015263871314501534,
        0.0029759473095677417,
        -0.04239171941614453,
        0.0,
        0.0,
        -0.002014839441668053,
        0.04704665131845097,
        0.005530256687918849,
        0.16454760832248094,
        0.0,
        0.0,
        0.02261393090152611,
        -0.002014839441668046,
        0.018254542190927057,
        -0.060726119728457095,
        0.0,
        0.0,
        -0.0526166791341558,
        0.032400026334450785,
        -0.02334178102112528,
        0.02211024159847411,
        0.0,
        0.0,
        0.03933915668105625,
        -0.00832916482064672
      ],
      [
        0.0,
        0.0,
        0.0,
        0.0,
        0.0,
        0.0,
        0.0,
        0.0,
        0.0,
        0.0,
        0.0,
        0.0,
        0.0,
        0.0,
        0.0,
        0.0,
        0.0,
        0.0,
        0.0,
        0.0,
        0.0,
        0.0,
        0.0,
        0.0,
        0.0,
        0.0,
        0.0,
        0.0,
        0.0,
        0.0,
        0.0,
        0.0,
        1.3446692859142435,
        0.0,
        0.0,
        0.0,
        0.0,
        0.0,
        0.0,
        0.0,
        0.0,
        0.0,
        0.0,
        0.0,
        0.0,
        0.0,
        0.0,
        0.0
      ],
      [
        0.0,
        0.0,
        0.0,
        0.0,
        0.0,
        0.0,
        0.0,
        0.0,
        0.0,
        0.0,
        0.0,
        0.0,
        0.0,
        0.0,
        0.0,
        0.0,
        0.0,
        0.0,
        0.0,
        0.0,
        0.0,
        0.0,
        0.0,
        0.0,
        0.0,
        0.0,
        0.0,
        0.0,
        0.0,
        0.0,
        0.0,
        0.0,
        0.0,
        1.3446692859142435,
        0.0,
        0.0,
        0.0,
        0.0,
        0.0,
        0.0,
        0.0,
        0.0,
        0.0,
        0.0,
        0.0,
        0.0,
        0.0,
        0.0
      ],
      [
        0.0005542051988680585,
        0.00034883511811469405,
        -0.0007453284562155205,
        -0.0005004729030123224,
        -0.0014712946526217157,
        0.00045152015849594566,
        0.0006373359786936345,
        0.00040116038585152105,
        -0.0008571277246490024,
        -0.0005755438384643792,
        -0.0016919888505200285,
        0.0005192481822774929,
        0.0007204667585308218,
        0.00045348565355952226,
        -0.0009689269930801725,
        -0.0006506147739162106,
        -0.0019126830484124718,
        0.0005869762060519175,
        0.0008035975383379047,
        0.0005058109212832146,
        -0.0010807262615117668,
        -0.0007256857093682023,
        -0.0021333772463006466,
        0.0006547042298172087,
        0.029700653650720207,
        0.028810640483041296,
        0.0,
        0.0,
        -0.017993241638130295,
        0.016933671992830364,
        -0.0024585667213232404,
        0.02261393090159746,
        0.0,
        0.0,
        0.14296635797674057,
        -0.017993241638130316,
        0.013852734989244518,
        0.025295534718288205,
        0.0,
        0.0,
        0.022707113492384814,
        -0.04710399124992945,
        -0.006944298578834045,
        -0.014215052407554935,
        0.0,
        0.0,
        0.019876583263185758,
        -0.03189849512452017
      ],
      [
        7.469670722401927e-05,
        0.00021911847606839613,
        -0.00019327477477707136,
        -0.0003427249874520932,
        -0.0003789974966663023,
        0.00014690759163984795,
        8.590121330481687e-05,
        0.0002519862474666874,
        -0.00022226599099343277,
        -0.00039413373556964823,
        -0.0004358471211627058,
        0.00016894373038784944,
        9.710571939085536e-05,
        0.0002848540188846588,
        -0.0002512572072098479,
        -0.0004455424836869849,
        -0.0004926967456627786,
        0.00019097986913107042,
        0.00010831022547728297,
        0.0003177217902899055,
        -0.00028024842342816013,
        -0.0004969512318045858,
        -0.0005495463701566793,
        0.00021301600787852954,
        -0.00839043076882183,
        -0.006499971696254206,
        0.0,
        0.0,
        -0.5884487976477139,
        -0.03975546651678171,
        0.02230439707697204,
        -0.0020148394416648987,
        0.0,
        0.0,
        -0.01799324163810778,
        0.7562204882665284,
        0.03128187674001338,
        -0.0029029229575107656,
        0.0,
        0.0,
        0.002652544180786601,
        -0.04141286820988369,
        -0.03437929798977569,
        0.004138661144892804,
        0.0,
        0.0,
        0.03507709381464331,
        -0.010080322825606983
      ],
      [
        0.00010523001086610105,
        0.0002047119859318464,
        -0.00018220550316887628,
        -9.477062330039087e-06,
        -0.0007661649474084447,
        0.0001549709983988136,
        0.00012101451248207105,
        0.0002354187838193087,
        -0.00020953632864340705,
        -1.0898621679781723e-05,
        -0.0008810896895246715,
        0.00017821664815190796,
        0.0001367990141228221,
        0.0002661255817099971,
        -0.00023686715411816567,
        -1.2320181028211527e-05,
        -0.0009960144316395307,
        0.00020146229791955745,
        0.0001525835157651601,
        0.00029683237959558627,
        -0.00026419797959470714,
        -1.3741740377701258e-05,
        -0.001110939173740749,
        0.00022470794768741524,
        -0.11678646906437856,
        0.026880203370569608,
        0.0,
        0.0,
        0.03128187674001151,
        0.0783396850955981,
        0.030698917471766847,
        0.01825454219093819,
        0.0,
        0.0,
        0.013852734989163335,
        0.03128187674001152,
        0.30289119749435117,
        -0.04372192054364692,
        0.0,
        0.0,
        0.014253322032299794,
        0.03370734912711188,
        -0.1709207460079913,
        0.034063076386340624,
        0.0,
        0.0,
        0.015356368643309902,
        0.028229113373268777
      ],
      [
        -0.0008323376970031671,
        -0.0009879508738080633,
        0.0017084629206016693,
        0.0014136292846859502,
        0.002242241299946328,
        -0.000910144285408533,
        -0.0009571883515556449,
        -0.0011361435048874158,
        0.001964732358690934,
        0.0016256736773918156,
        0.00257857749493439,
        -0.0010466659282117301,
        -0.0010820390061122935,
        -0.001284336135946292,
        0.002221001796782589,
        0.0018377180700943796,
        0.0029149136899339076,
        -0.0011831875710282876,
        -0.001206889660652569,
        -0.0014325287670209652,
        0.0024772712348711022,
        0.0020497624627982347,
        0.0032512498849132138,
        -0.0013197092138406243,
        -0.0019243228908483135,
        -0.029255253789779865,
        0.0,
        0.0,
        -0.002902922957552014,
        -0.11192324985444868,
        -0.001757988163187215,
        -0.06072611972840018,
        0.0,
        0.0,
        0.025295534718412453,
        -0.0029029229575520416,
        -0.043721920543630846,
        0.3168237720079246,
        0.0,
        0.0,
        -0.009496924923021368,
        0.0023131370483078636,
        0.04331320425727756,
        -0.15701587993479618,
        0.0,
        0.0,
        -0.11000947832666634,
        0.027662185169315633
      ],
      [
        0.0,
        0.0,
        0.0,
        0.0,
        0.0,
        0.0,
        0.0,
        0.0,
        0.0,
        0.0,
        0.0,
        0.0,
        0.0,
        0.0,
        0.0,
        0.0,
        0.0,
        0.0,
        0.0,
        0.0,
        0.0,
        0.0,
        0.0,
        0.0,
        0.0,
        0.0,
        0.0,
        0.0,
        0.0,
        0.0,
        0.0,
        0.0,
        0.0,
        0.0,
        0.0,
        0.0,
        0.0,
        0.0,
        1.3446692859142435,
        0.0,
        0.0,
        0.0,
        0.0,
        0.0,
        0.0,
        0.0,
        0.0,
        0.0
      ],
      [
        0.0,
        0.0,
        0.0,
        0.0,
        0.0,
        0.0,
        0.0,
        0.0,
        0.0,
        0.0,
        0.0,
        0.0,
        0.0,
        0.0,
        0.0,
        0.0,
        0.0,
        0.0,
        0.0,
        0.0,
        0.0,
        0.0,
        0.0,
        0.0,
        0.0,
        0.0,
        0.0,
        0.0,
        0.0,
        0.0,
        0.0,
        0.0,
        0.0,
        0.0,
        0.0,
        0.0,
        0.0,
        0.0,
        0.0,
        1.3446692859142435,
        0.0,
        0.0,
        0.0,
        0.0,
        0.0,
        0.0,
        0.0,
        0.0
      ],
      [
        0.0005729505565353731,
        0.0004165068467494115,
        -0.0008522982877709394,
        -0.00060571746730239,
        -0.0015066095948110113,
        0.0004947287016552784,
        0.0006588931400145147,
        0.0004789828737814851,
        -0.000980143030937629,
        -0.000696575087398216,
        -0.0017326010340373756,
        0.000568938006901669,
        0.0007448357235048935,
        0.0005414589007869031,
        -0.001107987774102806,
        -0.0007874327074904649,
        -0.0019585924732636473,
        0.0006431473121416238,
        0.0008307783069528837,
        0.0006039349277867487,
        -0.001235832517267608,
        -0.0008782903275880188,
        -0.0021845839124789387,
        0.0007173566173950592,
        0.025816852510437624,
        0.07323664755555317,
        0.0,
        0.0,
        0.002652544180812406,
        0.018684429737195526,
        -0.005087861933284582,
        -0.05261667913435358,
        0.0,
        0.0,
        0.022707113492368477,
        0.0026525441808124017,
        0.014253322032324038,
        -0.009496924922991349,
        0.0,
        0.0,
        0.23394610233444302,
        -0.1710920131880701,
        -0.007301595003298562,
        0.05558002880110007,
        0.0,
        0.0,
        -0.04188475623389415,
        0.019816513262568218
      ],
      [
        -0.0002497395146100332,
        0.00013433165817611445,
        6.714759194574631e-05,
        -0.00024419206775245936,
        0.0004181658028432607,
        -5.770392822830235e-05,
        -0.0002872004417691935,
        0.00015448140687359088,
        7.721973073848323e-05,
        -0.00028082087791430797,
        0.000480890673267275,
        -6.63595174544347e-05,
        -0.00032466136897181167,
        0.0001746311556163798,
        8.72918695295052e-05,
        -0.0003174496880787074,
        0.0005436155437028811,
        -7.501510669267935e-05,
        -0.0003621222961457702,
        0.00019478090434844322,
        9.736400831942624e-05,
        -0.0003540784982393856,
        0.0006063404141342678,
        -8.367069592158536e-05,
        -0.032954830957335056,
        -0.07352052139899729,
        0.0,
        0.0,
        -0.04141286820989275,
        0.059438494998049304,
        0.02990015973842714,
        0.0324000263345853,
        0.0,
        0.0,
        -0.047103991249890266,
        -0.041412868209892685,
        0.03370734912712816,
        0.0023131370483252377,
        0.0,
        0.0,
        -0.17109201318813191,
        0.42167589245560505,
        -0.03675414783861307,
        -0.04508157465008389,
        0.0,
        0.0,
        -0.05999424184896165,
        -0.05060849972754505
      ],
      [
        -0.00028118640492344693,
        -0.00018559904222303106,
        -0.00011000809806751644,
        0.0005843263089453523,
        0.0008315076130123157,
        -0.00023339272357171626,
        -0.00032336436566486707,
        -0.00021343889855350605,
        -0.0001265093127810481,
        0.0006719752552895058,
        0.0009562337549588365,
        -0.00026840163210380954,
        -0.0003655423264011726,
        -0.0002412787548839485,
        -0.00014301052749199383,
        0.0007596242016306142,
        0.0010809598969020533,
        -0.0003034105406493723,
        -0.00040772028716169723,
        -0.0002691186112079521,
        -0.00015951174219850042,
        0.0008472731479738966,
        0.001205686038854923,
        -0.00033841944918119296,
        0.03098240090564067,
        -0.039870720506126715,
        0.0,
        0.0,
        -0.03437929798977059,
        -0.10786597356701068,
        -0.04320289884872363,
        -0.023341781021129167,
        0.0,
        0.0,
        -0.006944298578716731,
        -0.03437929798977058,
        -0.1709207460078794,
        0.043313204257262594,
        0.0,
        0.0,
        -0.007301595003319931,
        -0.036754147838537324,
        0.24076266444577604,
        -0.0495790039075887,
        0.0,
        0.0,
        0.004383652113228084,
        -0.02361737658857422
      ],
      [
        0.0005103091929746989,
        0.00037979737070955027,
        -0.000580957630037364,
        -0.0008343154820134266,
        -0.0013480925749567623,
        0.00044505328185356956,
        0.0005868555719157325,
        0.0004367669763099361,
        -0.0006681012745445166,
        -0.000959462804317783,
        -0.001550306461205735,
        0.0005118112741135304,
        0.0006634019508684239,
        0.0004937365819046529,
        -0.0007552449190493315,
        -0.0010846101266211276,
        -0.0017525203474497214,
        0.0005785692663948598,
        0.0007399483298088818,
        0.000550706187525891,
        -0.0008423885635538349,
        -0.001209757448920774,
        -0.00195473423369323,
        0.0006453272586715101,
        0.000611597794822972,
        -0.014014714754671524,
        0.0,
        0.0,
        0.004138661144920923,
        0.09089321754372441,
        0.010411779020684766,
        0.022110241598605012,
        0.0,
        0.0,
        -0.01421505240757708,
        0.0041386611449209364,
        0.03406307638641406,
        -0.1570158799347944,
        0.0,
        0.0,
        0.055580028800982784,
        -0.04508157464995963,
        -0.04957900390763505,
        0.21063225651089867,
        0.0,
        0.0,
        0.0074187388474975,
        0.04219987626603825
      ],
      [
        0.0,
        0.0,
        0.0,
        0.0,
        0.0,
        0.0,
        0.0,
        0.0,
        0.0,
        0.0,
        0.0,
        0.0,
        0.0,
        0.0,
        0.0,
        0.0,
        0.0,
        0.0,
        0.0,
        0.0,
        0.0,
        0.0,
        0.0,
        0.0,
        0.0,
        0.0,
        0.0,
        0.0,
        0.0,
        0.0,
        0.0,
        0.0,
        0.0,
        0.0,
        0.0,
        0.0,
        0.0,
        0.0,
        0.0,
        0.0,
        0.0,
        0.0,
        0.0,
        0.0,
        1.3446692859142435,
        0.0,
        0.0,
        0.0
      ],
      [
        0.0,
        0.0,
        0.0,
        0.0,
        0.0,
        0.0,
        0.0,
        0.0,
        0.0,
        0.0,
        0.0,
        0.0,
        0.0,
        0.0,
        0.0,
        0.0,
        0.0,
        0.0,
        0.0,
        0.0,
        0.0,
        0.0,
        0.0,
        0.0,
        0.0,
        0.0,
        0.0,
        0.0,
        0.0,
        0.0,
        0.0,
        0.0,
        0.0,
        0.0,
        0.0,
        0.0,
        0.0,
        0.0,
        0.0,
        0.0,
        0.0,
        0.0,
        0.0,
        0.0,
        0.0,
        1.3446692859142435,
        0.0,
        0.0
      ],
      [
        0.0008685969063932739,
        0.000945930706870601,
        -0.001903321108803881,
        -0.0013966944719643565,
        -0.0021374316898081385,
        0.0009072638066449856,
        0.0009988864423473658,
        0.001087820312925774,
        -0.0021888192751271154,
        -0.0016061986427599176,
        -0.0024580464432873324,
        0.0010433533776390042,
        0.001129175978308663,
        0.001229709918940898,
        -0.0024743174414489895,
        -0.0018157028135527377,
        -0.0027786611967569328,
        0.0011794429486251833,
        0.0012594655142217047,
        0.0013715995249838945,
        -0.002759815607765256,
        -0.0020252069843464063,
        -0.0030992759502286903,
        0.001315532519615172,
        0.00678638656193629,
        0.0007762234735725575,
        0.0,
        0.0,
        0.03507709381462791,
        -0.05994503434080591,
        -0.032765405156328316,
        0.03933915668110267,
        0.0,
        0.0,
        0.019876583263182764,
        0.03507709381462794,
        0.015356368643502155,
        -0.1100094783267588,
        0.0,
        0.0,
        -0.041884756233808815,
        -0.05999424184903658,
        0.004383652113056513,
        0.007418738847519456,
        0.0,
        0.0,
        0.2403933212113574,
        -0.07739825813559364
      ],
      [
        -0.0005297520492625269,
        -0.000703700119035737,
        0.001100115784581525,
        0.0012974006779155115,
        0.0012352053257790921,
        -0.0006167260841599568,
        -0.0006092148566521653,
        -0.0008092551369193344,
        0.001265133152270764,
        0.0014920107796035946,
        0.0014204861246436408,
        -0.0007092349967740291,
        -0.000688677664040966,
        -0.0009148101547561777,
        0.001430150519957137,
        0.0016866208812908307,
        0.0016057669234955955,
        -0.0008017439094025069,
        -0.0007681404714281384,
        -0.0010203651726246067,
        0.0015951678876432417,
        0.0018812309829777363,
        0.001791047722373245,
        -0.0008942528220308996,
        -0.035598714346134534,
        0.026731589449542962,
        0.0,
        0.0,
        -0.01008032282559399,
        0.054886312833455686,
        0.013010332611956908,
        -0.00832916482060803,
        0.0,
        0.0,
        -0.03189849512452827,
        -0.010080322825593986,
        0.028229113373196425,
        0.02766218516936382,
        0.0,
        0.0,
        0.0198165132625572,
        -0.05060849972754382,
        -0.02361737658850083,
        0.042199876265968855,
        0.0,
        0.0,
        -0.0773982581356045,
        0.15722180868031357
      ]
    ],
    "alpha": 1.0,
    "forgetting_factor": 0.999,
    "weight_clip": 10.0
  }
}