{
  "metadata": {
    "series_name": "resume_test",
    "epochs": 4,
    "history": []
  },
  "encoder": {
    "amplitude": 10.0,
    "delta_scale": 1.4,
    "quadratic_scale": 0.7,
    "magnitude_scale": 0.5,
    "band_growth": 0.15
  },
  "reservoir": {
    "n_neurons": 24,
    "dt": 1.0,
    "max_weight": 2.0,
    "max_delay_limit": 50,
    "readout_decay": 0.92,
    "synapses": [
      {
        "2": -4.352910311571822e-06,
        "19": -0.004448955232670715,
        "21": -7.164886337152239e-06
      },
      {
        "6": 2.0,
        "23": 2.0
      },
      {
        "10": 2.0
      },
      {
        "1": 2.0,
        "4": 2.0,
        "17": 2.0
      },
      {
        "5": 2.0,
        "7": 2.0,
        "10": 2.0,
        "22": 2.0
      },
      {
        "6": 0.0,
        "7": -0.004963521038528792,
        "10": -0.006483457726069562,
        "15": 0.0,
        "17": 0.0
      },
      {
        "1": 2.0,
        "10": 2.0,
        "15": 2.0,
        "16": 2.0
      },
      {
        "5": 2.0,
        "6": 2.0
      },
      {
        "0": 2.0,
        "22": 2.0,
        "23": 2.0
      },
      {
        "17": 2.0,
        "18": 2.0
      },
      {
        "17": 0.0
      },
      {
        "10": 2.0,
        "23": 2.0
      },
      {
        "0": 2.0
      },
      {
        "2": 2.0,
        "10": 2.0,
        "17": 2.0
      },
      {
        "0": 2.0,
        "9": 2.0
      },
      {
        "9": -1.6114391074510864e-05
      },
      {
        "3": 2.0,
        "14": 2.0,
        "15": 2.0
      },
      {
        "10": 2.0
      },
      {
        "7": 2.0
      },
      {
        "0": 2.0
      },
      {
        "1": -1.5589866944790756e-05,
        "4": -1.3304785958754496e-05,
        "22": -1.6149438167478267e-05
      },
      {
        "5": 2.0,
        "11": 2.0,
        "14": 2.0,
        "20": 2.0
      },
      {
        "8": 2.0,
        "10": 2.0,
        "15": 2.0
      },
      {
        "3": 2.0,
        "6": 2.0,
        "13": 2.0,
        "22": 2.0
      }
    ],
    "is_inhibitory": [
      true,
      false,
      false,
      false,
      false,
      true,
      false,
      false,
      false,
      false,
      true,
      false,
      false,
      false,
      false,
      true,
      false,
      false,
      false,
      false,
      true,
      false,
      false,
      false
    ]
  },
  "force_readout": {
    "weights": [
      [
        0.0009780577953415897,
        -0.0014759346908141215,
        0.01287543086708562,
        -0.011154293472629681,
        0.0005697856132589334,
        -0.000248938447746404,
        0.001124766464652345,
        -0.001697324894442665,
        0.014806745497146025,
        -0.012827437493524378,
        0.0006552534552664867,
        -0.00028627921489099954,
        0.0012714751339567983,
        -0.0019187150980571417,
        0.016738060127210533,
        -0.014500581514417613,
        0.0007407212972516718,
        -0.000323619982042186,
        0.0014181838032622193,
        -0.002140105301689283,
        0.01866937475727198,
        -0.016173725535311902,
        0.0008261891392455727,
        -0.0003609607492353662,
        -0.012124412103626601,
        0.005156605867198413,
        0.0,
        0.0,
        -0.0029442871583656347,
        -0.0028238758486673937,
        -0.005825875258680289,
        0.004568792623742273,
        0.0,
        0.0,
        -0.012702416806655452,
        -0.002944287158365639,
        -0.007455394230297203,
        0.0033234587315684977,
        0.0,
        -0.0019382011411984315,
        0.003825656722746434,
        -0.007342731570941829,
        -0.0036024009474472356,
        0.00837807647703981,
        0.0,
        0.0,
        0.0021445475618212828,
        -0.011881691399470647
      ]
    ],
    "bias": [
      0.003716758052842952
    ],
    "inverse_correlation": [
      [
        1.1614549513250818,
        0.03668266333942904,
        -7.4136364258246e-05,
        -7.083160311084829e-05,
        -7.604111336875762e-05,
        -0.07326583562486688,
        -0.21069648477753727,
        0.042185062840343235,
        -8.525681889694298e-05,
        -8.145634357749653e-05,
        -8.74472803739921e-05,
        -0.08425571096859655,
        -0.23817863496591182,
        0.04768746234125789,
        -9.637727353573759e-05,
        -9.208108404407917e-05,
        -9.885344737914932e-05,
        -0.09524558631232663,
        -0.26566078515428604,
        0.05318986184217231,
        -0.0001074977281744086,
        -0.00010270582451075015,
        -0.00011025961438451462,
        -0.10623546165605723,
        0.0005471409670475399,
        9.641792832451529e-05,
        0.0,
        0.0,
        7.523266869648595e-05,
        0.0005500452499499641,
        -0.0006125559972682709,
        2.6455076321984763e-05,
        0.0,
        0.0,
        0.00032495190518265916,
        7.523266869648612e-05,
        1.7006424045503558e-05,
        -0.000577828519809871,
        0.0,
        -0.00024071427615805907,
        0.00025322519330674625,
        0.00017374074906920177,
        -8.89000307407104e-05,
        0.00047065311964023036,
        0.0,
        0.0,
        0.0006638988184152767,
        -0.0004706844848764137
      ],
      [
        0.036682663339429156,
        1.1614573990364863,
        -7.682147066920454e-05,
        -7.229744991186986e-05,
        -7.893626887543337e-05,
        -0.07326461176916371,
        0.04218506284034381,
        -0.21069366990942004,
        -8.834469126954767e-05,
        -8.314206739865934e-05,
        -9.077670920665964e-05,
        -0.08425430353453771,
        0.0476874623412581,
        -0.23817545294108333,
        -9.986791186998443e-05,
        -9.398668488539895e-05,
        -0.00010261714953791608,
        -0.09524399529991244,
        0.05318986184217255,
        -0.26565723597274676,
        -0.00011139113247031268,
        -0.00010483130237221563,
        -0.00011445758986913737,
        -0.1062336870652872,
        0.0007072072372587147,
        9.651736753705224e-05,
        0.0,
        0.0,
        0.0002004458183797337,
        0.0005497953439846235,
        -0.0004103927100682417,
        -0.00013808072869849608,
        0.0,
        0.0,
        0.0002726673730878469,
        0.0002004458183797341,
        0.00014698140255066332,
        -0.0007108776246820068,
        0.0,
        -0.0002637456060450822,
        0.0001484645448317984,
        0.0005004949463271358,
        -4.9600519840997755e-05,
        0.00032108871898567365,
        0.0,
        0.0,
        0.0007366729213145953,
        -0.0006625503067044439
      ],
      [
        -7.413636425823223e-05,
        -7.682147066914426e-05,
        1.12495778884899,
        0.0001648255216427828,
        0.0001710808089525255,
        -7.547891746398282e-05,
        -8.525681889807188e-05,
        -8.834469126940755e-05,
        -0.2526682216250414,
        0.00018954934988923386,
        0.0001967429302952683,
        -8.680075508402065e-05,
        -9.637727353645022e-05,
        -9.986791187003572e-05,
        -0.28562494618482936,
        0.00021427317813554802,
        0.0002224050516378075,
        -9.812259270354054e-05,
        -0.00010749772817609382,
        -0.00011139113247075053,
        -0.31858167074461796,
        0.0002389970063820711,
        0.00024806717298095213,
        -0.00010944443032325602,
        -0.0012005073375712689,
        -2.1346387986287624e-05,
        0.0,
        0.0,
        -0.00010686385382008562,
        -0.0006333794914538094,
        0.0012283222340787824,
        0.00022258562127770127,
        0.0,
        0.0,
        -0.0008361892043648147,
        -0.00010686385382008843,
        -0.00013012041063739492,
        0.0010684449068198774,
        0.0,
        0.0005840738064783334,
        -0.00033088118802983394,
        -0.0005869770172118635,
        -0.000427509332886118,
        -0.0005807891520409505,
        0.0,
        0.0,
        -0.0014484810145985196,
        0.0008859514416166876
      ],
      [
        -7.08316031108209e-05,
        -7.229744991181122e-05,
        0.00016482552164269324,
        1.1249394877264127,
        0.00016131212126403916,
        -7.156452651120467e-05,
        -8.145634357876299e-05,
        -8.31420673982526e-05,
        0.00018954934988903003,
        -0.2526892679160057,
        0.00018550893945363142,
        -8.22992054887674e-05,
        -9.208108404450599e-05,
        -9.398668488540256e-05,
        0.00021427317813555992,
        -0.28564873764418003,
        0.00020970575764258907,
        -9.303388446570435e-05,
        -0.00010270582451257951,
        -0.00010483130237214247,
        0.0002389970063818644,
        -0.3186082073723543,
        0.00023390257583237383,
        -0.00010376856344220821,
        -0.0011191375576643258,
        -0.00041272432089410534,
        0.0,
        0.0,
        -0.000254566240048543,
        -0.000827246740668453,
        0.0008286908556948562,
        0.00026140104344496884,
        0.0,
        0.0,
        -0.0007588575891715907,
        -0.00025456624004854383,
        4.46865511901363e-05,
        0.0009288594136946039,
        0.0,
        0.00031064197959849673,
        -0.00014141789831038413,
        -0.0007414560665474627,
        0.0002834002106405574,
        -0.0007038929751532267,
        0.0,
        0.0,
        -0.0011563908599808144,
        0.0012609841764619227
      ],
      [
        -7.604111336881763e-05,
        -7.893626887544143e-05,
        0.0001710808089525175,
        0.00016131212126416038,
        1.1249539950854914,
        -7.748869112228629e-05,
        -8.74472803750574e-05,
        -9.077670920633899e-05,
        0.00019674293029531232,
        0.00018550893945383287,
        -0.2526725844530654,
        -8.911199479099428e-05,
        -9.885344738029794e-05,
        -0.00010261714953822189,
        0.00022240505163831728,
        0.00020970575764333433,
        -0.28562987807737916,
        -0.00010073529845937706,
        -0.00011025961438578468,
        -0.00011445758986938467,
        0.00024806717298108636,
        0.00023390257583305626,
        -0.31858717170169165,
        -0.00011235860212741638,
        -0.0015938142213260244,
        -0.00029500384928152413,
        0.0,
        0.0,
        -0.0003938389328453833,
        -0.0017019911546262397,
        0.0009751237960438599,
        -0.00011594377361395027,
        0.0,
        0.0,
        -0.0008159876718875002,
        -0.00039383893284538734,
        -0.0005281886509772737,
        0.001625923967168337,
        0.0,
        0.0006086435893583753,
        -0.0006807763113364975,
        -0.0006700002536954498,
        0.00032945254381299614,
        -0.0012319581631713402,
        0.0,
        0.0,
        -0.0016495558521304095,
        0.0011022059257862003
      ],
      [
        -0.07326583562486695,
        -0.07326461176916366,
        -7.54789174641003e-05,
        -7.15645265113814e-05,
        -7.748869112237511e-05,
        1.2714040622172287,
        -0.0842557109685963,
        -0.0842543035345382,
        -8.680075508367568e-05,
        -8.22992054881037e-05,
        -8.911199479065578e-05,
        -0.08425500725156712,
        -0.09524558631232655,
        -0.09524399529991259,
        -9.812259270334354e-05,
        -9.30338844647664e-05,
        -0.00010073529845889607,
        -0.09524479080611968,
        -0.10623546165605634,
        -0.1062336870652872,
        -0.00010944443032290542,
        -0.00010376856344151527,
        -0.00011235860212723624,
        -0.10623457436067191,
        0.0006271741021624274,
        9.646764793156513e-05,
        0.0,
        0.0,
        0.00013783924353856017,
        0.0005499202969701285,
        -0.0005114743536782167,
        -5.5812826181290434e-05,
        0.0,
        0.0,
        0.0002988096391254485,
        0.0001378392435385593,
        8.199391330612504e-05,
        -0.000644353072239194,
        0.0,
        -0.0002522299411694746,
        0.0002008448690791846,
        0.000337117847698071,
        -6.925027529125212e-05,
        0.00039587091931568894,
        0.0,
        0.0,
        0.0007002858698714653,
        -0.0005666173957969826
      ],
      [
        -0.21069648477753683,
        0.04218506284034371,
        -8.525681889797855e-05,
        -8.145634357869822e-05,
        -8.744728037497059e-05,
        -0.0842557109685964,
        1.1023683284200756,
        0.04851282226639523,
        -9.804534173262263e-05,
        -9.367479511552804e-05,
        -0.00010056437243115076,
        -0.09689406761388582,
        -0.2739054302107978,
        0.05484058169244709,
        -0.00011083386456740466,
        -0.00010589324665227973,
        -0.0001136814644871888,
        -0.10953242425917509,
        -0.305509902927428,
        0.06116834111849852,
        -0.00012362238740206387,
        -0.00011811169818913735,
        -0.00012679855654352837,
        -0.12217078090446509,
        0.0006292121121165041,
        0.00011088061758283647,
        0.0,
        0.0,
        8.65175689930898e-05,
        0.0006325520374471384,
        -0.0007044393968653431,
        3.042333776813943e-05,
        0.0,
        0.0,
        0.0003736946909965412,
        8.651756899308912e-05,
        1.955738766226082e-05,
        -0.0006645027977836104,
        0.0,
        -0.00027682141755354167,
        0.00029120897230157995,
        0.00019980186144830713,
        -0.00010223503535905286,
        0.0005412510875895286,
        0.0,
        0.0,
        0.0007634836411872935,
        -0.0005412871576042104
      ],
      [
        0.042185062840343304,
        -0.21069366990942037,
        -8.834469126941344e-05,
        -8.314206739837158e-05,
        -9.077670920631275e-05,
        -0.08425430353453833,
        0.04851282226639521,
        1.1023715655184096,
        -0.00010159639495977961,
        -9.561337750813839e-05,
        -0.0001043932155871568,
        -0.09689244906471876,
        0.054840581692446703,
        -0.2739017708822462,
        -0.00011484809865025594,
        -0.00010808468761784681,
        -0.00011800972196803829,
        -0.10953059459489956,
        0.061168341118498164,
        -0.305505821368659,
        -0.00012809980234060618,
        -0.00012055599772764403,
        -0.00013162622834887603,
        -0.12216874012508054,
        0.00081328832283574,
        0.00011099497264627624,
        0.0,
        0.0,
        0.0002305126911280543,
        0.0006322646455900617,
        -0.00047195161657478024,
        -0.00015879283798241284,
        0.0,
        0.0,
        0.00031356747904922385,
        0.00023051269112805438,
        0.0001690286129359585,
        -0.0008175092683767684,
        0.0,
        -0.00030330744699594037,
        0.00017073422656603668,
        0.000575569188258996,
        -5.704059781757382e-05,
        0.00036925202683063915,
        0.0,
        0.0,
        0.0008471738595392645,
        -0.0007619328527282081
      ],
      [
        -8.525681889691875e-05,
        -8.834469126947378e-05,
        -0.25266822162504154,
        0.00018954934988912411,
        0.00019674293029531297,
        -8.680075508353322e-05,
        -9.804534173272448e-05,
        -0.00010159639495977002,
        1.0541008310454452,
        0.00021798175237253711,
        0.00022625436983950888,
        -9.982086834657329e-05,
        -0.0001108338645668727,
        -0.00011484809865048541,
        -0.32846868811255314,
        0.0002464141548557919,
        0.0002557658093833533,
        -0.00011284098160902881,
        -0.0001236223874024703,
        -0.00012809980234130186,
        -0.36636892135630944,
        0.00027484655733928554,
        0.0002852772489279775,
        -0.00012586109487170688,
        -0.0013805834382056251,
        -2.4548346183437005e-05,
        0.0,
        0.0,
        -0.00012289343189345777,
        -0.000728386415171746,
        0.0014125705691898003,
        0.0002559734644682725,
        0.0,
        0.0,
        -0.0009616175850215507,
        -0.00012289343189345687,
        -0.00014963847223378051,
        0.0012287116428430784,
        0.0,
        0.000671684877445715,
        -0.000380513366233899,
        -0.0006750235697917767,
        -0.0004916357328200893,
        -0.000667907524847468,
        0.0,
        0.0,
        -0.0016657531667890737,
        0.0010188441578587322
      ],
      [
        -8.145634357748489e-05,
        -8.31420673986198e-05,
        0.00018954934988918155,
        -0.2526892679160058,
        0.00018550893945374906,
        -8.229920548792508e-05,
        -9.367479511562647e-05,
        -9.561337750803218e-05,
        0.00021798175237248266,
        1.0540766278108389,
        0.00021333528037179633,
        -9.46440863121276e-05,
        -0.00010589324665123562,
        -0.00010808468761826339,
        0.0002464141548560079,
        -0.32849604829080636,
        0.0002411616212891088,
        -0.00010698896713561039,
        -0.00011811169818952683,
        -0.00012055599772801884,
        0.00027484655733927275,
        -0.3663994384782082,
        0.00026898796220737746,
        -0.0001193338479585965,
        -0.0012870081913144047,
        -0.00047463296902633276,
        0.0,
        0.0,
        -0.0002927511760551203,
        -0.0009513337517716147,
        0.0009529944840490469,
        0.00030061119996217117,
        0.0,
        0.0,
        -0.0008726862275510623,
        -0.00029275117605511895,
        5.138953386736147e-05,
        0.0010681883257495264,
        0.0,
        0.0003572382765447067,
        -0.0001626305830582225,
        -0.0008526744765272249,
        0.00032591024223787397,
        -0.0008094769214269272,
        0.0,
        0.0,
        -0.0013298494889799144,
        0.001450131802931291
      ],
      [
        -8.744728037407991e-05,
        -9.077670920663923e-05,
        0.00019674293029528324,
        0.00018550893945372933,
        -0.2526725844530657,
        -8.911199479054112e-05,
        -0.0001005643724312653,
        -0.00010439321558715426,
        0.00022625436983954403,
        0.00021333528037184403,
        1.0540958137932155,
        -0.00010247879400955394,
        -0.00011368146448726955,
        -0.00011800972196880138,
        0.0002557658093839554,
        0.0002411616212897617,
        -0.32847435978898576,
        -0.00011584559322817233,
        -0.0001267985565435976,
        -0.00013162622834962028,
        0.0002852772489281139,
        0.00026898796220793046,
        -0.3663752474569455,
        -0.00012921239244640835,
        -0.0018328863545271517,
        -0.0003392544266913983,
        0.0,
        0.0,
        -0.0004529147727771165,
        -0.0019572898277945153,
        0.0011213923654544368,
        -0.0001333353396520148,
        0.0,
        0.0,
        -0.0009383858226277511,
        -0.000452914772777114,
        -0.0006074169486201313,
        0.0018698125622291714,
        0.0,
        0.0006999401278932418,
        -0.0007828927580358897,
        -0.0007705002917705511,
        0.0003788704253809036,
        -0.0014167518876570914,
        0.0,
        0.0,
        -0.0018969892299459605,
        0.001267536814651691
      ],
      [
        -0.08425571096859674,
        -0.0842543035345379,
        -8.680075508394046e-05,
        -8.229920548878147e-05,
        -8.911199479093784e-05,
        -0.08425500725156719,
        -0.09689406761388572,
        -0.09689244906471876,
        -9.98208683464864e-05,
        -9.464408631211641e-05,
        -0.00010247879400949966,
        1.2477760275749379,
        -0.1095324242591753,
        -0.10953059459489939,
        -0.00011284098160914745,
        -0.00010698896713538386,
        -0.00011584559322799823,
        -0.10953150942703715,
        -0.12217078090446463,
        -0.1221687401250801,
        -0.00012586109487168034,
        -0.00011933384795874825,
        -0.00012921239244663692,
        -0.12216976051477264,
        0.0007212502174780711,
        0.00011093779508489138,
        0.0,
        0.0,
        0.00015851513006148637,
        0.0006324083415345693,
        -0.0005881955067171833,
        -6.418475008297545e-05,
        0.0,
        0.0,
        0.00034363108502313345,
        0.00015851513006148754,
        9.42930003009615e-05,
        -0.0007410060331010353,
        0.0,
        -0.00029006443219049664,
        0.00023097159944005427,
        0.0003876855248412961,
        -7.963781659465311e-05,
        0.00045525155720229087,
        0.0,
        0.0,
        0.0008053287503600531,
        -0.000651610005150577
      ],
      [
        -0.23817863496591182,
        0.04768746234125805,
        -9.637727353635188e-05,
        -9.208108404448238e-05,
        -9.885344738012791e-05,
        -0.09524558631232666,
        -0.27390543021079766,
        0.05484058169244658,
        -0.00011083386456676964,
        -0.00010589324665118203,
        -0.0001136814644870793,
        -0.10953242425917534,
        1.0350370604585577,
        0.06199370104363562,
        -0.00012529045559727853,
        -0.00011970540925779571,
        -0.00012850948159387715,
        -0.1238192622060246,
        -0.3453590207005715,
        0.06914682039482432,
        -0.00013974704662768082,
        -0.00013351757186452648,
        -0.00014333749870100535,
        -0.13810610015287342,
        0.0007112832571706841,
        0.00012534330682199843,
        0.0,
        0.0,
        9.78024693003204e-05,
        0.0007150588249634583,
        -0.0007963227964445953,
        3.439159922727493e-05,
        0.0,
        0.0,
        0.00042243747676713457,
        9.780246930031906e-05,
        2.210835127258441e-05,
        -0.00075117707576601,
        0.0,
        -0.0003129285589737997,
        0.00032919275130442136,
        0.00022586297378877134,
        -0.00011557003996579008,
        0.0006118490555336907,
        0.0,
        0.0,
        0.0008630684639397773,
        -0.0006118898303343251
      ],
      [
        0.04768746234125799,
        -0.23817545294108314,
        -9.986791187019224e-05,
        -9.39866848855071e-05,
        -0.00010261714953832202,
        -0.0952439952999126,
        0.054840581692447155,
        -0.2739017708822464,
        -0.00011484809865067409,
        -0.00010808468761834378,
        -0.00011800972196895378,
        -0.1095305945948993,
        0.0619937010436357,
        1.0350411970908346,
        -0.00012982828543127285,
        -0.0001221826903511147,
        -0.00013340229439962796,
        -0.12381719388988618,
        0.06914682039482459,
        -0.3453544067645715,
        -0.0001448084722117351,
        -0.00013628069308399164,
        -0.00014879486683025503,
        -0.13810379318487348,
        0.0009193694084348224,
        0.00012547257777979366,
        0.0,
        0.0,
        0.0002605795638955909,
        0.000714733947194403,
        -0.0005335105230866249,
        -0.0001795049472785462,
        0.0,
        0.0,
        0.0003544675849987727,
        0.000260579563895592,
        0.00019107582332051506,
        -0.0009241409120769489,
        0.0,
        -0.0003428692878838899,
        0.0001930039083062196,
        0.0006506434302078131,
        -6.448067580067229e-05,
        0.0004174153346629756,
        0.0,
        0.0,
        0.0009576747977156875,
        -0.0008613153987151639
      ],
      [
        -9.637727353569719e-05,
        -9.98679118699015e-05,
        -0.2856249461848293,
        0.00021427317813566815,
        0.00022240505163831603,
        -9.812259270318617e-05,
        -0.00011083386456752953,
        -0.00011484809865024777,
        -0.3284686881125531,
        0.0002464141548560663,
        0.0002557658093838993,
        -0.00011284098160924511,
        -0.00012529045559740658,
        -0.00012982828543106254,
        0.9733568558739644,
        0.0002785551315762848,
        0.00028912656712918206,
        -0.00012755937051461784,
        -0.00013974704662893253,
        -0.00014480847221199717,
        -0.4141561719680023,
        0.0003106961082967696,
        0.00032248732487526936,
        -0.00014227775942025504,
        -0.0015606595388443622,
        -2.775030438198069e-05,
        0.0,
        0.0,
        -0.00013892300996540865,
        -0.0008233933388860874,
        0.001596818904301703,
        0.00028936130766130173,
        0.0,
        0.0,
        -0.001087045965673931,
        -0.0001389230099654095,
        -0.0001691565338282187,
        0.0013889783788654676,
        0.0,
        0.0007592959484204756,
        -0.00043014554443880187,
        -0.0007630701223749238,
        -0.0005557621327566167,
        -0.0007550258976534987,
        0.0,
        0.0,
        -0.0018830253189816987,
        0.0011517368741022287
      ],
      [
        -9.208108404405244e-05,
        -9.398668488533776e-05,
        0.000214273178135458,
        -0.28564873764418,
        0.0002097057576432065,
        -9.303388446455277e-05,
        -0.00010589324665237929,
        -0.00010808468761771138,
        0.0002464141548556933,
        -0.32849604829080653,
        0.00024116162128966738,
        -0.00010698896713538111,
        -0.00011970540925783909,
        -0.00012218269035100485,
        0.0002785551315761769,
        0.9733259269768081,
        0.00027261748493530454,
        -0.00012094404980539695,
        -0.0001335175718663297,
        -0.00013628069308375956,
        0.0003106961082963646,
        -0.4141906695840615,
        0.00030407334858201555,
        -0.00013489913247484518,
        -0.0014548788249627194,
        -0.0005365416171608294,
        0.0,
        0.0,
        -0.0003309361120632988,
        -0.001075420762868263,
        0.00107729811240325,
        0.0003398213564793466,
        0.0,
        0.0,
        -0.0009865148659213405,
        -0.00033093611206329174,
        5.8092516547931767e-05,
        0.0012075172378013341,
        0.0,
        0.0004038345735099353,
        -0.00018384326780289533,
        -0.0009638928865116744,
        0.0003684202738336013,
        -0.0009150608677022906,
        0.0,
        0.0,
        -0.0015033081179741455,
        0.001639279429400294
      ],
      [
        -9.885344737917557e-05,
        -0.00010261714953786572,
        0.0002224050516377773,
        0.00020970575764276683,
        -0.28562987807737944,
        -0.00010073529845872702,
        -0.00011368146448724736,
        -0.0001180097219680013,
        0.00025576580938333973,
        0.0002411616212892442,
        -0.3284743597889854,
        -0.00011584559322801272,
        -0.00012850948159402606,
        -0.00013340229439941763,
        0.00028912656712915533,
        0.0002726174849354992,
        0.9733504444136503,
        -0.00013095588799686813,
        -0.00014333749870113207,
        -0.00014879486682989622,
        0.00032248732487467425,
        0.0003040733485820459,
        -0.4141633232121994,
        -0.0001460661827652892,
        -0.002071958487724796,
        -0.00038350500407125296,
        0.0,
        0.0,
        -0.0005119906127028519,
        -0.0022125885010039923,
        0.001267660934858894,
        -0.00015072690569454105,
        0.0,
        0.0,
        -0.001060783973425743,
        -0.0005119906127028518,
        -0.0006866452462780408,
        0.0021137011573145285,
        0.0,
        0.0007912366662335234,
        -0.0008850092047371622,
        -0.0008710003298042379,
        0.0004282883069479185,
        -0.0016015456121345772,
        0.0,
        0.0,
        -0.002144422607766709,
        0.0014328677034963267
      ],
      [
        -0.09524558631232667,
        -0.09524399529991251,
        -9.81225927035576e-05,
        -9.303388446572843e-05,
        -0.00010073529845935616,
        -0.09524479080611951,
        -0.1095324242591751,
        -0.1095305945948996,
        -0.00011284098160905981,
        -0.00010698896713560682,
        -0.00011584559322815925,
        -0.10953150942703722,
        -0.12381926220602434,
        -0.12381719388988621,
        -0.00012755937051465215,
        -0.00012094404980541097,
        -0.00013095588799692394,
        1.2208510578662848,
        -0.13810610015287275,
        -0.1381037931848732,
        -0.0001422777594201138,
        -0.0001348991324753238,
        -0.00014606618276582164,
        -0.13810494666887305,
        0.0008153263327995109,
        0.00012540794226353793,
        0.0,
        0.0,
        0.000179191016583969,
        0.0007148963860936564,
        -0.0006649166597659397,
        -7.255667399651341e-05,
        0.0,
        0.0,
        0.0003884525309126621,
        0.00017919101658396756,
        0.00010659208729960594,
        -0.0008376589939366667,
        0.0,
        -0.00032789892333529865,
        0.000261098329794536,
        0.0004382532019883383,
        -9.002535788940062e-05,
        0.0005146321951079389,
        0.0,
        0.0,
        0.0009103716308379688,
        -0.00073660261451905
      ],
      [
        -0.26566078515428615,
        0.05318986184217262,
        -0.00010749772817611441,
        -0.00010270582451268255,
        -0.00011025961438582817,
        -0.1062354616560563,
        -0.30550990292742763,
        0.06116834111849817,
        -0.00012362238740248473,
        -0.00011811169818961629,
        -0.00012679855654364465,
        -0.1221707809044646,
        -0.34535902070057134,
        0.06914682039482449,
        -0.00013974704662896636,
        -0.00013351757186645416,
        -0.0001433374987012621,
        -0.13810610015287275,
        0.9594611474405288,
        0.07712529967115038,
        -0.00015587170585530877,
        -0.00014892344554341986,
        -0.00015987644085926238,
        -0.1540414194012817,
        0.0007933544022359297,
        0.00013980599608814695,
        0.0,
        0.0,
        0.00010908736961123643,
        0.0007975656124602847,
        -0.0008882061960561795,
        3.835986066449345e-05,
        0.0,
        0.0,
        0.00047118026256269383,
        0.00010908736961123758,
        2.4659314905471818e-05,
        -0.0008378513537203498,
        0.0,
        -0.000349035700395258,
        0.00036717653028137755,
        0.0002519240861557208,
        -0.00012890504460600114,
        0.0006824470234738587,
        0.0,
        0.0,
        0.0009626532866715947,
        -0.0006824925030671576
      ],
      [
        0.05318986184217244,
        -0.26565723597274693,
        -0.00011139113247066995,
        -0.00010483130237219738,
        -0.00011445758986939316,
        -0.10623368706528716,
        0.06116834111849848,
        -0.30550582136865884,
        -0.00012809980234121672,
        -0.00012055599772804184,
        -0.00013162622834967332,
        -0.12216874012508,
        0.06914682039482442,
        -0.3453544067645718,
        -0.00014480847221189742,
        -0.0001362806930838103,
        -0.000148794866829997,
        -0.13810379318487317,
        0.07712529967115027,
        0.9594662937537598,
        -0.00016151714208242072,
        -0.0001520053884396938,
        -0.00016596350531026963,
        -0.1540388462446664,
        0.0010254504940195375,
        0.00013995018290757454,
        0.0,
        0.0,
        0.00029064643664974347,
        0.0007972032487727995,
        -0.0005950694296007294,
        -0.00020021705657060184,
        0.0,
        0.0,
        0.0003953676909618804,
        0.00029064643664974147,
        0.00021312303369719373,
        -0.0010307725558028713,
        0.0,
        -0.0003824311287888092,
        0.00021527359000496625,
        0.0007257176721741105,
        -7.192075376094314e-05,
        0.00046557864253718906,
        0.0,
        0.0,
        0.0010681757359336218,
        -0.0009606979447378085
      ],
      [
        -0.0001074977281744076,
        -0.00011139113247023527,
        -0.31858167074461785,
        0.0002389970063820232,
        0.00024806717298111525,
        -0.00010944443032275176,
        -0.00012362238740219622,
        -0.00012809980234061596,
        -0.36636892135630966,
        0.0002748465573393769,
        0.0002852772489281309,
        -0.00012586109487180852,
        -0.00013974704662782288,
        -0.0001448084722115191,
        -0.4141561719680023,
        0.00031069610829653185,
        0.00032248732487472705,
        -0.0001422777594201022,
        -0.00015587170585531856,
        -0.00016151714208255697,
        0.8827258633345484,
        0.00034654565925398996,
        0.0003596974008223037,
        -0.000158694423968692,
        -0.001740735639478477,
        -3.0952262579729333e-05,
        0.0,
        0.0,
        -0.00015495258803960928,
        -0.0009184002626062008,
        0.0017810672394134564,
        0.00032274915085248734,
        0.0,
        0.0,
        -0.0012124743463306918,
        -0.0001549525880396038,
        -0.00018867459542523622,
        0.0015492451148881594,
        0.0,
        0.0008469070193901961,
        -0.000479777722643026,
        -0.0008511166749565756,
        -0.0006198885326864838,
        -0.0008421442704592781,
        0.0,
        0.0,
        -0.002100297471168764,
        0.0012846295903432424
      ],
      [
        -0.00010270582451071674,
        -0.0001048313023721423,
        0.0002389970063819571,
        -0.31860820737235435,
        0.00023390257583290355,
        -0.0001037685634412685,
        -0.00011811169818924034,
        -0.00012055599772748462,
        0.0002748465573391595,
        -0.3663994384782081,
        0.0002689879622078093,
        -0.00011933384795873561,
        -0.0001335175718645666,
        -0.0001362806930838567,
        0.00031069610829663697,
        -0.4141906695840615,
        0.0003040733485818112,
        -0.00013489913247529664,
        -0.00014892344554327775,
        -0.00015200538843963192,
        0.00034654565925379,
        0.8826873852243291,
        0.00033915873495700714,
        -0.0001504644169912313,
        -0.0016227494586131235,
        -0.0005984502652962889,
        0.0,
        0.0,
        -0.00036912104807013395,
        -0.0011995077739689003,
        0.0012016017407584262,
        0.0003790315129954424,
        0.0,
        0.0,
        -0.0011003435042999847,
        -0.00036912104807013504,
        6.479549922595882e-05,
        0.0013468461498552637,
        0.0,
        0.00045043087044900236,
        -0.00020505595254946438,
        -0.001075111296492921,
        0.00041093030542958315,
        -0.001020644813973984,
        0.0,
        0.0,
        -0.0016767667469708284,
        0.001828427055868397
      ],
      [
        -0.00011025961438460877,
        -0.00011445758986915148,
        0.0002480671729809895,
        0.00023390257583254937,
        -0.31858717170169143,
        -0.00011235860212711053,
        -0.00012679855654366384,
        -0.00013162622834891752,
        0.00028527724892803884,
        0.0002689879622074996,
        -0.3663752474569455,
        -0.00012921239244672052,
        -0.00014333749870123588,
        -0.000148794866830111,
        0.00032248732487532607,
        0.0003040733485822012,
        -0.41416332321219934,
        -0.00014606618276584598,
        -0.00015987644085921693,
        -0.00016596350531026058,
        0.00035969740082234154,
        0.0003391587349572297,
        0.8827178869467894,
        -0.00016291997308448235,
        -0.0023110306209231436,
        -0.0004277555814757877,
        0.0,
        0.0,
        -0.0005710664526282349,
        -0.002467887174198612,
        0.0014139295042708202,
        -0.00016811847173816446,
        0.0,
        0.0,
        -0.0011831821241994785,
        -0.0005710664526282326,
        -0.0007658735439129166,
        0.002357589752372451,
        0.0,
        0.0008825332046806533,
        -0.0009871256514343727,
        -0.0009715003678652305,
        0.00047770618851788234,
        -0.0017863393366014811,
        0.0,
        0.0,
        -0.0023918559855839318,
        0.00159819859237821
      ],
      [
        -0.10623546165605736,
        -0.10623368706528728,
        -0.00010944443032293865,
        -0.00010376856344195222,
        -0.00011235860212717151,
        -0.10623457436067202,
        -0.122170780904465,
        -0.12216874012508046,
        -0.00012586109487134088,
        -0.00011933384795826581,
        -0.0001292123924461431,
        -0.12216976051477262,
        -0.1381061001528736,
        -0.13810379318487379,
        -0.00014227775941984546,
        -0.0001348991324744968,
        -0.0001460661827650483,
        -0.13810494666887324,
        -0.15404141940128172,
        -0.15403884624466677,
        -0.00015869442396822413,
        -0.000150464416990849,
        -0.000162919973084112,
        1.1906291530912698,
        0.0009094024481261622,
        0.00013987808948464657,
        0.0,
        0.0,
        0.00019986690313557011,
        0.0007973844306000765,
        -0.0007416378128273605,
        -8.09285979502352e-05,
        0.0,
        0.0,
        0.000433273976729525,
        0.0001998669031355693,
        0.0001188911742938036,
        -0.0009343119547461967,
        0.0,
        -0.0003657334146466011,
        0.000291225060163287,
        0.0004888208791574522,
        -0.00010041289917805546,
        0.0005740128329884048,
        0.0,
        0.0,
        0.001015414511302984,
        -0.0008215952239042114
      ],
      [
        0.0005471409670526954,
        0.0007072072372584576,
        -0.0012005073375685386,
        -0.0011191375576640624,
        -0.0015938142213261033,
        0.0006271741021581485,
        0.0006292121121155954,
        0.0008132883228378114,
        -0.0013805834382032045,
        -0.001287008191312978,
        -0.0018328863545267712,
        0.0007212502174770519,
        0.0007112832571731486,
        0.000919369408432755,
        -0.0015606595388408565,
        -0.0014548788249619069,
        -0.0020719584877251095,
        0.0008153263327997987,
        0.000793354402236894,
        0.0010254504940186073,
        -0.0017407356394749498,
        -0.0016227494586121827,
        -0.0023110306209202917,
        0.0009094024481270806,
        0.2062399155115351,
        -0.013240403754731612,
        0.0,
        0.0,
        -0.005656764539438781,
        -0.001571169081261654,
        -0.012359437049513422,
        0.0020839428521282335,
        0.0,
        0.0,
        0.012555144852944365,
        -0.005656764539438743,
        -0.11963858756770605,
        0.0020741630186754344,
        0.0,
        -0.014300786934472232,
        0.017349530967554115,
        -0.018237237350064044,
        0.0377355576758531,
        0.006872052574337505,
        0.0,
        0.0,
        -0.00024295040127197246,
        -0.02999009698942802
      ],
      [
        9.641792832161456e-05,
        9.651736753887672e-05,
        -2.1346387988586475e-05,
        -0.0004127243208983444,
        -0.00029500384928271437,
        9.646764793568348e-05,
        0.00011088061758730657,
        0.00011099497265102843,
        -2.4548346186443955e-05,
        -0.0004746329690291574,
        -0.00033925442669156466,
        0.00011093779508657118,
        0.0001253433068212663,
        0.00012547257777564407,
        -2.7750304385126106e-05,
        -0.0005365416171644362,
        -0.00038350500407864104,
        0.00012540794226464043,
        0.0001398059960901127,
        0.00013995018291144365,
        -3.0952262583217707e-05,
        -0.0005984502653005655,
        -0.0004277555814869335,
        0.00013987808948684864,
        -0.01324040375468146,
        0.2675367456472794,
        0.0,
        0.0,
        -0.010146288005292221,
        0.06681134211407111,
        0.014357423578474995,
        -0.09249356108316706,
        0.0,
        0.0,
        0.008214412243867927,
        -0.010146288005292192,
        0.024035920401245636,
        -0.06223063579160253,
        0.0,
        -0.01560367211495315,
        0.06343372318371443,
        -0.06785367282276017,
        -0.03858462678029736,
        -0.03339069982481665,
        0.0,
        0.0,
        0.006976375886490402,
        0.02320469751089642
      ],
      [
        0.0,
        0.0,
        0.0,
        0.0,
        0.0,
        0.0,
        0.0,
        0.0,
        0.0,
        0.0,
        0.0,
        0.0,
        0.0,
        0.0,
        0.0,
        0.0,
        0.0,
        0.0,
        0.0,
        0.0,
        0.0,
        0.0,
        0.0,
        0.0,
        0.0,
        0.0,
        1.3446692859142435,
        0.0,
        0.0,
        0.0,
        0.0,
        0.0,
        0.0,
        0.0,
        0.0,
        0.0,
        0.0,
        0.0,
        0.0,
        0.0,
        0.0,
        0.0,
        0.0,
        0.0,
        0.0,
        0.0,
        0.0,
        0.0
      ],
      [
        0.0,
        0.0,
        0.0,
        0.0,
        0.0,
        0.0,
        0.0,
        0.0,
        0.0,
        0.0,
        0.0,
        0.0,
        0.0,
        0.0,
        0.0,
        0.0,
        0.0,
        0.0,
        0.0,
        0.0,
        0.0,
        0.0,
        0.0,
        0.0,
        0.0,
        0.0,
        0.0,
        1.3446692859142435,
        0.0,
        0.0,
        0.0,
        0.0,
        0.0,
        0.0,
        0.0,
        0.0,
        0.0,
        0.0,
        0.0,
        0.0,
        0.0,
        0.0,
        0.0,
        0.0,
        0.0,
        0.0,
        0.0,
        0.0
      ],
      [
        7.523266870336456e-05,
        0.00020044581837906517,
        -0.00010686385381913932,
        -0.00025456624004778863,
        -0.00039383893284280743,
        0.0001378392435397676,
        8.651756899573719e-05,
        0.00023051269113198757,
        -0.00012289343189187304,
        -0.000292751176053617,
        -0.000452914772778057,
        0.00015851513006174568,
        9.780246930075361e-05,
        0.0002605795638941723,
        -0.00013892300996382135,
        -0.00033093611206236524,
        -0.0005119906127055303,
        0.0001791910165852228,
        0.00010908736960700278,
        0.0002906464366475411,
        -0.00015495258803779427,
        -0.0003691210480690117,
        -0.0005710664526280434,
        0.000199866903133464,
        -0.0056567645394660845,
        -0.010146288005242358,
        0.0,
        0.0,
        0.7538476006625962,
        -0.03424347923011978,
        0.025081555206616736,
        0.0001777139106890577,
        0.0,
        0.0,
        -0.007660955282093877,
        -0.5908216852516476,
        0.030984105264755136,
        0.007554297667746586,
        0.0,
        -0.004419919632450386,
        0.001721971018661252,
        -0.03671070548767033,
        -0.03686550508862779,
        0.002931874810087296,
        0.0,
        0.0,
        0.026516122468485913,
        -0.013120148729580014
      ],
      [
        0.0005500452499489039,
        0.0005497953439844515,
        -0.0006333794914497439,
        -0.0008272467406661452,
        -0.0017019911546224703,
        0.0005499202969625927,
        0.0006325520374419691,
        0.0006322646455814067,
        -0.0007283864151682132,
        -0.0009513337517702581,
        -0.001957289827795531,
        0.0006324083415296236,
        0.0007150588249650441,
        0.0007147339471971786,
        -0.0008233933388814333,
        -0.0010754207628649527,
        -0.002212588501000043,
        0.0007148963860946932,
        0.0007975656124588282,
        0.0007972032487683624,
        -0.0009184002626016742,
        -0.0011995077739655146,
        -0.0024678871741878315,
        0.0007973844306029315,
        -0.001571169081286664,
        0.06681134211393265,
        0.0,
        0.0,
        -0.0342434792300029,
        0.25447472622840445,
        0.039585910068272376,
        0.033977924234001325,
        0.0,
        0.0,
        -0.0010469301588628237,
        -0.03424347923000288,
        0.06706721857418739,
        -0.12548308569800104,
        0.0,
        0.01714566135356496,
        0.0045187443628648995,
        0.06064427696883246,
        -0.09148159700494761,
        0.06218521539109877,
        0.0,
        0.0,
        -0.025308815933199395,
        0.028150556376194194
      ],
      [
        -0.000612555997269609,
        -0.000410392710069287,
        0.001228322234080417,
        0.000828690855697117,
        0.000975123796046258,
        -0.0005114743536794097,
        -0.000704439396865568,
        -0.0004719516165753091,
        0.0014125705691917473,
        0.0009529944840508179,
        0.0011213923654548375,
        -0.0005881955067180301,
        -0.0007963227964460713,
        -0.0005335105230846916,
        0.0015968189043042576,
        0.0010772981124055486,
        0.001267660934860716,
        -0.0006649166597667745,
        -0.0008882061960551977,
        -0.00059506942960245,
        0.0017810672394158607,
        0.001201601740761209,
        0.001413929504271289,
        -0.0007416378128292929,
        -0.01235943704951516,
        0.014357423578519438,
        0.0,
        0.0,
        0.02508155520661395,
        0.03958591006818865,
        0.1303601228392537,
        0.004102988016156023,
        0.0,
        0.0,
        -0.012240184818778201,
        0.025081555206613936,
        0.028506779049817136,
        -0.012908985870213874,
        0.0,
        0.010498822859796642,
        -0.0022738500085863382,
        0.024445079413617107,
        -0.044405246442971724,
        0.004273849579830093,
        0.0,
        0.0,
        -0.02232934632489224,
        0.00618097702103191
      ],
      [
        2.6455076322386775e-05,
        -0.00013808072870033516,
        0.00022258562128077108,
        0.0002614010434471969,
        -0.00011594377361313957,
        -5.58128261834708e-05,
        3.0423337767937087e-05,
        -0.0001587928379910698,
        0.0002559734644724005,
        0.0003006111999650504,
        -0.00013333533964828722,
        -6.418475008662911e-05,
        3.4391599224738415e-05,
        -0.00017950494727722547,
        0.0002893613076654634,
        0.00033982135648164365,
        -0.00015072690568735666,
        -7.255667399753583e-05,
        3.835986066354155e-05,
        -0.0002002170565743951,
        0.00032274915085709125,
        0.00037903151299878895,
        -0.0001681184717313484,
        -8.092859795080172e-05,
        0.002083942852057612,
        -0.0924935610832666,
        0.0,
        0.0,
        0.0001777139107041068,
        0.03397792423404049,
        0.004102988016225019,
        0.16963506052408722,
        0.0,
        0.0,
        -6.522711948725764e-05,
        0.0001777139107041074,
        0.011648228381779268,
        -0.031973526949713456,
        0.0,
        0.002162118519441232,
        -0.043300306639482755,
        0.038699539209528094,
        -0.013199526679139671,
        0.03466005420027359,
        0.0,
        0.0,
        0.022521320329397358,
        -0.006552272530474138
      ],
      [
        0.0,
        0.0,
        0.0,
        0.0,
        0.0,
        0.0,
        0.0,
        0.0,
        0.0,
        0.0,
        0.0,
        0.0,
        0.0,
        0.0,
        0.0,
        0.0,
        0.0,
        0.0,
        0.0,
        0.0,
        0.0,
        0.0,
        0.0,
        0.0,
        0.0,
        0.0,
        0.0,
        0.0,
        0.0,
        0.0,
        0.0,
        0.0,
        1.3446692859142435,
        0.0,
        0.0,
        0.0,
        0.0,
        0.0,
        0.0,
        0.0,
        0.0,
        0.0,
        0.0,
        0.0,
        0.0,
        0.0,
        0.0,
        0.0
      ],
      [
        0.0,
        0.0,
        0.0,
        0.0,
        0.0,
        0.0,
        0.0,
        0.0,
        0.0,
        0.0,
        0.0,
        0.0,
        0.0,
        0.0,
        0.0,
        0.0,
        0.0,
        0.0,
        0.0,
        0.0,
        0.0,
        0.0,
        0.0,
        0.0,
        0.0,
        0.0,
        0.0,
        0.0,
        0.0,
        0.0,
        0.0,
        0.0,
        0.0,
        1.3446692859142435,
        0.0,
        0.0,
        0.0,
        0.0,
        0.0,
        0.0,
        0.0,
        0.0,
        0.0,
        0.0,
        0.0,
        0.0,
        0.0,
        0.0
      ],
      [
        0.0003249519051803536,
        0.00027266737309821073,
        -0.000836189204367577,
        -0.000758857589176554,
        -0.0008159876718938785,
        0.0002988096391210837,
        0.00037369469100239706,
        0.00031356747903747874,
        -0.0009616175850258524,
        -0.0008726862275572784,
        -0.0009383858226383957,
        0.00034363108502630707,
        0.00042243747676704474,
        0.0003544675850057582,
        -0.0010870459656785116,
        -0.0009865148659278411,
        -0.0010607839734196214,
        0.00038845253091622034,
        0.00047118026256748704,
        0.0003953676909662004,
        -0.001212474346336629,
        -0.0011003435043070464,
        -0.0011831821242029557,
        0.0004332739767320639,
        0.012555144853175179,
        0.00821441224376096,
        0.0,
        0.0,
        -0.007660955282021891,
        -0.001046930158754061,
        -0.012240184818759709,
        -6.522711933561908e-05,
        0.0,
        0.0,
        0.0484886337170645,
        -0.00766095528202191,
        0.007383150935598154,
        0.011865831087602995,
        0.0,
        -0.0068844403588667405,
        -0.0032132585882086065,
        -0.008728768037304858,
        0.010540772743238126,
        0.005637018155525827,
        0.0,
        0.0,
        0.005524248350843571,
        0.0040737576156112025
      ],
      [
        7.523266870336483e-05,
        0.00020044581837906753,
        -0.00010686385381914158,
        -0.00025456624004779237,
        -0.0003938389328428089,
        0.00013783924353976773,
        8.65175689957403e-05,
        0.00023051269113198686,
        -0.00012289343189187586,
        -0.00029275117605362513,
        -0.00045291477277806084,
        0.00015851513006174593,
        9.780246930075324e-05,
        0.00026057956389417315,
        -0.00013892300996382441,
        -0.00033093611206236643,
        -0.000511990612705534,
        0.00017919101658522358,
        0.00010908736960700395,
        0.00029064643664754173,
        -0.000154952588037796,
        -0.0003691210480690136,
        -0.000571066452628045,
        0.00019986690313346695,
        -0.005656764539466051,
        -0.01014628800524238,
        0.0,
        0.0,
        -0.5908216852516474,
        -0.034243479230119826,
        0.025081555206616733,
        0.00017771391068906403,
        0.0,
        0.0,
        -0.007660955282093757,
        0.7538476006625959,
        0.030984105264755167,
        0.007554297667746621,
        0.0,
        -0.004419919632450229,
        0.001721971018661237,
        -0.03671070548767028,
        -0.03686550508862773,
        0.0029318748100872825,
        0.0,
        0.0,
        0.02651612246848596,
        -0.013120148729580021
      ],
      [
        1.7006424054594542e-05,
        0.00014698140255269785,
        -0.0001301204106364963,
        4.468655119004141e-05,
        -0.0005281886509759719,
        8.199391330548933e-05,
        1.955738765800735e-05,
        0.00016902861293031606,
        -0.00014963847223314327,
        5.1389533866941044e-05,
        -0.0006074169486245437,
        9.429300030256651e-05,
        2.210835127042812e-05,
        0.0001910758233213237,
        -0.00016915653382748938,
        5.809251654793828e-05,
        -0.000686645246276596,
        0.00010659208730629872,
        2.4659314903847046e-05,
        0.00021312303369549188,
        -0.00018867459542521762,
        6.47954992260336e-05,
        -0.000765873543910686,
        0.00011889117429738135,
        -0.1196385875676414,
        0.024035920401186676,
        0.0,
        0.0,
        0.030984105264788866,
        0.06706721857417956,
        0.028506779049877577,
        0.011648228381799217,
        0.0,
        0.0,
        0.007383150935552042,
        0.03098410526478889,
        0.29914553888205453,
        -0.041112392851067374,
        0.0,
        0.003930735376669528,
        0.004163121118813277,
        0.041420605609278266,
        -0.16373403669083292,
        0.02563175363303157,
        0.0,
        0.0,
        0.01856627049667929,
        0.024211509000668107
      ],
      [
        -0.0005778285198134705,
        -0.0007108776246893588,
        0.001068444906819675,
        0.0009288594136970399,
        0.001625923967171606,
        -0.0006443530722344701,
        -0.0006645027977799421,
        -0.0008175092683717683,
        0.0012287116428433501,
        0.001068188325752147,
        0.0018698125622349042,
        -0.0007410060330966852,
        -0.0007511770757701915,
        -0.0009241409120865799,
        0.0013889783788653964,
        0.0012075172378035153,
        0.002113701157314232,
        -0.0008376589939363049,
        -0.0008378513537204329,
        -0.001030772555793976,
        0.001549245114888658,
        0.0013468461498583378,
        0.0023575897523610565,
        -0.0009343119547444078,
        0.002074163018743222,
        -0.062230635791417084,
        0.0,
        0.0,
        0.0075542976677394486,
        -0.12548308569800698,
        -0.012908985870238933,
        -0.03197352694967482,
        0.0,
        0.0,
        0.011865831087367301,
        0.007554297667739398,
        -0.04111239285112321,
        0.3385952780629762,
        0.0,
        -0.02936268135880745,
        -0.01570344804093391,
        -0.000936994735181779,
        0.04953851075270836,
        -0.1802402929570647,
        0.0,
        0.0,
        -0.07812007692504569,
        0.02871394091673957
      ],
      [
        0.0,
        0.0,
        0.0,
        0.0,
        0.0,
        0.0,
        0.0,
        0.0,
        0.0,
        0.0,
        0.0,
        0.0,
        0.0,
        0.0,
        0.0,
        0.0,
        0.0,
        0.0,
        0.0,
        0.0,
        0.0,
        0.0,
        0.0,
        0.0,
        0.0,
        0.0,
        0.0,
        0.0,
        0.0,
        0.0,
        0.0,
        0.0,
        0.0,
        0.0,
        0.0,
        0.0,
        0.0,
        0.0,
        1.3446692859142435,
        0.0,
        0.0,
        0.0,
        0.0,
        0.0,
        0.0,
        0.0,
        0.0,
        0.0
      ],
      [
        -0.00024071427616039831,
        -0.0002637456060159541,
        0.0005840738064740099,
        0.0003106419795921455,
        0.0006086435893548165,
        -0.00025222994118493546,
        -0.00027682141755897444,
        -0.0003033074470445262,
        0.0006716848774401609,
        0.00035723827652968,
        0.0006999401278579355,
        -0.0002900644321926249,
        -0.00031292855896608264,
        -0.00034286928785644895,
        0.0007592959484143723,
        0.00040383457349850015,
        0.0007912366662531112,
        -0.00032789892332402056,
        -0.00034903570038911013,
        -0.0003824311287825579,
        0.0008469070193816486,
        0.00045043087043579666,
        0.0008825332046916508,
        -0.00036573341465166145,
        -0.014300786934375535,
        -0.015603672115285608,
        0.0,
        0.0,
        -0.0044199196322010845,
        0.017145661353675488,
        0.010498822859920024,
        0.0021621185194376892,
        0.0,
        0.0,
        -0.006884440358437825,
        -0.004419919632201135,
        0.003930735376886672,
        -0.0293626813581896,
        0.0,
        0.1374581534269654,
        -0.0005615949290148861,
        -0.010459895818561287,
        -0.014940283057619269,
        -0.00472376684910246,
        0.0,
        0.0,
        0.006609014283498291,
        0.0023256149718692493
      ],
      [
        0.0002532251933068682,
        0.000148464544835654,
        -0.0003308811880306144,
        -0.0001414178983137474,
        -0.000680776311341042,
        0.00020084486907799042,
        0.0002912089723027671,
        0.00017073422657368082,
        -0.000380513366234468,
        -0.00016263058306219041,
        -0.0007828927580335889,
        0.00023097159943926356,
        0.00032919275130691974,
        0.00019300390829918852,
        -0.00043014554443967406,
        -0.00018384326780682941,
        -0.0008850092047432732,
        0.0002610983297943143,
        0.00036717653028254724,
        0.0002152735900013808,
        -0.00047977772264362595,
        -0.00020505595255424948,
        -0.000987125651434974,
        0.0002912250601598294,
        0.017349530967475723,
        0.06343372318351878,
        0.0,
        0.0,
        0.001721971018555863,
        0.004518744363078989,
        -0.0022738500085630778,
        -0.04330030663951642,
        0.0,
        0.0,
        -0.0032132585879636306,
        0.001721971018555883,
        0.004163121118903714,
        -0.015703448041271478,
        0.0,
        -0.0005615949277328585,
        0.22029704844962042,
        -0.14925625440834348,
        0.0012931484789572738,
        0.04120827869304189,
        0.0,
        0.0,
        -0.0661290413084109,
        0.025029175544533773
      ],
      [
        0.00017374074906839295,
        0.0005004949463164026,
        -0.0005869770172102385,
        -0.0007414560665442533,
        -0.0006700002536901743,
        0.0003371178476996329,
        0.0001998018614408562,
        0.0005755691882620537,
        -0.0006750235697907705,
        -0.0008526744765222279,
        -0.0007705002917674229,
        0.00038768552483972704,
        0.00022586297379271396,
        0.0006506434302084259,
        -0.0007630701223726963,
        -0.0009638928865072313,
        -0.0008710003298057451,
        0.00043825320198603607,
        0.0002519240861566402,
        0.00072571767217759,
        -0.0008511166749543814,
        -0.0010751112964877676,
        -0.000971500367860944,
        0.0004888208791573332,
        -0.01823723735006618,
        -0.06785367282254273,
        0.0,
        0.0,
        -0.036710705487626845,
        0.060644276968639874,
        0.024445079413566363,
        0.038699539209516194,
        0.0,
        0.0,
        -0.008728768037464588,
        -0.03671070548762682,
        0.04142060560914903,
        -0.0009369947350895872,
        0.0,
        -0.010459895819178215,
        -0.14925625440818413,
        0.38854984281786487,
        -0.04284765456940165,
        -0.035467380109671195,
        0.0,
        0.0,
        -0.021296799413905488,
        -0.07072636913121008
      ],
      [
        -8.890003074186049e-05,
        -4.960051984181435e-05,
        -0.0004275093328894515,
        0.0002834002106376313,
        0.0003294525438085843,
        -6.925027528971424e-05,
        -0.00010223503535767527,
        -5.704059781283531e-05,
        -0.000491635732823076,
        0.00032591024223580065,
        0.00037887042538127,
        -7.963781659364177e-05,
        -0.00011557003996075815,
        -6.448067580257077e-05,
        -0.0005557621327607261,
        0.000368420273830386,
        0.00042828830694673705,
        -9.002535789257896e-05,
        -0.00012890504461014152,
        -7.192075375820095e-05,
        -0.0006198885326899798,
        0.0004109303054261279,
        0.0004777061885143866,
        -0.00010041289918134356,
        0.03773555767587011,
        -0.03858462678026556,
        0.0,
        0.0,
        -0.03686550508869904,
        -0.09148159700486024,
        -0.04440524644302083,
        -0.013199526679087352,
        0.0,
        0.0,
        0.0105407727433396,
        -0.03686550508869903,
        -0.16373403669084913,
        0.049538510752647764,
        0.0,
        -0.01494028305718214,
        0.0012931484790566143,
        -0.042847654569540344,
        0.23590658076832074,
        -0.032953419510132066,
        0.0,
        0.0,
        -0.006113184162919547,
        -0.010402023568293107
      ],
      [
        0.00047065311964317993,
        0.00032108871898350937,
        -0.0005807891520412793,
        -0.0007038929751536234,
        -0.0012319581631762583,
        0.00039587091931662894,
        0.0005412510875878601,
        0.00036925202683252165,
        -0.0006679075248477601,
        -0.0008094769214285968,
        -0.0014167518876555749,
        0.0004552515572017039,
        0.000611849055534608,
        0.0004174153346667437,
        -0.0007550258976541291,
        -0.0009150608677056337,
        -0.0016015456121345507,
        0.0005146321951080322,
        0.0006824470234719909,
        0.0004655786425270709,
        -0.0008421442704600194,
        -0.0010206448139770652,
        -0.0017863393365978256,
        0.0005740128329993463,
        0.006872052574282187,
        -0.033390699824907014,
        0.0,
        0.0,
        0.0029318748100065337,
        0.06218521539107951,
        0.004273849579813941,
        0.03466005420028631,
        0.0,
        0.0,
        0.005637018155693212,
        0.0029318748100065667,
        0.025631753633031027,
        -0.18024029295718413,
        0.0,
        -0.004723766848546003,
        0.04120827869285436,
        -0.03546738010963789,
        -0.032953419510076055,
        0.24606627941338832,
        0.0,
        0.0,
        0.006217817020428823,
        0.029132209749242754
      ],
      [
        0.0,
        0.0,
        0.0,
        0.0,
        0.0,
        0.0,
        0.0,
        0.0,
        0.0,
        0.0,
        0.0,
        0.0,
        0.0,
        0.0,
        0.0,
        0.0,
        0.0,
        0.0,
        0.0,
        0.0,
        0.0,
        0.0,
        0.0,
        0.0,
        0.0,
        0.0,
        0.0,
        0.0,
        0.0,
        0.0,
        0.0,
        0.0,
        0.0,
        0.0,
        0.0,
        0.0,
        0.0,
        0.0,
        0.0,
        0.0,
        0.0,
        0.0,
        0.0,
        0.0,
        1.3446692859142435,
        0.0,
        0.0,
        0.0
      ],
      [
        0.0,
        0.0,
        0.0,
        0.0,
        0.0,
        0.0,
        0.0,
        0.0,
        0.0,
        0.0,
        0.0,
        0.0,
        0.0,
        0.0,
        0.0,
        0.0,
        0.0,
        0.0,
        0.0,
        0.0,
        0.0,
        0.0,
        0.0,
        0.0,
        0.0,
        0.0,
        0.0,
        0.0,
        0.0,
        0.0,
        0.0,
        0.0,
        0.0,
        0.0,
        0.0,
        0.0,
        0.0,
        0.0,
        0.0,
        0.0,
        0.0,
        0.0,
        0.0,
        0.0,
        0.0,
        1.3446692859142435,
        0.0,
        0.0
      ],
      [
        0.0006638988184179762,
        0.0007366729213165595,
        -0.0014484810145993974,
        -0.0011563908599835256,
        -0.0016495558521327281,
        0.0007002858698727352,
        0.0007634836411873601,
        0.0008471738595310955,
        -0.0016657531667897119,
        -0.001329849488981778,
        -0.0018969892299508183,
        0.0008053287503591279,
        0.0008630684639433912,
        0.0009576747977203458,
        -0.0018830253189827165,
        -0.0015033081179762523,
        -0.002144422607760758,
        0.0009103716308399674,
        0.000962653286672031,
        0.0010681757359323567,
        -0.0021002974711700076,
        -0.0016767667469737276,
        -0.00239185598558221,
        0.0010154145112996804,
        -0.00024295040129178376,
        0.006976375886428172,
        0.0,
        0.0,
        0.026516122468409623,
        -0.025308815933131373,
        -0.022329346324894285,
        0.02252132032938872,
        0.0,
        0.0,
        0.005524248350945904,
        0.026516122468409606,
        0.018566270496680103,
        -0.07812007692494939,
        0.0,
        0.0066090142836558174,
        -0.06612904130866826,
        -0.02129679941377332,
        -0.006113184162925454,
        0.006217817020365902,
        0.0,
        0.0,
        0.201096874793742,
        -0.057485780620404686
      ],
      [
        -0.0004706844848789208,
        -0.0006625503067020726,
        0.0008859514416179005,
        0.0012609841764623208,
        0.0011022059257864288,
        -0.0005666173957946225,
        -0.0005412871576058393,
        -0.0007619328527315126,
        0.0010188441578595307,
        0.0014501318029302766,
        0.0012675368146522839,
        -0.0006516100051510696,
        -0.0006118898303375134,
        -0.0008613153987166368,
        0.001151736874103947,
        0.0016392794293996473,
        0.0014328677034983431,
        -0.0007366026145184043,
        -0.000682492503068631,
        -0.0009606979447434667,
        0.001284629590344969,
        0.0018284270558683094,
        0.0015981985923785454,
        -0.0008215952238971818,
        -0.029990096989400323,
        0.02320469751072546,
        0.0,
        0.0,
        -0.013120148729575306,
        0.02815055637628369,
        0.006180977021076732,
        -0.006552272530387735,
        0.0,
        0.0,
        0.0040737576155949005,
        -0.013120148729575315,
        0.024211509000674526,
        0.028713940916628506,
        0.0,
        0.0023256149722997083,
        0.025029175544618133,
        -0.07072636913127764,
        -0.010402023568379666,
        0.02913220974919865,
        0.0,
        0.0,
        -0.05748578062043399,
        0.13691757888755274
      ]
    ],
    "alpha": 1.0,
    "forgetting_factor": 0.999,
    "weight_clip": 10.0
  }
}