{
  "metadata": {
    "series_name": "generated_sine",
    "series_length": 120,
    "train_length": 84,
    "test_length": 36,
    "epochs": 8,
    "baseline_test_mae": 0.6376010587754406,
    "baseline_test_rmse": 0.7079402016126946,
    "final_test_mae": 0.31213681912173935,
    "final_test_rmse": 0.39375281354421793,
    "history": [
      {
        "epoch": 4,
        "train_mae": 0.007257726940455747,
        "train_rmse": 0.01464371081402395
      },
      {
        "epoch": 8,
        "train_mae": 0.007755743942070036,
        "train_rmse": 0.014436978951753214
      }
    ]
  },
  "encoder": {
    "amplitude": 10.0,
    "delta_scale": 1.4,
    "quadratic_scale": 0.7,
    "magnitude_scale": 0.5,
    "band_growth": 0.15
  },
  "reservoir": {
    "n_neurons": 48,
    "dt": 1.0,
    "max_weight": 2.0,
    "max_delay_limit": 50,
    "readout_decay": 0.92,
    "synapses": [
      {
        "19": -0.022218950247056262,
        "34": -0.03221473680081368,
        "43": -0.030903556198901144
      },
      {
        "4": 2.0,
        "7": 2.0,
        "16": 2.0,
        "23": 2.0,
        "28": 2.0,
        "36": 2.0,
        "44": 2.0
      },
      {
        "1": 2.0,
        "16": 2.0,
        "17": 2.0,
        "30": 2.0,
        "32": 2.0,
        "43": 2.0,
        "47": 2.0
      },
      {
        "2": 2.0,
        "32": 2.0,
        "34": 2.0
      },
      {
        "25": 2.0,
        "33": 2.0,
        "34": 2.0
      },
      {
        "2": -0.0409297811638214,
        "6": 0.0,
        "10": -0.00744713143786934,
        "27": -0.0009002390424984514,
        "41": -0.001664925339847379,
        "42": 0.0,
        "44": -0.02005488973144155
      },
      {
        "2": 2.0,
        "19": 2.0,
        "42": 2.0
      },
      {
        "15": 2.0,
        "17": 2.0,
        "20": 2.0,
        "23": 2.0,
        "24": 2.0,
        "37": 2.0,
        "38": 2.0
      },
      {
        "11": 2.0,
        "14": 2.0,
        "24": 2.0,
        "26": 2.0,
        "32": 2.0,
        "43": 2.0
      },
      {
        "5": 2.0,
        "8": 2.0,
        "23": 2.0,
        "29": 2.0,
        "31": 2.0,
        "34": 2.0,
        "38": 2.0,
        "44": 2.0
      },
      {
        "5": -0.006769425388578294,
        "7": -0.0026278798376098834,
        "11": -0.007481372071539667,
        "14": -0.02155943538387026,
        "43": -0.005142082137188124,
        "47": 0.0
      },
      {
        "4": 2.0,
        "24": 2.0,
        "26": 2.0,
        "30": 2.0,
        "32": 2.0,
        "43": 2.0
      },
      {
        "7": 2.0,
        "14": 2.0,
        "28": 2.0,
        "33": 2.0,
        "36": 2.0,
        "47": 2.0
      },
      {
        "1": 2.0,
        "3": 2.0,
        "7": 2.0,
        "9": 2.0,
        "10": 2.0,
        "17": 2.0,
        "20": 2.0,
        "23": 2.0,
        "24": 2.0,
        "29": 2.0,
        "31": 2.0,
        "42": 2.0
      },
      {
        "2": 2.0,
        "8": 2.0,
        "11": 2.0
      },
      {
        "10": -0.001706244509173653,
        "40": -0.0019165904740005013
      },
      {
        "8": 2.0,
        "24": 2.0,
        "27": 2.0,
        "32": 2.0
      },
      {
        "4": 2.0,
        "6": 2.0,
        "10": 2.0,
        "26": 2.0,
        "27": 2.0,
        "30": 2.0,
        "36": 2.0
      },
      {
        "2": 2.0,
        "10": 2.0,
        "20": 2.0,
        "21": 2.0,
        "24": 2.0,
        "25": 2.0,
        "27": 2.0,
        "45": 2.0
      },
      {
        "3": 2.0,
        "8": 2.0,
        "30": 2.0,
        "31": 2.0,
        "34": 2.0
      },
      {
        "3": -0.002390121596053843,
        "11": 0.0,
        "25": 0.0,
        "26": 0.0,
        "30": -0.037112052323291345,
        "46": 0.0
      },
      {
        "3": 2.0,
        "12": 2.0,
        "13": 2.0,
        "16": 2.0,
        "19": 2.0,
        "29": 2.0,
        "33": 2.0,
        "36": 2.0,
        "46": 2.0
      },
      {
        "1": 2.0,
        "12": 2.0,
        "13": 2.0,
        "18": 2.0,
        "23": 2.0,
        "25": 2.0,
        "26": 2.0,
        "28": 2.0,
        "36": 2.0,
        "39": 2.0,
        "44": 2.0
      },
      {
        "9": 2.0,
        "19": 2.0,
        "26": 2.0,
        "36": 2.0
      },
      {
        "14": 2.0,
        "26": 2.0,
        "42": 2.0,
        "43": 2.0
      },
      {
        "7": -0.017152034487127276,
        "28": -0.0007489852962539272,
        "38": -0.05399964257513205
      },
      {
        "10": 2.0,
        "11": 2.0,
        "14": 2.0,
        "20": 2.0,
        "33": 2.0
      },
      {
        "11": 2.0,
        "14": 2.0,
        "15": 2.0,
        "17": 2.0,
        "20": 2.0,
        "24": 2.0,
        "25": 2.0,
        "32": 2.0,
        "37": 2.0
      },
      {
        "23": 2.0,
        "36": 2.0,
        "37": 2.0
      },
      {
        "7": 2.0,
        "24": 2.0,
        "25": 2.0,
        "26": 2.0,
        "36": 2.0
      },
      {
        "8": 0.0,
        "17": 0.0,
        "25": -0.019628495086554128,
        "37": -0.014129314582056782,
        "38": -0.017052400393307958
      },
      {
        "8": 2.0,
        "24": 2.0,
        "28": 2.0,
        "29": 2.0,
        "30": 2.0,
        "32": 2.0,
        "33": 2.0,
        "34": 2.0,
        "39": 2.0,
        "42": 2.0,
        "45": 2.0
      },
      {
        "6": 2.0,
        "38": 2.0,
        "45": 2.0
      },
      {
        "4": 2.0,
        "16": 2.0,
        "19": 2.0,
        "23": 2.0,
        "37": 2.0,
        "42": 2.0,
        "43": 2.0
      },
      {
        "1": 2.0,
        "10": 2.0,
        "11": 2.0,
        "29": 2.0,
        "32": 2.0,
        "33": 2.0,
        "38": 2.0
      },
      {
        "0": 0.0,
        "4": -0.004927883098250412,
        "26": -0.05148521255135872,
        "42": -0.0025232159217833837
      },
      {
        "21": 2.0,
        "28": 2.0,
        "45": 2.0
      },
      {
        "5": 2.0,
        "7": 2.0,
        "17": 2.0,
        "20": 2.0
      },
      {
        "32": 2.0
      },
      {
        "1": 2.0,
        "21": 2.0
      },
      {
        "12": -0.010130013600354155,
        "15": -0.001540218153634155,
        "16": -0.039665789155825186,
        "20": -0.11571034999636721,
        "24": -0.02143486103703587,
        "30": -0.0200797309184666,
        "31": -0.004707047414755695,
        "35": -0.03385739426734769,
        "38": -0.02298414173900626
      },
      {
        "2": 2.0,
        "29": 2.0,
        "39": 2.0,
        "44": 2.0
      },
      {
        "5": 2.0,
        "6": 2.0,
        "8": 2.0,
        "12": 2.0,
        "14": 2.0,
        "25": 2.0,
        "28": 2.0,
        "39": 2.0
      },
      {
        "10": 2.0,
        "26": 2.0,
        "35": 2.0,
        "45": 2.0
      },
      {
        "3": 2.0,
        "17": 2.0,
        "24": 2.0,
        "26": 2.0
      },
      {
        "9": -0.035798056056477956,
        "11": 0.0,
        "14": -0.007053241325950302,
        "16": -0.0008938780614044996,
        "25": -0.005234382386870394,
        "29": -0.00979683850989089,
        "30": -0.014903947982063662,
        "32": -0.025159090875608726
      },
      {
        "3": 2.0,
        "12": 2.0,
        "20": 2.0,
        "23": 2.0,
        "29": 2.0,
        "37": 2.0,
        "39": 2.0
      },
      {
        "9": 2.0,
        "23": 2.0,
        "27": 2.0,
        "32": 2.0
      }
    ],
    "is_inhibitory": [
      true,
      false,
      false,
      false,
      false,
      true,
      false,
      false,
      false,
      false,
      true,
      false,
      false,
      false,
      false,
      true,
      false,
      false,
      false,
      false,
      true,
      false,
      false,
      false,
      false,
      true,
      false,
      false,
      false,
      false,
      true,
      false,
      false,
      false,
      false,
      true,
      false,
      false,
      false,
      false,
      true,
      false,
      false,
      false,
      false,
      true,
      false,
      false
    ]
  },
  "force_readout": {
    "weights": [
      [
        0.00027728505711386366,
        -0.0004908566315535656,
        0.004123918050713367,
        -0.0034387206643039453,
        0.00023217641215953576,
        -0.00010678578724633034,
        0.00031887781564823343,
        -0.0005644851262925879,
        0.00474250575831535,
        -0.003954528763943214,
        0.0002670028740807107,
        -0.00012280365532901146,
        0.0003604705741524472,
        -0.0006381136209876836,
        0.005361093465932466,
        -0.0044703368635895715,
        0.00030182933593400987,
        -0.00013882152341925693,
        0.0004020633326512497,
        -0.0007117421157201004,
        0.005979681173528266,
        -0.0049861449632376716,
        0.0003366557977506963,
        -0.00015483939155040442,
        0.00044365609125669974,
        -0.0007853706105131762,
        0.006598268881141397,
        -0.005501953062890213,
        0.00037148225948772673,
        -0.0001708572595614327,
        0.000485248849947385,
        -0.0008589991052447468,
        0.007216856588742679,
        -0.006017761162540077,
        0.00040630872139780523,
        -0.0001868751277310337,
        0.0005268416084905687,
        -0.0009326275999205527,
        0.00783544429635484,
        -0.006533569262171379,
        0.0004411351833600876,
        -0.0002028929957572099,
        0.0005684343670339198,
        -0.0010062560946749446,
        0.008454032003952429,
        -0.007049377361815859,
        0.0004759616450551601,
        -0.00021891086376993479,
        -0.005394801018302397,
        0.0015636025594743046,
        0.004854153561317204,
        0.0,
        -0.003944845352821876,
        0.0032226462614040846,
        -0.008544679109403434,
        0.0014853415242146585,
        0.0036447079980813373,
        -0.010234554966765225,
        -0.0007225106356967002,
        0.00033787171177554763,
        0.003587842618910238,
        0.009289679725664326,
        0.00014466364757167576,
        0.0,
        -0.001997977267901617,
        -0.0006753976908988148,
        -0.004420674367118031,
        0.0033896879773682707,
        -0.012390368403185041,
        0.0,
        0.00501056220222283,
        -0.003839859541273104,
        -0.009881451497775449,
        -0.000788236088855026,
        -0.005223656625743223,
        0.0,
        -0.004895122005021007,
        -0.0024047486415906517,
        -0.0077117571856111814,
        0.003875106156329009,
        0.0008954261007138445,
        -0.0037925702864281736,
        0.004364914581015595,
        0.00023286127716397662,
        -0.0013106948482821369,
        0.0019599047549148656,
        0.003004096862554723,
        0.0014543516392381095,
        -0.0005114981674738297,
        -0.002912572226776232,
        0.001961703182247279,
        0.005738880226459479,
        -0.021498762769887454,
        -0.009375730528047799,
        -0.008715395973653855,
        0.0032411159229297644
      ]
    ],
    "bias": [
      0.012081933570621541
    ],
    "inverse_correlation": [
      [
        1.8603657889490175,
        0.01656911034329255,
        -7.2307066678901815e-06,
        -6.375958153043624e-06,
        -7.5505904402972e-06,
        -0.033128783267448426,
        -0.0952506784099173,
        0.019054476894786475,
        -8.315312668076259e-06,
        -7.3323518759794855e-06,
        -8.683179006281448e-06,
        -0.038098100757565305,
        -0.10767467994164565,
        0.021539843446280477,
        -9.39991866829492e-06,
        -8.288745598905076e-06,
        -9.81576757220632e-06,
        -0.04306741824768273,
        -0.12009868147337377,
        0.024025209997774057,
        -1.0484524668417475e-05,
        -9.245139321892548e-06,
        -1.0948356138355674e-05,
        -0.04803673573779991,
        -0.1325226830051025,
        0.026510576549268115,
        -1.1569130668628585e-05,
        -1.0201533044859118e-05,
        -1.2080944704430287e-05,
        -0.05300605322791706,
        -0.1449466845368309,
        0.028995943100761916,
        -1.2653736668801864e-05,
        -1.1157926767818043e-05,
        -1.3213533270373093e-05,
        -0.057975370718034436,
        -0.1573706860685591,
        0.03148130965225534,
        -1.3738342668964406e-05,
        -1.2114320490748269e-05,
        -1.4346121836407489e-05,
        -0.0629446882081516,
        -0.16979468760028749,
        0.033966676203749484,
        -1.4822948669165628e-05,
        -1.3070714213674075e-05,
        -1.5478710402641976e-05,
        -0.06791400569826878,
        3.106296228116721e-05,
        -8.422759448551896e-05,
        6.0272364333257616e-05,
        0.0,
        9.831622513625274e-05,
        0.0001613335671035301,
        -4.758685809231152e-05,
        4.5155886081939644e-05,
        1.2621699733092596e-05,
        -2.579534252280695e-05,
        2.5591654236590713e-06,
        2.629439340181264e-05,
        -2.0492827898857054e-05,
        -9.932815679383231e-06,
        -9.283790905715923e-05,
        0.0,
        9.090951214486573e-05,
        1.1269703108643764e-05,
        1.2076516005412e-06,
        -2.6480242406945998e-05,
        0.00014266533764943078,
        0.0,
        0.00021411468013313493,
        -4.2852724790328045e-05,
        3.081817583631276e-05,
        3.239057716817519e-05,
        -4.476062031438152e-05,
        0.0,
        6.196539390228016e-05,
        7.241411725329202e-05,
        -1.772468262755737e-05,
        3.710108561638843e-05,
        -7.219083168016023e-05,
        0.00012251506189716522,
        -0.00020617116163386214,
        0.00017783256229205369,
        -8.939063972153967e-05,
        7.812666837166829e-06,
        -4.85105250627368e-05,
        -0.00014539787375243707,
        4.271420456934514e-06,
        -5.347434450843893e-05,
        -0.00011591253844102206,
        -3.699872124026141e-05,
        0.00011239947497133641,
        4.615312143282773e-05,
        3.685590371973593e-05,
        0.00014440622839153724
      ],
      [
        0.016569110343292563,
        1.860365670146784,
        -6.922990746923912e-06,
        -5.979375032811716e-06,
        -7.541455409489591e-06,
        -0.03312884266856674,
        0.01905447689478649,
        -0.09525081503248978,
        -7.961439358959385e-06,
        -6.876281287715313e-06,
        -8.672673720790181e-06,
        -0.03809816906885165,
        0.02153984344628045,
        -0.10767483438455348,
        -8.999887971017796e-06,
        -7.773187542603754e-06,
        -9.803892032068028e-06,
        -0.04306749546913683,
        0.024025209997774234,
        -0.12009885373661787,
        -1.0038336583017448e-05,
        -8.670093797559655e-06,
        -1.0935110343551392e-05,
        -0.04803682186942183,
        0.026510576549268236,
        -0.132522873088682,
        -1.1076785195083315e-05,
        -9.567000052502058e-06,
        -1.2066328655112512e-05,
        -0.05300614826970667,
        0.028995943100761954,
        -0.14494689244074535,
        -1.2115233807107211e-05,
        -1.046390630741766e-05,
        -1.3197546966341219e-05,
        -0.057975474669991894,
        0.031481309652255866,
        -0.1573709117928092,
        -1.3153682419121621e-05,
        -1.136081256229231e-05,
        -1.4328765277535976e-05,
        -0.0629448010702765,
        0.0339666762037499,
        -0.1697949311448739,
        -1.4192131031198386e-05,
        -1.225771881720712e-05,
        -1.5459983589418882e-05,
        -0.06791412747056148,
        9.198947063822841e-05,
        -8.189242484828461e-05,
        3.704851979236482e-05,
        0.0,
        0.00014386649408334122,
        0.00018819563402347716,
        -2.0730664662711425e-05,
        5.4488483491113774e-05,
        -1.4875995565371762e-05,
        2.684291283394312e-05,
        2.3968512650229052e-05,
        4.135326066225684e-05,
        5.141114119700562e-06,
        -8.55294636199758e-05,
        -0.00010605956896789092,
        0.0,
        9.061709754521849e-05,
        5.104414367881045e-05,
        1.7249723490150023e-05,
        -2.2669683920308674e-05,
        8.949778637056747e-05,
        0.0,
        0.0001885491028179149,
        -9.659670011934911e-05,
        5.3557573686568135e-05,
        -3.4528700513638264e-06,
        -5.7791100349424926e-05,
        0.0,
        8.187162066280279e-05,
        2.7695356081034394e-05,
        2.7608498956826245e-05,
        6.654375530201076e-05,
        -0.00011605430394789574,
        7.82126752430343e-05,
        -0.000165558370512751,
        0.0001816309657984626,
        -6.26942170606265e-05,
        -1.701591255312037e-05,
        -5.721154525378342e-05,
        -0.0001033687567964472,
        2.870994149552373e-06,
        -8.367198391493328e-05,
        -5.953714055120863e-05,
        -9.511929090059633e-05,
        9.440985399583623e-05,
        6.794544589703035e-05,
        7.842943336877616e-05,
        0.0001481249199640273
      ],
      [
        -7.230706667910329e-06,
        -6.9229907467998275e-06,
        1.8438140545826038,
        1.449637965347891e-05,
        1.6025813155194116e-05,
        -7.0768487074959475e-06,
        -8.315312668327751e-06,
        -7.961439359226161e-06,
        -0.1142851729312938,
        1.6670836601457166e-05,
        1.8429685128410618e-05,
        -8.138376013926354e-06,
        -9.39991866862023e-06,
        -8.999887971202302e-06,
        -0.12919193461798426,
        1.884529354941564e-05,
        2.083355710138609e-05,
        -9.199903319841385e-06,
        -1.0484524669129872e-05,
        -1.0038336582549927e-05,
        -0.14409869630467462,
        2.1019750497500683e-05,
        2.3237429074901285e-05,
        -1.0261430626039177e-05,
        -1.156913066904174e-05,
        -1.1076785195536991e-05,
        -0.1590054579913654,
        2.3194207445546017e-05,
        2.564130104823072e-05,
        -1.132295793215632e-05,
        -1.2653736668980314e-05,
        -1.211523380716656e-05,
        -0.17391221967805542,
        2.5368664393561155e-05,
        2.8045173021267794e-05,
        -1.2384485238014161e-05,
        -1.373834266898055e-05,
        -1.3153682417981056e-05,
        -0.18881898136474545,
        2.754312134153274e-05,
        3.0449044994529074e-05,
        -1.3446012544498771e-05,
        -1.4822948669702425e-05,
        -1.4192131030649646e-05,
        -0.2037257430514374,
        2.9717578289490828e-05,
        3.285291696817686e-05,
        -1.4507539850962614e-05,
        -2.7510393873525777e-05,
        0.00018233467378811274,
        -7.987663064215341e-05,
        0.0,
        -0.00016394464376159532,
        -0.0001963281417564848,
        6.771581329953874e-05,
        4.856867110930619e-07,
        1.7751473121616066e-05,
        1.8915472155628805e-05,
        4.096287493719602e-05,
        -7.107679603262528e-06,
        0.0001215874162625875,
        5.329478124102303e-05,
        0.00020215389967864568,
        0.0,
        -0.00015408678983422987,
        -1.817127898966497e-06,
        -4.848756716669582e-05,
        9.646691690067872e-05,
        -0.00036266167894520585,
        0.0,
        -0.0003962112667749169,
        6.336081724155354e-05,
        -0.0001354320334272098,
        -7.516073594324128e-05,
        8.491818468141493e-05,
        0.0,
        -4.992350730631485e-05,
        -0.00019206008974963852,
        -1.7665746939866855e-06,
        3.3094253404451036e-06,
        0.00015355906750015818,
        -0.00028832347743481043,
        0.0004641209191522402,
        -0.0002616469895960441,
        0.00013824152192017398,
        3.3652107073586206e-06,
        0.00011203858598047191,
        0.00029323744760990965,
        -9.743632061788814e-07,
        7.356658474185526e-05,
        0.00020292216614550162,
        9.256734094873367e-05,
        -0.00039337859382099753,
        -0.00013898465615863284,
        -0.00010865061921500543,
        -0.00029784794479623133
      ],
      [
        -6.375958153106839e-06,
        -5.979375032729878e-06,
        1.4496379653557593e-05,
        1.843811291670851,
        1.3987234476730214e-05,
        -6.177666592832112e-06,
        -7.332351876382228e-06,
        -6.876281287868821e-06,
        1.667083660159336e-05,
        -0.11428835027981418,
        1.6085319648138066e-05,
        -7.104316582237369e-06,
        -8.288745599163906e-06,
        -7.773187542679755e-06,
        1.8845293549694203e-05,
        -0.129195526403268,
        1.8183404819334323e-05,
        -8.030966571293782e-06,
        -9.245139322397825e-06,
        -8.67009379728338e-06,
        2.1019750497627467e-05,
        -0.14410270252672233,
        2.0281489991144912e-05,
        -8.957616560033449e-06,
        -1.020153304554434e-05,
        -9.567000052728694e-06,
        2.3194207445706868e-05,
        -0.15900987865017643,
        2.2379575162696127e-05,
        -9.884266549264847e-06,
        -1.1157926768476384e-05,
        -1.0463906307051129e-05,
        2.5368664393669124e-05,
        -0.1739170547736299,
        2.4477660333958127e-05,
        -1.0810916537640693e-05,
        -1.2114320490947213e-05,
        -1.1360812561401312e-05,
        2.754312134173414e-05,
        -0.18882423089708456,
        2.657574550541258e-05,
        -1.1737566527027577e-05,
        -1.307071421481513e-05,
        -1.2257718816957456e-05,
        2.9717578289768746e-05,
        -0.20373140702053852,
        2.8673830677270674e-05,
        -1.2664216516624172e-05,
        -5.227400661079014e-05,
        0.00016976574699444823,
        -0.00011909119538136399,
        0.0,
        -8.947983561174502e-05,
        -0.00017915378112295648,
        8.827078168816231e-05,
        -3.0296127563517423e-05,
        0.00012425183139256533,
        3.0649698245325766e-05,
        6.692687859695442e-05,
        -7.088763824078836e-05,
        5.188610336333776e-05,
        1.3301211764616549e-05,
        7.717240297339078e-05,
        0.0,
        -0.00012713854680308857,
        -2.1700308505959923e-05,
        4.5792648208670074e-05,
        9.520512907856146e-06,
        -0.0002757193563633033,
        0.0,
        -0.0003524237598940769,
        8.589303587089935e-05,
        -5.330258401138035e-05,
        -0.00011665631019108156,
        9.416210507026378e-05,
        0.0,
        -4.3460274563845286e-05,
        -3.2559034133283905e-05,
        1.583485891351967e-06,
        -0.00015277019192779003,
        0.0002243482699754095,
        -0.0004712952860322631,
        0.00029026205972592365,
        -0.00026652456592299377,
        0.00010705391629927084,
        2.8193646439517654e-05,
        0.00018179128661517752,
        4.594156042523446e-05,
        -5.9146811444869596e-05,
        0.00012704149991981504,
        0.00022151005601336662,
        9.006317970592543e-05,
        -0.00026975057247363216,
        -0.00012003907313650763,
        -8.253756281218253e-05,
        -0.00018876026282512153
      ],
      [
        -7.550590440407432e-06,
        -7.5414554094477315e-06,
        1.602581315532978e-05,
        1.3987234476807818e-05,
        1.843814957621889,
        -7.546022924936144e-06,
        -8.683179006542114e-06,
        -8.672673721240284e-06,
        1.8429685128668174e-05,
        1.608531964827198e-05,
        -0.1142841344361198,
        -8.677926363952244e-06,
        -9.815767572520062e-06,
        -9.803892032742424e-06,
        2.083355710199511e-05,
        1.818340481970931e-05,
        -0.12919076066691804,
        -9.809829802582787e-06,
        -1.0948356138387643e-05,
        -1.0935110343516979e-05,
        2.323742907522755e-05,
        2.028148999131644e-05,
        -0.14409738689771615,
        -1.0941733241019758e-05,
        -1.20809447047605e-05,
        -1.2066328655691952e-05,
        2.5641301048561863e-05,
        2.2379575162880126e-05,
        -0.15900401312851375,
        -1.2073636680262674e-05,
        -1.3213533270662467e-05,
        -1.3197546966642949e-05,
        2.8045173021833734e-05,
        2.4477660334412306e-05,
        -0.1739106393593121,
        -1.3205540118278956e-05,
        -1.4346121836692066e-05,
        -1.432876527692753e-05,
        3.044904499507776e-05,
        2.65757455058244e-05,
        -0.18881726559011094,
        -1.4337443557761594e-05,
        -1.5478710403138337e-05,
        -1.5459983588946326e-05,
        3.285291696850483e-05,
        2.8673830677291938e-05,
        -0.2037238918209084,
        -1.546934699721775e-05,
        -0.0002188767310136084,
        0.00022387909473462963,
        -0.00013153248445554424,
        0.0,
        -0.0003673661282763744,
        -0.0005760695875569317,
        6.341077924052691e-05,
        -0.0002548700624850637,
        -5.603531306061626e-05,
        -5.376528745378148e-06,
        -9.391748265870153e-05,
        -0.0001405970143280483,
        -6.638084920863338e-05,
        0.00015593914802700045,
        0.00024544984574362245,
        0.0,
        -0.00028294599293219507,
        -9.801373928717678e-05,
        -1.1432326620853075e-05,
        1.594903174960021e-05,
        -0.00021961494330498537,
        0.0,
        -0.00044756272032948495,
        0.00019154767919353735,
        -0.00010587633333111376,
        -2.5632254955524267e-05,
        9.92259322818138e-05,
        0.0,
        -0.00022184667353967864,
        -5.687840431798948e-05,
        -4.7361127071297586e-05,
        -0.000176585703192182,
        0.00023706774303496113,
        -0.00019051974541365013,
        0.0004047427664366842,
        -0.0005219273449088162,
        0.0001586059194354331,
        -1.732245322522294e-05,
        0.00015951134120911227,
        0.00031372049230136013,
        -5.145799085107659e-05,
        0.0001942886646486404,
        0.00014992543122176026,
        0.00015485034632111875,
        -0.00015728961994529127,
        -0.00012206472507186744,
        -0.00017959042490313094,
        -0.00038552213374050095
      ],
      [
        -0.03312878326744834,
        -0.03312884266856677,
        -7.0768487074443775e-06,
        -6.177666592803457e-06,
        -7.546022924882978e-06,
        1.9100636528592025,
        -0.03809810075756536,
        -0.03809816906885159,
        -8.138376013560206e-06,
        -7.104316581704929e-06,
        -8.677926363522094e-06,
        -0.03809813491320848,
        -0.04306741824768281,
        -0.04306749546913666,
        -9.199903319702489e-06,
        -8.030966570593322e-06,
        -9.809829802119996e-06,
        -0.043067456858409695,
        -0.04803673573779986,
        -0.04803682186942191,
        -1.026143062576926e-05,
        -8.957616559545932e-06,
        -1.094173324093487e-05,
        -0.04803677880361087,
        -0.053006053227916995,
        -0.0530061482697067,
        -1.1322957931912237e-05,
        -9.884266548482085e-06,
        -1.2073636679754483e-05,
        -0.053006100748811937,
        -0.05797537071803423,
        -0.05797547466999175,
        -1.2384485238019103e-05,
        -1.0810916537400652e-05,
        -1.3205540118333498e-05,
        -0.05797542269401327,
        -0.06294468820815183,
        -0.06294480107027718,
        -1.3446012544112045e-05,
        -1.1737566526285112e-05,
        -1.4337443556948204e-05,
        -0.06294474463921405,
        -0.06791400569826882,
        -0.06791412747056207,
        -1.4507539850259605e-05,
        -1.2664216515186586e-05,
        -1.5469346996001235e-05,
        -0.06791406658441515,
        6.152621644241192e-05,
        -8.306000969484902e-05,
        4.866044206309468e-05,
        0.0,
        0.00012109135958177084,
        0.00017476460054314535,
        -3.415876144672815e-05,
        4.9822184769979324e-05,
        -1.1271479262362563e-06,
        5.237851367122075e-07,
        1.3263839010156138e-05,
        3.3823827059732316e-05,
        -7.67585688803034e-06,
        -4.773113964705073e-05,
        -9.944873902753001e-05,
        0.0,
        9.076330486104977e-05,
        3.11569233818535e-05,
        9.228687526474355e-06,
        -2.457496315113986e-05,
        0.00011608156201000227,
        0.0,
        0.00020133189152596263,
        -6.97247124546859e-05,
        4.218787476179179e-05,
        1.4468853526258437e-05,
        -5.1275860343259416e-05,
        0.0,
        7.191850717794547e-05,
        5.005473665745753e-05,
        4.941908176161753e-06,
        5.182242049216471e-05,
        -9.41225678134038e-05,
        0.0001003638685489591,
        -0.0001858647660827902,
        0.0001797317640622293,
        -7.604242839698565e-05,
        -4.601622890284395e-06,
        -5.2861035149340694e-05,
        -0.00012438331523643168,
        3.571207317578971e-06,
        -6.857316421393495e-05,
        -8.772483950177809e-05,
        -6.605900606917522e-05,
        0.00010340466449386946,
        5.704928364032884e-05,
        5.764266853215477e-05,
        0.00014626557423405722
      ],
      [
        -0.0952506784099172,
        0.019054476894786492,
        -8.315312668366095e-06,
        -7.332351876354539e-06,
        -8.683179006509668e-06,
        -0.03809810075756539,
        1.8336541856558017,
        0.021912648429004485,
        -9.562609568623338e-06,
        -8.432204657784406e-06,
        -9.985655857423003e-06,
        -0.04381281587120013,
        -0.12382588193289272,
        0.02477081996322258,
        -1.080990646892394e-05,
        -9.532057439201768e-06,
        -1.128813270825418e-05,
        -0.049527530984834804,
        -0.13811348369437987,
        0.02762899149744028,
        -1.2057203369120889e-05,
        -1.0631910220690455e-05,
        -1.2590609559351657e-05,
        -0.05524224609846964,
        -0.1524010854558674,
        0.03048716303165847,
        -1.3304500269404647e-05,
        -1.1731763002155342e-05,
        -1.3893086410377113e-05,
        -0.0609569612121046,
        -0.16668868721735572,
        0.03334533456587625,
        -1.455179716962201e-05,
        -1.2831615783611864e-05,
        -1.5195563261228584e-05,
        -0.06667167632573959,
        -0.1809762889788425,
        0.03620350610009388,
        -1.57990940698652e-05,
        -1.3931468565034643e-05,
        -1.6498040112191404e-05,
        -0.07238639143937386,
        -0.19526389074033057,
        0.039061677634312036,
        -1.7046390970146102e-05,
        -1.503132134645262e-05,
        -1.7800516963380282e-05,
        -0.07810110655300873,
        3.572240661496519e-05,
        -9.686173367023675e-05,
        6.931321896026206e-05,
        0.0,
        0.00011306365892433526,
        0.00018553360214815207,
        -5.472488688681077e-05,
        5.192926898631912e-05,
        1.4514954702983516e-05,
        -2.966464389893214e-05,
        2.9430402312682176e-06,
        3.023855239369337e-05,
        -2.356675208765765e-05,
        -1.1422738032970521e-05,
        -0.00010676359542943164,
        0.0,
        0.00010454593896591588,
        1.2960158598629224e-05,
        1.388799335345993e-06,
        -3.0452278759809594e-05,
        0.00016406513829282906,
        0.0,
        0.0002462318821960747,
        -4.9280633483957574e-05,
        3.5440902214391066e-05,
        3.7249163747847023e-05,
        -5.147471336337292e-05,
        0.0,
        7.126020289792586e-05,
        8.327623483091942e-05,
        -2.038338500113313e-05,
        4.266624850068774e-05,
        -8.301945645806801e-05,
        0.0001408923211848515,
        -0.0002370968358690428,
        0.0002045074466549882,
        -0.00010279923569097805,
        8.984566859095168e-06,
        -5.578710382262293e-05,
        -0.00016720755475996786,
        4.9121335135797854e-06,
        -6.149549618275498e-05,
        -0.00013329941921328244,
        -4.2548529436191014e-05,
        0.00012925939621142674,
        5.307608965269425e-05,
        4.2384289265272494e-05,
        0.00016606716270560842
      ],
      [
        0.019054476894786534,
        -0.09525081503248983,
        -7.961439359193479e-06,
        -6.876281287850912e-06,
        -8.67267372104844e-06,
        -0.03809816906885163,
        0.021912648429004495,
        1.833654028539841,
        -9.155655263068518e-06,
        -7.907723481007719e-06,
        -9.973574779064451e-06,
        -0.04381289442917926,
        0.024770819963222508,
        -0.12382605954223648,
        -1.0349871166970529e-05,
        -8.939165674146704e-06,
        -1.127447583705476e-05,
        -0.04952761978950703,
        0.027628991497440428,
        -0.1381136817971104,
        -1.1544087070804996e-05,
        -9.970607867363855e-06,
        -1.2575376895280645e-05,
        -0.05524234514983479,
        0.030487163031658403,
        -0.15240130405198324,
        -1.2738302974715007e-05,
        -1.1002050060565886e-05,
        -1.3876277953596216e-05,
        -0.0609570705101623,
        0.03334533456587632,
        -0.16668892630685747,
        -1.3932518878577655e-05,
        -1.2033492253734582e-05,
        -1.5177179011530123e-05,
        -0.06667179587049032,
        0.03620350610009426,
        -0.18097654856173104,
        -1.5126734782428442e-05,
        -1.3064934446859267e-05,
        -1.6478080069424432e-05,
        -0.07238652123081793,
        0.039061677634312425,
        -0.19526417081660416,
        -1.632095068635142e-05,
        -1.4096376640029115e-05,
        -1.777898112810972e-05,
        -0.07810124659114534,
        0.00010578789121775031,
        -9.417628845674688e-05,
        4.260579795349122e-05,
        0.0,
        0.00016544646815678713,
        0.00021642497916951264,
        -2.384026433113004e-05,
        6.266175598998955e-05,
        -1.710739482614867e-05,
        3.086934973056702e-05,
        2.7563789577942013e-05,
        4.755624986700226e-05,
        5.912281261851837e-06,
        -9.835888315054886e-05,
        -0.00012196850427315243,
        0.0,
        0.00010420966220061249,
        5.870076519833755e-05,
        1.9837181997826992e-05,
        -2.6070136548163736e-05,
        0.00010292245434033857,
        0.0,
        0.0002168314682100547,
        -0.00011108620509873376,
        6.15912096896955e-05,
        -3.9708006562374725e-06,
        -6.645976539727053e-05,
        0.0,
        9.415236374053756e-05,
        3.184965955472744e-05,
        3.174977377724017e-05,
        7.652531861668713e-05,
        -0.0001334624495170701,
        8.99445765225499e-05,
        -0.0001903921261117639,
        0.00020887561067190665,
        -7.209834961200509e-05,
        -1.956829953223192e-05,
        -6.579327707781596e-05,
        -0.00011887407026699593,
        3.301643254570057e-06,
        -9.622278145340082e-05,
        -6.846771160149022e-05,
        -0.00010938718449474453,
        0.00010857133207634521,
        7.813726285323457e-05,
        9.019384834723078e-05,
        0.00017034365793653638
      ],
      [
        -8.315312668098637e-06,
        -7.961439358818623e-06,
        -0.11428517293129359,
        1.667083660151156e-05,
        1.8429685128509375e-05,
        -8.138376013622203e-06,
        -9.562609568589047e-06,
        -9.15565526310893e-06,
        1.8117645169562246,
        1.917146209168868e-05,
        2.1194137897714214e-05,
        -9.359132416016738e-06,
        -1.0809906468935411e-05,
        -1.0349871166881894e-05,
        -0.1485707248106818,
        2.167208758184136e-05,
        2.3958590666632077e-05,
        -1.0579888817826859e-05,
        -1.2057203369517326e-05,
        -1.1544087069931382e-05,
        -0.16571350075037602,
        2.417271307214016e-05,
        2.6723043436188794e-05,
        -1.1800645219954295e-05,
        -1.3304500269414334e-05,
        -1.27383029748659e-05,
        -0.18285627669007032,
        2.6673338562395055e-05,
        2.948749620552153e-05,
        -1.302140162198595e-05,
        -1.4551797169318805e-05,
        -1.3932518878239948e-05,
        -0.1999990526297642,
        2.9173964052613147e-05,
        3.22519489745248e-05,
        -1.4242158023710623e-05,
        -1.5799094069333742e-05,
        -1.5126734780676124e-05,
        -0.21714182856945854,
        3.167458954278453e-05,
        3.5016401743763166e-05,
        -1.546291442617645e-05,
        -1.704639097017447e-05,
        -1.6320950685245895e-05,
        -0.23428460450915284,
        3.417521503293661e-05,
        3.778085451345824e-05,
        -1.6683670828607784e-05,
        -3.163695295366415e-05,
        0.00020968487485686585,
        -9.185812524063595e-05,
        0.0,
        -0.00018853634033171477,
        -0.00022577736302830726,
        7.787318529356632e-05,
        5.585397143391462e-07,
        2.0414194087777044e-05,
        2.175279297985942e-05,
        4.710730617671868e-05,
        -8.173831547474844e-06,
        0.00013982552869608002,
        6.128899842537887e-05,
        0.00023247698463212002,
        0.0,
        -0.0001771998083144346,
        -2.0896970811927656e-06,
        -5.576070224362742e-05,
        0.00011093695443424543,
        -0.00041706093079315807,
        0.0,
        -0.000455642956792227,
        7.286493983015359e-05,
        -0.0001557468384428588,
        -8.643484633327357e-05,
        9.765591237624347e-05,
        0.0,
        -5.741203340476537e-05,
        -0.0002208691032093292,
        -2.0315608967019076e-06,
        3.805839136573256e-06,
        0.00017659292762262096,
        -0.00033157199905518506,
        0.0005337390570239102,
        -0.0003008940380402703,
        0.00015897775020236814,
        3.869992310388494e-06,
        0.0001288443738833362,
        0.00033722306474856013,
        -1.1205176849122516e-06,
        8.460157245051094e-05,
        0.00023336049106743455,
        0.00010645244208943295,
        -0.0004523853829035671,
        -0.0001598323545870898,
        -0.0001249482120956213,
        -0.0003425251365196636
      ],
      [
        -7.332351876049596e-06,
        -6.8762812876167545e-06,
        1.6670836601538393e-05,
        -0.1142883502798141,
        1.6085319648175583e-05,
        -7.104316581733947e-06,
        -8.432204657812678e-06,
        -7.907723481022635e-06,
        1.9171462091771985e-05,
        1.8117608630054212,
        1.8498117595284216e-05,
        -8.169964069546685e-06,
        -9.532057439007694e-06,
        -8.939165674052545e-06,
        2.1672087582079683e-05,
        -0.1485748553637585,
        2.091091554215134e-05,
        -9.235611556957861e-06,
        -1.0631910220723828e-05,
        -9.970607866843753e-06,
        2.4172713072195453e-05,
        -0.165718107905731,
        2.3323713489723144e-05,
        -1.0301259044005354e-05,
        -1.1731763002337988e-05,
        -1.1002050060602232e-05,
        2.6673338562479542e-05,
        -0.18286136044770268,
        2.5736511436997172e-05,
        -1.1366906531617753e-05,
        -1.283161578370712e-05,
        -1.2033492253069673e-05,
        2.9173964052628258e-05,
        -0.200004612989675,
        2.814930938393978e-05,
        -1.2432554018246182e-05,
        -1.3931468564545008e-05,
        -1.3064934445569563e-05,
        3.167458954289557e-05,
        -0.21714786553164717,
        3.056210733110253e-05,
        -1.3498201506037632e-05,
        -1.5031321346988787e-05,
        -1.4096376639454913e-05,
        3.417521503312769e-05,
        -0.234291118073619,
        3.2974905278729095e-05,
        -1.4563848994070542e-05,
        -6.011510759831923e-05,
        0.0001952306090596932,
        -0.00013695487467447535,
        0.0,
        -0.00010290181095914413,
        -0.00020602684828343267,
        0.00010151139897156137,
        -3.484054669144676e-05,
        0.00014288960609940305,
        3.52471529829062e-05,
        7.696591039161544e-05,
        -8.15207839642794e-05,
        5.966901886815208e-05,
        1.5296393526304378e-05,
        8.874826343463352e-05,
        0.0,
        -0.00014620932882504291,
        -2.495535478080967e-05,
        5.266154543374098e-05,
        1.0948589846860107e-05,
        -0.00031707725981950047,
        0.0,
        -0.0004052873238877289,
        9.877699124828996e-05,
        -6.129797161822817e-05,
        -0.00013415475672331196,
        0.00010828642083079466,
        0.0,
        -4.997931573093293e-05,
        -3.744288924195722e-05,
        1.8210087744074147e-06,
        -0.00017568572073050362,
        0.00025800051047150956,
        -0.0005419895789234437,
        0.0003338013686821836,
        -0.00030650325081667794,
        0.000123112003740536,
        3.24226934070887e-05,
        0.00020905997959687656,
        5.283279447412044e-05,
        -6.801883316228848e-05,
        0.00014609772490602882,
        0.00025473656441998464,
        0.00010357265666992376,
        -0.0003102131583446788,
        -0.00013804493409681886,
        -9.491819723359328e-05,
        -0.00021707430226769995
      ],
      [
        -8.68317900633593e-06,
        -8.672673720650612e-06,
        1.8429685128422812e-05,
        1.608531964808649e-05,
        -0.1142841344361199,
        -8.677926363508351e-06,
        -9.985655857386014e-06,
        -9.973574779179875e-06,
        2.1194137897724988e-05,
        1.849811759523248e-05,
        1.811765711225671,
        -9.979615318349647e-06,
        -1.1288132708239327e-05,
        -1.127447583737587e-05,
        2.3958590667019798e-05,
        2.091091554235077e-05,
        -0.14856937476695664,
        -1.1281304272751749e-05,
        -1.2590609558964488e-05,
        -1.2575376894733885e-05,
        2.6723043436201777e-05,
        2.332371348966197e-05,
        -0.16571199493237432,
        -1.258299322692726e-05,
        -1.3893086410274563e-05,
        -1.3876277953703586e-05,
        2.948749620550643e-05,
        2.573651143692333e-05,
        -0.1828546150977924,
        -1.3884682182032473e-05,
        -1.5195563261037761e-05,
        -1.517717901126471e-05,
        3.225194897473482e-05,
        2.8149309384148706e-05,
        -0.19999723526321053,
        -1.5186371135723093e-05,
        -1.6498040111955228e-05,
        -1.6478080068060354e-05,
        3.5016401743935975e-05,
        3.0562107331236695e-05,
        -0.2171398554286287,
        -1.6488060091099965e-05,
        -1.780051696335145e-05,
        -1.777898112684874e-05,
        3.7780854513336197e-05,
        3.297490527838761e-05,
        -0.23428247559404664,
        -1.7789749046446158e-05,
        -0.0002517082405825218,
        0.0002574609590313458,
        -0.00015126235694159219,
        0.0,
        -0.0004224710475315841,
        -0.0006624800256365118,
        7.292239622685935e-05,
        -0.0002931005718087144,
        -6.444061002963676e-05,
        -6.183008139490578e-06,
        -0.00010800510496945822,
        -0.00016168656627043313,
        -7.633797655888295e-05,
        0.00017933002023639804,
        0.00028226732269009887,
        0.0,
        -0.0003253878918540721,
        -0.00011271580019929522,
        -1.3147175573582253e-05,
        1.8341386486472752e-05,
        -0.00025255718480908117,
        0.0,
        -0.0005146971284952847,
        0.00022027983103802733,
        -0.00012175778335274269,
        -2.947709321275719e-05,
        0.000114109822135755,
        0.0,
        -0.00025512367437694687,
        -6.541016488240113e-05,
        -5.4465296160074764e-05,
        -0.00020307355864627945,
        0.0002726279046000733,
        -0.00021909770724048131,
        0.0004654541813353736,
        -0.0006002164466349297,
        0.00018239680740507287,
        -1.9920821278790718e-05,
        0.0001834380422773436,
        0.0003607785661154519,
        -5.917668946975864e-05,
        0.00022343196439592137,
        0.0001724142459508538,
        0.0001780778982949477,
        -0.0001808830629463361,
        -0.00014037443377427092,
        -0.00020652898861019085,
        -0.00044335045393308916
      ],
      [
        -0.03809810075756537,
        -0.03809816906885178,
        -8.138376013879505e-06,
        -7.104316582167853e-06,
        -8.677926363801718e-06,
        -0.03809813491320863,
        -0.04381281587120009,
        -0.04381289442917928,
        -9.3591324159602e-06,
        -8.16996406947091e-06,
        -9.979615318263573e-06,
        1.8993796106770215,
        -0.04952753098483499,
        -0.04952761978950709,
        -1.0579888818075267e-05,
        -9.23561155675912e-06,
        -1.1281304272680103e-05,
        -0.049527575387170925,
        -0.055242246098469734,
        -0.055242345149835004,
        -1.180064522010695e-05,
        -1.0301259044121259e-05,
        -1.2582993227343444e-05,
        -0.055242295624152254,
        -0.060956961212104505,
        -0.060957070510162505,
        -1.3021401622219261e-05,
        -1.136690653146458e-05,
        -1.3884682182016032e-05,
        -0.060957015861133626,
        -0.06667167632573952,
        -0.06667179587049031,
        -1.4242158024274659e-05,
        -1.2432554018787375e-05,
        -1.5186371136414405e-05,
        -0.06667173609811505,
        -0.07238639143937439,
        -0.07238652123081864,
        -1.546291442633596e-05,
        -1.3498201506070844e-05,
        -1.6488060090840817e-05,
        -0.07238645633509616,
        -0.07810110655300886,
        -0.07810124659114623,
        -1.668367082845091e-05,
        -1.4563848993374136e-05,
        -1.778974904578311e-05,
        -0.07810117657207705,
        7.075514890287977e-05,
        -9.55190110891336e-05,
        5.5959508423097355e-05,
        0.0,
        0.0001392550635170777,
        0.00020097929063485614,
        -3.9282575601146954e-05,
        5.7295512478106934e-05,
        -1.2962200962498072e-06,
        6.023529148032164e-07,
        1.5253414861416202e-05,
        3.889740112751083e-05,
        -8.827235427240998e-06,
        -5.489081058483962e-05,
        -0.00011436604984930658,
        0.0,
        0.0001043778006055087,
        3.5830461880767026e-05,
        1.0612990664743296e-05,
        -2.8261207658917005e-05,
        0.0001334937963123282,
        0.0,
        0.00023153167520363664,
        -8.018341931908121e-05,
        4.851605598130382e-05,
        1.6639181574368467e-05,
        -5.8967239375841285e-05,
        0.0,
        8.270628335470456e-05,
        5.75629471869698e-05,
        5.68319438190831e-06,
        5.959578352072579e-05,
        -0.00010824095298073317,
        0.00011541844883531567,
        -0.0002137444809958397,
        0.0002066915286570975,
        -8.744879264541824e-05,
        -5.291866302127225e-06,
        -6.079019042681784e-05,
        -0.00014304081256148518,
        4.106888405208127e-06,
        -7.885913881756442e-05,
        -0.00010088356543763354,
        -7.59678569636015e-05,
        0.00011891536416782192,
        6.560667621467892e-05,
        6.628906880335192e-05,
        0.0001682054103089243
      ],
      [
        -0.10767467994164566,
        0.02153984344628036,
        -9.399918668639403e-06,
        -8.288745599134563e-06,
        -9.815767572496277e-06,
        -0.04306741824768275,
        -0.12382588193289278,
        0.024770819963222536,
        -1.0809906468938334e-05,
        -9.5320574389778e-06,
        -1.1288132708291961e-05,
        -0.04952753098483514,
        1.80321538190307,
        0.02800179648016473,
        -1.2219894269255624e-05,
        -1.0775369278807654e-05,
        -1.2760497844006242e-05,
        -0.05598764372198733,
        -0.15612828591538624,
        0.03123277299710641,
        -1.3629882069480089e-05,
        -1.2018681118718043e-05,
        -1.4232862980014326e-05,
        -0.062447756459139615,
        -0.17227948790663325,
        0.03446374951404875,
        -1.5039869869821534e-05,
        -1.326199295860156e-05,
        -1.5705228115939244e-05,
        -0.06890786919629192,
        -0.18843068989787998,
        0.03769472603099057,
        -1.6449857670078514e-05,
        -1.4505304798475272e-05,
        -1.717759325167352e-05,
        -0.0753679819334448,
        -0.204581891889127,
        0.04092570254793222,
        -1.785984547037326e-05,
        -1.5748616638311185e-05,
        -1.864995838751907e-05,
        -0.0818280946705968,
        -0.2207330938803732,
        0.04415667906487453,
        -1.9269833270684537e-05,
        -1.6991928478141587e-05,
        -2.0122323523641818e-05,
        -0.08828820740774884,
        4.038185091366768e-05,
        -0.00010949587285406014,
        7.835407361459344e-05,
        0.0,
        0.00012781109267941663,
        0.00020973363720427598,
        -6.186291562676619e-05,
        5.870265186434939e-05,
        1.640820966870595e-05,
        -3.353394529217468e-05,
        3.3269150031540115e-06,
        3.418271138077323e-05,
        -2.6640676302282726e-05,
        -1.2912660359711435e-05,
        -0.0001206892817966424,
        0.0,
        0.00011818236580057081,
        1.4650614037968113e-05,
        1.5699470715690227e-06,
        -3.4424315124948096e-05,
        0.0001854649389429718,
        0.0,
        0.0002783490842622181,
        -5.570854218012502e-05,
        4.006362858884548e-05,
        4.210775032706311e-05,
        -5.8188806422672935e-05,
        0.0,
        8.055501187325226e-05,
        9.413835241644755e-05,
        -2.3042087380031156e-05,
        4.823141131205846e-05,
        -9.38480812169056e-05,
        0.00015926958046418106,
        -0.00026802251010064643,
        0.00023118233099560378,
        -0.00011620783167734256,
        1.015646690601939e-05,
        -6.306368255166795e-05,
        -0.00018901723586495597,
        5.55284658993034e-06,
        -6.951664786518225e-05,
        -0.00015068629998312441,
        -4.809833762503519e-05,
        0.00014611931746447658,
        5.999905784604281e-05,
        4.791267478612729e-05,
        0.0001877280970174481
      ],
      [
        0.02153984344628046,
        -0.10767483438455372,
        -8.999887971100729e-06,
        -7.773187542644422e-06,
        -9.803892032643907e-06,
        -0.04306749546913674,
        0.024770819963222515,
        -0.12382605954223645,
        -1.0349871166761707e-05,
        -8.939165674017574e-06,
        -1.127447583738144e-05,
        -0.04952761978950705,
        0.028001796480164688,
        1.8032151811272854,
        -1.1699854362452636e-05,
        -1.0105143805371329e-05,
        -1.2745059642088962e-05,
        -0.055987744109877724,
        0.031232772997106605,
        -0.15612850985760335,
        -1.3049837558067476e-05,
        -1.1271121936811684e-05,
        -1.421564344706306e-05,
        -0.062447868430248146,
        0.03446374951404882,
        -0.17227973501528518,
        -1.4399820753767847e-05,
        -1.2437100068235556e-05,
        -1.5686227252138892e-05,
        -0.06890799275061839,
        0.037694726030990736,
        -0.18843096017296881,
        -1.5749803949414644e-05,
        -1.360307819962325e-05,
        -1.7156811056782414e-05,
        -0.07536811707098932,
        0.04092570254793268,
        -0.20458218533065267,
        -1.7099787145048005e-05,
        -1.4769056330960113e-05,
        -1.8627394861381784e-05,
        -0.08182824139135947,
        0.04415667906487511,
        -0.2207334104883343,
        -1.8449770340762478e-05,
        -1.5935034462348013e-05,
        -2.009797866687558e-05,
        -0.0882883657117297,
        0.00011958631183331656,
        -0.00010646015222629015,
        4.8163075829908785e-05,
        0.0,
        0.0001870264422162248,
        0.00024465432426680597,
        -2.6949864013836116e-05,
        7.083502851225054e-05,
        -1.9338794196721463e-05,
        3.4895786646967615e-05,
        3.1159066477212e-05,
        5.375923904420811e-05,
        6.683448381516268e-06,
        -0.00011118830267821068,
        -0.00013787743962089655,
        0.0,
        0.00011780222682447527,
        6.635738675985144e-05,
        2.2424640505290527e-05,
        -2.9470589118525353e-05,
        0.00011634712230750175,
        0.0,
        0.00024511383363149953,
        -0.00012557571015193067,
        6.962484576105704e-05,
        -4.488731208385746e-06,
        -7.512843046632088e-05,
        0.0,
        0.00010643310688891825,
        3.6003962944837117e-05,
        3.5891048623341856e-05,
        8.650688194963546e-05,
        -0.00015087059510091773,
        0.00010167647778381266,
        -0.0002152258817185936,
        0.00023612025553726603,
        -8.15024821642291e-05,
        -2.2120686448905075e-05,
        -7.43750088932593e-05,
        -0.00013437938380135328,
        3.7322924099191444e-06,
        -0.00010877357907054816,
        -7.739828269485631e-05,
        -0.00012365507810460828,
        0.00012273281020060497,
        8.8329079701604e-05,
        0.00010195826337873255,
        0.00019256239595004588
      ],
      [
        -9.39991866833088e-06,
        -8.999887970865377e-06,
        -0.12919193461798423,
        1.8845293549613508e-05,
        2.0833557101837144e-05,
        -9.199903319781947e-06,
        -1.0809906468883547e-05,
        -1.0349871167024255e-05,
        -0.14857072481068176,
        2.1672087581999214e-05,
        2.3958590667022146e-05,
        -1.0579888818148308e-05,
        -1.2219894269246512e-05,
        -1.1699854362596846e-05,
        1.7752429508238277,
        2.4498881614358616e-05,
        2.7083624231900926e-05,
        -1.1959874315829114e-05,
        -1.3629882069920709e-05,
        -1.304983755735288e-05,
        -0.18732830519607718,
        2.7325675646882467e-05,
        3.0208657797486805e-05,
        -1.3339859813896668e-05,
        -1.5039869869817076e-05,
        -1.439982075423905e-05,
        -0.20670709538877446,
        3.0152469679354378e-05,
        3.3333691362824514e-05,
        -1.4719845311854586e-05,
        -1.6449857669732416e-05,
        -1.574980394936245e-05,
        -0.22608588558147294,
        3.297926371178813e-05,
        3.645872492778606e-05,
        -1.6099830809469245e-05,
        -1.7859845469739086e-05,
        -1.7099787143424185e-05,
        -0.24546467577417064,
        3.5806057744167035e-05,
        3.9583758493012854e-05,
        -1.7479816307909204e-05,
        -1.9269833270705787e-05,
        -1.8449770339898417e-05,
        -0.26484346596686736,
        3.863285177652496e-05,
        4.270879205877879e-05,
        -1.8859801806319595e-05,
        -3.5763512032514054e-05,
        0.00023703507593026923,
        -0.00010383961983469638,
        0.0,
        -0.00021312803689790296,
        -0.00025522658427987616,
        8.803055729024151e-05,
        6.313927246845785e-07,
        2.3076915052918228e-05,
        2.4590113805050016e-05,
        5.3251737419949155e-05,
        -9.23998347472036e-06,
        0.00015806364114017565,
        6.928321561116653e-05,
        0.0002628000695822234,
        0.0,
        -0.00020031282678004212,
        -2.3622662766131353e-06,
        -6.303383731989084e-05,
        0.0001254069919717059,
        -0.0004714601826229364,
        0.0,
        -0.0005150746468089424,
        8.23690624157712e-05,
        -0.00017606164345426243,
        -9.770895673504402e-05,
        0.00011039364008638343,
        0.0,
        -6.490055949480859e-05,
        -0.00024967811667773196,
        -2.2965471039619006e-06,
        4.3022529456692545e-06,
        0.00019962678775331064,
        -0.00037482052066792473,
        0.0006033571949016592,
        -0.00034014108647687223,
        0.00017971397849701306,
        4.374773914188384e-06,
        0.00014565016176567937,
        0.00038120868189666404,
        -1.2666721668007402e-06,
        9.56365601605599e-05,
        0.0002637988159883178,
        0.00012033754323572643,
        -0.0005113921719670498,
        -0.00018068005300516274,
        -0.00014124580497897247,
        -0.00038720232824147633
      ],
      [
        -8.288745598989725e-06,
        -7.773187542498612e-06,
        1.884529354952158e-05,
        -0.12919552640326817,
        1.8183404819612072e-05,
        -8.030966570631919e-06,
        -9.532057439240136e-06,
        -8.939165674171014e-06,
        2.1672087581952448e-05,
        -0.1485748553637587,
        2.09109155424212e-05,
        -9.235611556851259e-06,
        -1.0775369278848485e-05,
        -1.0105143805418702e-05,
        2.4498881614468882e-05,
        1.7752382815029608,
        2.363842626495676e-05,
        -1.0440256542617004e-05,
        -1.2018681119046187e-05,
        -1.1271121936395527e-05,
        2.7325675646767094e-05,
        -0.1873335132847389,
        2.636593698829007e-05,
        -1.1644901527971664e-05,
        -1.3261992959128062e-05,
        -1.2437100068467521e-05,
        3.01524696792533e-05,
        -0.20671284224523007,
        2.909344771128456e-05,
        -1.2849546513964328e-05,
        -1.4505304798933269e-05,
        -1.360307819907885e-05,
        3.297926371158969e-05,
        -0.2260921712057198,
        3.182095843390655e-05,
        -1.4054191498845308e-05,
        -1.5748616638137598e-05,
        -1.4769056329727113e-05,
        3.580605774405907e-05,
        -0.24547150016620983,
        3.454846915677631e-05,
        -1.5258836485040995e-05,
        -1.699192847915808e-05,
        -1.5935034461940818e-05,
        3.8632851776487856e-05,
        -0.2648508291266995,
        3.7275979880170715e-05,
        -1.6463481471509564e-05,
        -6.79562085880349e-05,
        0.00022069547110580213,
        -0.00015481855398133068,
        0.0,
        -0.00011632378629791165,
        -0.0002328999154514377,
        0.00011475201621725435,
        -3.9384965824934e-05,
        0.00016152738080685132,
        3.98446077194945e-05,
        8.700494218227428e-05,
        -9.215392969988276e-05,
        6.745193437233476e-05,
        1.7291575287009342e-05,
        0.00010032412387957799,
        0.0,
        -0.0001652801108421744,
        -2.821040105770196e-05,
        5.953044266880315e-05,
        1.2376666785845583e-05,
        -0.00035843516327430504,
        0.0,
        -0.0004581508878673188,
        0.00011166094662767593,
        -6.929335921889892e-05,
        -0.00015165320325035957,
        0.00012241073659152835,
        0.0,
        -5.6498356917628265e-05,
        -4.2326744363835436e-05,
        2.0585316592880382e-06,
        -0.0001986012495204708,
        0.00029165275096740837,
        -0.0006126838718298538,
        0.0003773406776403981,
        -0.00034648193570393663,
        0.00013917009118498365,
        3.665174037259754e-05,
        0.00023632867258942575,
        5.9724028544790154e-05,
        -7.689085488055123e-05,
        0.00016515394989744499,
        0.0002879630728227011,
        0.00011708213362457464,
        -0.00035067574421760345,
        -0.0001560507950688728,
        -0.00010729883165223735,
        -0.00024538834168993755
      ],
      [
        -9.815767572293394e-06,
        -9.803892031945577e-06,
        2.083355710145079e-05,
        1.8183404819299185e-05,
        -0.12919076066691815,
        -9.8098298021336e-06,
        -1.1288132708245707e-05,
        -1.127447583722566e-05,
        2.395859066670943e-05,
        2.0910915542119478e-05,
        -0.14856937476695653,
        -1.128130427281512e-05,
        -1.2760497843978708e-05,
        -1.2745059642127933e-05,
        2.7083624231964128e-05,
        2.3638426264905707e-05,
        1.7752444769602094,
        -1.275277874298926e-05,
        -1.4232862979564972e-05,
        -1.4215643446084255e-05,
        3.020865779710013e-05,
        2.636593698791154e-05,
        -0.18732660296703227,
        -1.4224253212912048e-05,
        -1.570522811581232e-05,
        -1.5686227251861685e-05,
        3.333369136236754e-05,
        2.909344771086238e-05,
        -0.20670521706706924,
        -1.569572768388694e-05,
        -1.717759325145157e-05,
        -1.7156811056047846e-05,
        3.6458724927532786e-05,
        3.182095843377315e-05,
        -0.22608383116710756,
        -1.7167202153266054e-05,
        -1.864995838724016e-05,
        -1.862739485936655e-05,
        3.9583758492673784e-05,
        3.4548469156525215e-05,
        -0.24546244526714625,
        -1.8638676624544795e-05,
        -2.0122323523596162e-05,
        -2.009797866494078e-05,
        4.27087920580572e-05,
        3.7275979879350855e-05,
        -0.264841059367183,
        -2.0110151095791507e-05,
        -0.0002845397502293301,
        0.00029104282327385586,
        -0.00017099222957253914,
        0.0,
        -0.0004775759667473507,
        -0.0007488904637346624,
        8.24340131511388e-05,
        -0.00033133108113978004,
        -7.284590696654756e-05,
        -6.989487459426713e-06,
        -0.0001220927273222752,
        -0.00018277611841553313,
        -8.629510394033045e-05,
        0.000202720892400651,
        0.00031908479956047726,
        0.0,
        -0.0003678297908089591,
        -0.00012741786106957258,
        -1.4862024565030707e-05,
        2.0733741257340983e-05,
        -0.00028549942630787993,
        0.0,
        -0.0005818315366015327,
        0.0002490119829141515,
        -0.00013763923338026905,
        -3.332193149734681e-05,
        0.00012899371200041646,
        0.0,
        -0.00028840067533920683,
        -7.394192550318229e-05,
        -6.1569465224449e-05,
        -0.00022956141407621042,
        0.0003081880660720719,
        -0.00024767566903854455,
        0.0005261655962863629,
        -0.0006785055483725034,
        0.00020618769532614514,
        -2.251918934632802e-05,
        0.00020736474341314393,
        0.00040783663997351116,
        -6.689538811411734e-05,
        0.0002525752641060958,
        0.00019490306065228562,
        0.00020130545026962393,
        -0.00020447650592391573,
        -0.00015868414248050515,
        -0.00023346755232428682,
        -0.0005011787740290966
      ],
      [
        -0.04306741824768263,
        -0.043067495469136935,
        -9.199903319883991e-06,
        -8.030966571264343e-06,
        -9.809829802446481e-06,
        -0.04306745685840985,
        -0.04952753098483481,
        -0.049527619789507,
        -1.0579888817867367e-05,
        -9.235611556928808e-06,
        -1.1281304272696976e-05,
        -0.049527575387170925,
        -0.05598764372198744,
        -0.05598774410987769,
        -1.1959874315873458e-05,
        -1.0440256542576712e-05,
        -1.2752778742887154e-05,
        1.8872047719112743,
        -0.06244775645913955,
        -0.062447868430248396,
        -1.333985981379734e-05,
        -1.1644901528308561e-05,
        -1.4224253213363573e-05,
        -0.06244781244469418,
        -0.06890786919629185,
        -0.0689079927506184,
        -1.47198453118206e-05,
        -1.284954651401836e-05,
        -1.5695727683839453e-05,
        -0.06890793097345502,
        -0.07536798193344464,
        -0.07536811707098932,
        -1.60998308097734e-05,
        -1.4054191499705751e-05,
        -1.716720215400918e-05,
        -0.07536804950221689,
        -0.08182809467059678,
        -0.08182824139136022,
        -1.747981630773802e-05,
        -1.5258836485348075e-05,
        -1.8638676624214726e-05,
        -0.08182816803097807,
        -0.088288207407749,
        -0.0882883657117305,
        -1.8859801805756986e-05,
        -1.6463481471012962e-05,
        -2.0110151095004515e-05,
        -0.0882882865597395,
        7.9984081367077e-05,
        -0.0001079780125401802,
        6.325857474492548e-05,
        0.0,
        0.00015741876750634327,
        0.00022719398073613306,
        -4.4406389829565046e-05,
        6.476884021083845e-05,
        -1.465292254616359e-06,
        6.809206729084287e-07,
        1.724299074458445e-05,
        4.3970975149310355e-05,
        -9.978613957834974e-06,
        -6.205048152737328e-05,
        -0.00012928336069474344,
        0.0,
        0.00011799229629685136,
        4.050400039819686e-05,
        1.199729380401966e-05,
        -3.194745211960546e-05,
        0.00015090603061009797,
        0.0,
        0.00026173145893040086,
        -9.064212617686185e-05,
        5.484423716702051e-05,
        1.8809509621399363e-05,
        -6.665861842239841e-05,
        0.0,
        9.349405940579937e-05,
        6.507115770555662e-05,
        6.424480622379641e-06,
        6.736914658702136e-05,
        -0.00012235933816127768,
        0.0001304730291546277,
        -0.00024162419588686244,
        0.00023365129326859724,
        -9.885515690714559e-05,
        -5.98210972789951e-06,
        -6.871934569222001e-05,
        -0.0001616983097878579,
        4.6425694647997e-06,
        -8.91451134498779e-05,
        -0.00011404229135781173,
        -8.587670787038566e-05,
        0.00013442606381643512,
        7.416406878136728e-05,
        7.493546907097659e-05,
        0.0001901452464513953
      ],
      [
        -0.12009868147337385,
        0.024025209997774202,
        -1.0484524669150907e-05,
        -9.245139322410204e-06,
        -1.0948356138337412e-05,
        -0.04803673573779981,
        -0.13811348369437995,
        0.027628991497440445,
        -1.2057203369528403e-05,
        -1.063191022074287e-05,
        -1.2590609558998656e-05,
        -0.05524224609846964,
        -0.15612828591538602,
        0.031232772997106747,
        -1.3629882069931893e-05,
        -1.2018681119059172e-05,
        -1.4232862979578262e-05,
        -0.062447756459139546,
        1.7690493776908183,
        0.03483655449677257,
        -1.5202560770208641e-05,
        -1.3405452017465399e-05,
        -1.5875116400484073e-05,
        -0.06965326681980982,
        -0.1921578903573985,
        0.03844033599643898,
        -1.677523947064871e-05,
        -1.479222291584233e-05,
        -1.7517369821278868e-05,
        -0.07685877718047983,
        -0.21017269257840457,
        0.04204411749610486,
        -1.8347918170977948e-05,
        -1.6178993814207964e-05,
        -1.9159623241894268e-05,
        -0.08406428754114993,
        -0.22818749479941033,
        0.04564789899577047,
        -1.9920596871347766e-05,
        -1.7565764712531012e-05,
        -2.080187666261557e-05,
        -0.09126979790181966,
        -0.24620229702041593,
        0.0492516804954369,
        -2.1493275571744662e-05,
        -1.895253561084833e-05,
        -2.2444130083635873e-05,
        -0.09847530826248904,
        4.504129522054154e-05,
        -0.00012213001206584734,
        8.739492825934885e-05,
        0.0,
        0.0001425585264526387,
        0.000233933672228293,
        -6.900094445707476e-05,
        6.547603475521345e-05,
        1.8301464649476457e-05,
        -3.740324670975863e-05,
        3.710789790200085e-06,
        3.8126870346417455e-05,
        -2.9714600501366623e-05,
        -1.4402582710776304e-05,
        -0.00013461496818488423,
        0.0,
        0.00013181879257527772,
        1.634106952976981e-05,
        1.7510948183514612e-06,
        -3.839635147930973e-05,
        0.00020686473957780863,
        0.0,
        0.0003104662863125376,
        -6.21364508584097e-05,
        4.468635495011121e-05,
        4.696633691087032e-05,
        -6.490289948179408e-05,
        0.0,
        8.984982079392581e-05,
        0.00010500046995605059,
        -2.5700789742165e-05,
        5.3796574210243615e-05,
        -0.00010467670599332981,
        0.0001776468397530991,
        -0.00029894818433401084,
        0.0002578572153419607,
        -0.00012961642766030267,
        1.132836690795985e-05,
        -7.034026129049378e-05,
        -0.0002108269169178283,
        6.193559645086705e-06,
        -7.753779955277358e-05,
        -0.00016807318076150838,
        -5.364814582312033e-05,
        0.00016297923872252655,
        6.692202606712939e-05,
        5.344106036940071e-05,
        0.00020938903133559212
      ],
      [
        0.024025209997774008,
        -0.12009885373661787,
        -1.0038336582515483e-05,
        -8.670093797140143e-06,
        -1.0935110343397721e-05,
        -0.04803682186942189,
        0.027628991497440233,
        -0.13811368179711023,
        -1.1544087069888009e-05,
        -9.970607866685269e-06,
        -1.2575376894729658e-05,
        -0.05524234514983497,
        0.031232772997106372,
        -0.15612850985760326,
        -1.3049837557294399e-05,
        -1.1271121936208217e-05,
        -1.4215643446027974e-05,
        -0.06244786843024841,
        0.034836554496772566,
        1.769049127909115,
        -1.4555588044615067e-05,
        -1.2571636005828381e-05,
        -1.5855909997624336e-05,
        -0.06965339171066182,
        0.03844033599643871,
        -0.1921581659785886,
        -1.6061338532031517e-05,
        -1.3872150075429489e-05,
        -1.7496176549333607e-05,
        -0.07685891499107497,
        0.04204411749610464,
        -0.21017299403908118,
        -1.7567089019388116e-05,
        -1.517266414499059e-05,
        -1.913644310056082e-05,
        -0.08406443827148855,
        0.04564789899577075,
        -0.22818782209957414,
        -1.907283950673096e-05,
        -1.6473178214494716e-05,
        -2.077670965173949e-05,
        -0.09126996155190108,
        0.0492516804954371,
        -0.24620265016006676,
        -2.057858999416278e-05,
        -1.7773692284055352e-05,
        -2.241697620391488e-05,
        -0.09847548483231458,
        0.00013338473242968394,
        -0.00011874401610845493,
        5.372035352321884e-05,
        0.0,
        0.0002086064163462086,
        0.0002728836692918969,
        -3.0059463779338235e-05,
        7.900830104753247e-05,
        -2.1570193642373144e-05,
        3.892222364738543e-05,
        3.475434331155676e-05,
        5.996222797437644e-05,
        7.454615464155494e-06,
        -0.000124017722269632,
        -0.00015378637503733042,
        0.0,
        0.00013139479143811555,
        7.401400835612842e-05,
        2.5012099042559632e-05,
        -3.28710416818391e-05,
        0.000129771790246786,
        0.0,
        0.0002733961990619821,
        -0.00014006521520175877,
        7.765848189293546e-05,
        -5.006661662291795e-06,
        -8.379709553418565e-05,
        0.0,
        0.00011871384999956279,
        4.0158266250428244e-05,
        4.003232346944261e-05,
        9.648844521861605e-05,
        -0.0001682787407532911,
        0.00011340837905354171,
        -0.00024005963726052653,
        0.0002633649004133549,
        -9.090661473128424e-05,
        -2.4673073279605602e-05,
        -8.295674056906259e-05,
        -0.00014988469732503087,
        4.162941572183952e-06,
        -0.0001213243767164401,
        -8.632885382975655e-05,
        -0.000137922971741319,
        0.000136894288292378,
        9.852089645356382e-05,
        0.00011372267839982241,
        0.00021478113398981375
      ],
      [
        -1.0484524668463697e-05,
        -1.003833658284585e-05,
        -0.14409869630467456,
        2.1019750497528808e-05,
        2.323742907503603e-05,
        -1.0261430625856273e-05,
        -1.2057203369066699e-05,
        -1.1544087070862459e-05,
        -0.16571350075037616,
        2.4172713072096377e-05,
        2.6723043436199578e-05,
        -1.1800645220180653e-05,
        -1.3629882069482313e-05,
        -1.3049837558225717e-05,
        -0.1873283051960772,
        2.7325675646633558e-05,
        3.020865779700312e-05,
        -1.3339859813751095e-05,
        -1.5202560770213405e-05,
        -1.4555588044677443e-05,
        1.734249356185434,
        3.0478638221352952e-05,
        3.369427215860953e-05,
        -1.4879074407732635e-05,
        -1.677523947009504e-05,
        -1.60613385335062e-05,
        -0.2305579140874803,
        3.3631600796016856e-05,
        3.717988651994058e-05,
        -1.64182890016075e-05,
        -1.8347918169973343e-05,
        -1.7567089020368645e-05,
        -0.2521727185331804,
        3.6784563370636775e-05,
        4.066550088084695e-05,
        -1.7957503595085898e-05,
        -1.9920596869991222e-05,
        -1.9072839506045822e-05,
        -0.2737875229788831,
        3.993752594519359e-05,
        4.415111524205581e-05,
        -1.949671818949832e-05,
        -2.1493275571038067e-05,
        -2.0578589994414376e-05,
        -0.295402327424583,
        4.3090488519732326e-05,
        4.763672960384692e-05,
        -2.1035932783856145e-05,
        -3.9890071116020956e-05,
        0.0002643852769886863,
        -0.00011582111443046005,
        0.0,
        -0.00023771973345115835,
        -0.0002846758055567885,
        9.818792928187126e-05,
        7.042457298518247e-07,
        2.5739636023562727e-05,
        2.7427434639155477e-05,
        5.939616865309399e-05,
        -1.0306135443445368e-05,
        0.0001763017535653184,
        7.72774327929067e-05,
        0.00029312315452645885,
        0.0,
        -0.0002234258452718423,
        -2.6348354399522155e-06,
        -7.030697238470435e-05,
        0.00013987702950745472,
        -0.0005258594344722884,
        0.0,
        -0.0005745063368169361,
        9.187318499701404e-05,
        -0.00019637644847215796,
        -0.00010898306710912052,
        0.00012313136777882748,
        0.0,
        -7.238908559392087e-05,
        -0.00027848713013054117,
        -2.561533309139568e-06,
        4.798666730047141e-06,
        0.00022266064785436804,
        -0.00041806904228236096,
        0.0006729753327671,
        -0.0003793881349177538,
        0.0002004502067739105,
        4.879555531990244e-06,
        0.00016245594970174158,
        0.0004251942990283726,
        -1.4128266467780706e-06,
        0.000106671547867528,
        0.0002942371409078272,
        0.0001342226443698286,
        -0.0005703989610519104,
        -0.00020152775143623898,
        -0.00015754339785793104,
        -0.0004318795199643145
      ],
      [
        -9.245139321991268e-06,
        -8.670093797447687e-06,
        2.1019750497628944e-05,
        -0.14410270252672244,
        2.0281489991223463e-05,
        -8.957616559594594e-06,
        -1.0631910220739132e-05,
        -9.97060786739733e-06,
        2.4172713072277157e-05,
        -0.16571810790573097,
        2.3323713489759892e-05,
        -1.030125904423013e-05,
        -1.2018681118769639e-05,
        -1.1271121936872159e-05,
        2.732567564701867e-05,
        -0.18733351328473896,
        2.6365936987990258e-05,
        -1.1644901528360125e-05,
        -1.3405452017457474e-05,
        -1.2571636006046406e-05,
        3.047863822151827e-05,
        1.7342435471634632,
        2.940816048711003e-05,
        -1.298854401203156e-05,
        -1.4792222916017552e-05,
        -1.3872150076440315e-05,
        3.363160079622943e-05,
        -0.23056432404275584,
        3.2450383985853526e-05,
        -1.4332186496414756e-05,
        -1.6178993814267066e-05,
        -1.5172664145206354e-05,
        3.678456337076987e-05,
        -0.25217972942176403,
        3.54926074841787e-05,
        -1.5675828979557503e-05,
        -1.7565764711847263e-05,
        -1.6473178214013354e-05,
        3.993752594546098e-05,
        -0.2737951348007722,
        3.853483098278258e-05,
        -1.7019471464167458e-05,
        -1.8952535611453932e-05,
        -1.7773692284566543e-05,
        4.309048852010563e-05,
        -0.2954105401797805,
        4.157705448196896e-05,
        -1.8363113949081026e-05,
        -7.57973095844369e-05,
        0.00024616033314769903,
        -0.00017268223329363534,
        0.0,
        -0.00012974576163842384,
        -0.0002597729826245349,
        0.00012799263345612623,
        -4.392938496353907e-05,
        0.00018016515551744984,
        4.444206245640024e-05,
        9.704397396566647e-05,
        -0.00010278707544327674,
        7.523484987719399e-05,
        1.9286757059784424e-05,
        0.0001118999843174695,
        0.0,
        -0.0001843508928650406,
        -3.146544733288526e-05,
        6.639933990068015e-05,
        1.38047437173456e-05,
        -0.0003997930667267514,
        0.0,
        -0.0005110144518497131,
        0.00012454490201600695,
        -7.728874681817778e-05,
        -0.00016915164977929844,
        0.00013653505235074054,
        0.0,
        -6.30173981151016e-05,
        -4.72105994890806e-05,
        2.296054542676468e-06,
        -0.00022151677829907045,
        0.00032530499146424897,
        -0.0006833781647462964,
        0.00042087998660206066,
        -0.0003864606205908998,
        0.00015522817863239608,
        4.0880787337524985e-05,
        0.0002635973655881722,
        6.661526260782772e-05,
        -8.576287659690083e-05,
        0.0001842101748857247,
        0.0003211895812214372,
        0.0001305916105800504,
        -0.0003911383300870934,
        -0.00017405665604429814,
        -0.00011967946607782837,
        -0.00027370238110257893
      ],
      [
        -1.0948356138401033e-05,
        -1.0935110343327155e-05,
        2.3237429074900055e-05,
        2.0281489990996512e-05,
        -0.1440973868977163,
        -1.0941733240880088e-05,
        -1.2590609559279196e-05,
        -1.2575376895370832e-05,
        2.6723043436184728e-05,
        2.3323713489561615e-05,
        -0.1657119949323747,
        -1.2582993227416068e-05,
        -1.423286297990989e-05,
        -1.4215643446993509e-05,
        3.0208657797462617e-05,
        2.6365936988090807e-05,
        -0.18732660296703274,
        -1.4224253213384874e-05,
        -1.5875116400393948e-05,
        -1.5855909997560117e-05,
        3.369427215859199e-05,
        2.94081604868634e-05,
        1.7342512548255198,
        -1.5865513199075644e-05,
        -1.751736982161732e-05,
        -1.7496176550158766e-05,
        3.717988651987821e-05,
        3.2450383985576065e-05,
        -0.2305558190363472,
        -1.7506773185938215e-05,
        -1.915962324214733e-05,
        -1.9136443100981726e-05,
        4.066550088107926e-05,
        3.5492607484241044e-05,
        -0.2521704270710048,
        -1.914803317102742e-05,
        -2.0801876662839273e-05,
        -2.077670965083867e-05,
        4.415111524223302e-05,
        3.853483098273057e-05,
        -0.2737850351056628,
        -2.0789293158220745e-05,
        -2.244413008416739e-05,
        -2.2416976203209933e-05,
        4.763672960363194e-05,
        4.1577054481303616e-05,
        -0.2953996431403199,
        -2.243055314538358e-05,
        -0.00031737125987047095,
        0.00032462468748179103,
        -0.00019072210225217927,
        0.0,
        -0.0005326808860012503,
        -0.0008353009018978565,
        9.194563004550442e-05,
        -0.0003695615905452705,
        -8.125120391745563e-05,
        -7.795966770147958e-06,
        -0.00013618034974487405,
        -0.00020386567057268908,
        -9.62522313079608e-05,
        0.00022611176461555352,
        0.00035590227641735364,
        0.0,
        -0.0004102716897307772,
        -0.00014211992196887365,
        -1.6576873589743135e-05,
        2.3126096017527396e-05,
        -0.0003184416677973727,
        0.0,
        -0.0006489659446175669,
        0.0002777441347872769,
        -0.0001535206833666868,
        -3.71667697489485e-05,
        0.00014387760181690232,
        0.0,
        -0.000321677676402827,
        -8.247368615479799e-05,
        -6.867363427940893e-05,
        -0.0002560492695826209,
        0.0003437482275137366,
        -0.00027625363088307187,
        0.0005868770112524916,
        -0.0007567946501085023,
        0.00022997858323723448,
        -2.511755731303518e-05,
        0.00023129144460752281,
        0.00045489471378933597,
        -7.46140867231051e-05,
        0.00028171856377998003,
        0.0002173918753178886,
        0.0002245330022066236,
        -0.00022806994889796678,
        -0.0001769938512633018,
        -0.0002604061160798278,
        -0.000559007094078552
      ],
      [
        -0.04803673573780006,
        -0.04803682186942204,
        -1.0261430625966056e-05,
        -8.957616559923556e-06,
        -1.0941733240850547e-05,
        -0.04803677880361083,
        -0.05524224609846992,
        -0.05524234514983492,
        -1.1800645219862309e-05,
        -1.0301259043884654e-05,
        -1.2582993226850083e-05,
        -0.05524229562415232,
        -0.06244775645913973,
        -0.062447868430248125,
        -1.3339859813787186e-05,
        -1.164490152782685e-05,
        -1.4224253212784283e-05,
        -0.06244781244469405,
        -0.0696532668198099,
        -0.06965339171066186,
        -1.4879074407607066e-05,
        -1.2988544011862417e-05,
        -1.5865513199026198e-05,
        1.8735391365619756,
        -0.07685877718047983,
        -0.07685891499107482,
        -1.641828900155563e-05,
        -1.433218649587302e-05,
        -1.7506773185285414e-05,
        -0.0768588460857772,
        -0.08406428754114986,
        -0.08406443827148825,
        -1.7957503595417267e-05,
        -1.5675828979858897e-05,
        -1.914803317119815e-05,
        -0.08406436290631913,
        -0.09126979790181974,
        -0.09126996155190187,
        -1.9496718189294247e-05,
        -1.7019471463794302e-05,
        -2.078929315714273e-05,
        -0.09126987972686013,
        -0.09847530826248949,
        -0.09847548483231497,
        -2.103593278322881e-05,
        -1.8363113947755765e-05,
        -2.243055314373732e-05,
        -0.09847539654740152,
        8.921301380912175e-05,
        -0.0001204370140503615,
        7.055764096642243e-05,
        0.0,
        0.00017558247139660383,
        0.0002534086707710985,
        -4.9530204101649225e-05,
        7.22421678971985e-05,
        -1.6343644634429003e-06,
        7.594884741769141e-07,
        1.9232566539514163e-05,
        4.9044549161939074e-05,
        -1.1129992511338066e-05,
        -6.92101524656445e-05,
        -0.00014420067160079506,
        0.0,
        0.00013160679202559733,
        4.5177538914274925e-05,
        1.3381596928304949e-05,
        -3.5633696600934084e-05,
        0.00016831826490651812,
        0.0,
        0.00029193124271062525,
        -0.00010110083303445156,
        6.117241840626478e-05,
        2.0979837661183165e-05,
        -7.434999749074696e-05,
        0.0,
        0.00010428183537803114,
        7.257936813915817e-05,
        7.165766864942513e-06,
        7.51425096662939e-05,
        -0.00013647772338256658,
        0.00014552760940418093,
        -0.00026950391078608786,
        0.00026061105787683825,
        -0.00011026152120437593,
        -6.672353140499608e-06,
        -7.664850092458353e-05,
        -0.0001803558071368623,
        5.178250585057463e-06,
        -9.943108812679078e-05,
        -0.00012720101728762832,
        -9.578555879764583e-05,
        0.00014993676349936514,
        8.27214612690196e-05,
        8.358186935949163e-05,
        0.0002120850826510643
      ],
      [
        -0.132522683005102,
        0.026510576549268174,
        -1.1569130669150813e-05,
        -1.0201533045575484e-05,
        -1.2080944704628173e-05,
        -0.05300605322791711,
        -0.15240108545586742,
        0.030487163031658496,
        -1.330450026954377e-05,
        -1.173176300237922e-05,
        -1.3893086410223807e-05,
        -0.060956961212104324,
        -0.17227948790663303,
        0.034463749514048965,
        -1.5039869869961253e-05,
        -1.326199295916558e-05,
        -1.570522811572237e-05,
        -0.06890786919629192,
        -0.19215789035739905,
        0.03844033599643877,
        -1.677523947024842e-05,
        -1.4792222916051403e-05,
        -1.7517369821590942e-05,
        -0.07685877718047981,
        1.7311561730190472,
        0.0424169224788294,
        -1.8510609070681718e-05,
        -1.6322452872903638e-05,
        -1.9329511527350267e-05,
        -0.08480968516466716,
        -0.2319146952589296,
        0.04639350896121937,
        -2.024597867101566e-05,
        -1.7852682829745086e-05,
        -2.1141653232867534e-05,
        -0.09276059314885492,
        -0.25179309770969466,
        0.05037009544360884,
        -2.198134827138163e-05,
        -1.9382912786539084e-05,
        -2.2953794938529613e-05,
        -0.10071150113304228,
        -0.2716715001604595,
        0.05434668192599941,
        -2.371671787176711e-05,
        -2.0913142743325428e-05,
        -2.4765936644520534e-05,
        -0.10866240911722974,
        4.970073958865793e-05,
        -0.00013476415120968954,
        9.643578291353483e-05,
        0.0,
        0.00015730596020923542,
        0.00025813370732945436,
        -7.613897310348877e-05,
        7.224941767948894e-05,
        2.0194719575066653e-05,
        -4.127254804248382e-05,
        4.09466463398749e-06,
        4.20710293844411e-05,
        -3.278852468602182e-05,
        -1.589250506579158e-05,
        -0.00014854065451913402,
        0.0,
        0.00014545521943176755,
        1.8031524968646703e-05,
        1.9322425810469346e-06,
        -4.236838784068062e-05,
        0.00022826454023948118,
        0.0,
        0.00034258348831863676,
        -6.856435962073288e-05,
        4.930908133184025e-05,
        5.182492348551586e-05,
        -7.161699251445788e-05,
        0.0,
        9.914462998381263e-05,
        0.00011586258757535013,
        -2.8359492167852735e-05,
        5.9361737013929835e-05,
        -0.00011550533075457454,
        0.00019602409904321202,
        -0.0003298738585558969,
        0.0002845320996748757,
        -0.0001430250235949129,
        1.2500266964834198e-05,
        -7.761684007150873e-05,
        -0.0002326365980034454,
        6.834272700937723e-06,
        -8.55589512225926e-05,
        -0.000185460061530156,
        -5.9197954002232046e-05,
        0.00017983915995094593,
        7.384499427228742e-05,
        5.896944592500283e-05,
        0.00023104996556840858
      ],
      [
        0.026510576549268243,
        -0.13252287308868185,
        -1.1076785195655948e-05,
        -9.567000052747533e-06,
        -1.2066328655624746e-05,
        -0.05300614826970664,
        0.03048716303165852,
        -0.1524013040519832,
        -1.2738302974998472e-05,
        -1.1002050060631124e-05,
        -1.3876277953772278e-05,
        -0.060957070510162574,
        0.03446374951404877,
        -0.17227973501528548,
        -1.4399820754378983e-05,
        -1.2437100068489937e-05,
        -1.5686227251883346e-05,
        -0.06890799275061825,
        0.03844033599643911,
        -0.1921581659785885,
        -1.6061338533665518e-05,
        -1.3872150076456329e-05,
        -1.7496176550323128e-05,
        -0.07685891499107482,
        0.04241692247882937,
        1.7311558688853148,
        -1.772285631305699e-05,
        -1.5307200084402393e-05,
        -1.9306125848886753e-05,
        -0.08480983723153022,
        0.04639350896121951,
        -0.2319150279051924,
        -1.9384374092382122e-05,
        -1.6742250092303563e-05,
        -2.1116075146918845e-05,
        -0.0927607594719865,
        0.05037009544360944,
        -0.25179345886849536,
        -2.1045891871691997e-05,
        -1.8177300100141906e-05,
        -2.2926024444896872e-05,
        -0.10071168171244227,
        0.05434668192600023,
        -0.2716718898317973,
        -2.2707409651100945e-05,
        -1.9612350108041992e-05,
        -2.473597374397517e-05,
        -0.10866260395289798,
        0.00014718315299778353,
        -0.00013102787958827185,
        5.927763206316591e-05,
        0.0,
        0.00023018639046815716,
        0.000301113014532626,
        -3.3169063419298215e-05,
        8.718157355373609e-05,
        -2.3801592794593297e-05,
        4.29486604049251e-05,
        3.834962028153223e-05,
        6.616521731362772e-05,
        8.225782654787349e-06,
        -0.00013684714170952516,
        -0.00016969531025727005,
        0.0,
        0.00014498735610182081,
        8.167062980839265e-05,
        2.7599557529837013e-05,
        -3.627149432103734e-05,
        0.00014319645813973573,
        0.0,
        0.00030167856447733217,
        -0.00015455472016195036,
        8.569211782795736e-05,
        -5.524592135691339e-06,
        -9.246576051488046e-05,
        0.0,
        0.00013099459303146364,
        4.431256987307332e-05,
        4.4173598332621e-05,
        0.00010647000845286502,
        -0.0001856868862099579,
        0.00012514028039472253,
        -0.0002648933928688979,
        0.00029060954528384975,
        -0.00010031074728537103,
        -2.7225460085231446e-05,
        -9.153847248646364e-05,
        -0.00016539001083036304,
        4.59359059487735e-06,
        -0.0001338751741768298,
        -9.52594248184146e-05,
        -0.00015219086539794893,
        0.00015105576636447485,
        0.00010871271359920593,
        0.00012548709333867858,
        0.00023699987192118009
      ],
      [
        -1.1569130668681491e-05,
        -1.1076785194901747e-05,
        -0.1590054579913652,
        2.319420744560846e-05,
        2.564130104837188e-05,
        -1.1322957932019218e-05,
        -1.3304500269375233e-05,
        -1.27383029747879e-05,
        -0.1828562766900705,
        2.6673338562380676e-05,
        2.948749620552825e-05,
        -1.3021401622316607e-05,
        -1.5039869869846323e-05,
        -1.4399820753953503e-05,
        -0.2067070953887743,
        3.015246967912136e-05,
        3.33336913622945e-05,
        -1.4719845311786577e-05,
        -1.677523947063666e-05,
        -1.6061338532112934e-05,
        -0.23055791408748022,
        3.363160079606243e-05,
        3.717988651993422e-05,
        -1.6418289001693613e-05,
        -1.8510609070515327e-05,
        -1.7722856312895e-05,
        1.6887837330410256,
        3.711073191294205e-05,
        4.102608167727407e-05,
        -1.811673269149183e-05,
        -2.0245978670406617e-05,
        -1.9384374091507e-05,
        -0.2782595514848893,
        4.058986302977208e-05,
        4.487227683414275e-05,
        -1.9815176380858e-05,
        -2.1981348270434696e-05,
        -2.1045891868812028e-05,
        -0.30211037018359527,
        4.4068994146535925e-05,
        4.871847199133739e-05,
        -2.1513620071257187e-05,
        -2.3716717871564915e-05,
        -2.2707409649086338e-05,
        -0.3259611888822988,
        4.7548125263273806e-05,
        5.2564667149203015e-05,
        -2.3212063761582274e-05,
        -4.4016630198080495e-05,
        0.0002917354780639877,
        -0.00012780260902463253,
        0.0,
        -0.00026231143002955785,
        -0.0003141250268118841,
        0.00010834530127874295,
        7.770987350351889e-07,
        2.8402356986042e-05,
        3.0264755453040544e-05,
        6.554059989936408e-05,
        -1.1372287356730058e-05,
        0.0001945398660123792,
        8.527164998832201e-05,
        0.0003234462394919243,
        0.0,
        -0.00024653886373513927,
        -2.907404649081135e-06,
        -7.758010746348398e-05,
        0.0001543470670378528,
        -0.0005802586863148467,
        0.0,
        -0.0006339380268437639,
        0.00010137730759182514,
        -0.0002166912534808312,
        -0.00012025717750654642,
        0.0001358690954928859,
        0.0,
        -7.987761168670562e-05,
        -0.0003072961436019557,
        -2.826519512577213e-06,
        5.295080540510735e-06,
        0.0002456945080113144,
        -0.00046131756390108467,
        0.000742593470646972,
        -0.00041863518335795197,
        0.00022118643507031455,
        5.384337135157572e-06,
        0.00017926173756975717,
        0.0004691799161765712,
        -1.558981130124543e-06,
        0.00011770653558798234,
        0.00032467546583703666,
        0.00014810774551738597,
        -0.0006294057501175205,
        -0.00022237544985651884,
        -0.00017384099073916066,
        -0.00047655671168214404
      ],
      [
        -1.0201533044948053e-05,
        -9.567000052356204e-06,
        2.319420744563856e-05,
        -0.1590098786501765,
        2.2379575162726423e-05,
        -9.88426654851411e-06,
        -1.1731763002185208e-05,
        -1.100205006057674e-05,
        2.6673338562488995e-05,
        -0.18286136044770282,
        2.5736511436972917e-05,
        -1.1366906531560045e-05,
        -1.3261992958631628e-05,
        -1.2437100068273386e-05,
        3.015246967944238e-05,
        -0.20671284224523,
        2.9093447710881065e-05,
        -1.284954651404722e-05,
        -1.4792222915803594e-05,
        -1.3872150075637458e-05,
        3.36316007961281e-05,
        -0.23056432404275604,
        3.245038398577142e-05,
        -1.4332186496029134e-05,
        -1.6322452872833554e-05,
        -1.5307200084347756e-05,
        3.71107319130474e-05,
        1.6887766599869327,
        3.580732026024543e-05,
        -1.58148264787955e-05,
        -1.785268282952105e-05,
        -1.674225009126219e-05,
        4.058986302977916e-05,
        -0.2782672876378089,
        3.916425653426117e-05,
        -1.7297466460194114e-05,
        -1.9382912785470426e-05,
        -1.8177300098221805e-05,
        4.4068994146675435e-05,
        -0.30211876943533594,
        4.252119280858123e-05,
        -1.878010644321099e-05,
        -2.091314274365588e-05,
        -1.9612350107108463e-05,
        4.7548125263523003e-05,
        -0.32597025123286183,
        4.587812908354619e-05,
        -2.0262746426563025e-05,
        -8.363841057548137e-05,
        0.000271625195191871,
        -0.00019054591260882857,
        0.0,
        -0.00014316773697993347,
        -0.0002866460497982431,
        0.00014123325070155107,
        -4.847380409637523e-05,
        0.00019880293022720406,
        4.903951719274017e-05,
        0.00010708300575319655,
        -0.00011342022118457778,
        8.301776538011612e-05,
        2.1281938823832597e-05,
        0.0001234758447561659,
        0.0,
        -0.00020342167488396573,
        -3.472049360916706e-05,
        7.326823713604306e-05,
        1.5232820654910436e-05,
        -0.0004411509701828698,
        0.0,
        -0.0005638780158288988,
        0.00013742885739541363,
        -8.528413441919682e-05,
        -0.00018665009629829856,
        0.00015065936811132943,
        0.0,
        -6.953643930376386e-05,
        -5.209445461512564e-05,
        2.5335774265993095e-06,
        -0.0002444323070854389,
        0.00035895723195945563,
        -0.0007540724576492317,
        0.0004644192955627951,
        -0.00042643930547502676,
        0.00017128626607802313,
        4.510983430588125e-05,
        0.0002908660585857814,
        7.35064966789709e-05,
        -9.463489831531396e-05,
        0.0002032663998701445,
        0.00035441608962067056,
        0.0001441010875277931,
        -0.00043160091596085624,
        -0.00019206251701364704,
        -0.0001320601004988567,
        -0.0003020164205234207
      ],
      [
        -1.2080944704479547e-05,
        -1.2066328654918062e-05,
        2.5641301048216775e-05,
        2.2379575162520435e-05,
        -0.15900401312851442,
        -1.207363667971681e-05,
        -1.3893086410293479e-05,
        -1.3876277953756542e-05,
        2.9487496205493064e-05,
        2.5736511436806265e-05,
        -0.18285461509779236,
        -1.3884682182122006e-05,
        -1.570522811582268e-05,
        -1.5686227252130727e-05,
        3.333369136276932e-05,
        2.909344771105092e-05,
        -0.20670521706706985,
        -1.5695727683897448e-05,
        -1.7517369821190278e-05,
        -1.749617654933924e-05,
        3.717988651988371e-05,
        3.245038398556668e-05,
        -0.23055581903634673,
        -1.750677318537271e-05,
        -1.9329511527365148e-05,
        -1.9306125848790673e-05,
        4.102608167718173e-05,
        3.580732026001229e-05,
        1.6887860448215897,
        -1.9317818688135383e-05,
        -2.1141653232777714e-05,
        -2.111607514628162e-05,
        4.487227683436706e-05,
        3.916425653440831e-05,
        -0.2782570229749007,
        -2.1128864188936508e-05,
        -2.295379493838964e-05,
        -2.292602444270742e-05,
        4.8718471991503685e-05,
        4.252119280861122e-05,
        -0.3021076249441798,
        -2.2939909692073794e-05,
        -2.4765936644685973e-05,
        -2.473597374190773e-05,
        5.256466714891783e-05,
        4.5878129082903536e-05,
        -0.32595822691345433,
        -2.4750955195172726e-05,
        -0.0003502027695971138,
        0.0003582065516025279,
        -0.0002104519750916488,
        0.0,
        -0.0005877858052114676,
        -0.0009217113400750507,
        0.0001014572468162949,
        -0.00040779209994140777,
        -8.965650090683078e-05,
        -8.602446031935895e-06,
        -0.00015026797221778812,
        -0.00022495522287726763,
        -0.00010620935873058659,
        0.00024950263682738723,
        0.00039271975322536465,
        0.0,
        -0.0004527135886961879,
        -0.00015682198283345717,
        -1.8291722567948503e-05,
        2.551845079617897e-05,
        -0.0003513839092884716,
        0.0,
        -0.0007161003525758959,
        0.0003064762866919222,
        -0.000169402133350418,
        -4.101160791515326e-05,
        0.0001587614916489662,
        0.0,
        -0.00035495467757869784,
        -9.100544688118325e-05,
        -7.57778033183605e-05,
        -0.0002825371250707057,
        0.0003793083888934951,
        -0.0003048315926777834,
        0.0006475884262610806,
        -0.0008350837518277007,
        0.0002537694711145673,
        -2.7715925224206967e-05,
        0.0002552181458705163,
        0.0005019527876725709,
        -8.233278535275493e-05,
        0.0003108618634579998,
        0.00023988068997138202,
        0.0002477605541125538,
        -0.0002516633918845137,
        -0.00019530356009358381,
        -0.00028734467982804453,
        -0.0006168354140405148
      ],
      [
        -0.05300605322791699,
        -0.053006148269706774,
        -1.132295793215468e-05,
        -9.884266549224452e-06,
        -1.2073636680135687e-05,
        -0.05300610074881189,
        -0.06095696121210449,
        -0.060957070510162345,
        -1.3021401621984972e-05,
        -1.136690653157781e-05,
        -1.3884682182013872e-05,
        -0.06095701586113357,
        -0.06890786919629209,
        -0.06890799275061829,
        -1.4719845311846029e-05,
        -1.2849546513909653e-05,
        -1.5695727683818812e-05,
        -0.06890793097345514,
        -0.07685877718047969,
        -0.076858914991075,
        -1.641828900159079e-05,
        -1.4332186496345496e-05,
        -1.750677318597187e-05,
        -0.07685884608577717,
        -0.08480968516466711,
        -0.08480983723153031,
        -1.8116732691466954e-05,
        -1.581482647875374e-05,
        -1.9317818688125185e-05,
        1.8583827046291066,
        -0.09276059314885468,
        -0.0927607594719864,
        -1.981517638125511e-05,
        -1.729746646113394e-05,
        -2.1128864189910182e-05,
        -0.09276067631042062,
        -0.10071150113304221,
        -0.10071168171244313,
        -2.1513620071058666e-05,
        -1.8780106443459895e-05,
        -2.293990969173349e-05,
        -0.10071159142274207,
        -0.10866240911722973,
        -0.10866260395289874,
        -2.3212063760921904e-05,
        -2.026274642581306e-05,
        -2.4750955194270236e-05,
        -0.10866250653506378,
        9.844194631516032e-05,
        -0.00013289601542380722,
        7.785670736481164e-05,
        0.0,
        0.00019374617534682981,
        0.00027962336090326404,
        -5.4654018232732756e-05,
        7.971549564082804e-05,
        -1.8034366402170877e-06,
        8.380562240588865e-07,
        2.122214247952709e-05,
        5.411812332720276e-05,
        -1.2281371038091464e-05,
        -7.636982342660186e-05,
        -0.0001591179823784998,
        0.0,
        0.00014522128774745023,
        4.9851077416843174e-05,
        1.4765900094782803e-05,
        -3.9319941070355615e-05,
        0.00018573049921519137,
        0.0,
        0.00032213102636402215,
        -0.00011155953992480378,
        6.750059960003427e-05,
        2.3150165647531502e-05,
        -8.204137651572369e-05,
        0.0,
        0.0001150696116048075,
        8.008757869744658e-05,
        7.907053062509497e-06,
        8.291587275625546e-05,
        -0.00015059610849662354,
        0.0001605821897043137,
