{
  "metadata": {
    "series_name": "infer_test"
  },
  "encoder": {
    "amplitude": 10.0,
    "delta_scale": 1.4,
    "quadratic_scale": 0.7,
    "magnitude_scale": 0.5,
    "band_growth": 0.15
  },
  "reservoir": {
    "n_neurons": 24,
    "dt": 1.0,
    "max_weight": 2.0,
    "max_delay_limit": 50,
    "readout_decay": 0.92,
    "synapses": [
      {
        "15": -1.5261952331749297e-08,
        "19": -0.009093692740541021,
        "22": -0.003673910803498652
      },
      {
        "16": 2.0,
        "21": 2.0
      },
      {
        "0": 2.0,
        "13": 2.0,
        "16": 2.0
      },
      {
        "8": 2.0
      },
      {
        "0": 2.0,
        "6": 2.0,
        "14": 2.0,
        "16": 2.0,
        "22": 2.0
      },
      {
        "10": 0.0,
        "17": 0.0,
        "19": 0.0
      },
      {
        "7": 2.0,
        "15": 2.0,
        "21": 2.0
      },
      {
        "2": 2.0,
        "15": 2.0
      },
      {
        "4": 2.0,
        "6": 2.0,
        "11": 2.0,
        "19": 2.0,
        "23": 2.0
      },
      {
        "18": 2.0,
        "19": 2.0,
        "23": 2.0
      },
      {
        "4": -0.0018445112446657597,
        "15": -2.6007095678861077e-08,
        "16": -0.00873476630608974
      },
      {
        "1": 2.0,
        "12": 2.0,
        "19": 2.0
      },
      {
        "3": 2.0,
        "5": 2.0
      },
      {
        "5": 2.0
      },
      {
        "5": 2.0,
        "11": 2.0,
        "16": 2.0
      },
      {
        "0": -1.3771902468289427e-08,
        "2": -2.7997319314715364e-08,
        "5": -3.387977467740661e-08,
        "12": -1.3514073631283454e-08
      },
      {
        "0": 2.0,
        "7": 2.0,
        "18": 2.0,
        "19": 2.0,
        "23": 2.0
      },
      {
        "1": 2.0,
        "15": 2.0
      },
      {
        "0": 2.0,
        "3": 2.0,
        "16": 2.0,
        "22": 2.0
      },
      {
        "11": 2.0,
        "16": 2.0
      },
      {
        "1": -1.1708445174296619e-08,
        "5": -1.1251555569706336e-08,
        "10": -1.2654838197940259e-08,
        "13": -2.9746170664940532e-08,
        "22": -1.2266189256016583e-08
      },
      {},
      {
        "2": 2.0,
        "10": 2.0
      },
      {
        "6": 2.0,
        "11": 2.0,
        "19": 2.0,
        "20": 2.0
      }
    ],
    "is_inhibitory": [
      true,
      false,
      false,
      false,
      false,
      true,
      false,
      false,
      false,
      false,
      true,
      false,
      false,
      false,
      false,
      true,
      false,
      false,
      false,
      false,
      true,
      false,
      false,
      false
    ]
  },
  "force_readout": {
    "weights": [
      [
        0.0007032519614159192,
        -0.001690415925652338,
        0.013903989067917233,
        -0.01065563450498172,
        0.0010668488931574924,
        -0.0004935819821932057,
        0.0008087397556006571,
        -0.0019439783145313192,
        0.015989587428107712,
        -0.012253979680740336,
        0.0012268762271369323,
        -0.0005676192794711607,
        0.000914227549758362,
        -0.002197540703367322,
        0.01807518578829692,
        -0.013852324856485595,
        0.0013869035611198777,
        -0.000641656576808444,
        0.001019715343944081,
        -0.002451103092263807,
        0.020160784148485208,
        -0.015450670032240944,
        0.001546930895119998,
        -0.0007156938741548998,
        -0.007218142878655735,
        0.004624817070248987,
        0.0,
        0.0,
        0.0032726782947942266,
        0.008728507185823929,
        0.0021349323716087338,
        -0.0013292394130528682,
        0.0,
        0.0,
        -0.006766092357310644,
        0.0032726782947941867,
        -0.0006527418540549565,
        0.009061274065137981,
        0.0,
        0.0,
        -0.005206048478731643,
        0.00019055579087248596,
        -0.021626997577192757,
        0.0039781272310381085,
        0.0,
        0.0,
        -0.016414489275651842,
        0.0011204581218795897
      ]
    ],
    "bias": [
      0.010272344525284915
    ],
    "inverse_correlation": [
      [
        1.5586351942959946,
        0.049212786407109375,
        -6.76443446382058e-05,
        -6.093461883384843e-05,
        -6.677586156150032e-05,
        -0.09833652246826893,
        -0.28276870604519366,
        0.05659470436817527,
        -7.779099633393154e-05,
        -7.007481165893202e-05,
        -7.679224079569516e-05,
        -0.11308700083850926,
        -0.3196515807467411,
        0.0639766223292418,
        -8.793764802968134e-05,
        -7.921500448390735e-05,
        -8.680862002971271e-05,
        -0.12783747920874933,
        -0.3565344554482876,
        0.07135854029030811,
        -9.808429972538231e-05,
        -8.835519730907644e-05,
        -9.682499926398924e-05,
        -0.1425879575789898,
        0.0004615508285780637,
        6.949621205641469e-05,
        0.0,
        0.0,
        2.979943676170148e-05,
        0.00042987955909864654,
        -0.0004427153067010615,
        6.426434146434499e-05,
        0.0,
        0.0,
        0.0005386353159988211,
        2.9799436761702004e-05,
        8.85462063565541e-05,
        -0.00041327608019223866,
        0.0,
        0.0,
        0.00034332268138216815,
        -0.0001992672180318034,
        -6.293922405123694e-05,
        -0.00023604185241602103,
        0.0,
        0.0,
        0.0005964802219802794,
        -0.00020610715109063162
      ],
      [
        0.04921278640710911,
        1.558640139922237,
        -7.149309844628731e-05,
        -6.600510334863589e-05,
        -7.114285428353908e-05,
        -0.09833404965514964,
        0.05659470436817596,
        -0.28276301857502023,
        -8.221706321323401e-05,
        -7.59058688509308e-05,
        -8.181428242603507e-05,
        -0.11308415710342162,
        0.06397662232924212,
        -0.319645151432631,
        -9.294102798019721e-05,
        -8.580663435311549e-05,
        -9.248571056846425e-05,
        -0.1278342645516942,
        0.07135854029030891,
        -0.35652728429024216,
        -0.00010366499274711947,
        -9.570739985550791e-05,
        -0.00010315713871097064,
        -0.14258437199996635,
        0.0005369844138401329,
        -0.0001570185667073973,
        0.0,
        0.0,
        0.000151136591949028,
        0.0004564918346915023,
        -0.00034557658815831806,
        -0.0001226679015679838,
        0.0,
        0.0,
        0.00038362064479929484,
        0.00015113659194903033,
        0.00017252614748572737,
        -0.0005013651223309569,
        0.0,
        0.0,
        0.00011011862740344947,
        0.00015699224890034126,
        -0.0001157177292088818,
        -0.0005109544468641179,
        0.0,
        0.0,
        0.00042081596320609865,
        -1.8387918530294456e-05
      ],
      [
        -6.76443446379237e-05,
        -7.14930984462113e-05,
        1.5095983225671772,
        0.00014786420110052154,
        0.00015589519571634742,
        -6.95687215419994e-05,
        -7.779099633459373e-05,
        -8.221706321249264e-05,
        -0.3391611085333426,
        0.00017004383126560004,
        0.000179279475073835,
        -8.000402977369997e-05,
        -8.793764802991138e-05,
        -9.294102798000888e-05,
        -0.38339951399421496,
        0.00019222346143045005,
        0.00020266375443042303,
        -9.043933800475959e-05,
        -9.808429972715915e-05,
        -0.00010366499274654227,
        -0.42763791945508306,
        0.00021440309159573775,
        0.00022604803378815407,
        -0.00010087464623672285,
        -0.0009573718639698486,
        7.738170244861385e-05,
        0.0,
        0.0,
        2.822201942869657e-05,
        -0.0005182128919967619,
        0.0010376976018275723,
        2.536124977626424e-07,
        0.0,
        0.0,
        -0.0010700079314602034,
        2.822201942869228e-05,
        -0.00013079080672778856,
        0.0010111940749313508,
        0.0,
        0.0,
        -0.0005923363780254479,
        0.0002427649225012776,
        -0.0004311536371642961,
        0.0006453878622942802,
        0.0,
        0.0,
        -0.0014290899467940196,
        0.00040731617323870904
      ],
      [
        -6.093461883354428e-05,
        -6.600510334853383e-05,
        0.00014786420110047394,
        1.5095636474019414,
        0.0001407461894887205,
        -6.346986109115262e-05,
        -7.007481165995854e-05,
        -7.59058688504411e-05,
        0.00017004383126556066,
        -0.339200984973355,
        0.00016185811791238027,
        -7.299034025547546e-05,
        -7.921500448433194e-05,
        -8.580663435307965e-05,
        0.0001922234614306719,
        -0.3834445917090104,
        0.00018297004633478905,
        -8.251081941899818e-05,
        -8.835519731184892e-05,
        -9.570739985504984e-05,
        0.00021440309159572674,
        -0.42768819844466455,
        0.00020408197475836777,
        -9.203129858347865e-05,
        -0.0008658201724506272,
        0.00017367055102124993,
        0.0,
        0.0,
        -0.00020554038480014302,
        -0.0007388838378426335,
        0.0006921608770213406,
        0.00016271525031523172,
        0.0,
        0.0,
        -0.000693178752294996,
        -0.00020554038480014738,
        -0.00012837710225470792,
        0.0008011073181276698,
        0.0,
        0.0,
        -0.0002552173316214381,
        -0.00014264145371170223,
        0.00023203199618078183,
        0.0006715802836481676,
        0.0,
        0.0,
        -0.0007283074023514042,
        7.69088416610225e-05
      ],
      [
        -6.677586156134878e-05,
        -7.114285428348808e-05,
        0.00015589519571643898,
        0.00014074618948883158,
        1.509582531513447,
        -6.895935792246772e-05,
        -7.67922407962551e-05,
        -8.181428242528955e-05,
        0.00017927947507389555,
        0.00016185811791217798,
        -0.339179268245129,
        -7.930326161114118e-05,
        -8.680862003054706e-05,
        -9.24857105685893e-05,
        0.000202663754431417,
        0.00018297004633524355,
        -0.3834200423640604,
        -8.964716529923778e-05,
        -9.682499926526661e-05,
        -0.00010315713871051886,
        0.00022604803378884131,
        0.000204081974758796,
        -0.4276608164829903,
        -9.99910689878862e-05,
        -0.0012354061998017954,
        -0.0001675028222560593,
        0.0,
        0.0,
        -0.00021278722496188423,
        -0.0012694247327952434,
        0.0007794290597006747,
        -0.00016395769049172595,
        0.0,
        0.0,
        -0.0013392192601240094,
        -0.0002127872249618909,
        -0.0005161616522867203,
        0.0010181680993289902,
        0.0,
        0.0,
        -0.0008460081401309305,
        0.0003628520655663165,
        0.00033486513110876284,
        0.0006623401870085515,
        0.0,
        0.0,
        -0.0013625355315283571,
        0.0003716272548569938
      ],
      [
        -0.09833652246826925,
        -0.09833404965514972,
        -6.956872154203257e-05,
        -6.346986109121058e-05,
        -6.89593579225088e-05,
        1.7061857395779392,
        -0.11308700083850887,
        -0.11308415710342275,
        -8.000402977333542e-05,
        -7.299034025489649e-05,
        -7.930326161086154e-05,
        -0.11308557897096555,
        -0.1278374792087496,
        -0.12783426455169425,
        -9.043933800465414e-05,
        -8.251081941846939e-05,
        -8.964716529907318e-05,
        -0.12783587188022194,
        -0.14258795757898962,
        -0.1425843719999673,
        -0.00010087464623594205,
        -9.203129858224888e-05,
        -9.999106898746929e-05,
        -0.14258616478947844,
        0.0004992676212151049,
        -4.376117734063125e-05,
        0.0,
        0.0,
        9.04680143570719e-05,
        0.00044318569689192445,
        -0.0003941459474298321,
        -2.920178005148174e-05,
        0.0,
        0.0,
        0.00046112798040217294,
        9.04680143570724e-05,
        0.00013053617691917728,
        -0.0004573206012646642,
        0.0,
        0.0,
        0.00022672065440707044,
        -2.113748457739316e-05,
        -8.932847662115478e-05,
        -0.00037349814963747325,
        0.0,
        0.0,
        0.0005086480926069841,
        -0.00011224753481948993
      ],
      [
        -0.2827687060451935,
        0.05659470436817586,
        -7.77909963345042e-05,
        -7.007481165998128e-05,
        -7.679224079624008e-05,
        -0.11308700083850921,
        1.479337013687671,
        0.06508391002340189,
        -8.945964578466677e-05,
        -8.058603340898698e-05,
        -8.831107691567689e-05,
        -0.1300500509642852,
        -0.3675993178587526,
        0.07357311567862863,
        -0.00010112829523488902,
        -9.109725515786532e-05,
        -9.982991303483507e-05,
        -0.14701310109006147,
        -0.4100146237655303,
        0.08206232133385483,
        -0.00011279694468508173,
        -0.00010160847690697164,
        -0.00011134874915437665,
        -0.16397615121583792,
        0.0005307834528633045,
        7.992064387640682e-05,
        0.0,
        0.0,
        3.426935228502041e-05,
        0.0004943614929524931,
        -0.000509122602705085,
        7.390399268081546e-05,
        0.0,
        0.0,
        0.0006194306134022084,
        3.4269352285020064e-05,
        0.00010182813729648076,
        -0.0004752674922207032,
        0.0,
        0.0,
        0.0003948210835874641,
        -0.00022915730070261793,
        -7.238010763934975e-05,
        -0.00027144813027890976,
        0.0,
        0.0,
        0.0006859522552825113,
        -0.0002370232237369911
      ],
      [
        0.056594704368175104,
        -0.28276301857501995,
        -8.221706321250023e-05,
        -7.590586885049498e-05,
        -8.181428242527312e-05,
        -0.11308415710342269,
        0.06508391002340198,
        1.4793435542783768,
        -9.45496226943779e-05,
        -8.729174917807047e-05,
        -9.40864247890235e-05,
        -0.13004678066893538,
        0.07357311567862825,
        -0.3675919241475262,
        -0.00010688218217627447,
        -9.86776295055171e-05,
        -0.00010635856715269976,
        -0.147009404234449,
        0.0820623213338549,
        -0.4100063769337796,
        -0.00011921474165812485,
        -0.00011006350983320222,
        -0.00011863070951646181,
        -0.16397202779996198,
        0.0006175320759022303,
        -0.00018057135176193984,
        0.0,
        0.0,
        0.0001738070807356806,
        0.0005249656099023753,
        -0.0003974130763725519,
        -0.00014106808678428806,
        0.0,
        0.0,
        0.0004411637415207747,
        0.0001738070807356808,
        0.00019840506961099307,
        -0.0005765698906899466,
        0.0,
        0.0,
        0.00012663642152722346,
        0.00018054108621301296,
        -0.00013307538860135582,
        -0.0005875976139055638,
        0.0,
        0.0,
        0.0004839383577181639,
        -2.11461063459635e-05
      ],
      [
        -7.779099633359896e-05,
        -8.221706321314819e-05,
        -0.3391611085333426,
        0.0001700438312656146,
        0.0001792794750737963,
        -8.000402977329407e-05,
        -8.945964578476404e-05,
        -9.454962269437548e-05,
        1.4144857508263013,
        0.00019555040595546167,
        0.00020617139633498388,
        -9.200463423975354e-05,
        -0.00010112829523440559,
        -0.00010688218217701854,
        -0.44090944109334546,
        0.00022105698064504923,
        0.00023306331759497713,
        -0.00010400523870549099,
        -0.00011279694468625886,
        -0.00011921474165853274,
        -0.49178360737334686,
        0.0002465635553351338,
        0.0002599552388563966,
        -0.00011600584317226493,
        -0.0011009776435648257,
        8.8988957815403e-05,
        0.0,
        0.0,
        3.245532234165122e-05,
        -0.0005959448257954166,
        0.0011933522421012676,
        2.916543734953201e-07,
        0.0,
        0.0,
        -0.0012305091211791761,
        3.245532234164965e-05,
        -0.00015040942773827343,
        0.0011628731861711063,
        0.0,
        0.0,
        -0.0006811868347287505,
        0.0002791796608745056,
        -0.0004958266827399123,
        0.000742196041638349,
        0.0,
        0.0,
        -0.0016434534388135727,
        0.00046841359922450827
      ],
      [
        -7.007481165859078e-05,
        -7.590586885081512e-05,
        0.0001700438312655651,
        -0.33920098497335505,
        0.00016185811791206604,
        -7.299034025483423e-05,
        -8.058603340897199e-05,
        -8.729174917800857e-05,
        0.00019555040595541822,
        1.4144398929202873,
        0.00018613683559927914,
        -8.393889129380781e-05,
        -9.109725515700209e-05,
        -9.867762950604646e-05,
        0.00022105698064530258,
        -0.44096128046536204,
        0.00021041555328504865,
        -9.488744233185623e-05,
        -0.00010160847690864977,
        -0.00011006350983331078,
        0.0002465635553351243,
        -0.4918414282113646,
        0.0002346942709721719,
        -0.00010583599337101196,
        -0.0009956931983177313,
        0.00019972113367818563,
        0.0,
        0.0,
        -0.00023637144251916655,
        -0.0008497164135216625,
        0.0007959850085733683,
        0.00018712253786236987,
        0.0,
        0.0,
        -0.0007971555651428174,
        -0.0002363714425191672,
        -0.00014763366759378243,
        0.0009212734158465721,
        0.0,
        0.0,
        -0.00029349993136708986,
        -0.00016403767176484263,
        0.0002668367956095199,
        0.000772317326193123,
        0.0,
        0.0,
        -0.0008375535127066355,
        8.844516791218707e-05
      ],
      [
        -7.679224079546247e-05,
        -8.181428242591582e-05,
        0.00017927947507375376,
        0.0001618581179123818,
        -0.3391792682451294,
        -7.930326161074661e-05,
        -8.831107691561551e-05,
        -9.408642478897406e-05,
        0.00020617139633489313,
        0.0001861368355992623,
        1.4144648671577473,
        -9.119875085272445e-05,
        -9.982991303501957e-05,
        -0.00010635856715375284,
        0.00023306331759597904,
        0.0002104155532858225,
        -0.4409330487186684,
        -0.00010309424009400822,
        -0.00011134874915496994,
        -0.00011863070951695885,
        0.0002599552388569805,
        0.0002346942709729373,
        -0.4918099389554379,
        -0.00011498972933594413,
        -0.0014207171297702897,
        -0.00019262824558771908,
        0.0,
        0.0,
        -0.00024470530870451124,
        -0.001459838442721287,
        0.0008963434186483388,
        -0.00018855134406120972,
        0.0,
        0.0,
        -0.0015401021491369949,
        -0.00024470530870450956,
        -0.0005935859001408734,
        0.0011708933142231743,
        0.0,
        0.0,
        -0.0009729093611328376,
        0.0004172798753816193,
        0.00038509490079180703,
        0.0007616912150598485,
        0.0,
        0.0,
        -0.0015669158612646647,
        0.00042737134308431694
      ],
      [
        -0.11308700083850916,
        -0.11308415710342185,
        -8.00040297737023e-05,
        -7.299034025554222e-05,
        -7.930326161110266e-05,
        -0.11308557897096555,
        -0.13005005096428507,
        -0.13004678066893532,
        -9.200463423975553e-05,
        -8.393889129387854e-05,
        -9.119875085275431e-05,
        1.6744726098230347,
        -0.1470131010900614,
        -0.14700940423444805,
        -0.00010400523870583814,
        -9.488744233208807e-05,
        -0.00010309424009421717,
        -0.14701125266225507,
        -0.1639761512158373,
        -0.1639720277999619,
        -0.00011600584317187776,
        -0.00010583599337052957,
        -0.00011498972933593021,
        -0.16397408950790004,
        0.0005741577643920445,
        -5.032535395279626e-05,
        0.0,
        0.0,
        0.0001040382165130381,
        0.0005096635514303355,
        -0.00045326783954149306,
        -3.358204704089613e-05,
        0.0,
        0.0,
        0.0005302971774605702,
        0.00010403821651304008,
        0.00015011660345114476,
        -0.0005259186914524754,
        0.0,
        0.0,
        0.0002607287525491646,
        -2.43081072316743e-05,
        -0.00010272774811283585,
        -0.00042952287209226364,
        0.0,
        0.0,
        0.0005849453064872558,
        -0.000129084665024185
      ],
      [
        -0.3196515807467417,
        0.06397662232924205,
        -8.793764802987761e-05,
        -7.921500448437002e-05,
        -8.680862003037918e-05,
        -0.1278374792087496,
        -0.36759931785875216,
        0.07357311567862822,
        -0.00010112829523437443,
        -9.109725515703248e-05,
        -9.982991303494211e-05,
        -0.1470131010900614,
        1.3889739706688846,
        0.08316960902801515,
        -0.00011431894243885497,
        -0.00010297950582955472,
        -0.00011285120603920701,
        -0.16618872297137427,
        -0.463494792082774,
        0.09276610237740095,
        -0.000127509589643345,
        -0.00011486175650233275,
        -0.00012587249904388593,
        -0.1853643448526868,
        0.0006000160771528384,
        9.034507566998599e-05,
        0.0,
        0.0,
        3.873926779836003e-05,
        0.0005588434268313162,
        -0.0005755298987010012,
        8.354364390191773e-05,
        0.0,
        0.0,
        0.0007002259107940047,
        3.873926779835891e-05,
        0.00011511006824718536,
        -0.0005372589042552565,
        0.0,
        0.0,
        0.00044631948579992696,
        -0.0002590473834217732,
        -8.182099123814046e-05,
        -0.000306854408147201,
        0.0,
        0.0,
        0.0007754242885800293,
        -0.00026793929641504206
      ],
      [
        0.06397662232924178,
        -0.3196451514326307,
        -9.294102798005491e-05,
        -8.580663435313953e-05,
        -9.248571056855817e-05,
        -0.12783426455169436,
        0.07357311567862845,
        -0.36759192414752623,
        -0.00010688218217707105,
        -9.867762950611046e-05,
        -0.00010635856715379456,
        -0.14700940423444808,
        0.08316960902801507,
        1.3889823287772272,
        -0.00012082333637410132,
        -0.00011154862465893669,
        -0.00012023142373894955,
        -0.16618454391720297,
        0.09276610237740192,
        -0.463485469577315,
        -0.00013476449057108695,
        -0.0001244196198120379,
        -0.00013410428032420362,
        -0.18535968359995658,
        0.0006980797379906917,
        -0.0002041241367465222,
        0.0,
        0.0,
        0.00019647756953281156,
        0.0005934393851070678,
        -0.00044924956460372644,
        -0.00015946827201688415,
        0.0,
        0.0,
        0.0004987068382407163,
        0.00019647756953281186,
        0.0002242839917344791,
        -0.0006517746590325857,
        0.0,
        0.0,
        0.0001431542156240773,
        0.00020408992356927948,
        -0.0001504330479759626,
        -0.0006642407809303852,
        0.0,
        0.0,
        0.0005470607521829611,
        -2.390429410186189e-05
      ],
      [
        -8.793764802928779e-05,
        -9.294102798009782e-05,
        -0.38339951399421496,
        0.0001922234614307344,
        0.00020266375443129625,
        -9.0439338004611e-05,
        -0.00010112829523501254,
        -0.00010688218217626936,
        -0.44090944109334507,
        0.0002210569806453522,
        0.00023306331759606082,
        -0.00010400523870583216,
        -0.0001143189424389061,
        -0.00012082333637404157,
        1.306101657447168,
        0.00024989049985966425,
        0.00026346288075959444,
        -0.00011757113940620648,
        -0.00012750958964531246,
        -0.0001347644905705403,
        -0.5559292952916088,
        0.0002787240190745398,
        0.00029386244392464887,
        -0.00013113704010776997,
        -0.0012445834231633406,
        0.00010059621318270777,
        0.0,
        0.0,
        3.668862525760601e-05,
        -0.0006736767595925215,
        0.001349006882374782,
        3.296962485264731e-07,
        0.0,
        0.0,
        -0.001391010310898302,
        3.6688625257604994e-05,
        -0.0001700280487469729,
        0.0013145522974113055,
        0.0,
        0.0,
        -0.0007700372914322975,
        0.0003155943992505474,
        -0.0005604997283169222,
        0.000839004220982309,
        0.0,
        0.0,
        -0.0018578169308344954,
        0.0005295110252095509
      ],
      [
        -7.921500448352794e-05,
        -8.580663435299269e-05,
        0.00019222346143042465,
        -0.38344459170901024,
        0.00018297004633513922,
        -8.251081941841101e-05,
        -9.109725515786018e-05,
        -9.867762950545975e-05,
        0.00022105698064501337,
        -0.440961280465362,
        0.00021041555328586264,
        -9.48874423320175e-05,
        -0.00010297950582952686,
        -0.00011154862465887566,
        0.0002498904998596319,
        1.306043056417931,
        0.00023786106023495978,
        -0.00010726406524458187,
        -0.0001148617565052865,
        -0.0001244196198114175,
        0.000278724019074172,
        -0.5559946579780655,
        0.00026530656718557665,
        -0.00011964068815838921,
        -0.0011255662241830122,
        0.00022577171633217686,
        0.0,
        0.0,
        -0.000267202500237373,
        -0.0009605489891969021,
        0.0008998091401260913,
        0.0002115298254096673,
        0.0,
        0.0,
        -0.0009011323779888914,
        -0.0002672025002373658,
        -0.00016689023293154102,
        0.0010414395135622814,
        0.0,
        0.0,
        -0.0003317825311058642,
        -0.0001854338898227929,
        0.0003016415950370561,
        0.0008730543687406051,
        0.0,
        0.0,
        -0.0009467996230544302,
        9.998149415846177e-05
      ],
      [
        -8.680862002946318e-05,
        -9.248571056834737e-05,
        0.00020266375443043342,
        0.0001829700463348055,
        -0.3834200423640603,
        -8.964716529897224e-05,
        -9.982991303480142e-05,
        -0.00010635856715266084,
        0.0002330633175949953,
        0.0002104155532850575,
        -0.44093304871866895,
        -0.00010309424009421514,
        -0.00011285120603934889,
        -0.00012023142373892141,
        0.00026346288075961233,
        0.00023786106023494148,
        1.306074970566369,
        -0.00011654131488869957,
        -0.00012587249904446162,
        -0.00013410428032340163,
        0.00029386244392411284,
        0.0002653065671854612,
        -0.5559590614278882,
        -0.0001299883896839144,
        -0.0016060280597537473,
        -0.0002177536689305615,
        0.0,
        0.0,
        -0.0002766233924516387,
        -0.0016502521526443686,
        0.0010132577775950596,
        -0.0002131449976470746,
        0.0,
        0.0,
        -0.0017409850381711175,
        -0.000276623392451641,
        -0.0006710101479850195,
        0.001323618529132123,
        0.0,
        0.0,
        -0.0010998105821647167,
        0.0004717076852394234,
        0.00043532467044341146,
        0.000861042243111977,
        0.0,
        0.0,
        -0.0017712961910068394,
        0.0004831154313202051
      ],
      [
        -0.1278374792087491,
        -0.12783426455169403,
        -9.043933800485144e-05,
        -8.251081941904017e-05,
        -8.964716529929875e-05,
        -0.12783587188022202,
        -0.14701310109006135,
        -0.147009404234449,
        -0.00010400523870560367,
        -9.488744233190072e-05,
        -0.00010309424009416346,
        -0.14701125266225498,
        -0.1661887229713741,
        -0.16618454391720303,
        -0.00011757113940633592,
        -0.00010726406524461708,
        -0.00011654131488885777,
        1.6383343921953564,
        -0.18536434485268607,
        -0.18535968359995683,
        -0.00013113704010703765,
        -0.0001196406881575999,
        -0.00012998838968380025,
        -0.1853620142263218,
        0.0006490479075620048,
        -5.688953054656149e-05,
        0.0,
        0.0,
        0.00011760841866041767,
        0.0005761414059756366,
        -0.0005123897316479314,
        -3.7962314039032754e-05,
        0.0,
        0.0,
        0.0005994663745240315,
        0.00011760841866041798,
        0.00016969702999398954,
        -0.0005945167816465083,
        0.0,
        0.0,
        0.0002947368507103837,
        -2.7478729927646744e-05,
        -0.00011612701961706312,
        -0.00048554759453722085,
        0.0,
        0.0,
        0.0006612425203960618,
        -0.00014592179528009815
      ],
      [
        -0.35653445544828805,
        0.07135854029030872,
        -9.808429972702093e-05,
        -8.835519731167416e-05,
        -9.682499926503981e-05,
        -0.1425879575789898,
        -0.41001462376553083,
        0.08206232133385478,
        -0.00011279694468608046,
        -0.00010160847690843763,
        -0.00011134874915482806,
        -0.16397615121583706,
        -0.4634947920827743,
        0.09276610237740152,
        -0.00012750958964513704,
        -0.00011486175650504067,
        -0.00012587249904424204,
        -0.18536434485268624,
        1.2875460652396302,
        0.10346988342094755,
        -0.00014222223460417366,
        -0.00012811503610192631,
        -0.0001403962489341418,
        -0.20675253848953437,
        0.0006692487014390051,
        0.00010076950747374915,
        0.0,
        0.0,
        4.320918331423696e-05,
        0.0006233253606897002,
        -0.000641937194745163,
        9.318329511034003e-05,
        0.0,
        0.0,
        0.0007810212081832324,
        4.32091833142383e-05,
        0.00012839199923247711,
        -0.0005992503162627488,
        0.0,
        0.0,
        0.000497817887981898,
        -0.00028893746610330104,
        -9.126187485756853e-05,
        -0.00034226068600299095,
        0.0,
        0.0,
        0.0008648963218297092,
        -0.0002988553690699995
      ],
      [
        0.07135854029030815,
        -0.35652728429024233,
        -0.00010366499274653129,
        -9.570739985507575e-05,
        -0.00010315713871047391,
        -0.14258437199996735,
        0.0820623213338548,
        -0.4100063769337794,
        -0.00011921474165851883,
        -0.00011006350983333953,
        -0.0001186307095169952,
        -0.16397202779996187,
        0.09276610237740097,
        -0.4634854695773148,
        -0.00013476449057052615,
        -0.0001244196198114383,
        -0.00013410428032341968,
        -0.18535968359995716,
        0.10346988342094786,
        1.2875564634187961,
        -0.00015031423948247527,
        -0.00013877572978984149,
        -0.00014957785112995365,
        -0.20674733939995213,
        0.0007786274000638757,
        -0.00022767692176568158,
        0.0,
        0.0,
        0.00021914805832722715,
        0.000661913160282529,
        -0.000501086052829052,
        -0.00017786845725087014,
        0.0,
        0.0,
        0.0005562499349512563,
        0.0002191480583272261,
        0.00025016291384526086,
        -0.0007269794273865521,
        0.0,
        0.0,
        0.00015967200969992673,
        0.00022763876093439634,
        -0.00016779070734417135,
        -0.000740883947963146,
        0.0,
        0.0,
        0.0006101831466390073,
        -2.6662481865775678e-05
      ],
      [
        -9.808429972497548e-05,
        -0.00010366499274700212,
        -0.42763791945508317,
        0.00021440309159579264,
        0.00022604803378869584,
        -0.00010087464623589795,
        -0.00011279694468517967,
        -0.000119214741658117,
        -0.49178360737334686,
        0.0002465635553351572,
        0.00025995523885711516,
        -0.00011600584317186791,
        -0.0001275095896433648,
        -0.00013476449057100908,
        -0.5559292952916088,
        0.00027872401907419806,
        0.00029386244392405923,
        -0.00013113704010689475,
        -0.00014222223460439584,
        -0.0001503142394824872,
        1.1844460424297731,
        0.00031088448281387285,
        0.00032776964899280166,
        -0.00014626823704325196,
        -0.0013881892027574078,
        0.00011220346855020723,
        0.0,
        0.0,
        4.092192816997202e-05,
        -0.0007514086933928884,
        0.0015046615226500173,
        3.677381228764022e-07,
        0.0,
        0.0,
        -0.0015515115006177341,
        4.0921928169978223e-05,
        -0.0001896466697559078,
        0.001466231408649884,
        0.0,
        0.0,
        -0.0008588877481362173,
        0.0003520091376259587,
        -0.0006251727738884573,
        0.0009358124003265921,
        0.0,
        0.0,
        -0.002072180422851365,
        0.0005906084511963461
      ],
      [
        -8.835519730865469e-05,
        -9.570739985537072e-05,
        0.0002144030915957115,
        -0.42768819844466477,
        0.00020408197475866904,
        -9.203129858217937e-05,
        -0.0001016084769069625,
        -0.000110063509833136,
        0.0002465635553350963,
        -0.49184142821136473,
        0.00023469427097296306,
        -0.00010583599337044476,
        -0.00011486175650229978,
        -0.00012441961981196186,
        0.00027872401907451583,
        -0.5559946579780655,
        0.0002653065671854684,
        -0.00011964068815755232,
        -0.00012811503610220287,
        -0.00013877572978981967,
        0.00031088448281385296,
        1.1843731378948819,
        0.0002959188633996607,
        -0.0001334453829460505,
        -0.0012554392500524773,
        0.00025182229898258583,
        0.0,
        0.0,
        -0.000298033557958157,
        -0.0010713815648741945,
        0.001003633271680997,
        0.00023593711295717763,
        0.0,
        0.0,
        -0.0010051091908328293,
        -0.00029803355795816037,
        -0.00018614679826987752,
        0.001161605611284992,
        0.0,
        0.0,
        -0.00037006513085174235,
        -0.0002068301078786267,
        0.00033644639446391077,
        0.0009737914112882303,
        0.0,
        0.0,
        -0.0010560457334087166,
        0.00011151782040790738
      ],
      [
        -9.682499926371579e-05,
        -0.0001031571387108662,
        0.00022604803378817908,
        0.0002040819747584857,
        -0.42766081648299054,
        -9.999106898736706e-05,
        -0.00011134874915433983,
        -0.00011863070951645073,
        0.00025995523885641796,
        0.00023469427097228885,
        -0.49180993895543773,
        -0.00011498972933593279,
        -0.00012587249904402476,
        -0.00013410428032420584,
        0.00029386244392466335,
        0.00026530656718568523,
        -0.5559590614278892,
        -0.0001299883896836413,
        -0.00014039624893440322,
        -0.00014957785112997484,
        0.00032776964899285994,
        0.00029591886339979377,
        1.1844128417393123,
        -0.00014498705003216001,
        -0.0017913389897122533,
        -0.00024287909226433223,
        0.0,
        0.0,
        -0.00030854147619576735,
        -0.0018406658625658202,
        0.0011301721365542946,
        -0.00023773865120416853,
        0.0,
        0.0,
        -0.0019418679271760095,
        -0.00030854147619576523,
        -0.0007484343958166641,
        0.0014763437440210776,
        0.0,
        0.0,
        -0.001226711803157483,
        0.0005261354950564441,
        0.0004855544401096004,
        0.0009603932711619256,
        0.0,
        0.0,
        -0.0019756765207426742,
        0.0005388595195600745
      ],
      [
        -0.14258795757899034,
        -0.1425843719999664,
        -0.00010087464623652708,
        -9.203129858326739e-05,
        -9.999106898772941e-05,
        -0.14258616478947855,
        -0.16397615121583795,
        -0.16397202779996214,
        -0.00011600584317202908,
        -0.00010583599337076209,
        -0.00011498972933586538,
        -0.16397408950790013,
        -0.18536434485268669,
        -0.18535968359995697,
        -0.00013113704010751066,
        -0.00011964068815809876,
        -0.00012998838968377943,
        -0.18536201422632145,
        -0.2067525384895346,
        -0.2067473393999523,
        -0.00014626823704298386,
        -0.0001334453829457289,
        -0.00014498705003198516,
        1.5977710866949053,
        0.0007239380507562366,
        -6.345370714963036e-05,
        0.0,
        0.0,
        0.00013117862082710692,
        0.0006426192604948081,
        -0.0005715116237858568,
        -4.234258107081005e-05,
        0.0,
        0.0,
        0.0006686355715688374,
        0.0001311786208271065,
        0.00018927745655109701,
        -0.0006631148718236049,
        0.0,
        0.0,
        0.0003287449488552774,
        -3.064935260248945e-05,
        -0.00012952629110834992,
        -0.0005415723169814574,
        0.0,
        0.0,
        0.000737539734245228,
        -0.00016275892547545882
      ],
      [
        0.00046155082857614587,
        0.0005369844138399306,
        -0.0009573718639696931,
        -0.0008658201724505994,
        -0.00123540619980281,
        0.0004992676212118754,
        0.0005307834528687395,
        0.0006175320759032293,
        -0.0011009776435649485,
        -0.0009956931983178274,
        -0.0014207171297688206,
        0.0005741577643931767,
        0.0006000160771547315,
        0.0006980797379906678,
        -0.001244583423162771,
        -0.0011255662241829026,
        -0.0016060280597567037,
        0.0006490479075592475,
        0.0006692487014393172,
        0.0007786274000640112,
        -0.0013881892027566658,
        -0.0012554392500527057,
        -0.0017913389897106654,
        0.0007239380507548043,
        0.11880081364444603,
        0.0019004095445216372,
        0.0,
        0.0,
        -0.004712026592505146,
        -0.003988364916885942,
        -0.00976353191528121,
        0.001575913955781867,
        0.0,
        0.0,
        0.018789506515646315,
        -0.004712026592505112,
        -0.07674969548972886,
        -0.008569260232461757,
        0.0,
        0.0,
        0.012326797631763562,
        -0.00951098099673606,
        0.029513338101825364,
        -0.004104916903479443,
        0.0,
        0.0,
        0.023244083333711626,
        -0.051823821156839665
      ],
      [
        6.949621206043426e-05,
        -0.00015701856670644624,
        7.738170244803732e-05,
        0.00017367055102080275,
        -0.00016750282225261155,
        -4.3761177343927605e-05,
        7.992064387556626e-05,
        -0.0001805713517586255,
        8.898895781481178e-05,
        0.00019972113367799286,
        -0.00019262824558644829,
        -5.032535395339323e-05,
        9.034507567055775e-05,
        -0.00020412413674414704,
        0.00010059621318194686,
        0.000225771716332274,
        -0.00021775366892690128,
        -5.6889530546260825e-05,
        0.00010076950747384587,
        -0.00022767692176851875,
        0.00011220346854929883,
        0.0002518222989816366,
        -0.0002428790922705815,
        -6.345370714916137e-05,
        0.0019004095445238915,
        0.1300533385942468,
        0.0,
        0.0,
        -0.00211381706912679,
        0.020068488946230593,
        0.002640989744919886,
        -0.01224436292049027,
        0.0,
        0.0,
        0.010938679491947021,
        -0.002113817069126779,
        0.010540433895818565,
        -0.021028543742682242,
        0.0,
        0.0,
        0.05298557231900719,
        -0.05009361281894223,
        -0.009734997242836104,
        0.020923782310069288,
        0.0,
        0.0,
        0.04478377512914246,
        -0.0380675994767113
      ],
      [
        0.0,
        0.0,
        0.0,
        0.0,
        0.0,
        0.0,
        0.0,
        0.0,
        0.0,
        0.0,
        0.0,
        0.0,
        0.0,
        0.0,
        0.0,
        0.0,
        0.0,
        0.0,
        0.0,
        0.0,
        0.0,
        0.0,
        0.0,
        0.0,
        0.0,
        0.0,
        1.8045210256396498,
        0.0,
        0.0,
        0.0,
        0.0,
        0.0,
        0.0,
        0.0,
        0.0,
        0.0,
        0.0,
        0.0,
        0.0,
        0.0,
        0.0,
        0.0,
        0.0,
        0.0,
        0.0,
        0.0,
        0.0,
        0.0
      ],
      [
        0.0,
        0.0,
        0.0,
        0.0,
        0.0,
        0.0,
        0.0,
        0.0,
        0.0,
        0.0,
        0.0,
        0.0,
        0.0,
        0.0,
        0.0,
        0.0,
        0.0,
        0.0,
        0.0,
        0.0,
        0.0,
        0.0,
        0.0,
        0.0,
        0.0,
        0.0,
        0.0,
        1.8045210256396498,
        0.0,
        0.0,
        0.0,
        0.0,
        0.0,
        0.0,
        0.0,
        0.0,
        0.0,
        0.0,
        0.0,
        0.0,
        0.0,
        0.0,
        0.0,
        0.0,
        0.0,
        0.0,
        0.0,
        0.0
      ],
      [
        2.9799436764534415e-05,
        0.00015113659195019406,
        2.8222019427832873e-05,
        -0.00020554038479948388,
        -0.00021278722496119253,
        9.046801435619266e-05,
        3.4269352280651136e-05,
        0.0001738070807350761,
        3.245532234143238e-05,
        -0.00023637144251872254,
        -0.0002447053087030197,
        0.00010403821651272601,
        3.873926779749204e-05,
        0.00019647756953291602,
        3.668862525719063e-05,
        -0.00026720250023679726,
        -0.0002766233924549616,
        0.00011760841865967948,
        4.3209183316185595e-05,
        0.00021914805832822917,
        4.092192816954871e-05,
        -0.00029803355795775526,
        -0.00030854147619135107,
        0.0001311786208237801,
        -0.004712026592499178,
        -0.002113817069123157,
        0.0,
        0.0,
        0.9482117907641155,
        -0.010866504709840203,
        0.014974998105492535,
        -0.006206384188788052,
        0.0,
        0.0,
        -0.01695065398773706,
        -0.8563092348755317,
        0.021804828302410394,
        -0.008596420880931595,
        0.0,
        0.0,
        -0.006027779263098723,
        -0.007841135488858956,
        -0.027835477793098827,
        0.001840647318732332,
        0.0,
        0.0,
        0.012904088742876619,
        -0.0037918238450767388
      ],
      [
        0.000429879559097878,
        0.0004564918346869338,
        -0.0005182128919971386,
        -0.000738883837843366,
        -0.0012694247327958547,
        0.0004431856968911223,
        0.0004943614929555486,
        0.0005249656098989896,
        -0.0005959448257957665,
        -0.0008497164135223846,
        -0.00145983844272908,
        0.0005096635514267478,
        0.0005588434268335141,
        0.000593439385107806,
        -0.0006736767595932496,
        -0.0009605489891971434,
        -0.001650252152639503,
        0.0005761414059766023,
        0.0006233253606876603,
        0.0006619131602819806,
        -0.0007514086933939539,
        -0.0010713815648752156,
        -0.0018406658625687473,
        0.0006426192604951624,
        -0.003988364916901295,
        0.020068488946220406,
        0.0,
        0.0,
        -0.010866504709864382,
        0.12995663229625526,
        0.020921652800042958,
        0.01756600815865762,
        0.0,
        0.0,
        0.010875765032663144,
        -0.010866504709864406,
        0.05145955707299602,
        -0.002605295665817712,
        0.0,
        0.0,
        0.018162885744910862,
        0.0019439909866062505,
        -0.06515567899937895,
        -0.012457064353548021,
        0.0,
        0.0,
        -0.04494195662354342,
        0.07160295498813857
      ],
      [
        -0.0004427153066931291,
        -0.00034557658815868246,
        0.001037697601826953,
        0.000692160877021101,
        0.0007794290597008425,
        -0.0003941459474315832,
        -0.0005091226027049398,
        -0.00039741307637291976,
        0.001193352242100427,
        0.0007959850085731073,
        0.0008963434186455615,
        -0.0004532678395420051,
        -0.0005755298987006058,
        -0.0004492495646026002,
        0.0013490068823746456,
        0.0008998091401257531,
        0.0010132577775936848,
        -0.0005123897316463623,
        -0.0006419371947486793,
        -0.0005010860528287172,
        0.001504661522649483,
        0.0010036332716806522,
        0.0011301721365536243,
        -0.0005715116237890892,
        -0.009763531915272246,
        0.0026409897449301114,
        0.0,
        0.0,
        0.014974998105500063,
        0.020921652800068746,
        0.0666686266090357,
        0.00151511040704454,
        0.0,
        0.0,
        -0.005993530420250828,
        0.014974998105500086,
        0.02160882829203702,
        0.008580542011544137,
        0.0,
        0.0,
        -0.003203284549591907,
        0.013151972824170447,
        -0.030492105352577598,
        0.0009369126232876871,
        0.0,
        0.0,
        -0.024651383984364665,
        0.017625724680025746
      ],
      [
        6.426434146252033e-05,
        -0.00012266790157140433,
        2.536124976070189e-07,
        0.00016271525031481815,
        -0.00016395769049033123,
        -2.9201780050805464e-05,
        7.390399267881392e-05,
        -0.00014106808678578992,
        2.9165437295580333e-07,
        0.0001871225378617358,
        -0.00018855134406504215,
        -3.358204704152235e-05,
        8.354364390372951e-05,
        -0.00015946827202211768,
        3.29696248141776e-07,
        0.0002115298254088011,
        -0.00021314499764870032,
        -3.796231403841876e-05,
        9.31832951119427e-05,
        -0.00017786845724652414,
        3.677381223287263e-07,
        0.00023593711295591635,
        -0.00023773865120239825,
        -4.234258107966814e-05,
        0.001575913955775598,
        -0.012244362920516283,
        0.0,
        0.0,
        -0.0062063841887901785,
        0.017566008158654545,
        0.0015151104070378904,
        0.09375998853196614,
        0.0,
        0.0,
        0.02647720232250703,
        -0.006206384188790196,
        0.010034484480578833,
        -0.025675215017913613,
        0.0,
        0.0,
        -0.001621425872023923,
        -0.007671399387537909,
        -0.006038446743706476,
        0.019268017278185515,
        0.0,
        0.0,
        0.044305681164479215,
        -0.034011201264555646
      ],
      [
        0.0,
        0.0,
        0.0,
        0.0,
        0.0,
        0.0,
        0.0,
        0.0,
        0.0,
        0.0,
        0.0,
        0.0,
        0.0,
        0.0,
        0.0,
        0.0,
        0.0,
        0.0,
        0.0,
        0.0,
        0.0,
        0.0,
        0.0,
        0.0,
        0.0,
        0.0,
        0.0,
        0.0,
        0.0,
        0.0,
        0.0,
        0.0,
        1.8045210256396498,
        0.0,
        0.0,
        0.0,
        0.0,
        0.0,
        0.0,
        0.0,
        0.0,
        0.0,
        0.0,
        0.0,
        0.0,
        0.0,
        0.0,
        0.0
      ],
      [
        0.0,
        0.0,
        0.0,
        0.0,
        0.0,
        0.0,
        0.0,
        0.0,
        0.0,
        0.0,
        0.0,
        0.0,
        0.0,
        0.0,
        0.0,
        0.0,
        0.0,
        0.0,
        0.0,
        0.0,
        0.0,
        0.0,
        0.0,
        0.0,
        0.0,
        0.0,
        0.0,
        0.0,
        0.0,
        0.0,
        0.0,
        0.0,
        0.0,
        1.8045210256396498,
        0.0,
        0.0,
        0.0,
        0.0,
        0.0,
        0.0,
        0.0,
        0.0,
        0.0,
        0.0,
        0.0,
        0.0,
        0.0,
        0.0
      ],
      [
        0.0005386353159969752,
        0.00038362064479760305,
        -0.0010700079314601857,
        -0.0006931787522967634,
        -0.001339219260122835,
        0.00046112798039920304,
        0.0006194306133992173,
        0.00044116374152191164,
        -0.0012305091211799618,
        -0.000797155565143825,
        -0.0015401021491392621,
        0.0005302971774651666,
        0.0007002259108014531,
        0.0004987068382420888,
        -0.0013910103108988679,
        -0.0009011323779900312,
        -0.0017409850381739779,
        0.0005994663745244804,
        0.0007810212081825866,
        0.0005562499349497476,
        -0.0015515115006184664,
        -0.001005109190833809,
        -0.0019418679271794492,
        0.0006686355715642623,
        0.018789506515643754,
        0.010938679491940542,
        0.0,
        0.0,
        -0.016950653987731535,
        0.0108757650327061,
        -0.005993530420259745,
        0.026477202322535406,
        0.0,
        0.0,
        0.1078494873868712,
        -0.016950653987731545,
        0.01083316764809048,
        0.015603989029072826,
        0.0,
        0.0,
        0.036049677203511384,
        -0.06730933766625001,
        -0.00027336368681054164,
        -0.01221268379148894,
        0.0,
        0.0,
        0.012605244931800793,
        -0.00401541247313015
      ],
      [
        2.979943676453321e-05,
        0.00015113659195019563,
        2.8222019427833923e-05,
        -0.00020554038479948626,
        -0.00021278722496118982,
        9.046801435619141e-05,
        3.4269352280653115e-05,
        0.00017380708073507493,
        3.245532234143181e-05,
        -0.00023637144251872715,
        -0.0002447053087030194,
        0.00010403821651272569,
        3.8739267797489767e-05,
        0.00019647756953291562,
        3.668862525718911e-05,
        -0.00026720250023679634,
        -0.000276623392454963,
        0.0001176084186596789,
        4.3209183316185784e-05,
        0.00021914805832822792,
        4.092192816955209e-05,
        -0.00029803355795775016,
        -0.0003085414761913489,
        0.00013117862082378178,
        -0.0047120265924991845,
        -0.002113817069123166,
        0.0,
        0.0,
        -0.856309234875532,
        -0.010866504709840206,
        0.014974998105492507,
        -0.00620638418878806,
        0.0,
        0.0,
        -0.01695065398773705,
        0.9482117907641159,
        0.021804828302410425,
        -0.008596420880931585,
        0.0,
        0.0,
        -0.0060277792630987325,
        -0.007841135488858939,
        -0.027835477793098858,
        0.0018406473187323365,
        0.0,
        0.0,
        0.012904088742876622,
        -0.003791823845076738
      ],
      [
        8.854620635972318e-05,
        0.00017252614748304937,
        -0.00013079080672910476,
        -0.0001283771022542258,
        -0.0005161616522899965,
        0.0001305361769211176,
        0.00010182813728606033,
        0.00019840506960732354,
        -0.00015040942773908222,
        -0.00014763366759322415,
        -0.0005935859001439728,
        0.0001501166034486531,
        0.000115110068250173,
        0.0002242839917340084,
        -0.00017002804874753657,
        -0.00016689023293064005,
        -0.0006710101479835316,
        0.00016969702999754585,
        0.00012839199922910468,
        0.0002501629138439828,
        -0.00018964666975798577,
        -0.00018614679826929348,
        -0.000748434395811518,
        0.00018927745655027164,
        -0.07674969548976589,
        0.01054043389580673,
        0.0,
        0.0,
        0.021804828302401182,
        0.05145955707300094,
        0.021608828292008286,
        0.010034484480581904,
        0.0,
        0.0,
        0.010833167648053227,
        0.02180482830240131,
        0.184665197844206,
        -0.0029959950420482416,
        0.0,
        0.0,
        0.011491886168193497,
        0.0053707409823382105,
        -0.11465296955172077,
        -0.00396782052550507,
        0.0,
        0.0,
        -0.009585558615686421,
        0.053824687834573726
      ],
      [
        -0.0004132760801930887,
        -0.0005013651223308558,
        0.0010111940749312053,
        0.0008011073181262593,
        0.0010181680993274827,
        -0.0004573206012608674,
        -0.0004752674922197832,
        -0.0005765698906848278,
        0.001162873186170869,
        0.0009212734158463409,
        0.0011708933142236064,
        -0.0005259186914470288,
        -0.0005372589042565517,
        -0.0006517746590316659,
        0.0013145522974110032,
        0.001041439513562329,
        0.001323618529131118,
        -0.0005945167816411087,
        -0.0005992503162660607,
        -0.0007269794273899307,
        0.0014662314086496449,
        0.001161605611284845,
        0.0014763437440189458,
        -0.0006631148718280433,
        -0.00856926023245544,
        -0.021028543742660492,
        0.0,
        0.0,
        -0.008596420880937565,
        -0.0026052956657610436,
        0.008580542011557219,
        -0.025675215017879026,
        0.0,
        0.0,
        0.01560398902912062,
        -0.00859642088093756,
        -0.0029959950420274605,
        0.1306772835324509,
        0.0,
        0.0,
        0.008651412803730734,
        -0.01727742908982746,
        -0.0023646826979258585,
        -0.03945128933213012,
        0.0,
        0.0,
        -0.09643058608470713,
        0.0807721260097593
      ],
      [
        0.0,
        0.0,
        0.0,
        0.0,
        0.0,
        0.0,
        0.0,
        0.0,
        0.0,
        0.0,
        0.0,
        0.0,
        0.0,
        0.0,
        0.0,
        0.0,
        0.0,
        0.0,
        0.0,
        0.0,
        0.0,
        0.0,
        0.0,
        0.0,
        0.0,
        0.0,
        0.0,
        0.0,
        0.0,
        0.0,
        0.0,
        0.0,
        0.0,
        0.0,
        0.0,
        0.0,
        0.0,
        0.0,
        1.8045210256396498,
        0.0,
        0.0,
        0.0,
        0.0,
        0.0,
        0.0,
        0.0,
        0.0,
        0.0
      ],
      [
        0.0,
        0.0,
        0.0,
        0.0,
        0.0,
        0.0,
        0.0,
        0.0,
        0.0,
        0.0,
        0.0,
        0.0,
        0.0,
        0.0,
        0.0,
        0.0,
        0.0,
        0.0,
        0.0,
        0.0,
        0.0,
        0.0,
        0.0,
        0.0,
        0.0,
        0.0,
        0.0,
        0.0,
        0.0,
        0.0,
        0.0,
        0.0,
        0.0,
        0.0,
        0.0,
        0.0,
        0.0,
        0.0,
        0.0,
        1.8045210256396498,
        0.0,
        0.0,
        0.0,
        0.0,
        0.0,
        0.0,
        0.0,
        0.0
      ],
      [
        0.0003433226813843272,
        0.00011011862739867887,
        -0.0005923363780262676,
        -0.0002552173316226451,
        -0.000846008140124298,
        0.0002267206544052635,
        0.0003948210835880783,
        0.00012663642152567673,
        -0.0006811868347298992,
        -0.00029349993136789466,
        -0.0009729093611313263,
        0.00026072875255335747,
        0.00044631948580168743,
        0.0001431542156278353,
        -0.0007700372914333608,
        -0.00033178253110666096,
        -0.001099810582162331,
        0.00029473685070984234,
        0.0004978178879819339,
        0.00015967200970281982,
        -0.0008588877481375437,
        -0.0003700651308525399,
        -0.0012267118031653833,
        0.0003287449488530748,
        0.012326797631775568,
        0.05298557231906607,
        0.0,
        0.0,
        -0.0060277792631007595,
        0.01816288574489533,
        -0.0032032845496131296,
        -0.0016214258721228393,
        0.0,
        0.0,
        0.03604967720353166,
        -0.006027779263100763,
        0.01149188616819172,
        0.008651412803753632,
        0.0,
        0.0,
        0.14054130576460316,
        -0.1309816065575585,
        -0.0025741550289463577,
        0.030898587495893897,
        0.0,
        0.0,
        -0.01933308208225408,
        0.021038057995431868
      ],
      [
        -0.00019926721803174835,
        0.00015699224890392495,
        0.00024276492250172773,
        -0.00014264145370957053,
        0.0003628520655577773,
        -2.113748457593046e-05,
        -0.00022915730070406044,
        0.00018054108621307752,
        0.0002791796608766209,
        -0.00016403767176351888,
        0.00041727987538255323,
        -2.4308107236329888e-05,
        -0.00025904738342228366,
        0.00020408992356449503,
        0.0003155943992522981,
        -0.00018543388982111256,
        0.0004717076852375196,
        -2.747872992826754e-05,
        -0.0002889374661085828,
        0.00022763876093162785,
        0.00035200913762724415,
        -0.00020683010787735505,
        0.000526135495064926,
        -3.064935259538605e-05,
        -0.009510980996741568,
        -0.05009361281900421,
        0.0,
        0.0,
        -0.007841135488848794,
        0.0019439909866048593,
        0.01315197282418158,
        -0.007671399387460913,
        0.0,
        0.0,
        -0.0673093376662732,
        -0.007841135488848789,
        0.00537074098235879,
        -0.017277429089829325,
        0.0,
        0.0,
        -0.13098160655754654,
        0.3073051120176241,
        -0.011143693855541353,
        -0.029533149100516853,
        0.0,
        0.0,
        0.009750805198026931,
        -0.10824381938830877
      ],
      [
        -6.293922405360882e-05,
        -0.0001157177292057247,
        -0.00043115363716296533,
        0.0002320319961807191,
        0.0003348651311133461,
        -8.932847662207125e-05,
        -7.238010762918295e-05,
        -0.0001330753885978254,
        -0.000495826682739623,
        0.0002668367956091117,
        0.00038509490079514767,
        -0.00010272774810916923,
        -8.182099123908235e-05,
        -0.00015043304797649615,
        -0.0005604997283161066,
        0.00030164159503645935,
        0.00043532467044024765,
        -0.00011612701961866158,
        -9.1261874858786e-05,
        -0.00016779070734346634,
        -0.0006251727738863999,
        0.0003364463944633121,
        0.0004855544401037849,
        -0.00012952629110711149,
        0.02951333810185427,
        -0.009734997242825229,
        0.0,
        0.0,
        -0.02783547779309007,
        -0.06515567899937265,
        -0.030492105352562884,
        -0.006038446743701212,
        0.0,
        0.0,
        -0.00027336368676710693,
        -0.02783547779309018,
        -0.11465296955168318,
        -0.002364682697906349,
        0.0,
        0.0,
        -0.002574155028954362,
        -0.011143693855519906,
        0.15179221908714077,
        0.0051760286978458836,
        0.0,
        0.0,
        0.031460942874494184,
        -0.06160745720392834
      ],
      [
        -0.00023604185241302565,
        -0.0005109544468591729,
        0.0006453878622942476,
        0.0006715802836479174,
        0.0006623401870085929,
        -0.0003734981496395542,
        -0.00027144813028011486,
        -0.0005875976139064732,
        0.0007421960416384393,
        0.0007723173261937028,
        0.000761691215060198,
        -0.00042952287209248053,
        -0.0003068544081484206,
        -0.0006642407809352483,
        0.0008390042209824401,
        0.0008730543687406905,
        0.0008610422431135113,
        -0.00048554759453519665,
        -0.00034226068600232937,
        -0.0007408839479611726,
        0.0009358124003268404,
        0.0009737914112886672,
        0.000960393271160589,
        -0.0005415723169827232,
        -0.0041049169034780494,
        0.02092378231005284,
        0.0,
        0.0,
        0.001840647318729075,
        -0.012457064353561344,
        0.0009369126232894985,
        0.019268017278196412,
        0.0,
        0.0,
        -0.012212683791476397,
        0.0018406473187290724,
        -0.0039678205255165334,
        -0.03945128933213557,
        0.0,
        0.0,
        0.030898587495886892,
        -0.02953314910051715,
        0.005176028697855454,
        0.10223933510502481,
        0.0,
        0.0,
        0.044338510268022435,
        -0.046955431066793014
      ],
      [
        0.0,
        0.0,
        0.0,
        0.0,
        0.0,
        0.0,
        0.0,
        0.0,
        0.0,
        0.0,
        0.0,
        0.0,
        0.0,
        0.0,
        0.0,
        0.0,
        0.0,
        0.0,
        0.0,
        0.0,
        0.0,
        0.0,
        0.0,
        0.0,
        0.0,
        0.0,
        0.0,
        0.0,
        0.0,
        0.0,
        0.0,
        0.0,
        0.0,
        0.0,
        0.0,
        0.0,
        0.0,
        0.0,
        0.0,
        0.0,
        0.0,
        0.0,
        0.0,
        0.0,
        1.8045210256396498,
        0.0,
        0.0,
        0.0
      ],
      [
        0.0,
        0.0,
        0.0,
        0.0,
        0.0,
        0.0,
        0.0,
        0.0,
        0.0,
        0.0,
        0.0,
        0.0,
        0.0,
        0.0,
        0.0,
        0.0,
        0.0,
        0.0,
        0.0,
        0.0,
        0.0,
        0.0,
        0.0,
        0.0,
        0.0,
        0.0,
        0.0,
        0.0,
        0.0,
        0.0,
        0.0,
        0.0,
        0.0,
        0.0,
        0.0,
        0.0,
        0.0,
        0.0,
        0.0,
        0.0,
        0.0,
        0.0,
        0.0,
        0.0,
        0.0,
        1.8045210256396498,
        0.0,
        0.0
      ],
      [
        0.0005964802219857336,
        0.0004208159632108222,
        -0.0014290899467943653,
        -0.0007283074023511645,
        -0.001362535531524234,
        0.0005086480926017765,
        0.0006859522552747541,
        0.00048393835771447707,
        -0.0016434534388141315,
        -0.00083755351270658,
        -0.0015669158612629378,
        0.0005849453064909131,
        0.0007754242885821297,
        0.0005470607521808313,
        -0.0018578169308347814,
        -0.0009467996230545689,
        -0.0017712961910048206,
        0.0006612425203928957,
        0.0008648963218328287,
        0.0006101831466430555,
        -0.002072180422851678,
        -0.0010560457334100241,
        -0.0019756765207423494,
        0.000737539734237972,
        0.02324408333371826,
        0.04478377512912239,
        0.0,
        0.0,
        0.01290408874290086,
        -0.0449419566236834,
        -0.024651383984399994,
        0.044305681164442924,
        0.0,
        0.0,
        0.012605244931768067,
        0.012904088742900915,
        -0.009585558615720994,
        -0.09643058608470526,
        0.0,
        0.0,
        -0.01933308208230593,
        0.009750805198091024,
        0.03146094287454338,
        0.04433851026802834,
        0.0,
        0.0,
        0.23101605153124008,
        -0.207451678921895
      ],
      [
        -0.00020610715109413235,
        -1.838791853499255e-05,
        0.00040731617323940753,
        7.690884166074686e-05,
        0.00037162725485436886,
        -0.00011224753481696117,
        -0.0002370232237394937,
        -2.1146106342941933e-05,
        0.00046841359922384436,
        8.84451679118419e-05,
        0.0004273713430823427,
        -0.00012908466502838331,
        -0.0002679392964132385,
        -2.39042940991751e-05,
        0.0005295110252091854,
        9.998149415855723e-05,
        0.00048311543131607,
        -0.00014592179527739496,
        -0.0002988553690709977,
        -2.666248186958586e-05,
        0.000590608451196756,
        0.00011151782040858195,
        0.0005388595195598526,
        -0.00016275892546865645,
        -0.05182382115681522,
        -0.038067599476698195,
        0.0,
        0.0,
        -0.0037918238450904036,
        0.07160295498827554,
        0.017625724680051812,
        -0.03401120126450899,
        0.0,
        0.0,
        -0.004015412473100199,
        -0.0037918238450904015,
        0.05382468783462808,
        0.08077212600973752,
        0.0,
        0.0,
        0.021038057995481276,
        -0.10824381938836351,
        -0.061607457203996824,
        -0.04695543106679671,
        0.0,
        0.0,
        -0.2074516789218579,
        0.3476689254243873
      ]
    ],
    "alpha": 1.0,
    "forgetting_factor": 0.999,
    "weight_clip": 10.0
  }
}