{
  "metadata": {
    "series_name": "generated_sine",
    "series_length": 120,
    "train_length": 84,
    "test_length": 36,
    "epochs": 3,
    "baseline_test_mae": 0.6376010587754406,
    "baseline_test_rmse": 0.7079402016126946,
    "final_test_mae": 0.3097517832190105,
    "final_test_rmse": 0.3917585265501842,
    "history": [
      {
        "epoch": 1,
        "train_mae": 0.025702275509051808,
        "train_rmse": 0.03190159762830305
      },
      {
        "epoch": 2,
        "train_mae": 0.010279386686163995,
        "train_rmse": 0.01825586968013481
      },
      {
        "epoch": 3,
        "train_mae": 0.007882012302709133,
        "train_rmse": 0.01599682468136543
      }
    ]
  },
  "encoder": {
    "amplitude": 10.0,
    "delta_scale": 1.4,
    "quadratic_scale": 0.7,
    "magnitude_scale": 0.5,
    "band_growth": 0.15
  },
  "reservoir": {
    "n_neurons": 48,
    "dt": 1.0,
    "max_weight": 2.0,
    "max_delay_limit": 50,
    "readout_decay": 0.92,
    "synapses": [
      {
        "6": -0.01110674130232695,
        "38": -0.02208524651098064
      },
      {
        "0": 2.0,
        "7": 2.0,
        "23": 2.0,
        "24": 2.0,
        "25": 2.0,
        "39": 2.0,
        "46": 2.0
      },
      {
        "5": 2.0,
        "10": 2.0,
        "12": 2.0,
        "19": 2.0,
        "32": 2.0,
        "33": 2.0,
        "40": 2.0,
        "44": 2.0
      },
      {
        "8": 2.0,
        "21": 2.0,
        "36": 2.0,
        "44": 2.0
      },
      {
        "3": 2.0,
        "11": 2.0,
        "13": 2.0,
        "21": 2.0,
        "40": 2.0,
        "47": 2.0
      },
      {
        "4": -0.0007926169028249736,
        "19": -0.0033464699784982164,
        "24": -0.008323695373994681
      },
      {
        "1": 2.0,
        "24": 2.0,
        "30": 2.0,
        "37": 2.0,
        "40": 2.0
      },
      {
        "3": 2.0,
        "15": 2.0,
        "16": 2.0,
        "17": 2.0,
        "19": 2.0,
        "32": 2.0,
        "36": 2.0,
        "40": 2.0
      },
      {
        "1": 2.0,
        "9": 2.0,
        "10": 2.0,
        "22": 2.0,
        "24": 2.0,
        "33": 2.0,
        "40": 2.0,
        "46": 2.0
      },
      {
        "5": 2.0,
        "7": 2.0,
        "10": 2.0,
        "30": 2.0,
        "31": 2.0,
        "42": 2.0
      },
      {
        "0": 0.0,
        "19": 0.0,
        "20": -0.02351677699798381,
        "23": -0.005303673435236683,
        "32": -0.02754903709508546,
        "42": -0.002086061563510848
      },
      {
        "8": 2.0,
        "10": 2.0,
        "18": 2.0,
        "23": 2.0,
        "24": 2.0,
        "28": 2.0,
        "31": 2.0,
        "40": 2.0
      },
      {
        "10": 2.0,
        "13": 2.0,
        "17": 2.0,
        "23": 2.0,
        "31": 2.0,
        "39": 2.0,
        "40": 2.0,
        "41": 2.0,
        "45": 2.0,
        "47": 2.0
      },
      {
        "11": 2.0,
        "42": 2.0,
        "43": 2.0
      },
      {
        "5": 2.0,
        "10": 2.0,
        "11": 2.0,
        "16": 2.0,
        "18": 2.0,
        "21": 2.0,
        "26": 2.0,
        "33": 2.0,
        "39": 2.0
      },
      {
        "0": -0.004779995574702207,
        "12": -0.0052637566325789325,
        "13": -0.0012237410447271148,
        "34": -0.004472004799396798
      },
      {
        "2": 2.0,
        "12": 2.0,
        "14": 2.0,
        "17": 2.0,
        "39": 2.0,
        "46": 2.0
      },
      {
        "1": 2.0,
        "5": 2.0,
        "6": 2.0,
        "24": 2.0,
        "25": 2.0,
        "41": 2.0,
        "42": 2.0
      },
      {
        "4": 2.0,
        "7": 2.0,
        "12": 2.0,
        "13": 2.0,
        "23": 2.0,
        "30": 2.0,
        "32": 2.0,
        "37": 2.0
      },
      {
        "6": 2.0,
        "10": 2.0,
        "14": 2.0,
        "30": 2.0,
        "47": 2.0
      },
      {
        "0": 0.0,
        "1": 0.0,
        "4": 0.0,
        "6": 0.0,
        "19": 0.0,
        "26": 0.0,
        "31": 0.0,
        "34": -0.001299331344992967,
        "35": 0.0,
        "43": 0.0
      },
      {
        "18": 2.0,
        "26": 2.0,
        "36": 2.0,
        "37": 2.0,
        "47": 2.0
      },
      {
        "10": 2.0,
        "13": 2.0,
        "40": 2.0,
        "45": 2.0
      },
      {
        "1": 2.0,
        "6": 2.0,
        "11": 2.0,
        "29": 2.0,
        "43": 2.0
      },
      {
        "12": 2.0,
        "13": 2.0,
        "25": 2.0,
        "46": 2.0
      },
      {
        "5": 0.0,
        "6": -0.025065043515307684,
        "12": -0.0005576528475711821,
        "13": 0.0,
        "26": -0.054192147554429415
      },
      {
        "14": 2.0,
        "20": 2.0,
        "40": 2.0,
        "44": 2.0
      },
      {
        "5": 2.0,
        "6": 2.0
      },
      {
        "1": 2.0,
        "10": 2.0,
        "25": 2.0,
        "29": 2.0,
        "30": 2.0,
        "45": 2.0
      },
      {
        "25": 2.0,
        "30": 2.0,
        "42": 2.0,
        "45": 2.0
      },
      {
        "7": -0.025645611877516964,
        "14": 0.0,
        "17": 0.0,
        "24": -0.00312341689259449,
        "33": -0.0017736982969671026,
        "36": -0.006840710805041666
      },
      {
        "3": 2.0,
        "26": 2.0,
        "28": 2.0,
        "35": 2.0
      },
      {
        "7": 2.0,
        "23": 2.0,
        "35": 2.0
      },
      {
        "7": 2.0,
        "17": 2.0,
        "18": 2.0,
        "19": 2.0,
        "43": 2.0
      },
      {
        "1": 2.0,
        "7": 2.0,
        "9": 2.0,
        "15": 2.0,
        "16": 2.0,
        "20": 2.0,
        "36": 2.0
      },
      {
        "0": 0.0,
        "5": -0.0033768078196201004,
        "30": -0.01789012984494695,
        "32": -0.02583959302841481,
        "33": -0.00492787300735061,
        "42": -0.002535822177089076
      },
      {
        "0": 2.0,
        "1": 2.0,
        "9": 2.0,
        "15": 2.0,
        "17": 2.0,
        "19": 2.0,
        "26": 2.0,
        "44": 2.0
      },
      {
        "1": 1.990654390603143,
        "13": 1.9822185532590026,
        "18": 1.9936533830815304,
        "24": 1.9940149667517568,
        "38": 2.0,
        "44": 2.0
      },
      {
        "13": 2.0,
        "15": 2.0,
        "31": 2.0,
        "36": 2.0,
        "37": 2.0
      },
      {
        "1": 2.0,
        "9": 2.0,
        "13": 2.0,
        "14": 2.0,
        "16": 2.0,
        "20": 2.0,
        "23": 2.0,
        "27": 2.0,
        "37": 2.0,
        "38": 2.0,
        "45": 2.0,
        "47": 2.0
      },
      {
        "43": -0.013896171848967154
      },
      {
        "16": 2.0,
        "23": 2.0,
        "30": 2.0,
        "44": 2.0,
        "45": 2.0
      },
      {
        "4": 2.0,
        "10": 2.0,
        "17": 2.0,
        "36": 2.0,
        "39": 2.0,
        "41": 2.0
      },
      {
        "25": 1.9796954282578108,
        "32": 2.0,
        "33": 2.0
      },
      {
        "2": 2.0,
        "13": 2.0,
        "18": 2.0,
        "21": 2.0,
        "22": 2.0,
        "30": 2.0,
        "32": 2.0,
        "40": 2.0,
        "43": 2.0,
        "47": 2.0
      },
      {
        "4": 0.0,
        "9": -0.005399659446208778,
        "25": -0.012623849744231783,
        "34": 0.0,
        "36": 0.0,
        "37": -0.012404782281545061,
        "46": 0.0
      },
      {
        "2": 2.0,
        "33": 2.0,
        "45": 2.0
      },
      {
        "4": 2.0,
        "7": 2.0,
        "8": 2.0,
        "11": 2.0,
        "26": 2.0,
        "27": 2.0
      }
    ],
    "is_inhibitory": [
      true,
      false,
      false,
      false,
      false,
      true,
      false,
      false,
      false,
      false,
      true,
      false,
      false,
      false,
      false,
      true,
      false,
      false,
      false,
      false,
      true,
      false,
      false,
      false,
      false,
      true,
      false,
      false,
      false,
      false,
      true,
      false,
      false,
      false,
      false,
      true,
      false,
      false,
      false,
      false,
      true,
      false,
      false,
      false,
      false,
      true,
      false,
      false
    ]
  },
  "force_readout": {
    "weights": [
      [
        0.0002855381974131413,
        -0.0005000397019667393,
        0.0041107660015205945,
        -0.003412509250497465,
        0.00022154133793798268,
        -0.00010725075226782777,
        0.00032836892703783885,
        -0.0005750456572733435,
        0.0047273809017485315,
        -0.003924385638071771,
        0.0002547725386292447,
        -0.00012333836511478624,
        0.00037119965664883926,
        -0.0006500516125632321,
        0.005343995801978718,
        -0.0044362620256467354,
        0.0002880037393286725,
        -0.00013942597795350373,
        0.00041403038626870085,
        -0.0007250575678626187,
        0.005960610702205822,
        -0.004948138413220731,
        0.00032123494001570004,
        -0.00015551359079761873,
        0.0004568611158859129,
        -0.0008000635231533026,
        0.006577225602432221,
        -0.005460014800794763,
        0.00035446614070469383,
        -0.00017160120362867258,
        0.0004996918454872457,
        -0.0008750694784526855,
        0.007193840502661878,
        -0.005971891188371282,
        0.00038769734139482273,
        -0.000187688816481694,
        0.0005425225751061574,
        -0.0009500754337471189,
        0.007810455402889689,
        -0.006483767575944991,
        0.00042092854208346963,
        -0.00020377642933473724,
        0.0005853533047066391,
        -0.0010250813890372724,
        0.00842707030312015,
        -0.006995643963519514,
        0.00045415974276724375,
        -0.00021986404215636857,
        -0.009798029352323984,
        0.007068822205905575,
        -0.004715896324242002,
        -0.0097263184909214,
        0.0020379424126759946,
        0.005008583986147522,
        -0.0017295691935701424,
        0.0040239519707091585,
        -0.005270774855129993,
        0.0,
        0.000982170092814583,
        -0.008229039475726114,
        -0.0006005338488860586,
        0.007178362056268053,
        -0.022455537644674423,
        0.0,
        -0.0006205579235314784,
        -0.003457241612427057,
        -0.0031767333531356875,
        0.004321711134863938,
        -0.002263738473296143,
        0.0,
        0.0007937099381917868,
        -0.005632497693842752,
        -0.004178739589954056,
        -0.0003734030040764891,
        0.003674539920397547,
        0.0,
        0.0014445199700842829,
        0.003352914986286815,
        -0.012254524105793084,
        0.0032241325808639834,
        -0.0033279233261158782,
        0.0,
        -0.004823326968334345,
        -0.002837788383905757,
        0.000288020010141218,
        0.005081464328240631,
        -0.003968457618913268,
        -0.009910098205522458,
        0.003066753665938215,
        0.0012968125966925253,
        0.004701974656486212,
        0.007204459662094185,
        -0.000757120595756899,
        -0.0014741666170961986,
        -0.0017859332513098841,
        -3.4826934131507886e-05
      ]
    ],
    "bias": [
      0.0057448229966976854
    ],
    "inverse_correlation": [
      [
        1.2282235947690014,
        0.010943081829787647,
        -1.3807727550718199e-05,
        -1.283380894031942e-05,
        -1.4584542114635698e-05,
        -0.021867587178369858,
        -0.06287999461450633,
        0.012584544104255824,
        -1.5878886683327835e-05,
        -1.4758880281368305e-05,
        -1.6772223431878872e-05,
        -0.02514772525512523,
        -0.0710817330424855,
        0.014226006378723994,
        -1.795004581594351e-05,
        -1.6683951622392113e-05,
        -1.8959904749111092e-05,
        -0.02842786333188081,
        -0.07928347147046452,
        0.015867468653192184,
        -2.0021204948530884e-05,
        -1.860902296344787e-05,
        -2.1147586066293134e-05,
        -0.031708001408636124,
        -0.08748520989844369,
        0.01750893092766007,
        -2.2092364081124835e-05,
        -2.053409430448929e-05,
        -2.333526738346633e-05,
        -0.03498813948539173,
        -0.09568694832642279,
        0.019150393202128184,
        -2.416352321375474e-05,
        -2.2459165645560836e-05,
        -2.552294870072171e-05,
        -0.03826827756214714,
        -0.10388868675440176,
        0.020791855476596458,
        -2.6234682346349352e-05,
        -2.4384236986582446e-05,
        -2.7710630017980376e-05,
        -0.04154841563890281,
        -0.11209042518238074,
        0.022433317751064524,
        -2.83058414789878e-05,
        -2.6309308327605985e-05,
        -2.989831133521111e-05,
        -0.04482855371565819,
        0.00012525611216488512,
        -2.825052254250194e-05,
        -0.00018393925447314247,
        6.321028820557111e-06,
        5.540437216882307e-05,
        0.00014718515586367858,
        -5.7944922805773344e-05,
        -0.0001403309512160169,
        -0.00017999015611374911,
        0.0,
        6.276078613126984e-05,
        0.00015443465314877083,
        -2.4853863165889124e-05,
        -0.00014731540328104514,
        0.0005691597678143118,
        0.0,
        0.000268408403640765,
        0.00011239631028282987,
        8.53401481755376e-05,
        0.0001463414673348206,
        8.905608680483227e-05,
        0.0,
        0.0001559021431094392,
        -7.428950158330132e-05,
        -4.239101025770604e-05,
        0.00012897070459344206,
        -0.0002106354161676834,
        0.0,
        0.0002638008910966345,
        -6.796354312595243e-05,
        -3.4334439748087133e-05,
        0.00010105777549415634,
        -8.680862517887495e-05,
        0.0,
        -0.00038473632182767545,
        0.0003763835033003542,
        -0.00011845441836508753,
        -7.067151267320955e-05,
        0.0001158847839332542,
        0.00040189871739573844,
        1.8977304832171086e-05,
        5.2701802456561326e-05,
        -0.0002063427643090615,
        -0.0001549069759626961,
        -0.00013780455811028983,
        -0.00020278746807534173,
        0.00012098493071029291,
        0.00010251846100213127
      ],
      [
        0.010943081829787659,
        1.2282238757502637,
        -1.3911362294844533e-05,
        -1.291907120022481e-05,
        -1.5010412109661863e-05,
        -0.021867446687737966,
        0.012584544104255775,
        -0.06287967148605277,
        -1.59980666390689e-05,
        -1.4856931880260103e-05,
        -1.7261973926120327e-05,
        -0.025147563690898468,
        0.014226006378723961,
        -0.07108136776684239,
        -1.8084770983302054e-05,
        -1.6794792560270223e-05,
        -1.951353574265867e-05,
        -0.028427680694059227,
        0.015867468653192114,
        -0.07928306404763179,
        -2.0171475327509948e-05,
        -1.8732653240311235e-05,
        -2.176509755903464e-05,
        -0.031707797697219924,
        0.01750893092766029,
        -0.08748476032842188,
        -2.2258179671729923e-05,
        -2.0670513920344544e-05,
        -2.4016659375458333e-05,
        -0.03498791470038063,
        0.01915039320212832,
        -0.09568645660921123,
        -2.434488401596379e-05,
        -2.2608374600394924e-05,
        -2.626822119195376e-05,
        -0.03826803170354139,
        0.020791855476596458,
        -0.10388815289000071,
        -2.6431588360188672e-05,
        -2.454623528040077e-05,
        -2.8519783008505977e-05,
        -0.0415481487067022,
        0.02243331775106468,
        -0.11208984917079023,
        -2.851829270443568e-05,
        -2.6484095960420544e-05,
        -3.077134482496092e-05,
        -0.04482826570986275,
        0.00024420088183515814,
        -0.00011222095785728233,
        -0.00016578821426261616,
        2.9850656590356795e-05,
        0.00014913346228990161,
        0.0001760167273954669,
        -9.55219832521222e-05,
        -0.00019376496574715848,
        -0.0001496598011238865,
        0.0,
        4.3005118182607004e-05,
        0.00022934712302674236,
        5.8104190616570825e-05,
        -0.0001672796641670166,
        0.000565119558144266,
        0.0,
        0.0002856444821219964,
        0.00022608741195859027,
        0.0001447233751854494,
        0.00012003966415038576,
        1.5626495098933187e-05,
        0.0,
        0.000126750967943724,
        -0.00018398886094221701,
        -6.244149696755108e-06,
        4.282088436243233e-05,
        -0.0002505878552350204,
        0.0,
        0.00022691865682106281,
        -0.0001521130495015061,
        4.070421923536186e-05,
        9.68181101952099e-05,
        -0.00020753852539728346,
        0.0,
        -0.00019440771270903544,
        0.0004217257790421271,
        -4.600327989023765e-05,
        -0.00011662892870118878,
        0.00010531003645759316,
        0.0004047795414593282,
        -8.963787316029766e-06,
        3.9679571493994656e-05,
        -0.00012974278046523632,
        -0.00022245943160758113,
        -0.00016082527768152544,
        -0.0001613711321576629,
        0.0001253446794366957,
        6.005683527717627e-05
      ],
      [
        -1.3807727550805072e-05,
        -1.3911362294881186e-05,
        1.217313373420015,
        2.9376320163006222e-05,
        3.1353465010532314e-05,
        -1.3859544922768417e-05,
        -1.5878886683497976e-05,
        -1.5998066639320176e-05,
        -0.07542674916583826,
        3.3782768187457414e-05,
        3.605648476216455e-05,
        -1.5938476661529894e-05,
        -1.79500458161374e-05,
        -1.8084770983495865e-05,
        -0.085265020796165,
        3.8189216211858106e-05,
        4.075950451394241e-05,
        -1.8017408399695403e-05,
        -2.002120494885398e-05,
        -2.0171475327889344e-05,
        -0.09510329242649165,
        4.259566423632705e-05,
        4.546252426535765e-05,
        -2.0096340138387124e-05,
        -2.209236408145065e-05,
        -2.2258179671565335e-05,
        -0.10494156405681858,
        4.70021122607623e-05,
        5.01655440169263e-05,
        -2.2175271876454445e-05,
        -2.4163523213986214e-05,
        -2.4344884015707278e-05,
        -0.11477983568714512,
        5.140856028526627e-05,
        5.486856376866151e-05,
        -2.4254203614943982e-05,
        -2.6234682346456674e-05,
        -2.6431588360128482e-05,
        -0.12461810731747171,
        5.581500830965855e-05,
        5.957158352037578e-05,
        -2.633313535330516e-05,
        -2.830584147936248e-05,
        -2.8518292704243785e-05,
        -0.13445637894779858,
        6.022145633406017e-05,
        6.427460327202668e-05,
        -2.841206709188328e-05,
        -0.00025611510927780556,
        0.0001314098487680638,
        0.0003126417008530089,
        -0.00013386504289306417,
        -8.663935113716173e-05,
        -0.00016135742895928044,
        0.00011922431411904894,
        0.00037236302827495883,
        0.00026713004288838135,
        0.0,
        -1.5106492688060885e-05,
        -0.0003144138240994453,
        8.279732553549561e-05,
        0.00039039579307705285,
        -0.001390419103145904,
        0.0,
        -0.00045202154698326634,
        -0.0002647319219846323,
        -0.000217867453949356,
        -0.00019787179795542522,
        -0.00014052278394895582,
        0.0,
        -0.0002814045003224529,
        9.821731380771529e-05,
        -9.82821177217013e-06,
        -0.00023253123971618675,
        0.00048539823833536756,
        0.0,
        -0.00044599091592028125,
        0.0001440350657634308,
        -2.920938731280199e-05,
        -0.00012768969871505516,
        0.00010844573378742013,
        0.0,
        0.000757909286205417,
        -0.0006401990278139723,
        0.00013846891879283876,
        0.00018409644823913745,
        -0.0002455538660181049,
        -0.0009680233681070534,
        3.687291761397782e-05,
        -0.00017819317287124986,
        0.000390036185731455,
        0.0003600232868853216,
        0.0002599257842356433,
        0.00034246608389436366,
        -0.00023187968032503298,
        -0.00019770615840760758
      ],
      [
        -1.283380894034431e-05,
        -1.291907120024036e-05,
        2.93763201629611e-05,
        1.2173114670791865,
        2.905155720389321e-05,
        -1.2876440070344476e-05,
        -1.4758880281804291e-05,
        -1.4856931880475399e-05,
        3.378276818740423e-05,
        -0.07542894145779278,
        3.3409290784543395e-05,
        -1.4807906081276981e-05,
        -1.668395162273005e-05,
        -1.6794792560413968e-05,
        3.818921621186342e-05,
        -0.08526749903924397,
        3.7767024365211826e-05,
        -1.673937209165341e-05,
        -1.8609022964337904e-05,
        -1.8732653240610492e-05,
        4.2595664236269626e-05,
        -0.09510605662069532,
        4.212475794566419e-05,
        -1.8670838102435216e-05,
        -2.053409430550267e-05,
        -2.067051392005464e-05,
        4.700211226069905e-05,
        -0.10494461420214662,
        4.648249152627713e-05,
        -2.0602304112962237e-05,
        -2.2459165646358405e-05,
        -2.260837459994192e-05,
        5.140856028516795e-05,
        -0.1147831717835977,
        5.0840225107049145e-05,
        -2.2533770123165345e-05,
        -2.4384236986985082e-05,
        -2.4546235280359928e-05,
        5.58150083096111e-05,
        -0.12462172936504903,
        5.519795868779487e-05,
        -2.446523613344319e-05,
        -2.630930832845864e-05,
        -2.648409596025418e-05,
        6.0221456334097705e-05,
        -0.13446028694650014,
        5.955569226843283e-05,
        -2.6396702144482875e-05,
        -0.00035873569797912664,
        -6.73606051650625e-05,
        0.00027820981371999,
        -5.903360556308203e-05,
        -0.00014926201839797642,
        -0.00015811765984772463,
        0.00017598440118609358,
        0.00028592748562520195,
        0.0002644720210740042,
        0.0,
        9.83013000915538e-05,
        -0.00035610740839667643,
        4.81949206579125e-06,
        0.00020300991998457285,
        -0.0011452579369400917,
        0.0,
        -0.0005060321051809501,
        -0.00019636573352533078,
        -0.00010592738340641875,
        -0.00029713716172639595,
        -2.523442707370638e-05,
        0.0,
        -0.00021972299617834906,
        0.000309629101010704,
        0.00012237617915999448,
        -0.00017689006152177606,
        0.0006681153128000824,
        0.0,
        -0.0004469918748139862,
        0.00032279895057804386,
        -3.931602896981423e-05,
        -0.00026505252354540527,
        0.0001998591104616793,
        0.0,
        0.00032690650378695103,
        -0.0006859323610676585,
        -7.921107008221581e-05,
        0.00012097975415113609,
        -0.00023720522009256049,
        -0.0012868817219413773,
        3.047203907828497e-06,
        -7.705942975664502e-06,
        0.0005244971622452134,
        0.00032944961179298324,
        0.00030307816511350954,
        0.00025625639682386403,
        -0.00015549314185589523,
        -1.2151237699503732e-05
      ],
      [
        -1.4584542114732087e-05,
        -1.5010412109702983e-05,
        3.135346501055185e-05,
        2.90515572039672e-05,
        1.217315833120468,
        -1.4797477112064326e-05,
        -1.6772223431943274e-05,
        -1.726197392622786e-05,
        3.605648476214667e-05,
        3.340929078456496e-05,
        -0.07542392051031857,
        -1.7017098679208756e-05,
        -1.8959904749174755e-05,
        -1.9513535742700346e-05,
        4.0759504513744964e-05,
        3.776702436509777e-05,
        -0.08526182318557718,
        -1.923672024584964e-05,
        -2.1147586066417587e-05,
        -2.1765097559319234e-05,
        4.5462524265285935e-05,
        4.212475794571167e-05,
        -0.0950997258608363,
        -2.145634181276894e-05,
        -2.3335267383711254e-05,
        -2.401665937505674e-05,
        5.016554401685303e-05,
        4.648249152630061e-05,
        -0.10493762853609544,
        -2.3675963379521105e-05,
        -2.5522948700784927e-05,
        -2.626822119142697e-05,
        5.4868563768461816e-05,
        5.0840225106941965e-05,
        -0.11477553121135423,
        -2.589558494621084e-05,
        -2.771063001787245e-05,
        -2.8519783008141448e-05,
        5.957158352003224e-05,
        5.519795868747012e-05,
        -0.12461343388661299,
        -2.811520651281551e-05,
        -2.9898311335190546e-05,
        -3.077134482454041e-05,
        6.427460327167543e-05,
        5.955569226801507e-05,
        -0.13445133656187197,
        -3.0334828079958548e-05,
        -0.0005133462702024269,
        0.00017665872130961002,
        0.00047109271771778244,
        -1.3403198513039013e-05,
        -0.0002816775657167851,
        -0.0005447933054391869,
        0.00022523776101128864,
        0.0003221801832686031,
        0.00047560901962704456,
        0.0,
        -0.00021251920824749975,
        -0.000564163985695699,
        -0.00014976143325678892,
        0.00032584193965934605,
        -0.0012983377334649653,
        0.0,
        -0.0008034735116073382,
        -0.000374795919132312,
        -0.00029330679904441393,
        -0.000388815184743153,
        -6.144297280277436e-05,
        0.0,
        -0.0002902487987006273,
        0.0003169565102545545,
        2.6342098756163647e-05,
        -0.0002418639976915627,
        0.0005345998025078666,
        0.0,
        -0.0005841109388933151,
        0.00027567302008087906,
        -5.477457849621916e-05,
        -0.0002700695761914334,
        0.00045769173774803045,
        0.0,
        0.0006335367591058262,
        -0.001080580032694523,
        0.00020625502176515757,
        0.0002009834505633155,
        -0.00027072130940816437,
        -0.0008659012442488853,
        -9.570150628553537e-05,
        -5.956796735463591e-05,
        0.00031354444553626025,
        0.00045185746602387775,
        0.000371238914727415,
        0.0005372734142586618,
        -0.00035245504736642545,
        -0.0002668809441051181
      ],
      [
        -0.021867587178369813,
        -0.021867446687737883,
        -1.385954492279602e-05,
        -1.2876440070431778e-05,
        -1.4797477112120082e-05,
        1.2610343340224701,
        -0.02514772525512524,
        -0.025147563690898583,
        -1.5938476661214848e-05,
        -1.4807906080998094e-05,
        -1.7017098678965525e-05,
        -0.025147644473011824,
        -0.028427863331880777,
        -0.02842768069405924,
        -1.801740839964012e-05,
        -1.6739372091538987e-05,
        -1.923672024584533e-05,
        -0.028427772012969966,
        -0.03170800140863612,
        -0.03170779769721988,
        -2.0096340138040115e-05,
        -1.8670838102111013e-05,
        -2.1456341812620006e-05,
        -0.031707899552928,
        -0.0349881394853916,
        -0.03498791470038082,
        -2.2175271876448438e-05,
        -2.0602304112672538e-05,
        -2.3675963379416256e-05,
        -0.03498802709288619,
        -0.038268277562147096,
        -0.03826803170354155,
        -2.4254203614884368e-05,
        -2.2533770123257543e-05,
        -2.589558494628416e-05,
        -0.038268154632844366,
        -0.04154841563890267,
        -0.0415481487067022,
        -2.6333135353295595e-05,
        -2.446523613379554e-05,
        -2.811520651318618e-05,
        -0.0415482821728025,
        -0.04482855371565812,
        -0.04482826570986291,
        -2.8412067091742513e-05,
        -2.6396702144341075e-05,
        -3.0334828080022085e-05,
        -0.04482840971276043,
        0.00018472849699688893,
        -7.023574018732065e-05,
        -0.00017486373434318973,
        1.8085842708606026e-05,
        0.00010226891725250823,
        0.00016160094164827183,
        -7.673345302227274e-05,
        -0.00016704795848365537,
        -0.00016482497861071955,
        0.0,
        5.288295218906873e-05,
        0.0001918908880558642,
        1.6625163720861718e-05,
        -0.00015729753369780384,
        0.0005671396629555327,
        0.0,
        0.0002770264428886147,
        0.00016924186111776397,
        0.00011503176166809118,
        0.0001331905657286766,
        5.234129094644392e-05,
        0.0,
        0.0001413265555200287,
        -0.0001291391812913894,
        -2.4317579988009423e-05,
        8.5895794479859e-05,
        -0.0002306116357050177,
        0.0,
        0.0002453597739603856,
        -0.00011003829630280349,
        3.1848897575251416e-06,
        9.893794285030242e-05,
        -0.00014717357529284565,
        0.0,
        -0.00028957201726473184,
        0.00039905464117427424,
        -8.222884909110613e-05,
        -9.3650220678654e-05,
        0.00011059741019641412,
        0.00040333912944710425,
        5.00675875394002e-06,
        4.6190686989519515e-05,
        -0.0001680427724089647,
        -0.00018868320378905883,
        -0.00014931491789634585,
        -0.00018207930010105122,
        0.0001231648050705995,
        8.128764812706979e-05
      ],
      [
        -0.06287999461450623,
        0.012584544104255807,
        -1.587888668346711e-05,
        -1.4758880281783635e-05,
        -1.6772223431904476e-05,
        -0.025147725255125295,
        1.2105898571488432,
        0.01447222571989419,
        -1.826071968598913e-05,
        -1.6972712324052566e-05,
        -1.9288056946749388e-05,
        -0.028919884043393934,
        -0.08174399299885814,
        0.016359907335532605,
        -2.0642552688521817e-05,
        -1.918654436629219e-05,
        -2.1803890461572335e-05,
        -0.03269204283166281,
        -0.09117599219103407,
        0.018247588951171005,
        -2.302438569102651e-05,
        -2.1400376408568717e-05,
        -2.4319723976343162e-05,
        -0.03646420161993152,
        -0.10060799138321003,
        0.020135270566809128,
        -2.5406218693528768e-05,
        -2.3614208450828967e-05,
        -2.6835557491112817e-05,
        -0.04023636040820043,
        -0.11003999057538594,
        0.02202295218244743,
        -2.778805169605735e-05,
        -2.5828040493124157e-05,
        -2.9351391005962496e-05,
        -0.044008519196469253,
        -0.11947198976756203,
        0.02391063379808592,
        -3.0169884698570674e-05,
        -2.8041872535361445e-05,
        -3.186722452081941e-05,
        -0.04778067798473801,
        -0.12890398895973784,
        0.02579831541372426,
        -3.255171770112968e-05,
        -3.0255704577600894e-05,
        -3.4383058035641945e-05,
        -0.05155283677300685,
        0.00014404452898211947,
        -3.248810091527915e-05,
        -0.00021153014263619534,
        7.269183157759544e-06,
        6.371502798786444e-05,
        0.00016926292925925005,
        -6.663666122527194e-05,
        -0.0001613805938898007,
        -0.00020698867953793134,
        0.0,
        7.217490409459412e-05,
        0.00017759985113405602,
        -2.858194264557337e-05,
        -0.00016941271373092782,
        0.0006545337329910113,
        0.0,
        0.00030866966419064917,
        0.00012925575681850036,
        9.81411703839198e-05,
        0.00016829268741482445,
        0.00010241449981476234,
        0.0,
        0.00017928746456338627,
        -8.543292683292877e-05,
        -4.87496617987514e-05,
        0.00014831631026035846,
        -0.0002422307286072509,
        0.0,
        0.00030337102475620846,
        -7.815807459749943e-05,
        -3.9484605690134376e-05,
        0.00011621644184065888,
        -9.982991897204531e-05,
        0.0,
        -0.00044244677007235987,
        0.0004328410288085591,
        -0.00013622258106663908,
        -8.127223957476709e-05,
        0.00013326750151985777,
        0.00046218352503988946,
        2.182390055409189e-05,
        6.060707282489235e-05,
        -0.0002372941789825108,
        -0.0001781430223670169,
        -0.0001584752418437078,
        -0.00023320558826375263,
        0.00013913267031994415,
        0.00011789623014572771
      ],
      [
        0.012584544104255838,
        -0.06287967148605282,
        -1.5998066639280172e-05,
        -1.4856931880456603e-05,
        -1.726197392617175e-05,
        -0.025147563690898645,
        0.014472225719894182,
        1.2105902287465635,
        -1.8397776635169248e-05,
        -1.708547166252704e-05,
        -1.985127001510802e-05,
        -0.028919698244533252,
        0.01635990733553262,
        -0.08174357293186865,
        -2.0797486631068836e-05,
        -1.9314011444568063e-05,
        -2.2440566104136453e-05,
        -0.03269183279816802,
        0.01824758895117097,
        -0.09117552365477662,
        -2.3197196626939314e-05,
        -2.154255122664516e-05,
        -2.5029862192977712e-05,
        -0.0364639673518028,
        0.020135270566809377,
        -0.1006074743776849,
        -2.559690662282343e-05,
        -2.377109100871337e-05,
        -2.7619158281873957e-05,
        -0.04023610190543764,
        0.022022952182447684,
        -0.1100394251005929,
        -2.799661661872396e-05,
        -2.5999630790799947e-05,
        -3.020845437085326e-05,
        -0.04400823645907265,
        0.023910633798085987,
        -0.11947137582350062,
        -3.0396326614613764e-05,
        -2.8228170572837323e-05,
        -3.2797750459897355e-05,
        -0.04778037101270741,
        0.025798315413724498,
        -0.12890332654640846,
        -3.279603661052939e-05,
        -3.045671035488986e-05,
        -3.538704654882932e-05,
        -0.05155250556634203,
        0.0002808310140827372,
        -0.0001290541015129612,
        -0.00019065644636297787,
        3.4328255046047975e-05,
        0.0001715034817183384,
        0.00020241923651351663,
        -0.00010985028073534262,
        -0.00022282971061099785,
        -0.00017210877127137795,
        0.0,
        4.9455885926094394e-05,
        0.0002637491913883893,
        6.681981921160944e-05,
        -0.00019237161379035008,
        0.0006498874918297018,
        0.0,
        0.0003284911544307449,
        0.00026000052379660996,
        0.00016643188145816512,
        0.00013804561376900952,
        1.7970469359354418e-05,
        0.0,
        0.00014576361315500426,
        -0.0002115871901186103,
        -7.180772161628867e-06,
        4.924401705050358e-05,
        -0.00028817603352047645,
        0.0,
        0.0002609564553381605,
        -0.00017493000691496126,
        4.6809852112684035e-05,
        0.00011134082669542775,
        -0.00023866930415975855,
        0.0,
        -0.00022356886964067842,
        0.0004849846459089453,
        -5.29037718765328e-05,
        -0.00013412326799052665,
        0.00012110654191325035,
        0.0004654964726928871,
        -1.0308355401653382e-05,
        4.5631507268688566e-05,
        -0.00014920419752914758,
        -0.00025582834634987434,
        -0.0001849490693159284,
        -0.0001855768019659418,
        0.00014414638134722992,
        6.906536056039438e-05
      ],
      [
        -1.587888668342147e-05,
        -1.5998066639107174e-05,
        -0.07542674916583826,
        3.378276818745154e-05,
        3.605648476211192e-05,
        -1.5938476661179422e-05,
        -1.8260719686024284e-05,
        -1.8397776635211223e-05,
        1.196161089414813,
        3.8850183415569864e-05,
        4.146495747648932e-05,
        -1.832924816075401e-05,
        -2.0642552688565453e-05,
        -2.0797486631012594e-05,
        -0.09805477391558956,
        4.391759864362905e-05,
        4.687343019102742e-05,
        -2.072001965964873e-05,
        -2.302438569118602e-05,
        -2.319719662706417e-05,
        -0.10936878629046552,
        4.8985013871767355e-05,
        5.228190290516097e-05,
        -2.3110791159143357e-05,
        -2.5406218693670426e-05,
        -2.5596906622290392e-05,
        -0.12068279866534137,
        5.405242909986734e-05,
        5.769037561946372e-05,
        -2.5501562657917988e-05,
        -2.7788051696068866e-05,
        -2.799661661805273e-05,
        -0.13199681104021682,
        5.9119844328045415e-05,
        6.309884833396275e-05,
        -2.7892334157172215e-05,
        -3.0169884698418652e-05,
        -3.039632661413604e-05,
        -0.14331082341509258,
        6.418725955609739e-05,
        6.850732104842264e-05,
        -3.0283105656292385e-05,
        -3.2551717701266426e-05,
        -3.2796036609868277e-05,
        -0.15462483578996827,
        6.925467478415748e-05,
        7.391579376281711e-05,
        -3.267387715565516e-05,
        -0.00029453237566826995,
        0.00015112132608200606,
        0.00035953795598871413,
        -0.00015394479932650761,
        -9.963525380882219e-05,
        -0.00018556104330369783,
        0.00013710796123406023,
        0.00042821748251718614,
        0.00030719954931917394,
        0.0,
        -1.7372466593346265e-05,
        -0.0003615758977142351,
        9.521692436593077e-05,
        0.0004489551620385111,
        -0.0015989819686242522,
        0.0,
        -0.0005198247790323987,
        -0.000304441710281445,
        -0.0002505475720409688,
        -0.00022755256764874136,
        -0.0001616012015414823,
        0.0,
        -0.00032361517537084016,
        0.00011294991087989417,
        -1.1302443539207554e-05,
        -0.00026741092567426905,
        0.0005582079740853505,
        0.0,
        -0.0005128895533077465,
        0.00016564032562511188,
        -3.359079540963031e-05,
        -0.00014684315352334477,
        0.00012471259385577895,
        0.0,
        0.0008715956791388362,
        -0.0007362288819845435,
        0.00015923925661204553,
        0.00021171091547487317,
        -0.0002823869459183117,
        -0.0011132268733229024,
        4.240385525315929e-05,
        -0.00020492214880157264,
        0.00044854161358898686,
        0.00041402677991774525,
        0.000298914651871347,
        0.0003938359964778522,
        -0.00026666163237436025,
        -0.0002273620821688757
      ],
      [
        -1.4758880281404747e-05,
        -1.4856931880281684e-05,
        3.3782768187423336e-05,
        -0.07542894145779276,
        3.340929078449305e-05,
        -1.480790608090311e-05,
        -1.6972712324084933e-05,
        -1.7085471662552426e-05,
        3.885018341553585e-05,
        1.1961585682790667,
        3.842068440224269e-05,
        -1.702909199347658e-05,
        -1.9186544366150758e-05,
        -1.9314011444482906e-05,
        4.391759864366625e-05,
        -0.09805762389513056,
        4.34320780200142e-05,
        -1.925027790541056e-05,
        -2.1400376409001402e-05,
        -2.154255122671002e-05,
        4.8985013871736556e-05,
        -0.10937196511379946,
        4.844347163753675e-05,
        -2.1471463817810712e-05,
        -2.3614208451341757e-05,
        -2.377109100807146e-05,
        5.405242909983331e-05,
        -0.12068630633246835,
        5.345486525524344e-05,
        -2.369264972991778e-05,
        -2.582804049332756e-05,
        -2.599963078994264e-05,
        5.9119844327975484e-05,
        -0.13200064755113722,
        5.84662588731347e-05,
        -2.5913835641652104e-05,
        -2.8041872535049656e-05,
        -2.8228170572424388e-05,
        6.418725955608782e-05,
        -0.14331498876980636,
        6.347765249099434e-05,
        -2.813502155347243e-05,
        -3.025570457774479e-05,
        -3.0456710354303246e-05,
        6.925467478425046e-05,
        -0.15462932998847517,
        6.848904610872949e-05,
        -3.0356207466169612e-05,
        -0.0004125460526747203,
        -7.746469594324394e-05,
        0.0003199412857790517,
        -6.788864639616854e-05,
        -0.00017165132115599897,
        -0.00018183530882641367,
        0.0002023820613647506,
        0.000328816608469866,
        0.0003041428242374087,
        0.0,
        0.00011304649510235527,
        -0.0004095235196545926,
        5.542415878195684e-06,
        0.0002334614079806563,
        -0.0013170466274745705,
        0.0,
        -0.0005819369209583898,
        -0.00022582059355644212,
        -0.0001218164909173519,
        -0.00034170773598469936,
        -2.9019591130746377e-05,
        0.0,
        -0.0002526814456058103,
        0.0003560734661637524,
        0.00014073260603578026,
        -0.00020342357075093175,
        0.0007683326097277525,
        0.0,
        -0.0005140406560328722,
        0.0003712187931662745,
        -4.521343331589803e-05,
        -0.0003048104020736727,
        0.00022983797703159226,
        0.0,
        0.00037594247935361647,
        -0.0007888222152266687,
        -9.109273059434616e-05,
        0.0001391267172736974,
        -0.00027278600310272664,
        -0.0014799139802409253,
        3.5042844941006478e-06,
        -8.861834424742757e-06,
        0.0006031717365811307,
        0.0003788670535629526,
        0.0003485398898867991,
        0.0002946948563388165,
        -0.00017881711313644914,
        -1.3973923354966283e-05
      ],
      [
        -1.677222343196744e-05,
        -1.726197392616126e-05,
        3.605648476221461e-05,
        3.340929078458269e-05,
        -0.07542392051031857,
        -1.7017098678891637e-05,
        -1.928805694677402e-05,
        -1.9851270015165226e-05,
        4.1464957476556626e-05,
        3.842068440227255e-05,
        1.1961643423686608,
        -1.9569663481108967e-05,
        -2.1803890461593128e-05,
        -2.2440566104109375e-05,
        4.687343019090677e-05,
        4.343207801988906e-05,
        -0.09805109666341405,
        -2.2122228282749955e-05,
        -2.4319723976424294e-05,
        -2.502986219322128e-05,
        5.2281902905187584e-05,
        4.844347163759825e-05,
        -0.10936468473996204,
        -2.4674793084708804e-05,
        -2.683555749131686e-05,
        -2.7619158281319987e-05,
        5.769037561950291e-05,
        5.3454865255278e-05,
        -0.12067827281650978,
        -2.722735788647716e-05,
        -2.9351391005952504e-05,
        -3.0208454370145945e-05,
        6.309884833386248e-05,
        5.846625887301865e-05,
        -0.13199186089305745,
        -2.9779922688171175e-05,
        -3.186722452060935e-05,
        -3.279775045936855e-05,
        6.850732104818131e-05,
        6.347765249062909e-05,
        -0.14330544896960468,
        -3.233248748976723e-05,
        -3.438305803553078e-05,
        -3.5387046548227145e-05,
        7.391579376257673e-05,
        6.848904610825896e-05,
        -0.15461903704615274,
        -3.4885052291982074e-05,
        -0.000590348210719245,
        0.00020315752951149775,
        0.0005417566254168084,
        -1.5413678312235742e-05,
        -0.00032392920053853997,
        -0.0006265123012677715,
        0.000259023425154074,
        0.000370507210752845,
        0.000546950372583231,
        0.0,
        -0.0002443970894842011,
        -0.0006487885835508565,
        -0.0001722256482485733,
        0.0003747182306339092,
        -0.001493088393511246,
        0.0,
        -0.0009239945383493033,
        -0.0004310153069811701,
        -0.0003373028188813224,
        -0.00044713746246272145,
        -7.065941874080676e-05,
        0.0,
        -0.0003337861185462113,
        0.00036449998680722633,
        3.0293413561853938e-05,
        -0.0002781435973390846,
        0.0006147897728788276,
        0.0,
        -0.0006717275797316301,
        0.00031702397308688434,
        -6.299076526479479e-05,
        -0.00031058001262286773,
        0.000526345498412183,
        0.0,
        0.0007285672729851089,
        -0.0012426670375909846,
        0.00023719327504662354,
        0.00023113096814035588,
        -0.0003113295057857983,
        -0.0009957864308802523,
        -0.00011005673223602307,
        -6.850316245915113e-05,
        0.0003605761123630916,
        0.0005196360859407384,
        0.00042692475195411586,
        0.0006178644264090918,
        -0.0004053233044637267,
        -0.0003069130857317936
      ],
      [
        -0.025147725255125177,
        -0.02514756369089847,
        -1.5938476661523087e-05,
        -1.4807906081267322e-05,
        -1.701709867918853e-05,
        -0.02514764447301187,
        -0.02891988404339391,
        -0.02891969824453325,
        -1.832924816075076e-05,
        -1.7029091993459128e-05,
        -1.9569663481097565e-05,
        1.2539820598115627,
        -0.03269204283166271,
        -0.03269183279816794,
        -2.072001965998864e-05,
        -1.9250277905621764e-05,
        -2.2122228283047474e-05,
        -0.03269193781491539,
        -0.036464201619931386,
        -0.03646396735180266,
        -2.311079115919925e-05,
        -2.147146381782024e-05,
        -2.4674793084874938e-05,
        -0.036464084485867146,
        -0.04023636040820025,
        -0.04023610190543777,
        -2.5501562658415253e-05,
        -2.3692649730006548e-05,
        -2.722735788672964e-05,
        -0.04023623115681896,
        -0.04400851919646906,
        -0.0440082364590727,
        -2.7892334157652398e-05,
        -2.5913835642219772e-05,
        -2.97799226886681e-05,
        -0.04400837782777078,
        -0.047780677984737834,
        -0.04778037101270725,
        -3.0283105656876058e-05,
        -2.8135021554379176e-05,
        -3.2332487490637716e-05,
        -0.0477805244987226,
        -0.05155283677300655,
        -0.051552505566342006,
        -3.267387715613431e-05,
        -3.035620746654715e-05,
        -3.488505229253872e-05,
        -0.051552671169674345,
        0.00021243777153627728,
        -8.077110122241768e-05,
        -0.00020109329452734886,
        2.0798719116853894e-05,
        0.00011760925483403605,
        0.00018584108288248274,
        -8.824347097237476e-05,
        -0.00019210515224875197,
        -0.00018954872541074224,
        0.0,
        6.08153950177065e-05,
        0.00022067452127492892,
        1.91189382790839e-05,
        -0.00018089216375965426,
        0.0006522106124204534,
        0.0,
        0.0003185804093153534,
        0.00019462814029320473,
        0.00013228652591885885,
        0.00015316915058609926,
        6.01924845906237e-05,
        0.0,
        0.00016252553886002952,
        -0.0001485100584678733,
        -2.7965216979015068e-05,
        9.87801636504401e-05,
        -0.00026520338106009807,
        0.0,
        0.0002821637400465879,
        -0.00012654404073837586,
        3.662623214582596e-06,
        0.0001137786342718809,
        -0.00016924961158643723,
        0.0,
        -0.000333007819860342,
        0.0004589128373552552,
        -9.456317647739798e-05,
        -0.0001076977537847387,
        0.0001271870217086355,
        0.0004638399988609086,
        5.757772571790226e-06,
        5.311929003829563e-05,
        -0.00019324918825946386,
        -0.00021698568435676662,
        -0.00017171215558180742,
        -0.00020939119512080066,
        0.00014163952582860594,
        9.348079535143484e-05
      ],
      [
        -0.07108173304248544,
        0.01422600637872395,
        -1.7950045816124094e-05,
        -1.6683951622756754e-05,
        -1.895990474911461e-05,
        -0.02842786333188079,
        -0.08174399299885822,
        0.01635990733553261,
        -2.0642552688545215e-05,
        -1.9186544366171456e-05,
        -2.1803890461543817e-05,
        -0.03269204283166273,
        1.1904955980002956,
        0.018493808292341235,
        -2.3335059560958094e-05,
        -2.168913710955367e-05,
        -2.4647876173956033e-05,
        -0.036956222331444986,
        -0.1030685129116036,
        0.02062770924914986,
        -2.602756643335541e-05,
        -2.4191729852977384e-05,
        -2.749186188630411e-05,
        -0.041220401831226855,
        -0.11373077286797638,
        0.02276161020595814,
        -2.872007330576262e-05,
        -2.6694322596382677e-05,
        -3.0335847598650094e-05,
        -0.04548458133100908,
        -0.12439303282434944,
        0.024895511162766715,
        -3.1412580178193204e-05,
        -2.9196915339827127e-05,
        -3.3179833311090225e-05,
        -0.04974876083079125,
        -0.13505529278072237,
        0.02702941211957543,
        -3.410508705061206e-05,
        -3.169950808320647e-05,
        -3.602381902352935e-05,
        -0.054012940330573474,
        -0.1457175527370951,
        0.029163313076383944,
        -3.679759392306518e-05,
        -3.4202100826588265e-05,
        -3.8867804735943626e-05,
        -0.058277119830355474,
        0.00016283294580379454,
        -3.67256793087592e-05,
        -0.00023912103081407036,
        8.217337478844745e-06,
        7.202568382057016e-05,
        0.00019134070262833,
        -7.532839964182257e-05,
        -0.00018243023657138295,
        -0.0002339872029608834,
        0.0,
        8.158902200358702e-05,
        0.00020076504909288735,
        -3.231002212188277e-05,
        -0.00019151002423095404,
        0.0007399076981652702,
        0.0,
        0.00034893092473324056,
        0.00014611520334909423,
        0.00011094219261067804,
        0.00019024390750975152,
        0.0001157729128480106,
        0.0,
        0.00020267278604010574,
        -9.657635207298175e-05,
        -5.5108313336757956e-05,
        0.00016766191595370673,
        -0.00027382604102720314,
        0.0,
        0.00034294115842099673,
        -8.835260606733427e-05,
        -4.4634771652266255e-05,
        0.00013137510816001622,
        -0.00011285121274329162,
        0.0,
        -0.0005001572183373995,
        0.0004892985542868556,
        -0.00015399074384250954,
        -9.18729664777151e-05,
        0.00015065021910000775,
        0.000522468332643431,
        2.4670496289210363e-05,
        6.851234318923324e-05,
        -0.00026824559362648696,
        -0.00020137906875273903,
        -0.00017914592555696974,
        -0.00026362370847787223,
        0.00015728040991388627,
        0.00013327399930200093
      ],
      [
        0.014226006378724025,
        -0.07108136776684251,
        -1.8084770983449966e-05,
        -1.6794792560405653e-05,
        -1.9513535742667037e-05,
        -0.02842768069405928,
        0.016359907335532626,
        -0.08174357293186865,
        -2.0797486630964306e-05,
        -1.9314011444468608e-05,
        -2.244056610407948e-05,
        -0.032691832798167904,
        0.01849380829234125,
        1.190496072858631,
        -2.3510202278490324e-05,
        -2.183323032849904e-05,
        -2.5367596465595376e-05,
        -0.03695598490227689,
        0.02062770924914984,
        -0.10306798326192151,
        -2.6222917925983498e-05,
        -2.4352449212568744e-05,
        -2.8294626826899916e-05,
        -0.04122013700638583,
        0.02276161020595849,
        -0.11373018842694817,
        -2.8935633573492115e-05,
        -2.6871668096629273e-05,
        -3.122165718826665e-05,
        -0.04548428911049478,
        0.024895511162766993,
        -0.1243923935919745,
        -3.1648349221019445e-05,
        -2.9390886980711218e-05,
        -3.414868754972716e-05,
        -0.0497484412146037,
        0.027029412119575547,
        -0.1350545987570007,
        -3.4361064868534445e-05,
        -3.191010586473687e-05,
        -3.707571791126074e-05,
        -0.054012593318712686,
        0.029163313076384208,
        -0.14571680392202663,
        -3.7073780516078346e-05,
        -3.442932474877979e-05,
        -4.000274827266808e-05,
        -0.058276745422821435,
        0.0003174611463675404,
        -0.00014588724522050553,
        -0.00021552467853563285,
        3.880585355320666e-05,
        0.00019387350094844088,
        0.00022882174564093938,
        -0.00012417857822036115,
        -0.0002518944554594391,
        -0.00019455774146436643,
        0.0,
        5.590665364794938e-05,
        0.0002981512599419566,
        7.553544781417496e-05,
        -0.00021746356341643166,
        0.0007346554255997832,
        0.0,
        0.00037133782678238156,
        0.0002939136355159315,
        0.0001881403877160254,
        0.00015605156339665652,
        2.0314443630720727e-05,
        0.0,
        0.0001647762583480882,
        -0.00023918551926243583,
        -8.11739460318006e-06,
        5.5667149656114806e-05,
        -0.0003257642117879166,
        0.0,
        0.00029499425389942116,
        -0.00019774696431863834,
        5.291548500727913e-05,
        0.00012586354325469802,
        -0.00026980008300332497,
        0.0,
        -0.0002527300265483667,
        0.000548243512771577,
        -5.980426386679067e-05,
        -0.00015161760729820778,
        0.00013690304738558386,
        0.0005262134038996714,
        -1.1652923503525311e-05,
        5.158344294009882e-05,
        -0.0001686656146177281,
        -0.00028919726109379154,
        -0.00020907286096444073,
        -0.0002097824718252864,
        0.00016294808324566714,
        7.807388587807937e-05
      ],
      [
        -1.795004581605563e-05,
        -1.808477098334882e-05,
        -0.08526502079616506,
        3.8189216211924534e-05,
        4.0759504513717404e-05,
        -1.801740839960547e-05,
        -2.064255268855962e-05,
        -2.0797486631120336e-05,
        -0.09805477391558956,
        4.391759864371384e-05,
        4.687343019083708e-05,
        -2.072001965999712e-05,
        -2.333505956097606e-05,
        -2.3510202278549247e-05,
        1.1720573239205125,
        4.964598107543679e-05,
        5.298735586815052e-05,
        -2.3422630919603966e-05,
        -2.6027566433512115e-05,
        -2.6222917926261247e-05,
        -0.12363428015443918,
        5.537436350724902e-05,
        5.910128154499666e-05,
        -2.612524217990746e-05,
        -2.8720073305891616e-05,
        -2.8935633573040023e-05,
        -0.13642403327386382,
        6.110274593901665e-05,
        6.521520722203739e-05,
        -2.8827853439395895e-05,
        -3.141258017818132e-05,
        -3.1648349220425695e-05,
        -0.14921378639328856,
        6.683112837087458e-05,
        7.132913289929673e-05,
        -3.1530464699429244e-05,
        -3.4105087050393654e-05,
        -3.4361064868173474e-05,
        -0.16200353951271346,
        7.255951080258843e-05,
        7.744305857651268e-05,
        -3.423307595930253e-05,
        -3.6797593923186484e-05,
        -3.707378051552424e-05,
        -0.1747932926321381,
        7.828789323431201e-05,
        8.355698425367006e-05,
        -3.693568721945653e-05,
        -0.0003329496420611679,
        0.00017083280339629504,
        0.00040643421110373704,
        -0.00017402455576047467,
        -0.00011263115648135951,
        -0.00020976465764738038,
        0.0001549916083530657,
        0.00048407193675992005,
        0.0003472690557535927,
        0.0,
        -1.9638440494505042e-05,
        -0.00040873797132851935,
        0.00010763652319303195,
        0.000507514530998651,
        -0.0018075448340909128,
        0.0,
        -0.0005876280110792872,
        -0.00034415149857918006,
        -0.0002832276901351292,
        -0.0002572333373426969,
        -0.00018267961913129196,
        0.0,
        -0.00036582585041845323,
        0.00012768250795200525,
        -1.2776675305727783e-05,
        -0.0003022906116329075,
        0.0006310177098334899,
        0.0,
        -0.000579788190694801,
        0.00018724558548922156,
        -3.797220350667055e-05,
        -0.00016599660832959355,
        0.00014097945392251295,
        0.0,
        0.0009852820720667628,
        -0.0008322587361583897,
        0.0001800095944278468,
        0.00023932538271011892,
        -0.0003192200258284524,
        -0.0012584303785396105,
        4.7934792896911206e-05,
        -0.0002316511247365838,
        0.0005070470414478569,
        0.00046803027295014434,
        0.0003379035195059464,
        0.00044520590906247027,
        -0.0003014435844226972,
        -0.00025701800592965854
      ],
      [
        -1.6683951622438615e-05,
        -1.679479256030126e-05,
        3.81892162118306e-05,
        -0.085267499039244,
        3.7767024365030236e-05,
        -1.673937209143767e-05,
        -1.9186544366335055e-05,
        -1.9314011444604662e-05,
        4.3917598643604096e-05,
        -0.09805762389513063,
        4.343207801987047e-05,
        -1.925027790564834e-05,
        -2.1689137109537006e-05,
        -2.183323032852382e-05,
        4.964598107539868e-05,
        1.1720541022045101,
        4.909713167473565e-05,
        -2.1761183719136225e-05,
        -2.4191729853626506e-05,
        -2.435244921277731e-05,
        5.5374363507123906e-05,
        -0.12363787360690388,
        5.476218532931889e-05,
        -2.427208953315121e-05,
        -2.6694322597138532e-05,
        -2.687166809605338e-05,
        6.110274593887868e-05,
        -0.13642799846279055,
        6.042723898410985e-05,
        -2.678299534683464e-05,
        -2.9196915340250156e-05,
        -2.9390886979905205e-05,
        6.683112837068605e-05,
        -0.14921812331867684,
        6.609229263911065e-05,
        -2.9293901160096935e-05,
        -3.1699508083063404e-05,
        -3.191010586444704e-05,
        7.25595108024592e-05,
        -0.16200824817456366,
        7.175734629407496e-05,
        -3.180480697345638e-05,
        -3.420210082697722e-05,
        -3.442932474830696e-05,
        7.828789323428862e-05,
        -0.17479837303045062,
        7.742239994889891e-05,
        -3.4315712787807286e-05,
        -0.00046635640737112914,
        -8.756878671227479e-05,
        0.0003616727578358041,
        -7.674368723196287e-05,
        -0.0001940406239161959,
        -0.00020555295780230745,
        0.0002287797215419042,
        0.00037170573131318216,
        0.00034381362739662304,
        0.0,
        0.00012779169011969274,
        -0.0004629396309146415,
        6.265339685879173e-06,
        0.000263912895980709,
        -0.001488835318021086,
        0.0,
        -0.0006578417367337949,
        -0.00025527545358407775,
        -0.00013770559842596854,
        -0.00038627831024519227,
        -3.2804755194325735e-05,
        0.0,
        -0.0002856398950317554,
        0.00040251783131429206,
        0.00015908903290887436,
        -0.0002299570799794667,
        0.0008685499066397121,
        0.0,
        -0.000581089437256295,
        0.00041963863575330315,
        -5.111083766009388e-05,
        -0.0003445682806126857,
        0.0002598168435994392,
        0.0,
        0.00042497845492376897,
        -0.0008917120693879104,
        -0.00010297439110854459,
        0.00015727368039953593,
        -0.00030836678611975883,
        -0.0016729462385238665,
        3.9613650788427246e-06,
        -1.0017725868759767e-05,
        0.0006818463109195693,
        0.0004282844953327779,
        0.00039400161464730104,
        0.00033313331587076124,
        -0.00020214108441174298,
        -1.579660901116034e-05
      ],
      [
        -1.8959904749180884e-05,
        -1.9513535742662406e-05,
        4.075950451385181e-05,
        3.776702436512519e-05,
        -0.0852618231855774,
        -1.9236720245724522e-05,
        -2.180389046156803e-05,
        -2.2440566104152083e-05,
        4.687343019093937e-05,
        4.343207801989733e-05,
        -0.09805109666341408,
        -2.2122228283020308e-05,
        -2.464787617397161e-05,
        -2.5367596465573482e-05,
        5.298735586803817e-05,
        4.9097131674584994e-05,
        1.1720614808142764,
        -2.5007736319657518e-05,
        -2.7491861886387308e-05,
        -2.8294626827185345e-05,
        5.9101281545064845e-05,
        5.4762185329378324e-05,
        -0.12362964361908722,
        -2.7893244356657056e-05,
        -3.0335847598872508e-05,
        -3.122165718765133e-05,
        6.521520722212594e-05,
        6.042723898413896e-05,
        -0.13641891709692405,
        -3.0778752393441925e-05,
        -3.317983331107379e-05,
        -3.414868754894031e-05,
        7.132913289922627e-05,
        6.60922926389693e-05,
        -0.14920819057476042,
        -3.3664260430145136e-05,
        -3.602381902328269e-05,
        -3.707571791067583e-05,
        7.744305857628466e-05,
        7.175734629365006e-05,
        -0.16199746405259652,
        -3.65497684667332e-05,
        -3.886780473580816e-05,
        -4.000274827200202e-05,
        8.355698425344127e-05,
        7.742239994835433e-05,
        -0.17478673753043364,
        -3.943527650402262e-05,
        -0.0006673501512508188,
        0.00022965633770456544,
        0.0006124205330665236,
        -1.7424158077858733e-05,
        -0.00036618083540313135,
        -0.000708231297060593,
        0.0002928090893090917,
        0.00041883423824567675,
        0.0006182917255337166,
        0.0,
        -0.0002762749707144561,
        -0.0007334131814212707,
        -0.00019468986324689235,
        0.00042359452157332783,
        -0.0016878390535162594,
        0.0,
        -0.001044515565097825,
        -0.000487234694843559,
        -0.00038129883873920707,
        -0.0005054597401659172,
        -7.987586465738399e-05,
        0.0,
        -0.00037732343834408417,
        0.0004120434633383076,
        3.4244728362717896e-05,
        -0.0003144231969814994,
        0.0006949797432402626,
        0.0,
        -0.0007593442205629643,
        0.0003583749260807584,
        -7.120695202942995e-05,
        -0.0003510904490594946,
        0.0005949992590731474,
        0.0,
        0.0008235977868682573,
        -0.001404754042482621,
        0.0002681315283070298,
        0.0002612784857217261,
        -0.00035193770220932696,
        -0.0011256716175214784,
        -0.00012441195819746064,
        -7.743835757058737e-05,
        0.00040760777918504693,
        0.0005874147058496731,
        0.0004826105891682885,
        0.0006984554385477629,
        -0.00045819156156937443,
        -0.00034694522736580466
      ],
      [
        -0.028427863331880722,
        -0.028427680694059227,
        -1.8017408399706926e-05,
        -1.673937209167629e-05,
        -1.9236720245809998e-05,
        -0.028427772012969997,
        -0.032692042831662806,
        -0.03269183279816801,
        -2.0720019659663496e-05,
        -1.9250277905429446e-05,
        -2.212222828272021e-05,
        -0.03269193781491535,
        -0.036956222331444966,
        -0.03695598490227694,
        -2.3422630919620788e-05,
        -2.176118371914995e-05,
        -2.500773631967066e-05,
        1.2459457473386646,
        -0.041220401831226876,
        -0.04122013700638574,
        -2.6125242179555457e-05,
        -2.4272089532911017e-05,
        -2.7893244356487503e-05,
        -0.041220269418806334,
        -0.045484581331009015,
        -0.04548428911049499,
        -2.882785343950152e-05,
        -2.6782995346658175e-05,
        -3.077875239332781e-05,
        -0.04548443522075191,
        -0.049748760830791244,
        -0.04974844121460392,
        -3.1530464699467584e-05,
        -2.929390116043595e-05,
        -3.366426043026524e-05,
        -0.04974860102269752,
        -0.05401294033057342,
        -0.05401259331871257,
        -3.423307595942165e-05,
        -3.1804806974152535e-05,
        -3.654976846724077e-05,
        -0.054012766824643066,
        -0.058277119830355384,
        -0.05827674542282155,
        -3.6935687219410784e-05,
        -3.431571278787888e-05,
        -3.9435276504139725e-05,
        -0.05827693262658848,
        0.00024014704608536563,
        -9.130646226420303e-05,
        -0.0002273228546977346,
        2.3511595513319245e-05,
        0.00013294959237121509,
        0.00021008122413411002,
        -9.975348893680801e-05,
        -0.00021716234600362052,
        -0.0002142724722077212,
        0.0,
        6.874783783881943e-05,
        0.00024945815451628506,
        2.1612712840933907e-05,
        -0.00020448679381390912,
        0.0007372815618664406,
        0.0,
        0.0003601343757495689,
        0.00022001441943321926,
        0.00014954129016403396,
        0.00017314773544696132,
        6.804367823162218e-05,
        0.0,
        0.0001837245221929664,
        -0.0001678809356715142,
        -3.161285397100864e-05,
        0.00011166453280330374,
        -0.0002997951264228723,
        0.0,
        0.00031896770614888554,
        -0.00014304978521026212,
        4.1403566801602025e-06,
        0.00012861932571011367,
        -0.00019132564789392953,
        0.0,
        -0.00037644362243249385,
        0.0005187710335291231,
        -0.00010689750384263583,
        -0.00012174528688782569,
        0.00014377663322838764,
        0.000524340868275194,
        6.5087863911336005e-06,
        6.004789306613177e-05,
        -0.00021845560412717187,
        -0.0002452881649362572,
        -0.00019410939328916185,
        -0.00023670309014411906,
        0.00016011424658882365,
        0.00010567394259340656
      ],
      [
        -0.07928347147046444,
        0.01586746865319214,
        -2.002120494883387e-05,
        -1.8609022964325683e-05,
        -2.114758606640039e-05,
        -0.03170800140863614,
        -0.0911759921910342,
        0.018247588951171,
        -2.3024385691162563e-05,
        -2.1400376408976557e-05,
        -2.4319723976428668e-05,
        -0.036464201619931406,
        -0.1030685129116035,
        0.02062770924914985,
        -2.602756643348587e-05,
        -2.4191729853590314e-05,
        -2.7491861886443795e-05,
        -0.04122040183122687,
        1.1679408173233528,
        0.023007829547128735,
        -2.9030747175776536e-05,
        -2.6983083298250275e-05,
        -3.066399979638668e-05,
        -0.045976602042522255,
        -0.126853554352743,
        0.025387949845107213,
        -3.2033927918099634e-05,
        -2.9774436742890493e-05,
        -3.3836137706315005e-05,
        -0.05073280225381782,
        -0.13874607507331274,
        0.027768070143086,
        -3.5037108660438256e-05,
        -3.256579018757389e-05,
        -3.700827561637036e-05,
        -0.05548900246511336,
        -0.15063859579388234,
        0.030148190441064905,
        -3.804028940276273e-05,
        -3.535714363218452e-05,
        -4.0180413526412384e-05,
        -0.06024520267640884,
        -0.1625311165144516,
        0.032528310739043706,
        -4.10434701451312e-05,
        -3.814849707679814e-05,
        -4.335255143642025e-05,
        -0.06500140288770401,
        0.00018162136265397914,
        -4.0963257666171535e-05,
        -0.00026671191904207675,
        9.165491802877119e-06,
        8.033633963526941e-05,
        0.00021341847603201193,
        -8.402013808235543e-05,
        -0.00020347987923549524,
        -0.00026098572637565443,
        0.0,
        9.100313997564537e-05,
        0.00022393024707292598,
        -3.603810159468481e-05,
        -0.00021360733469805783,
        0.0008252816633417645,
        0.0,
        0.0003891921852787161,
        0.0001629746498832337,
        0.00012374321485163084,
        0.00021219512759625584,
        0.00012913132582305007,
        0.0,
        0.00022605810748960804,
        -0.00010771977732750129,
        -6.146696488997255e-05,
        0.0001870075216293789,
        -0.0003054213534660589,
        0.0,
        0.00038251129208315203,
        -9.854713754873704e-05,
        -4.978493760217943e-05,
        0.00014653377450303868,
        -0.0001258725065436273,
        0.0,
        -0.0005578676665938602,
        0.0005457560797864162,
        -0.00017175890654881368,
        -0.00010247369337227524,
        0.00016803293664887617,
        0.000582753140261152,
        2.7517091991675248e-05,
        7.641761355172425e-05,
        -0.00029919700829357103,
        -0.00022461511515012216,
        -0.00019981660929640823,
        -0.0002940418286817168,
        0.0001754281495312166,
        0.00014865176843914348
      ],
      [
        0.015867468653192204,
        -0.07928306404763184,
        -2.017147532784989e-05,
        -1.8732653240616208e-05,
        -2.176509755929538e-05,
        -0.03170779769721994,
        0.018247588951171005,
        -0.09117552365477656,
        -2.3197196627023774e-05,
        -2.1542551226711308e-05,
        -2.502986219320331e-05,
        -0.036463967351802656,
        0.020627709249149858,
        -0.1030679832619213,
        -2.6222917926210994e-05,
        -2.4352449212769613e-05,
        -2.8294626827226562e-05,
        -0.041220137006385736,
        0.023007829547128718,
        1.167941408086457,
        -2.9248639225360817e-05,
        -2.716234719887228e-05,
        -3.155939146101436e-05,
        -0.04597630666096874,
        0.025387949845107588,
        -0.12685290247621114,
        -3.2274360524528494e-05,
        -2.9972245184964027e-05,
        -3.48241560948715e-05,
        -0.05073247631555169,
        0.02776807014308634,
        -0.13874536208335622,
        -3.530008182371665e-05,
        -3.278214317108013e-05,
        -3.8088920728832795e-05,
        -0.05548864597013478,
        0.03014819044106504,
        -0.1506378216905008,
        -3.832580312289179e-05,
        -3.5592041157133095e-05,
        -4.135368536287664e-05,
        -0.060244815624717896,
        0.032528310739044025,
        -0.1625302812976457,
        -4.1351524422098504e-05,
        -3.840193914320521e-05,
        -4.461844999677877e-05,
        -0.06500098527930069,
        0.0003540912786441982,
        -0.00016272038884978772,
        -0.00024039291063529216,
        4.3283452016052564e-05,
        0.0002162435204667501,
        0.00025522425472775416,
        -0.0001385068757103862,
        -0.00028095920036038497,
        -0.00021700671161356026,
        0.0,
        6.235742140067557e-05,
        0.0003325533282597594,
        8.425107639823379e-05,
        -0.00024255551304555573,
        0.0008194233592560583,
        0.0,
        0.0004141844990513045,
        0.0003278267474352157,
        0.00020984889403024347,
        0.000174057513017467,
        2.2658417886706564e-05,
        0.0,
        0.00018378890350880043,
        -0.00026678384837138354,
        -9.054017085972275e-06,
        6.209028238757724e-05,
        -0.00036335239005603413,
        0.0,
        0.000329032052365354,
        -0.00022056392174142972,
        5.9021117882742104e-05,
        0.00014038625972414838,
        -0.00030093086179853545,
        0.0,
        -0.00028189118345377885,
        0.0006115023796239918,
        -6.670475585081106e-05,
        -0.00016911194660944586,
        0.00015269955285688295,
        0.0005869303351249032,
        -1.2997491600106007e-05,
        5.7535378746652846e-05,
        -0.0001881270316564099,
        -0.00032256617577227205,
        -0.0002331966526169707,
        -0.0002339881416012393,
        0.00018174978517843316,
        8.70824111009913e-05
      ],
      [
        -2.00212049486656e-05,
        -2.0171475327566224e-05,
        -0.09510329242649168,
        4.259566423634934e-05,
        4.546252426525796e-05,
        -2.009634013800579e-05,
        -2.3024385691069064e-05,
        -2.3197196627001344e-05,
        -0.10936878629046555,
        4.89850138718033e-05,
        5.2281902905121624e-05,
        -2.3110791159210055e-05,
        -2.602756643339117e-05,
        -2.6222917926054446e-05,
        -0.1236342801544391,
        5.53743635071825e-05,
        5.910128154518966e-05,
        -2.6125242179545984e-05,
        -2.9030747175825356e-05,
        -2.9248639225422948e-05,
        1.1450020769371128,
        6.17637131426606e-05,
        6.59206601847456e-05,
        -2.9139693200645658e-05,
        -3.203392791809714e-05,
        -3.2274360523751365e-05,
        -0.15216526788238688,
        6.815306277809012e-05,
        7.274003882451978e-05,
        -3.215414422084643e-05,
        -3.50371086602525e-05,
        -3.530008182275621e-05,
        -0.1664307617463606,
        7.454241241361958e-05,
        7.955941746453514e-05,
        -3.516859524164592e-05,
        -3.804028940234656e-05,
        -3.832580312216445e-05,
        -0.18069625561033406,
        8.093176204898739e-05,
        8.637879610450494e-05,
        -3.818304626227605e-05,
        -4.104347014506027e-05,
        -4.135152442113047e-05,
        -0.19496174947430778,
        8.732111168436877e-05,
        9.319817474439759e-05,
        -4.119749728320493e-05,
        -0.0003713669084532226,
        0.00019054428071198776,
        0.00045333046624683205,
        -0.00019410431218920768,
        -0.0001256270591512471,
        -0.00023396827199042062,
        0.00017287525547144528,
        0.000539926391000081,
        0.00038733856218238174,
        0.0,
        -2.190441439845235e-05,
        -0.0004559000449438245,
        0.00012005612202441998,
        0.0005660738999607916,
        -0.002016107699563318,
        0.0,
        -0.0006554312431264195,
        -0.0003838612868762542,
        -0.0003159078082273101,
        -0.00028691410703525277,
        -0.00020375803672401436,
        0.0,
        -0.0004080365254666902,
        0.00014241510502217974,
        -1.42509070702832e-05,
        -0.00033717029759005755,
        0.0007038274455858541,
        0.0,
        -0.0006466868280826873,
        0.00020885084535441118,
        -4.2353611603216476e-05,
        -0.00018515006313713964,
        0.00015724631399210295,
        0.0,
        0.0010989684649977613,
        -0.0009282885903297144,
        0.0002007799322472196,
        0.00026693984994591893,
        -0.00035605310572416976,
        -0.0014036338837554111,
        5.346573054018349e-05,
        -0.00025838010066644784,
        0.0005655524693094811,
        0.0005220337659830048,
        0.0003768923871411266,
        0.0004965758216461219,
        -0.00033622553647135736,
        -0.00028667392969093376
      ],
      [
        -1.8609022963494073e-05,
        -1.8732653240343907e-05,
        4.259566423628614e-05,
        -0.09510605662069536,
        4.2124757945627084e-05,
        -1.8670838101994593e-05,
        -2.1400376408610625e-05,
        -2.1542551226683674e-05,
        4.898501387172817e-05,
        -0.10937196511379946,
        4.844347163756723e-05,
        -2.147146381784589e-05,
        -2.419172985295173e-05,
        -2.4352449212594307e-05,
        5.5374363507192665e-05,
        -0.12363787360690391,
        5.476218532953433e-05,
        -2.4272089532891047e-05,
        -2.6983083298282652e-05,
        -2.7162347198878966e-05,
        6.176371314258081e-05,
        1.144998068855519,
        6.108089902118739e-05,
        -2.7072715248524254e-05,
        -2.9774436742970646e-05,
        -2.997224518407203e-05,
        6.815306277800298e-05,
        -0.15216969059311217,
        6.739961271307315e-05,
        -2.987334096378732e-05,
        -3.256579018721073e-05,
        -3.278214316990801e-05,
        7.454241241348182e-05,
        -0.16643559908621663,
        7.371832640519035e-05,
        -3.2673966678580916e-05,
        -3.535714363111836e-05,
        -3.5592041156513873e-05,
        8.09317620489234e-05,
        -0.18070150757932107,
        8.003704009726891e-05,
        -3.547459239348328e-05,
        -3.814849707625427e-05,
        -3.840193914235907e-05,
        8.732111168442766e-05,
        -0.194967416072425,
        8.635575378918955e-05,
        -3.827521810949054e-05,
        -0.0005201667620688345,
        -9.767287749000923e-05,
        0.0004034042298949388,
        -8.559872806601297e-05,
        -0.00021642992667332905,
        -0.00022927060677884788,
        0.0002551773817203416,
        0.0004145948541551272,
        0.0003834844305600127,
        0.0,
        0.0001425368851316008,
        -0.000516355742175538,
        6.988263496982283e-06,
        0.0002943643839764597,
        -0.0016606240085592177,
        0.0,
        -0.0007337465525109819,
        -0.00028473031361240614,
        -0.000153594705937994,
        -0.00043084888450389364,
        -3.658991925178299e-05,
        0.0,
        -0.00031859834445912785,
        0.0004489621964668411,
        0.00017744545978272747,
        -0.00025649058920534516,
        0.0009687672035661366,
        0.0,
        -0.000648138218477855,
        0.00046805847834061455,
        -5.700824200687182e-05,
        -0.00038432615914253606,
        0.000289795710170199,
        0.0,
        0.00047401443049016563,
        -0.0009946019235481628,
        -0.00011485605162070307,
        0.0001754206435217197,
        -0.00034394756913123914,
        -0.0018659784968187438,
        4.418445665429248e-06,
        -1.1173617313807134e-05,
        0.0007605208852562068,
        0.00047770193710145977,
        0.0004394633394185225,
        0.0003715717753887387,
        -0.0002254650556912543,
        -1.7619294666628393e-05
      ],
      [
        -2.114758606639958e-05,
        -2.176509755908188e-05,
        4.546252426532441e-05,
        4.212475794567124e-05,
        -0.09509972586083643,
        -2.1456341812520924e-05,
        -2.4319723976368827e-05,
        -2.5029862193044906e-05,
        5.2281902905136504e-05,
        4.844347163752518e-05,
        -0.10936468473996204,
        -2.467479308488728e-05,
        -2.749186188635442e-05,
        -2.8294626826932215e-05,
        5.910128154495951e-05,
        5.4762185329286045e-05,
        -0.12362964361908717,
        -2.789324435651797e-05,
        -3.0663999796365144e-05,
        -3.15593914610313e-05,
        6.592066018469171e-05,
        6.108089902116339e-05,
        1.1450072484573128,
        -3.111169562855449e-05,
        -3.383613770645401e-05,
        -3.482415609385266e-05,
        7.274003882446892e-05,
        6.739961271300602e-05,
        -0.1521595613773383,
        -3.433014690035028e-05,
        -3.7008275616216965e-05,
        -3.808892072759121e-05,
        7.95594174643088e-05,
        7.371832640492371e-05,
        -0.16642452025646376,
        -3.7548598172059716e-05,
        -4.0180413525985174e-05,
        -4.135368536182932e-05,
        8.637879610408843e-05,
        8.003704009667649e-05,
        -0.1806894791355881,
        -4.0767049443630645e-05,
        -4.3352551436108243e-05,
        -4.4618449995609594e-05,
        9.31981747439612e-05,
        8.635575378845538e-05,
        -0.1949544380147141,
        -4.398550071598734e-05,
        -0.0007443520917772078,
        0.00025615514591372933,
        0.0006830844407765772,
        -1.9434637872536733e-05,
        -0.00040843247021306957,
        -0.000789950292907227,
        0.0003265947534565346,
        0.000467161265712144,
        0.0006896330784815505,
        0.0,
        -0.00030815285196247546,
        -0.0008180377793100553,
        -0.00021715407822867105,
        0.0004724708125241029,
        -0.0018825897135501873,
        0.0,
        -0.0011650365918374065,
        -0.0005434540827077914,
        -0.00042529485859491543,
        -0.000563782017881177,
        -8.909231057238112e-05,
        0.0,
        -0.00042086075815553727,
        0.00045958693988588033,
        3.8196043180192174e-05,
        -0.0003507027966282554,
        0.0007751697136378792,
        0.0,
        -0.0008469608613981009,
        0.0003997258791195069,
        -7.942313880673432e-05,
        -0.00039160088549734036,
        0.0006636530197347822,
        0.0,
        0.0009186283007274385,
        -0.0015668410473985857,
        0.0002990697815749556,
        0.0002914260033056745,
        -0.00039254589859527973,
        -0.001255556804159685,
        -0.00013876718413093523,
        -8.637355265317463e-05,
        0.00045463944602065537,
        0.0006551933257632248,
        0.0005382964264029013,
        0.0007790464506980136,
        -0.0005110598186888151,
        -0.00038697736897798477
      ],
      [
        -0.031708001408636104,
        -0.03170779769721992,
        -2.0096340138301512e-05,
        -1.8670838102392332e-05,
        -2.145634181267425e-05,
        -0.031707899552928055,
        -0.03646420161993157,
        -0.0364639673518028,
        -2.311079115904775e-05,
        -2.1471463817753503e-05,
        -2.467479308461977e-05,
        -0.036464084485867174,
        -0.04122040183122692,
        -0.041220137006385826,
        -2.6125242179796807e-05,
        -2.4272089533078004e-05,
        -2.7893244356611492e-05,
        -0.04122026941880634,
        -0.04597660204252237,
        -0.04597630666096876,
        -2.9139693200512132e-05,
        -2.7072715248447462e-05,
        -3.111169562844652e-05,
        1.2369253966037792,
        -0.05073280225381776,
        -0.050732476315552125,
        -3.215414422125156e-05,
        -2.9873340963801315e-05,
        -3.433014690031954e-05,
        -0.05073263928468488,
        -0.05548900246511329,
        -0.055488645970135274,
        -3.516859524200806e-05,
        -3.267396667918929e-05,
        -3.754859817229792e-05,
        -0.05548882421762422,
        -0.06024520267640875,
        -0.06024481562471796,
        -3.818304626275233e-05,
        -3.5474592394509355e-05,
        -4.076704944431283e-05,
        -0.06024500915056343,
        -0.06500140288770406,
        -0.0650009852793009,
        -4.119749728353398e-05,
        -3.8275218109840304e-05,
        -4.398550071624135e-05,
        -0.06500119408350241,
        0.0002678563206480869,
        -0.00010184182326618015,
        -0.00025355241483063066,
        2.6224471923176557e-05,
        0.00014828992997587974,
        0.00023432136539114777,
        -0.00011126350688800403,
        -0.00024221953977837573,
        -0.00023899621900858495,
        0.0,
        7.668028068259135e-05,
        0.00027824178771223857,
        2.4106487403700905e-05,
        -0.00022808142386716076,
        0.0008223525113263178,
        0.0,
        0.0004016883421828142,
        0.00024540069860216863,
        0.0001667960544190758,
        0.0001931263203017811,
        7.58948718678041e-05,
        0.0,
        0.00020492350552144535,
        -0.00018725181287289536,
        -3.526049097545808e-05,
        0.00012454890198291998,
        -0.0003343868717599433,
        0.0,
        0.00035577167223413295,
        -0.00015955552963117548,
        4.618090143724159e-06,
        0.00014346001714853914,
        -0.0002134016841769192,
        0.0,
        -0.00041987942504334564,
        0.0005786292297042813,
        -0.0001192318311961867,
        -0.00013579281997875073,
        0.000160366244774789,
        0.0005848417376944007,
        7.259800198565843e-06,
        6.697649611690808e-05,
        -0.0002436620199855364,
        -0.0002735906454956407,
        -0.00021650663097596618,
        -0.0002640149851613473,
        0.0001785889673559724,
        0.0001178670897949342
      ],
      [
        -0.08748520989844362,
        0.01750893092766032,
        -2.209236408142559e-05,
        -2.053409430550753e-05,
        -2.3335267383649262e-05,
        -0.034988139485391624,
        -0.10060799138320994,
        0.020135270566809426,
        -2.540621869365348e-05,
        -2.361420845133557e-05,
        -2.6835557491271947e-05,
        -0.04023636040820022,
        -0.11373077286797642,
        0.022761610205958467,
        -2.872007330587245e-05,
        -2.669432259712265e-05,
        -3.033584759887553e-05,
        -0.045484581331008994,
        -0.12685355435274304,
        0.02538794984510761,
        -3.203392791806171e-05,
        -2.9774436742961488e-05,
        -3.383613770640588e-05,
        -0.05073280225381776,
        1.142925515118015,
        0.02801428948425628,
        -3.534778253026431e-05,
        -3.28545508887772e-05,
        -3.733642781392929e-05,
        -0.055981023176626586,
        -0.15309911732227613,
        0.030640629123405212,
        -3.8661637142499216e-05,
        -3.5934665034641755e-05,
        -4.083671792156372e-05,
        -0.06122924409943535,
        -0.16622189880704286,
        0.03326696876255444,
        -4.197549175470961e-05,
        -3.901477918042592e-05,
        -4.433700802920159e-05,
        -0.06647746502224416,
        -0.17934468029180944,
        0.03589330840170338,
        -4.528934636696226e-05,
        -4.209489332621257e-05,
        -4.783729813680103e-05,
        -0.07172568594505269,
        0.00020040977948953523,
        -4.5200836035938355e-05,
        -0.0002943028071293836,
        1.0113646136483022e-05,
        8.864699545254073e-05,
        0.0002354962494284149,
        -9.271187649575327e-05,
        -0.00022452952192666628,
        -0.00028798424979828376,
        0.0,
        0.00010041725790276789,
        0.0002470954450436956,
        -3.9766181065799397e-05,
        -0.00023570464517799286,
        0.0009106556285068786,
        0.0,
        0.0004294534458221859,
        0.0001798340964264304,
        0.0001365442370676295,
        0.0002341463476942648,
        0.00014248973886035984,
        0.0,
        0.00024944342895104576,
        -0.000118863202561277,
        -6.782561642334827e-05,
        0.00020635312731523913,
        -0.0003370166659042798,
        0.0,
        0.00042208142574152974,
        -0.00010874166901336225,
        -5.493510356121694e-05,
        0.00016169244082734648,
        -0.00013889380032642892,
        0.0,
        -0.0006155781148434319,
        0.0006022136052799183,
        -0.0001895270693110706,
        -0.00011307442027409529,
        0.00018541565430816649,
        0.0006430379478754877,
        3.0363687717824017e-05,
        8.432288392547798e-05,
        -0.0003301484229283636,
        -0.00024785116154093026,
        -0.00022048729302268782,
        -0.0003244599488801998,
        0.00019357588915402222,
        0.00016402953758879702
      ],
      [
        0.017508930927660104,
        -0.0874847603284217,
        -2.225817967149436e-05,
        -2.067051392002076e-05,
        -2.4016659375006288e-05,
        -0.03498791470038087,
        0.020135270566809096,
        -0.10060747437768484,
        -2.5596906622214125e-05,
        -2.3771091008026835e-05,
        -2.7619158281272123e-05,
        -0.040236101905437714,
        0.022761610205958138,
        -0.11373018842694815,
        -2.8935633572948886e-05,
        -2.687166809599213e-05,
        -3.1221657187665735e-05,
        -0.04548428911049496,
        0.02538794984510719,
        -0.12685290247621112,
        -3.227436052364318e-05,
        -2.9972245184006616e-05,
        -3.482415609379945e-05,
        -0.05073247631555209,
        0.028014289484256282,
        1.142926234430052,
        -3.561308747435649e-05,
        -3.307282227200962e-05,
        -3.842665500000925e-05,
        -0.05598066352060924,
        0.030640629123405188,
        -0.15309833057473826,
        -3.89518144250922e-05,
        -3.6173399360038624e-05,
        -4.202915390633402e-05,
        -0.06122885072566647,
        0.033266968762554104,
        -0.16622104462400134,
        -4.229054137581329e-05,
        -3.9273976447998224e-05,
        -4.563165281274973e-05,
        -0.0664770379307238,
        0.03589330840170318,
        -0.17934375867326452,
        -4.562926832656963e-05,
        -4.2374553535978485e-05,
        -4.923415171900926e-05,
        -0.07172522513578064,
        0.0003907214109063139,
        -0.0001795535325850522,
        -0.00026526114280439665,
        4.7761050540875005e-05,
        0.00023861353957084524,
        0.00028162676385546075,
        -0.00015283517319341795,
        -0.0003100239451693957,
        -0.000239455681795559,
        0.0,
        6.880818907080401e-05,
        0.0003669553968836814,
        9.296670500410344e-05,
        -0.0002676474626534187,
        0.0009041912930687409,
        0.0,
        0.0004570311714424133,
        0.0003617398590279684,
        0.00023155740025009944,
        0.0001920634626274294,
        2.500239217953418e-05,
        0.0,
        0.00020280154875803002,
        -0.00029438217756737605,
        -9.990639495079647e-06,
        6.851341494884435e-05,
        -0.00040094056835334184,
        0.0,
        0.0003630698509652587,
        -0.0002433808791745551,
        6.512675076820594e-05,
        0.00015490897636210996,
        -0.0003320616406878536,
        0.0,
        -0.0003110523403683792,
        0.0006747612464850165,
        -7.360524782858648e-05,
        -0.00018660628589746634,
        0.000168496058343096,
        0.0006476472663149328,
        -1.4342059686156416e-05,
        6.348731437485271e-05,
        -0.00020758844876896668,
        -0.0003559350906016937,
        -0.00025732044428068544,
        -0.00025819381150369143,
        0.00020055148705025252,
        9.609093647068482e-05
      ],
      [
        -2.209236408125928e-05,
        -2.2258179671782846e-05,
        -0.10494156405681862,
        4.700211226076729e-05,
        5.016554401680144e-05,
        -2.2175271876402935e-05,
        -2.540621869357801e-05,
        -2.559690662288169e-05,
        -0.12068279866534141,
        5.405242909988337e-05,
        5.769037561940564e-05,
        -2.5501562658420512e-05,
        -2.8720073305796254e-05,
        -2.8935633573559044e-05,
        -0.1364240332738638,
        6.110274593891824e-05,
        6.52152072222401e-05,
        -2.8827853439483004e-05,
        -3.203392791811968e-05,
        -3.2274360524584466e-05,
        -0.15216526788238696,
        6.815306277806149e-05,
        7.274003882450105e-05,
        -3.2154144221376924e-05,
        -3.534778253028059e-05,
        -3.561308747446152e-05,
        1.1149953484646191,
        7.520337961715179e-05,
        8.02648704270058e-05,
        -3.5480435002285155e-05,
        -3.866163714232393e-05,
        -3.8951814425085586e-05,
        -0.18364773709943227,
        8.225369645635141e-05,
        8.778970202977438e-05,
        -3.880672578385767e-05,
        -4.197549175428793e-05,
        -4.229054137615492e-05,
        -0.19938897170795558,
        8.930401329537473e-05,
        9.531453363248814e-05,
        -4.213301656524465e-05,
        -4.5289346366914005e-05,
        -4.562926832673559e-05,
        -0.21513020631647767,
        9.635433013440948e-05,
        0.00010283936523513521,
        -4.545930734695236e-05,
        -0.0004097841748473504,
        0.00021025575802589383,
        0.0005002267213481934,
        -0.00021418406862502498,
        -0.00013862296182552708,
        -0.00025817188633491195,
        0.00019075890258828148,
        0.0005957808452432364,
        0.0004274080686112442,
        0.0,
        -2.417038830117774e-05,
        -0.000503062118559738,
        0.00013247572085422888,
        0.0006246332689208929,
        -0.002224670565040138,
        0.0,
        -0.0007232344751743399,
        -0.00042357107517455915,
        -0.0003485879263185922,
        -0.00031659487672872403,
        -0.00022483645431806265,
        0.0,
        -0.0004502472005132012,
        0.000157147702095276,
        -1.5725138834554255e-05,
        -0.0003720499835488798,
        0.0007766371813324984,
        0.0,
        -0.0007135854654705023,
        0.0002304561052175387,
        -4.67350197016367e-05,
        -0.0002043035179429295,
        0.0001735131740555082,
        0.0,
        0.0012126548579252832,
        -0.0010243184445026842,
        0.00022155027006400663,
        0.00029455431718237036,
        -0.0003928861856360539,
        -0.0015488373889706298,
        5.8996668182641374e-05,
        -0.0002851090765964309,
        0.0006240578971696241,
        0.0005760372590153662,
        0.0004158812547774321,
        0.0005479457342280747,
        -0.0003710074885190472,
        -0.0003163298534498272
      ],
      [
        -2.053409430453888e-05,
        -2.0670513920375745e-05,
        4.700211226071348e-05,
        -0.10494461420214656,
        4.648249152619795e-05,
        -2.060230411254067e-05,
        -2.3614208450873022e-05,
        -2.3771091008750442e-05,
        5.4052429099819096e-05,
        -0.12068630633246845,
        5.3454865255233876e-05,
        -2.369264973003117e-05,
        -2.6694322596352055e-05,
        -2.6871668096651394e-05,
        6.110274593895024e-05,
        -0.13642799846279055,
        6.042723898429896e-05,
        -2.6782995346631683e-05,
        -2.9774436742923517e-05,
        -2.9972245184964532e-05,
        6.815306277799694e-05,
        -0.15216969059311222,
        6.739961271301776e-05,
        -2.9873340963881583e-05,
        -3.285455088878459e-05,
        -3.307282227207341e-05,
        7.520337961708067e-05,
        1.1149904682320904,
        7.4371986441993e-05,
        -3.296368658072254e-05,
        -3.593466503415173e-05,
        -3.617339935989186e-05,
        8.225369645622722e-05,
        -0.18365307485375648,
        8.134436017122536e-05,
        -3.605403219704586e-05,
        -3.9014779179152375e-05,
        -3.927397644855991e-05,
        8.930401329533254e-05,
        -0.1993947669840782,
        8.831673390041331e-05,
        -3.914437781348875e-05,
        -4.2094893325507975e-05,
        -4.2374553536388876e-05,
        9.635433013450752e-05,
        -0.2151364591144008,
        9.528910762942794e-05,
        -4.223472343115108e-05,
        -0.0005739771167651989,
        -0.00010777696825798806,
        0.00044513570195221005,
        -9.445376890188078e-05,
        -0.00023881922943463473,
        -0.00025298825575671555,
        0.0002815750418971845,
        0.0004574839770021892,
        0.00042315523371831357,
        0.0,
        0.0001572820801491758,
        -0.0005697718534371393,
        7.7111873040532e-06,
        0.0003248158719783577,
        -0.0018324126991089474,
        0.0,
        -0.0008096513682914156,
        -0.00031418517363594197,
        -0.00016948381344775683,
        -0.0004754194587623859,
        -4.037508331954584e-05,
        0.0,
        -0.00035155679388716206,
        0.0004954065616189423,
        0.0001958018866547652,
        -0.0002830240984329748,
        0.0010689845004761929,
        0.0,
        -0.0007151869997043251,
        0.000516478320924513,
        -6.290564635070371e-05,
        -0.00042408403768018967,
        0.0003197745767365041,
        0.0,
        0.0005230504060618395,
        -0.0010974917777071605,
        -0.0001267377121325466,
        0.00019356760664591223,
        -0.000379528352149643,
        -0.0020590107550904208,
        4.875526250554596e-06,
        -1.2329508761887875e-05,
        0.0008391954595930461,
        0.0005271193788711644,
        0.00048492506418098,
        0.00041001023492255367,
        -0.00024878902696695115,
        -1.944198032114291e-05
      ],
      [
        -2.333526738356022e-05,
        -2.4016659375502453e-05,
        5.0165544016829135e-05,
        4.648249152625286e-05,
        -0.10493762853609548,
        -2.3675963379288906e-05,
        -2.6835557491112312e-05,
        -2.761915828193869e-05,
        5.769037561936114e-05,
        5.3454865255194825e-05,
        -0.12067827281650977,
        -2.7227357886722172e-05,
        -3.0335847598674807e-05,
        -3.1221657188291706e-05,
        6.521520722190984e-05,
        6.042723898403342e-05,
        -0.13641891709692391,
        -3.077875239334124e-05,
        -3.3836137706264766e-05,
        -3.4824156094877994e-05,
        7.274003882436026e-05,
        6.739961271300195e-05,
        -0.15215956137733833,
        -3.433014690041247e-05,
        -3.73364278139359e-05,
        -3.842665500005511e-05,
        8.026487042686621e-05,
        7.437198644192941e-05,
        1.1150016452977725,
        -3.788154140721452e-05,
        -4.083671792124898e-05,
        -4.2029153906243686e-05,
        8.778970202942997e-05,
        8.134436017094193e-05,
        -0.18364084993816682,
        -4.1432935913917464e-05,
        -4.43370080285811e-05,
        -4.563165281298373e-05,
        9.531453363192943e-05,
        8.831673389977197e-05,
        -0.1993814942185806,
        -4.4984330420477595e-05,
        -4.783729813629374e-05,
        -4.9234151719218606e-05,
        0.00010283936523453644,
        9.528910762863032e-05,
        -0.2151221384989951,
        -4.853572492790181e-05,
        -0.0008213540323152502,
        0.0002826539541076197,
        0.0007537483484065211,
        -2.144511764430956e-05,
        -0.00045068410505319013,
        -0.000871669288715608,
        0.0003603804176087585,
        0.0005154882932007051,
        0.0007609744314259952,
        0.0,
        -0.00034003073319363174,
        -0.0009026623771645079,
        -0.00023961829321595847,
        0.0005213471034805883,
        -0.0020773403735688386,
        0.0,
        -0.0012855576185830447,
        -0.0005996734705644799,
        -0.000469290878452917,
        -0.0006221042955976572,
        -9.830875649734702e-05,
        0.0,
        -0.0004643980779633602,
        0.0005071304164286984,
        4.214735798272849e-05,
        -0.00038698239626933675,
        0.0008553596840057018,
        0.0,
        -0.0009345775022422602,
        0.0004410768321136639,
        -8.763932557278177e-05,
        -0.0004321113219379202,
        0.0007323067804203664,
        0.0,
        0.001013658814591934,
        -0.0017289280523038223,
        0.00033000803483730775,
        0.0003215735209036668,
        -0.0004331540950185755,
        -0.0013854419907980994,
        -0.0001531224100721279,
        -9.530874775071314e-05,
        0.0005016711128560307,
        0.000722971945670055,
        0.0005939822635953952,
        0.0008596374628381169,
        -0.0005639280757794409,
        -0.00042700951058827593
      ],
      [
        -0.03498813948539163,
        -0.03498791470038056,
        -2.2175271876518135e-05,
        -2.0602304113033716e-05,
        -2.367596337954014e-05,
        -0.034988027092886176,
        -0.040236360408200424,
        -0.0402361019054376,
        -2.550156265800047e-05,
        -2.3692649729991207e-05,
        -2.722735788651961e-05,
        -0.04023623115681893,
        -0.04548458133100908,
        -0.0454842891104947,
        -2.8827853439485857e-05,
        -2.6782995346907826e-05,
        -3.077875239354937e-05,
        -0.04548443522075185,
        -0.050732802253817745,
        -0.05073247631555173,
        -3.215414422093326e-05,
        -2.9873340963874973e-05,
        -3.433014690041186e-05,
        -0.05073263928468477,
        -0.055981023176626545,
        -0.05598066352060922,
        -3.548043500240039e-05,
        -3.296368658082462e-05,
        -3.7881541407303706e-05,
        1.2269210076069077,
        -0.061229244099435254,
        -0.061228850725666445,
        -3.880672578389177e-05,
        -3.60540321978116e-05,
        -4.143293591432093e-05,
        -0.061229047412550815,
        -0.06647746502224412,
        -0.06647703793072324,
        -4.213301656536823e-05,
        -3.914437781472391e-05,
        -4.4984330421380817e-05,
        -0.06647725147648383,
        -0.07172568594505291,
        -0.07172522513578056,
        -4.5459307346884135e-05,
        -4.2234723431648105e-05,
        -4.8535724928342875e-05,
        -0.07172545554041658,
        0.0002955655952052228,
        -0.00011237718429303591,
        -0.0002797819749804067,
        2.8937348325923092e-05,
        0.0001636302675585352,
        0.00025856150664614657,
        -0.00012277352485120542,
        -0.0002672767335524005,
        -0.00026371996578764223,
        0.0,
        8.46127235069998e-05,
        0.00030702542092709266,
        2.6600261964467804e-05,
        -0.00025167605392462664,
        0.0009074234607666127,
        0.0,
        0.00044324230861905685,
        0.00027078697776560255,
        0.00018405081867446354,
        0.00021310490517291832,
        8.374606549413894e-05,
        0.0,
        0.00022612248885358127,
        -0.00020662269004983387,
        -3.890812797020721e-05,
        0.00013743327115181846,
        -0.000368978617136584,
        0.0,
        0.0003925756383304425,
        -0.00017606127408966268,
        5.095823609914903e-06,
        0.0001583007085639773,
        -0.00023547772049109755,
        0.0,
        -0.0004633152276101689,
        0.0006384874258823477,
        -0.00013156615856594434,
        -0.00014984035308578014,
        0.0001769558562929507,
        0.0006453426071166079,
        8.01081400761205e-06,
        7.390509916404658e-05,
        -0.00026886843584942655,
        -0.0003018931260527555,
        -0.00023890386864768427,
        -0.00029132688017817693,
        0.00019706368811188478,
        0.0001300602370143329
